svm_type c_svc
kernel_type rbf
gamma 0.01
nr_class 2
total_sv 4836
rho -3.3542459100553086
label 1 -1
nr_sv 2750 2086
SV
380.0 1:0.9345224575193416 2:-0.3870110182345475 3:-0.7112213648072445 6:-0.9397255777753339 7:0.14113080905994765 9:-0.8353835460611545 10:-0.580448402726974 11:-1.5232777709843013 12:0.9323694674051889 13:-0.885416666354136 14:-0.26031483507700404 15:0.0 16:0.0 17:0.0 18:0.0 19:0.0 20:0.0 21:0.0 22:0.0 23:0.0 24:0.0 25:0.0 33:0.0 34:0.0 35:0.0 36:0.0 37:0.0 
380.0 1:0.9345224575193416 2:-0.3870110182345475 3:-0.7112213648072445 6:1.775168500215182 7:2.124256430819268 9:1.8683828903512338 10:-0.580448402726974 11:0.9338882799116482 12:-1.7663934061174782 13:1.594184983680379 14:-0.26031483507700404 15:0.0 16:0.0 17:0.0 18:0.0 19:0.0 20:0.0 21:0.0 22:0.0 23:0.0 24:0.0 25:0.0 33:0.0 34:0.0 35:0.0 36:0.0 37:0.0 
380.0 1:0.9345224575193416 2:-0.3870110182345475 3:-0.7112213648072445 6:-0.4118295265645405 7:-0.0019275252698936363 9:-1.0304273464845977 10:-0.580448402726974 11:0.9338882799116482 12:0.4190178457328431 13:0.3491858323527766 14:-0.26031483507700404 15:0.0 16:0.0 17:0.0 18:0.0 19:0.0 20:0.0 21:0.0 22:0.0 23:0.0 24:0.0 25:0.0 33:0.0 34:0.0 35:0.0 36:0.0 37:0.0 
380.0 1:0.9345224575193416 2:-0.3870110182345475 3:-0.7112213648072445 6:0.1160665527400548 7:-0.7485074816357993 9:-0.856929601981925 10:0.3195818197900102 11:-0.4791069921463629 12:-0.5490165159589102 13:-0.3978136584437848 14:-0.267253359331528 15:0.0 16:0.0 17:0.0 18:0.0 19:0.0 20:0.0 21:0.0 22:0.0 23:0.0 24:0.0 25:0.0 33:0.0 34:0.0 35:0.0 36:0.0 37:0.0 
380.0 1:-1.0699632634026595 2:2.583659511637529 3:-0.7112213648072445 6:0.0 7:0.0 9:0.0 10:0.0 11:0.0 12:0.0 13:0.0 14:0.0 15:0.34972289706066734 16:0.10257732459759034 17:2.508097212534366 18:-0.06952997740060748 19:0.0 20:0.0 21:0.0 22:0.0 23:0.0 24:0.0 25:0.0 33:0.0 34:0.07130768937368928 35:1.1677942550701532 36:0.15950685058268568 37:-0.5583379798154967 
380.0 1:-1.0699632634026595 2:-0.3870110182345475 3:1.405898005667202 6:0.0 7:0.0 9:0.0 10:0.0 11:0.0 12:0.0 13:0.0 14:0.0 15:0.0 16:0.0 17:0.0 18:0.0 19:-0.9430377070138675 20:2.452173429786952 21:-0.10866427312092933 22:-0.3980796920553415 23:-0.4539472601318375 24:0.03063339232016232 25:0.8311189205515019 33:0.010196914263227715 34:0.0 35:0.0 36:0.0 37:0.0 
380.0 1:0.9345224575193416 2:-0.3870110182345475 3:-0.7112213648072445 6:-0.2610020512542545 7:0.2528960057834283 9:-0.8203764250029331 10:-0.580448402726974 11:-1.4915330155053295 12:0.14034131355590476 13:-0.658670623483854 14:-0.2664184244627575 15:0.0 16:0.0 17:0.0 18:0.0 19:0.0 20:0.0 21:0.0 22:0.0 23:0.0 24:0.0 25:0.0 33:0.0 34:0.0 35:0.0 36:0.0 37:0.0 
380.0 1:-1.0699632634026595 2:-0.3870110182345475 3:1.405898005667202 6:0.0 7:0.0 9:0.0 10:0.0 11:0.0 12:0.0 13:0.0 14:0.0 15:0.0 16:0.0 17:0.0 18:0.0 19:-0.5109857292098793 20:-0.5023171229425797 21:-0.3378501460069509 22:-0.26465006632956384 23:-0.19677950828105617 24:0.9230524661099796 25:0.2993249390268561 33:-0.16050224006884048 34:0.0 35:0.0 36:0.0 37:0.0 
380.0 1:0.9345224575193416 2:-0.3870110182345475 3:-0.7112213648072445 6:0.7947901073549362 7:0.9224524713529834 9:1.729916156713742 10:0.13957578601580975 11:0.8239533183386069 12:-1.0829021150748808 13:0.3491858323527766 14:-0.25937950374560637 15:0.0 16:0.0 17:0.0 18:0.0 19:0.0 20:0.0 21:0.0 22:0.0 23:0.0 24:0.0 25:0.0 33:0.0 34:0.0 35:0.0 36:0.0 37:0.0 
380.0 1:0.9345224575193416 2:-0.3870110182345475 3:-0.7112213648072445 6:0.04065289936631755 7:-0.04649331610031602 9:0.4088685597702383 10:-0.580448402726974 11:0.4120919894420356 12:0.21367763418025026 13:0.7641855494619774 14:-0.25937950374560637 15:0.0 16:0.0 17:0.0 18:0.0 19:0.0 20:0.0 21:0.0 22:0.0 23:0.0 24:0.0 25:0.0 33:0.0 34:0.0 35:0.0 36:0.0 37:0.0 
380.0 1:0.9345224575193416 2:-0.3870110182345475 3:-0.7112213648072445 6:0.04065289936631755 7:1.1707124035596062 9:1.568371544726341 10:0.8595999747585934 11:0.9338882799116482 12:0.055271915987124345 13:1.594184983680379 14:-0.26758607612101587 15:0.0 16:0.0 17:0.0 18:0.0 19:0.0 20:0.0 21:0.0 22:0.0 23:0.0 24:0.0 25:0.0 33:0.0 34:0.0 35:0.0 36:0.0 37:0.0 
380.0 1:0.9345224575193416 2:-0.3870110182345475 3:-0.7112213648072445 6:-1.0151393154304769 7:1.3907610454132482 9:1.8683828903512338 10:-0.32329689908369663 11:0.9338882799116482 12:1.1054421874533766 13:1.594184983680379 14:-0.26758607612101587 15:0.0 16:0.0 17:0.0 18:0.0 19:0.0 20:0.0 21:0.0 22:0.0 23:0.0 24:0.0 25:0.0 33:0.0 34:0.0 35:0.0 36:0.0 37:0.0 
380.0 1:0.9345224575193416 2:-0.3870110182345475 3:-0.7112213648072445 6:-0.7888981305588498 7:-0.4581680120155763 9:-0.6524219196075786 10:-0.580448402726974 11:-1.2967911573100694 12:0.844366582042127 13:-0.2733137433110246 14:-0.26758607612101587 15:0.0 16:0.0 17:0.0 18:0.0 19:0.0 20:0.0 21:0.0 22:0.0 23:0.0 24:0.0 25:0.0 33:0.0 34:0.0 35:0.0 36:0.0 37:0.0 
380.0 1:0.9345224575193416 2:-0.3870110182345475 3:-0.7112213648072445 6:-0.18558828550530956 7:-1.0203978386733554 9:-0.843370034119545 10:-0.580448402726974 11:-0.5164884482878117 12:0.6771608375825022 13:-0.8926004179391417 14:-0.2568169267730509 15:0.0 16:0.0 17:0.0 18:0.0 19:0.0 20:0.0 21:0.0 22:0.0 23:0.0 24:0.0 25:0.0 33:0.0 34:0.0 35:0.0 36:0.0 37:0.0 
380.0 1:-1.0699632634026595 2:-0.3870110182345475 3:1.405898005667202 6:0.0 7:0.0 9:0.0 10:0.0 11:0.0 12:0.0 13:0.0 14:0.0 15:0.0 16:0.0 17:0.0 18:0.0 19:-0.07893375140589105 20:1.2497158506395278 21:-1.3004311465384506 22:-1.1986576372826634 23:-0.4539472601318375 24:1.815471539899797 25:-0.7642630240224361 33:-0.1632916185592841 34:0.0 35:0.0 36:0.0 37:0.0 
380.0 1:0.9345224575193416 2:-0.3870110182345475 3:-0.7112213648072445 6:1.775168500215182 7:-0.8794469700483832 9:-0.8254341436814854 10:-0.580448402726974 11:-1.0898677888055368 12:-1.91599866092776 13:-0.8712813159930012 14:-0.2669805323401518 15:0.0 16:0.0 17:0.0 18:0.0 19:0.0 20:0.0 21:0.0 22:0.0 23:0.0 24:0.0 25:0.0 33:0.0 34:0.0 35:0.0 36:0.0 37:0.0 
380.0 1:-1.0699632634026595 2:-0.3870110182345475 3:1.405898005667202 6:0.0 7:0.0 9:0.0 10:0.0 11:0.0 12:0.0 13:0.0 14:0.0 15:0.0 16:0.0 17:0.0 18:0.0 19:0.7851702042020854 20:-0.4349446446674501 21:0.4047123457376885 22:0.45587006528776036 23:-0.4539472601318375 24:0.03063339232016232 25:0.03342794826453293 33:-0.16274086716140765 34:0.0 35:0.0 36:0.0 37:0.0 
380.0 1:0.9345224575193416 2:-0.3870110182345475 3:-0.7112213648072445 6:-1.090553039038719 7:-0.663025863216674 9:0.0683152636535138 10:-0.580448402726974 11:0.9338882799116482 12:1.2257134385535347 13:1.594184983680379 14:-0.2677158983030067 15:0.0 16:0.0 17:0.0 18:0.0 19:0.0 20:0.0 21:0.0 22:0.0 23:0.0 24:0.0 25:0.0 33:0.0 34:0.0 35:0.0 36:0.0 37:0.0 
380.0 1:0.9345224575193416 2:-0.3870110182345475 3:-0.7112213648072445 6:0.41772150336062686 7:-0.32975281318202576 9:-0.6795298343362869 10:-0.580448402726974 11:0.35364504926830853 12:-0.490347634305972 13:-0.8869835377597365 14:-0.16963294262730907 15:0.0 16:0.0 17:0.0 18:0.0 19:0.0 20:0.0 21:0.0 22:0.0 23:0.0 24:0.0 25:0.0 33:0.0 34:0.0 35:0.0 36:0.0 37:0.0 
380.0 1:0.9345224575193416 2:-0.3870110182345475 3:-0.7112213648072445 6:0.1160665527400548 7:-0.9430876994890293 9:-0.3135172605123563 10:0.09457426416076418 11:0.9338882799116482 12:-0.25567254481056456 13:1.594184983680379 14:-0.2679322627453813 15:0.0 16:0.0 17:0.0 18:0.0 19:0.0 20:0.0 21:0.0 22:0.0 23:0.0 24:0.0 25:0.0 33:0.0 34:0.0 35:0.0 36:0.0 37:0.0 
380.0 1:-1.0699632634026595 2:2.583659511637529 3:-0.7112213648072445 6:0.0 7:0.0 9:0.0 10:0.0 11:0.0 12:0.0 13:0.0 14:0.0 15:-0.2608606396085801 16:-0.3579258042198365 17:-0.4492472721630522 18:-0.16366073131987252 19:0.0 20:0.0 21:0.0 22:0.0 23:0.0 24:0.0 25:0.0 33:0.0 34:-0.1458637394289716 35:0.792575373476964 36:-0.8316107164469999 37:-0.08840283896393097 
380.0 1:-1.0699632634026595 2:-0.3870110182345475 3:1.405898005667202 6:0.0 7:0.0 9:0.0 10:0.0 11:0.0 12:0.0 13:0.0 14:0.0 15:0.0 16:0.0 17:0.0 18:0.0 19:-0.9430377070138675 20:-0.3919001487182597 21:-0.6816290536919272 22:-0.598224178362172 23:0.3175559954205065 24:-0.861785681469655 25:0.03342794826453293 33:-0.14058030143642686 34:0.0 35:0.0 36:0.0 37:0.0 
380.0 1:0.9345224575193416 2:-0.3870110182345475 3:-0.7112213648072445 6:0.266893971862737 7:-0.9861410938144203 9:-0.8917493809493185 10:-0.580448402726974 11:0.37984488724486726 12:-0.14126870641531505 13:-0.8335633614084457 14:-0.09958987395453812 15:0.0 16:0.0 17:0.0 18:0.0 19:0.0 20:0.0 21:0.0 22:0.0 23:0.0 24:0.0 25:0.0 33:0.0 34:0.0 35:0.0 36:0.0 37:0.0 
380.0 1:0.9345224575193416 2:-0.3870110182345475 3:-0.7112213648072445 6:-1.090553039038719 7:-0.2763050538385322 9:0.028391943214926305 10:1.819632262179626 11:0.8776261492009249 12:1.0233062776788777 13:-0.879800468153892 14:6.709556761393646 15:0.0 16:0.0 17:0.0 18:0.0 19:0.0 20:0.0 21:0.0 22:0.0 23:0.0 24:0.0 25:0.0 33:0.0 34:0.0 35:0.0 36:0.0 37:0.0 
380.0 1:0.9345224575193416 2:-0.3870110182345475 3:-0.7112213648072445 6:-0.9397255777753339 7:-0.6267170674064363 9:-0.44935497289163173 10:-0.580448402726974 11:0.8273654857716313 12:1.0673077203604087 13:-0.8465064218925445 14:6.709556761393646 15:0.0 16:0.0 17:0.0 18:0.0 19:0.0 20:0.0 21:0.0 22:0.0 23:0.0 24:0.0 25:0.0 33:0.0 34:0.0 35:0.0 36:0.0 37:0.0 
380.0 1:0.9345224575193416 2:-0.3870110182345475 3:-0.7112213648072445 6:1.3226861304719277 7:-0.6574900932843516 9:0.07586265759548812 10:-0.06614539544041939 11:0.9338882799116482 12:-1.285309713065883 13:1.594184983680379 14:-0.2668730252087852 15:0.0 16:0.0 17:0.0 18:0.0 19:0.0 20:0.0 21:0.0 22:0.0 23:0.0 24:0.0 25:0.0 33:0.0 34:0.0 35:0.0 36:0.0 37:0.0 
380.0 1:0.9345224575193416 2:-0.3870110182345475 3:-0.7112213648072445 6:-0.03476086638262738 7:-0.3719363598253971 9:-0.08984972737961827 10:-0.580448402726974 11:0.807079657695875 12:0.08460591969724801 13:-0.5845635311429253 14:-0.23249217044060835 15:0.0 16:0.0 17:0.0 18:0.0 19:0.0 20:0.0 21:0.0 22:0.0 23:0.0 24:0.0 25:0.0 33:0.0 34:0.0 35:0.0 36:0.0 37:0.0 
380.0 1:0.9345224575193416 2:-0.3870110182345475 3:-0.7112213648072445 6:-0.7888981305588498 7:0.13445520027349506 9:-0.844485003251135 10:-0.580448402726974 11:0.10771075844640249 12:0.8238326045985023 13:0.10018600208725617 14:-0.2667799523217712 15:0.0 16:0.0 17:0.0 18:0.0 19:0.0 20:0.0 21:0.0 22:0.0 23:0.0 24:0.0 25:0.0 33:0.0 34:0.0 35:0.0 36:0.0 37:0.0 
380.0 1:-1.0699632634026595 2:2.583659511637529 3:-0.7112213648072445 6:0.0 7:0.0 9:0.0 10:0.0 11:0.0 12:0.0 13:0.0 14:0.0 15:-0.9202909975653624 16:-0.20442476128069423 17:-0.572469777815611 18:-0.17762122317404946 19:0.0 20:0.0 21:0.0 22:0.0 23:0.0 24:0.0 25:0.0 33:0.0 34:-0.7973780258369543 35:-0.33308127130260334 36:-0.8316107164469999 37:0.6948223957886785 
380.0 1:0.9345224575193416 2:-0.3870110182345475 3:-0.7112213648072445 6:-0.03476086638262738 7:-0.23866381191827674 9:-0.008994985064326404 10:-0.580448402726974 11:0.6775232191293092 12:-0.15006873268181398 13:-0.8266466994566256 14:-0.0468078270122112 15:0.0 16:0.0 17:0.0 18:0.0 19:0.0 20:0.0 21:0.0 22:0.0 23:0.0 24:0.0 25:0.0 33:0.0 34:0.0 35:0.0 36:0.0 37:0.0 
380.0 1:0.9345224575193416 2:-0.3870110182345475 3:-0.7112213648072445 6:-1.090553039038719 7:-0.916372148425215 9:-0.93297344282664 10:2.1196422648239786 11:0.33562173772009984 12:0.9998388124409715 13:-0.6468134887093052 14:-0.0468078270122112 15:0.0 16:0.0 17:0.0 18:0.0 19:0.0 20:0.0 21:0.0 22:0.0 23:0.0 24:0.0 25:0.0 33:0.0 34:0.0 35:0.0 36:0.0 37:0.0 
380.0 1:-1.0699632634026595 2:2.583659511637529 3:-0.7112213648072445 6:0.0 7:0.0 9:0.0 10:0.0 11:0.0 12:0.0 13:0.0 14:0.0 15:-0.15828257693883846 16:-0.8184289330372634 17:-0.5645692102795619 18:-0.1769607741979764 19:0.0 20:0.0 21:0.0 22:0.0 23:0.0 24:0.0 25:0.0 33:0.0 34:-0.044517065750702724 35:-0.33308127130260334 36:1.1506244176123714 37:-0.3494779172148009 
380.0 1:-1.0699632634026595 2:-0.3870110182345475 3:1.405898005667202 6:0.0 7:0.0 9:0.0 10:0.0 11:0.0 12:0.0 13:0.0 14:0.0 15:0.0 16:0.0 17:0.0 18:0.0 19:-0.9430377070138675 20:-0.5028050767428134 21:-0.5853709438031828 22:-0.5048234117232292 23:-0.4539472601318375 24:0.9230524661099796 25:-0.2324690424977902 33:-0.16188410864449923 34:0.0 35:0.0 36:0.0 37:0.0 
380.0 1:0.9345224575193416 2:-0.3870110182345475 3:-0.7112213648072445 6:0.945617638852826 7:-0.42114452983330514 9:0.05721962088034938 10:-0.580448402726974 11:0.7544145072275761 12:-1.0154332071554437 13:-0.850540622562913 14:0.07672008048359275 15:0.0 16:0.0 17:0.0 18:0.0 19:0.0 20:0.0 21:0.0 22:0.0 23:0.0 24:0.0 25:0.0 33:0.0 34:0.0 35:0.0 36:0.0 37:0.0 
380.0 1:0.9345224575193416 2:-0.3870110182345475 3:-0.7112213648072445 6:-0.8643118682139929 7:-0.5791321889902827 9:-0.19934805149682258 10:-0.580448402726974 11:-0.29185881970635236 12:0.6390254962568432 13:-0.6468134887093052 14:-0.2631358716846665 15:0.0 16:0.0 17:0.0 18:0.0 19:0.0 20:0.0 21:0.0 22:0.0 23:0.0 24:0.0 25:0.0 33:0.0 34:0.0 35:0.0 36:0.0 37:0.0 
380.0 1:0.9345224575193416 2:-0.3870110182345475 3:-0.7112213648072445 6:0.19148031848899974 7:-1.2678677991386025 9:-0.7563180608593204 10:-0.580448402726974 11:-0.11893977087541521 12:-0.3964777733543472 13:-0.8246705103275342 14:-0.26609127644097136 15:0.0 16:0.0 17:0.0 18:0.0 19:0.0 20:0.0 21:0.0 22:0.0 23:0.0 24:0.0 25:0.0 33:0.0 34:0.0 35:0.0 36:0.0 37:0.0 
380.0 1:0.9345224575193416 2:-0.3870110182345475 3:-0.7112213648072445 6:-1.090553039038719 7:1.122974659119117 9:0.8683453696360155 10:0.4481576118461351 11:0.9338882799116482 12:1.1347770653961913 13:1.594184983680379 14:-0.26078874448066847 15:0.0 16:0.0 17:0.0 18:0.0 19:0.0 20:0.0 21:0.0 22:0.0 23:0.0 24:0.0 25:0.0 33:0.0 34:0.0 35:0.0 36:0.0 37:0.0 
380.0 1:0.9345224575193416 2:-0.3870110182345475 3:-0.7112213648072445 6:-0.9397255777753339 7:0.4459021167374184 9:-0.05476627735758998 10:-0.580448402726974 11:-1.189533008365584 12:1.0203727898845962 13:-0.540099275738368 14:-0.26078874448066847 15:0.0 16:0.0 17:0.0 18:0.0 19:0.0 20:0.0 21:0.0 22:0.0 23:0.0 24:0.0 25:0.0 33:0.0 34:0.0 35:0.0 36:0.0 37:0.0 
380.0 1:0.9345224575193416 2:-0.3870110182345475 3:-0.7112213648072445 6:-1.090553039038719 7:0.06693025729557964 9:0.7840047868978532 10:-0.580448402726974 11:-1.4493162474292147 12:1.0819747222154705 13:-0.44308635485569764 14:-0.26721891362643563 15:0.0 16:0.0 17:0.0 18:0.0 19:0.0 20:0.0 21:0.0 22:0.0 23:0.0 24:0.0 25:0.0 33:0.0 34:0.0 35:0.0 36:0.0 37:0.0 
380.0 1:-1.0699632634026595 2:-0.3870110182345475 3:1.405898005667202 6:0.0 7:0.0 9:0.0 10:0.0 11:0.0 12:0.0 13:0.0 14:0.0 15:0.0 16:0.0 17:0.0 18:0.0 19:-0.9430377070138675 20:-0.475287967793918 21:0.25803343823572544 22:0.31354520116690476 23:-0.4539472601318375 24:0.03063339232016232 25:-0.7642630240224361 33:-0.14656839859761478 34:0.0 35:0.0 36:0.0 37:0.0 
380.0 1:0.9345224575193416 2:-0.3870110182345475 3:-0.7112213648072445 6:-1.0151393154304769 7:-0.8485999048133358 9:-1.0198750837981272 10:1.9910665800598168 11:-0.8384323622627411 12:1.0233062776788777 13:-0.7799994444327232 14:-0.021865930233239433 15:0.0 16:0.0 17:0.0 18:0.0 19:0.0 20:0.0 21:0.0 22:0.0 23:0.0 24:0.0 25:0.0 33:0.0 34:0.0 35:0.0 36:0.0 37:0.0 
380.0 1:0.9345224575193416 2:-0.3870110182345475 3:-0.7112213648072445 6:-0.33641581700319945 7:-0.1142884469891121 9:-0.0187248850909511 10:-0.580448402726974 11:0.01667309129959612 12:0.08460591969724801 13:-0.8731769707688695 14:-0.021865930233239433 15:0.0 16:0.0 17:0.0 18:0.0 19:0.0 20:0.0 21:0.0 22:0.0 23:0.0 24:0.0 25:0.0 33:0.0 34:0.0 35:0.0 36:0.0 37:0.0 
380.0 1:0.9345224575193416 2:-0.3870110182345475 3:-0.7112213648072445 6:-0.6380706552485638 7:-1.0926742852665492 9:-0.612302343500994 10:-0.580448402726974 11:0.8386770342849366 12:0.6654264492890309 13:-0.7449043309351164 14:-0.1975026872924462 15:0.0 16:0.0 17:0.0 18:0.0 19:0.0 20:0.0 21:0.0 22:0.0 23:0.0 24:0.0 25:0.0 33:0.0 34:0.0 35:0.0 36:0.0 37:0.0 
380.0 1:0.9345224575193416 2:-0.3870110182345475 3:-0.7112213648072445 6:-0.2610020512542545 7:-1.5329232217757536 9:-1.1176910433994085 10:-0.580448402726974 11:-1.378175808402668 12:0.22541114824103065 13:-0.7042749880013485 14:-0.264405160614569 15:0.0 16:0.0 17:0.0 18:0.0 19:0.0 20:0.0 21:0.0 22:0.0 23:0.0 24:0.0 25:0.0 33:0.0 34:0.0 35:0.0 36:0.0 37:0.0 
380.0 1:0.9345224575193416 2:-0.3870110182345475 3:-0.7112213648072445 6:-0.2610020512542545 7:-0.04751478379446092 9:-0.019183560069003396 10:-0.580448402726974 11:0.8119090187984237 12:0.1256738745844975 13:-0.8068848081657114 14:0.10158853784529094 15:0.0 16:0.0 17:0.0 18:0.0 19:0.0 20:0.0 21:0.0 22:0.0 23:0.0 24:0.0 25:0.0 33:0.0 34:0.0 35:0.0 36:0.0 37:0.0 
380.0 1:0.9345224575193416 2:-0.3870110182345475 3:-0.7112213648072445 6:0.8702037607286734 7:-0.8104974416364726 9:-1.05942381408316 10:1.819632262179626 11:0.5989514788272646 12:-0.5490165159589102 13:-0.3978136584437848 14:0.10158853784529094 15:0.0 16:0.0 17:0.0 18:0.0 19:0.0 20:0.0 21:0.0 22:0.0 23:0.0 24:0.0 25:0.0 33:0.0 34:0.0 35:0.0 36:0.0 37:0.0 
380.0 1:0.9345224575193416 2:-0.3870110182345475 3:-0.7112213648072445 6:0.945617638852826 7:-1.0975691458656103 9:-1.0670607915847488 10:-0.580448402726974 11:-1.1185244479040184 12:-0.989032254123256 13:-0.8319672086503334 14:0.019554733607453464 15:0.0 16:0.0 17:0.0 18:0.0 19:0.0 20:0.0 21:0.0 22:0.0 23:0.0 24:0.0 25:0.0 33:0.0 34:0.0 35:0.0 36:0.0 37:0.0 
380.0 1:0.9345224575193416 2:-0.3870110182345475 3:-0.7112213648072445 6:-0.7888981305588498 7:-0.5192864192648894 9:-0.2786379342671103 10:2.1196422648239786 11:0.6277815384333669 12:0.8091656027434405 13:-0.8594629787900784 14:0.019554733607453464 15:0.0 16:0.0 17:0.0 18:0.0 19:0.0 20:0.0 21:0.0 22:0.0 23:0.0 24:0.0 25:0.0 33:0.0 34:0.0 35:0.0 36:0.0 37:0.0 
380.0 1:-1.0699632634026595 2:-0.3870110182345475 3:1.405898005667202 6:0.0 7:0.0 9:0.0 10:0.0 11:0.0 12:0.0 13:0.0 14:0.0 15:0.0 16:0.0 17:0.0 18:0.0 19:2.513378115418038 20:0.9098908826196037 21:1.1747772248476434 22:1.2030761983993026 23:-0.4539472601318375 24:1.815471539899797 25:-0.7642630240224361 33:-0.011298819135908375 34:0.0 35:0.0 36:0.0 37:0.0 
380.0 1:0.9345224575193416 2:-0.3870110182345475 3:-0.7112213648072445 6:0.568548922483309 7:-1.4543653489168173 9:-1.0105863007965694 10:-0.580448402726974 11:-0.3601247713723064 12:-0.4962146098945349 13:-0.6028723421918606 14:-0.2666055357461837 15:0.0 16:0.0 17:0.0 18:0.0 19:0.0 20:0.0 21:0.0 22:0.0 23:0.0 24:0.0 25:0.0 33:0.0 34:0.0 35:0.0 36:0.0 37:0.0 
380.0 1:0.9345224575193416 2:-0.3870110182345475 3:-0.7112213648072445 6:0.1160665527400548 7:0.04324225358460903 9:0.007254000732229836 10:-0.580448402726974 11:0.40739942822877906 12:0.24007771297974703 13:-0.8385719786839015 14:-0.1114616601900486 15:0.0 16:0.0 17:0.0 18:0.0 19:0.0 20:0.0 21:0.0 22:0.0 23:0.0 24:0.0 25:0.0 33:0.0 34:0.0 35:0.0 36:0.0 37:0.0 
380.0 1:0.9345224575193416 2:-0.3870110182345475 3:-0.7112213648072445 6:-0.5626569456872227 7:-0.6751214283794744 9:-0.9721533722767979 10:2.1196422648239786 11:-1.3255476094163445 12:0.43075179690996895 13:-0.7713134038420656 14:-0.1114616601900486 15:0.0 16:0.0 17:0.0 18:0.0 19:0.0 20:0.0 21:0.0 22:0.0 23:0.0 24:0.0 25:0.0 33:0.0 34:0.0 35:0.0 36:0.0 37:0.0 
380.0 1:0.9345224575193416 2:-0.3870110182345475 3:-0.7112213648072445 6:0.4931351567343641 7:0.6120731906145787 9:-0.3587173996360686 10:-0.580448402726974 11:-1.5290201450831284 12:-0.4962146098945349 13:-0.8167657538111686 14:-0.24333380724622725 15:0.0 16:0.0 17:0.0 18:0.0 19:0.0 20:0.0 21:0.0 22:0.0 23:0.0 24:0.0 25:0.0 33:0.0 34:0.0 35:0.0 36:0.0 37:0.0 
380.0 1:0.9345224575193416 2:-0.3870110182345475 3:-0.7112213648072445 6:-1.090553039038719 7:2.245579196992202 9:1.8683828903512338 10:1.3580783294252656 11:0.9338882799116482 12:1.0233062776788777 13:1.594184983680379 14:-0.24333380724622725 15:0.0 16:0.0 17:0.0 18:0.0 19:0.0 20:0.0 21:0.0 22:0.0 23:0.0 24:0.0 25:0.0 33:0.0 34:0.0 35:0.0 36:0.0 37:0.0 
380.0 1:0.9345224575193416 2:-0.3870110182345475 3:-0.7112213648072445 6:0.945617638852826 7:-0.779831179331109 9:-0.5908704645679376 10:-0.580448402726974 11:0.4439325330049362 12:-0.8100925584865053 13:-0.8642943531184308 14:0.6547342940438654 15:0.0 16:0.0 17:0.0 18:0.0 19:0.0 20:0.0 21:0.0 22:0.0 23:0.0 24:0.0 25:0.0 33:0.0 34:0.0 35:0.0 36:0.0 37:0.0 
380.0 1:0.9345224575193416 2:-0.3870110182345475 3:-0.7112213648072445 6:-1.090553039038719 7:-0.6251304348055027 9:-1.0930543630541567 10:-0.580448402726974 11:0.9338882799116482 12:1.073175133065317 13:1.594184983680379 14:-0.26363196931302774 15:0.0 16:0.0 17:0.0 18:0.0 19:0.0 20:0.0 21:0.0 22:0.0 23:0.0 24:0.0 25:0.0 33:0.0 34:0.0 35:0.0 36:0.0 37:0.0 
380.0 1:0.9345224575193416 2:-0.3870110182345475 3:-0.7112213648072445 6:-0.4872432361258816 7:-0.6373334849163451 9:-1.109691804590151 10:-0.017929513653858826 11:-1.379408909456594 12:0.3896838420227195 13:-0.44308635485569764 14:-0.26363196931302774 15:0.0 16:0.0 17:0.0 18:0.0 19:0.0 20:0.0 21:0.0 22:0.0 23:0.0 24:0.0 25:0.0 33:0.0 34:0.0 35:0.0 36:0.0 37:0.0 
380.0 1:-1.0699632634026595 2:2.583659511637529 3:-0.7112213648072445 6:0.0 7:0.0 9:0.0 10:0.0 11:0.0 12:0.0 13:0.0 14:0.0 15:-0.7444428994898796 16:-0.664927890098121 17:2.8705168797766967 18:-0.07384350482053308 19:0.0 20:0.0 21:0.0 22:0.0 23:0.0 24:0.0 25:0.0 33:0.0 34:-0.6236408802059403 35:-0.33308127130260334 36:0.15950685058268568 37:1.6346926774918102 
380.0 1:0.9345224575193416 2:-0.3870110182345475 3:-0.7112213648072445 6:0.41772150336062686 7:-0.3362475534592044 9:-0.8831017258745631 10:-0.580448402726974 11:-0.6083098340228414 12:-0.37301030811644104 13:-0.3424803628292248 14:-0.2649089432947538 15:0.0 16:0.0 17:0.0 18:0.0 19:0.0 20:0.0 21:0.0 22:0.0 23:0.0 24:0.0 25:0.0 33:0.0 34:0.0 35:0.0 36:0.0 37:0.0 
380.0 1:-1.0699632634026595 2:2.583659511637529 3:-0.7112213648072445 6:0.0 7:0.0 9:0.0 10:0.0 11:0.0 12:0.0 13:0.0 14:0.0 15:0.3106456496579047 16:-0.8184289330372634 17:-0.455589616339793 18:-0.16203117651678953 19:0.0 20:0.0 21:0.0 22:0.0 23:0.0 24:0.0 25:0.0 33:0.0 34:0.4187819547468653 35:-0.33308127130260334 36:0.15950685058268568 37:0.17267223928693898 
380.0 1:-1.0699632634026595 2:-0.3870110182345475 3:1.405898005667202 6:0.0 7:0.0 9:0.0 10:0.0 11:0.0 12:0.0 13:0.0 14:0.0 15:0.0 16:0.0 17:0.0 18:0.0 19:-0.9430377070138675 20:-0.3979995712211814 21:-0.14533392622946223 22:-0.07784853305167828 23:-0.4539472601318375 24:0.03063339232016232 25:0.2993249390268561 33:-0.13797010523796033 34:0.0 35:0.0 36:0.0 37:0.0 
380.0 1:0.9345224575193416 2:-0.3870110182345475 3:-0.7112213648072445 6:-0.9397255777753339 7:-1.06639513358452 9:-0.8448290765424196 10:-0.580448402726974 11:-1.3757906188642446 12:0.8531670454249715 13:-0.8760514276839114 14:-0.25224267864110295 15:0.0 16:0.0 17:0.0 18:0.0 19:0.0 20:0.0 21:0.0 22:0.0 23:0.0 24:0.0 25:0.0 33:0.0 34:0.0 35:0.0 36:0.0 37:0.0 
380.0 1:0.9345224575193416 2:-0.3870110182345475 3:-0.7112213648072445 6:-1.0151393154304769 7:-0.8367303924973328 9:-0.5317072934807807 10:-0.580448402726974 11:0.9338882799116482 12:0.9881048612638457 13:1.594184983680379 14:-0.25224267864110295 15:0.0 16:0.0 17:0.0 18:0.0 19:0.0 20:0.0 21:0.0 22:0.0 23:0.0 24:0.0 25:0.0 33:0.0 34:0.0 35:0.0 36:0.0 37:0.0 
380.0 1:0.9345224575193416 2:-0.3870110182345475 3:-0.7112213648072445 6:-1.090553039038719 7:-0.442977286942622 9:0.3683265198680793 10:-0.580448402726974 11:-0.3053780761522513 12:1.029173690383786 13:0.7641855494619774 14:-0.2679402774314356 15:0.0 16:0.0 17:0.0 18:0.0 19:0.0 20:0.0 21:0.0 22:0.0 23:0.0 24:0.0 25:0.0 33:0.0 34:0.0 35:0.0 36:0.0 37:0.0 
380.0 1:-1.0699632634026595 2:-0.3870110182345475 3:1.405898005667202 6:0.0 7:0.0 9:0.0 10:0.0 11:0.0 12:0.0 13:0.0 14:0.0 15:0.0 16:0.0 17:0.0 18:0.0 19:-0.5109857292098793 20:-0.4521101622828155 21:-0.38368735992653275 22:-0.30912664005026574 23:-0.4539472601318375 24:0.03063339232016232 25:-0.2324690424977902 33:-0.15432221671658886 34:0.0 35:0.0 36:0.0 37:0.0 
380.0 1:0.9345224575193416 2:-0.3870110182345475 3:-0.7112213648072445 6:0.266893971862737 7:-0.05376478104168647 9:0.4818166574492451 10:2.1196422648239786 11:0.2702464593087671 12:-0.23513856736693983 13:-0.7713134038420656 14:-0.23514042129215035 15:0.0 16:0.0 17:0.0 18:0.0 19:0.0 20:0.0 21:0.0 22:0.0 23:0.0 24:0.0 25:0.0 33:0.0 34:0.0 35:0.0 36:0.0 37:0.0 
380.0 1:-1.0699632634026595 2:-0.3870110182345475 3:1.405898005667202 6:0.0 7:0.0 9:0.0 10:0.0 11:0.0 12:0.0 13:0.0 14:0.0 15:0.0 16:0.0 17:0.0 18:0.0 19:0.35311822639809715 20:-0.4521101622828155 21:1.1747772248476434 22:1.2030761983993026 23:2.6320657620775383 24:0.9230524661099796 25:-0.2324690424977902 33:-0.15432221671658886 34:0.0 35:0.0 36:0.0 37:0.0 
380.0 1:-1.0699632634026595 2:-0.3870110182345475 3:1.405898005667202 6:0.0 7:0.0 9:0.0 10:0.0 11:0.0 12:0.0 13:0.0 14:0.0 15:0.0 16:0.0 17:0.0 18:0.0 19:-0.9430377070138675 20:-0.510381430837514 21:-0.01698974692582182 22:0.04668585427902143 23:-0.4539472601318375 24:0.03063339232016232 25:-0.7642630240224361 33:-0.09367354034045489 34:0.0 35:0.0 36:0.0 37:0.0 
380.0 1:0.9345224575193416 2:-0.3870110182345475 3:-0.7112213648072445 6:-1.090553039038719 7:-0.14115050285703012 9:-0.5836597899178433 10:-0.06614539544041939 11:-1.3468891677392434 12:0.9734378594087839 13:-0.44308635485569764 14:-0.26147738082799665 15:0.0 16:0.0 17:0.0 18:0.0 19:0.0 20:0.0 21:0.0 22:0.0 23:0.0 24:0.0 25:0.0 33:0.0 34:0.0 35:0.0 36:0.0 37:0.0 
380.0 1:0.9345224575193416 2:-0.3870110182345475 3:-0.7112213648072445 6:-0.7888981305588498 7:0.19035314425929997 9:-0.13169224048952985 10:-0.32329689908369663 11:0.9338882799116482 12:0.8032986271548775 13:1.594184983680379 14:-0.26147738082799665 15:0.0 16:0.0 17:0.0 18:0.0 19:0.0 20:0.0 21:0.0 22:0.0 23:0.0 24:0.0 25:0.0 33:0.0 34:0.0 35:0.0 36:0.0 37:0.0 
380.0 1:0.9345224575193416 2:-0.3870110182345475 3:-0.7112213648072445 6:-0.8643118682139929 7:1.6375194673267828 9:1.8413548637497943 10:0.4481576118461351 11:0.9338882799116482 12:0.806232114949159 13:1.594184983680379 14:-0.26147738082799665 15:0.0 16:0.0 17:0.0 18:0.0 19:0.0 20:0.0 21:0.0 22:0.0 23:0.0 24:0.0 25:0.0 33:0.0 34:0.0 35:0.0 36:0.0 37:0.0 
380.0 1:-1.0699632634026595 2:-0.3870110182345475 3:1.405898005667202 6:0.0 7:0.0 9:0.0 10:0.0 11:0.0 12:0.0 13:0.0 14:0.0 15:0.0 16:0.0 17:0.0 18:0.0 19:-0.5109857292098793 20:3.157963747982179 21:-0.12176046539575529 22:-0.05497483111896688 23:-0.4539472601318375 24:1.815471539899797 25:0.03342794826453293 33:0.05088526676873532 34:0.0 35:0.0 36:0.0 37:0.0 
380.0 1:0.9345224575193416 2:-0.3870110182345475 3:-0.7112213648072445 6:-0.5626569456872227 7:-0.6014709582161906 9:-1.0758413662870376 10:-0.2204363083555821 11:-1.493219095377339 12:0.4512857743535937 13:-0.8807680120101418 14:-0.09040260122126383 15:0.0 16:0.0 17:0.0 18:0.0 19:0.0 20:0.0 21:0.0 22:0.0 23:0.0 24:0.0 25:0.0 33:0.0 34:0.0 35:0.0 36:0.0 37:0.0 
380.0 1:0.9345224575193416 2:-0.3870110182345475 3:-0.7112213648072445 6:-0.8643118682139929 7:-0.25920097864716685 9:-0.6091949322875986 10:1.2996147239844167 11:0.9247085050511352 12:0.8355661186592827 13:0.3491858323527766 14:-0.09040260122126383 15:0.0 16:0.0 17:0.0 18:0.0 19:0.0 20:0.0 21:0.0 22:0.0 23:0.0 24:0.0 25:0.0 33:0.0 34:0.0 35:0.0 36:0.0 37:0.0 
380.0 1:-1.0699632634026595 2:-0.3870110182345475 3:1.405898005667202 6:0.0 7:0.0 9:0.0 10:0.0 11:0.0 12:0.0 13:0.0 14:0.0 15:0.0 16:0.0 17:0.0 18:0.0 19:-0.07893375140589105 20:1.6069677400963713 21:0.7609329852473499 22:0.8015165865135767 23:-0.0798850644736883 24:0.9230524661099796 25:0.5120425316367144 33:0.06700706681808738 34:0.0 35:0.0 36:0.0 37:0.0 
380.0 1:0.9345224575193416 2:-0.3870110182345475 3:-0.7112213648072445 6:-0.4872432361258816 7:-1.0138724727276378 9:-0.8300960428419406 10:0.01957176349967608 11:-1.518977205255651 12:0.6067584418687836 13:-0.7826315779450438 14:-0.08055726299166435 15:0.0 16:0.0 17:0.0 18:0.0 19:0.0 20:0.0 21:0.0 22:0.0 23:0.0 24:0.0 25:0.0 33:0.0 34:0.0 35:0.0 36:0.0 37:0.0 
380.0 1:-1.0699632634026595 2:-0.3870110182345475 3:1.405898005667202 6:0.0 7:0.0 9:0.0 10:0.0 11:0.0 12:0.0 13:0.0 14:0.0 15:0.0 16:0.0 17:0.0 18:0.0 19:-0.07893375140589105 20:-0.4380814905260955 21:-1.3004311465384506 22:-1.1986576372826634 23:-0.4539472601318375 24:2.707890613689614 25:-0.12611024619286101 33:-0.14388143192272276 34:0.0 35:0.0 36:0.0 37:0.0 
380.0 1:0.9345224575193416 2:-0.3870110182345475 3:-0.7112213648072445 6:0.945617638852826 7:-0.5671591920812289 9:-0.6714476325227298 10:-0.580448402726974 11:-1.153297177430926 12:-0.560750467136036 13:-0.8052679261510002 14:-0.2613000647910859 15:0.0 16:0.0 17:0.0 18:0.0 19:0.0 20:0.0 21:0.0 22:0.0 23:0.0 24:0.0 25:0.0 33:0.0 34:0.0 35:0.0 36:0.0 37:0.0 
52.943582945064364 1:-1.0699632634026595 2:2.583659511637529 3:-0.7112213648072445 6:0.0 7:0.0 9:0.0 10:0.0 11:0.0 12:0.0 13:0.0 14:0.0 15:-0.04105052028965266 16:-0.3579258042198365 17:-0.5342346841313788 18:-0.17478483925503618 19:0.0 20:0.0 21:0.0 22:0.0 23:0.0 24:0.0 25:0.0 33:0.0 34:0.07130768937368928 35:1.1677942550701532 36:-0.8316107164469999 37:3.8277233347991166 
380.0 1:-1.0699632634026595 2:-0.3870110182345475 3:1.405898005667202 6:0.0 7:0.0 9:0.0 10:0.0 11:0.0 12:0.0 13:0.0 14:0.0 15:0.0 16:0.0 17:0.0 18:0.0 19:-0.9430377070138675 20:-0.47363241025741065 21:-0.47536168940975265 22:-0.3980796920553415 23:-0.4539472601318375 24:0.03063339232016232 25:1.8947068836007939 33:-0.15839872901478216 34:0.0 35:0.0 36:0.0 37:0.0 
380.0 1:0.9345224575193416 2:-0.3870110182345475 3:-0.7112213648072445 6:-1.090553039038719 7:-0.07456256106131437 9:-0.41200783220794107 10:1.9910665800598168 11:-1.4466860165664175 12:1.111309600158285 13:-0.7535277016802426 14:0.1698058069489428 15:0.0 16:0.0 17:0.0 18:0.0 19:0.0 20:0.0 21:0.0 22:0.0 23:0.0 24:0.0 25:0.0 33:0.0 34:0.0 35:0.0 36:0.0 37:0.0 
380.0 1:0.9345224575193416 2:-0.3870110182345475 3:-0.7112213648072445 6:0.568548922483309 7:0.1088767993006202 9:-0.16190908640719434 10:-0.580448402726974 11:0.7578777899540077 12:-0.25567254481056456 13:-0.86024191465118 14:0.1698058069489428 15:0.0 16:0.0 17:0.0 18:0.0 19:0.0 20:0.0 21:0.0 22:0.0 23:0.0 24:0.0 25:0.0 33:0.0 34:0.0 35:0.0 36:0.0 37:0.0 
380.0 1:-1.0699632634026595 2:2.583659511637529 3:-0.7112213648072445 6:0.0 7:0.0 9:0.0 10:0.0 11:0.0 12:0.0 13:0.0 14:0.0 15:2.0251647270846242 16:0.9468330607628729 17:-0.5625940230930911 18:-0.17214400191239285 19:0.0 20:0.0 21:0.0 22:0.0 23:0.0 24:0.0 25:0.0 33:0.0 34:2.11271924438519 35:4.619808251996782 36:0.15950685058268568 37:0.6948223957886785 
380.0 1:-1.0699632634026595 2:-0.3870110182345475 3:1.405898005667202 6:0.0 7:0.0 9:0.0 10:0.0 11:0.0 12:0.0 13:0.0 14:0.0 15:0.0 16:0.0 17:0.0 18:0.0 19:-0.5109857292098793 20:-0.5009055423061892 21:1.46355165286982 22:1.4832785937524589 23:2.9406672605019 24:0.03063339232016232 25:0.8311189205515019 33:-0.15416867576373788 34:0.0 35:0.0 36:0.0 37:0.0 
380.0 1:0.9345224575193416 2:-0.3870110182345475 3:-0.7112213648072445 6:-0.5626569456872227 7:0.3235970994651718 9:0.41544862338325594 10:0.21957846769323217 11:0.8074325895916837 12:0.4424857480870948 13:0.10018600208725617 14:-0.2645663941801799 15:0.0 16:0.0 17:0.0 18:0.0 19:0.0 20:0.0 21:0.0 22:0.0 23:0.0 24:0.0 25:0.0 33:0.0 34:0.0 35:0.0 36:0.0 37:0.0 
380.0 1:-1.0699632634026595 2:-0.3870110182345475 3:1.405898005667202 6:0.0 7:0.0 9:0.0 10:0.0 11:0.0 12:0.0 13:0.0 14:0.0 15:0.0 16:0.0 17:0.0 18:0.0 19:-0.9430377070138675 20:-0.5103919741249834 21:-0.5670360680709444 22:-0.4870327917785812 23:3.6607367694806636 24:-1.7542047552594724 25:-2.359644968596374 33:-0.1409641538185543 34:0.0 35:0.0 36:0.0 37:0.0 
380.0 1:-1.0699632634026595 2:-0.3870110182345475 3:1.405898005667202 6:0.0 7:0.0 9:0.0 10:0.0 11:0.0 12:0.0 13:0.0 14:0.0 15:0.0 16:0.0 17:0.0 18:0.0 19:0.35311822639809715 20:-0.47894762129567103 21:0.3497077677189453 22:0.4024982531719805 23:-0.4539472601318375 24:-0.861785681469655 25:-0.7642630240224361 33:-0.16014909587728324 34:0.0 35:0.0 36:0.0 37:0.0 
380.0 1:-1.0699632634026595 2:-0.3870110182345475 3:1.405898005667202 6:0.0 7:0.0 9:0.0 10:0.0 11:0.0 12:0.0 13:0.0 14:0.0 15:0.0 16:0.0 17:0.0 18:0.0 19:-0.07893375140589105 20:-0.496635946554144 21:0.3497077677189453 22:0.4024982531719805 23:-0.4539472601318375 24:0.9230524661099796 25:-0.7642630240224361 33:-0.16031799092541932 34:0.0 35:0.0 36:0.0 37:0.0 
380.0 1:0.9345224575193416 2:-0.3870110182345475 3:-0.7112213648072445 6:-0.33641581700319945 7:0.48450750979014173 9:0.7969828746979013 10:-0.580448402726974 11:0.8384835052838862 12:0.40728433167206274 13:-0.8723227689497768 14:1.8757077818691603 15:0.0 16:0.0 17:0.0 18:0.0 19:0.0 20:0.0 21:0.0 22:0.0 23:0.0 24:0.0 25:0.0 33:0.0 34:0.0 35:0.0 36:0.0 37:0.0 
380.0 1:0.9345224575193416 2:-0.3870110182345475 3:-0.7112213648072445 6:-0.9397255777753339 7:-0.8358795628964188 9:-1.0032151569619023 10:0.01957176349967608 11:-1.3755045726594477 12:1.0174393020903147 13:-0.8586491652038527 14:1.8757077818691603 15:0.0 16:0.0 17:0.0 18:0.0 19:0.0 20:0.0 21:0.0 22:0.0 23:0.0 24:0.0 25:0.0 33:0.0 34:0.0 35:0.0 36:0.0 37:0.0 
380.0 1:0.9345224575193416 2:-0.3870110182345475 3:-0.7112213648072445 6:0.7947901073549362 7:-0.018244514221844074 9:-0.019183560069003396 10:-0.580448402726974 11:0.8119090187984237 12:-0.5050150732773793 13:-0.8068848081657114 14:0.10158853784529094 15:0.0 16:0.0 17:0.0 18:0.0 19:0.0 20:0.0 21:0.0 22:0.0 23:0.0 24:0.0 25:0.0 33:0.0 34:0.0 35:0.0 36:0.0 37:0.0 
380.0 1:0.9345224575193416 2:-0.3870110182345475 3:-0.7112213648072445 6:-0.9397255777753339 7:-0.7812272376434458 9:-1.05942381408316 10:1.819632262179626 11:0.5989514788272646 12:1.0379732795339396 13:-0.3978136584437848 14:0.10158853784529094 15:0.0 16:0.0 17:0.0 18:0.0 19:0.0 20:0.0 21:0.0 22:0.0 23:0.0 24:0.0 25:0.0 33:0.0 34:0.0 35:0.0 36:0.0 37:0.0 
380.0 1:-1.0699632634026595 2:-0.3870110182345475 3:1.405898005667202 6:0.0 7:0.0 9:0.0 10:0.0 11:0.0 12:0.0 13:0.0 14:0.0 15:0.0 16:0.0 17:0.0 18:0.0 19:-0.07893375140589105 20:3.715625233963593 21:-1.3004311465384506 22:-1.1986576372826634 23:-0.4539472601318375 24:0.9230524661099796 25:0.2993249390268561 33:0.11153394314486928 34:0.0 35:0.0 36:0.0 37:0.0 
380.0 1:-1.0699632634026595 2:2.583659511637529 3:-0.7112213648072445 6:0.0 7:0.0 9:0.0 10:0.0 11:0.0 12:0.0 13:0.0 14:0.0 15:-0.7946852094823879 16:-0.664927890098121 17:0.22304121057147117 18:-0.17517784953107385 19:0.0 20:0.0 21:0.0 22:0.0 23:0.0 24:0.0 25:0.0 33:0.0 34:-0.673280060973537 35:-0.33308127130260334 36:-0.8316107164469999 37:0.6948223957886785 
380.0 1:-1.0699632634026595 2:-0.3870110182345475 3:1.405898005667202 6:0.0 7:0.0 9:0.0 10:0.0 11:0.0 12:0.0 13:0.0 14:0.0 15:0.0 16:0.0 17:0.0 18:0.0 19:-0.9430377070138675 20:0.2546386365914422 21:-1.1825640759652825 22:-1.0842893542803855 23:-0.4539472601318375 24:-0.861785681469655 25:0.8311189205515019 33:-0.15902824692147116 34:0.0 35:0.0 36:0.0 37:0.0 
380.0 1:0.9345224575193416 2:-0.3870110182345475 3:-0.7112213648072445 6:-0.8643118682139929 7:0.15707806028336774 9:0.5788606594625866 10:1.2196120423069943 11:0.8576257394687025 12:0.8942350003122209 13:0.7641855494619774 14:-0.25224267864110295 15:0.0 16:0.0 17:0.0 18:0.0 19:0.0 20:0.0 21:0.0 22:0.0 23:0.0 24:0.0 25:0.0 33:0.0 34:0.0 35:0.0 36:0.0 37:0.0 
380.0 1:0.9345224575193416 2:-0.3870110182345475 3:-0.7112213648072445 6:-1.0151393154304769 7:-0.8871523751369133 9:-0.8448290765424196 10:0.527281143175454 11:-1.3757906188642446 12:0.929436416727253 13:-0.8760514276839114 14:-0.25224267864110295 15:0.0 16:0.0 17:0.0 18:0.0 19:0.0 20:0.0 21:0.0 22:0.0 23:0.0 24:0.0 25:0.0 33:0.0 34:0.0 35:0.0 36:0.0 37:0.0 
380.0 1:-1.0699632634026595 2:-0.3870110182345475 3:1.405898005667202 6:0.0 7:0.0 9:0.0 10:0.0 11:0.0 12:0.0 13:0.0 14:0.0 15:0.0 16:0.0 17:0.0 18:0.0 19:-0.9430377070138675 20:-0.4774663329735329 21:0.7643581326347412 22:0.8048400612026546 23:-0.4539472601318375 24:0.03063339232016232 25:1.8947068836007939 33:-0.1496392176546342 34:0.0 35:0.0 36:0.0 37:0.0 
380.0 1:0.9345224575193416 2:-0.3870110182345475 3:-0.7112213648072445 6:1.3226861304719277 7:-0.7916855427618175 9:-0.4125314190834721 10:-0.580448402726974 11:-0.11156277036590866 12:-1.2119742666742284 13:-0.878339646675491 14:-0.20005501310828955 15:0.0 16:0.0 17:0.0 18:0.0 19:0.0 20:0.0 21:0.0 22:0.0 23:0.0 24:0.0 25:0.0 33:0.0 34:0.0 35:0.0 36:0.0 37:0.0 
380.0 1:-1.0699632634026595 2:-0.3870110182345475 3:1.405898005667202 6:0.0 7:0.0 9:0.0 10:0.0 11:0.0 12:0.0 13:0.0 14:0.0 15:0.0 16:0.0 17:0.0 18:0.0 19:-0.9430377070138675 20:-0.467532987754489 21:0.11397365116159501 22:0.1737617110265068 23:-0.4539472601318375 24:-0.861785681469655 25:-0.7642630240224361 33:-0.1359740728508977 34:0.0 35:0.0 36:0.0 37:0.0 
380.0 1:0.9345224575193416 2:-0.3870110182345475 3:-0.7112213648072445 6:-0.03476086638262738 7:0.4566746136715739 9:-0.435963138802902 10:-0.580448402726974 11:-0.13682170284041378 12:0.3456819622248431 13:-0.8398583009376303 14:-0.18983256126731804 15:0.0 16:0.0 17:0.0 18:0.0 19:0.0 20:0.0 21:0.0 22:0.0 23:0.0 24:0.0 25:0.0 33:0.0 34:0.0 35:0.0 36:0.0 37:0.0 
380.0 1:-1.0699632634026595 2:-0.3870110182345475 3:1.405898005667202 6:0.0 7:0.0 9:0.0 10:0.0 11:0.0 12:0.0 13:0.0 14:0.0 15:0.0 16:0.0 17:0.0 18:0.0 19:-0.07893375140589105 20:-0.24725670079183043 21:0.29470318970020215 22:0.3491264410562007 23:-0.4539472601318375 24:1.815471539899797 25:0.03342794826453293 33:-0.1626180343991269 34:0.0 35:0.0 36:0.0 37:0.0 
380.0 1:0.9345224575193416 2:-0.3870110182345475 3:-0.7112213648072445 6:0.266893971862737 7:0.2364681873243448 9:-0.9388867512778486 10:-0.580448402726974 11:-1.2605152355871212 12:-0.334875841023473 13:-0.8650725991889591 14:-0.2405920431558086 15:0.0 16:0.0 17:0.0 18:0.0 19:0.0 20:0.0 21:0.0 22:0.0 23:0.0 24:0.0 25:0.0 33:0.0 34:0.0 35:0.0 36:0.0 37:0.0 
380.0 1:0.9345224575193416 2:-0.3870110182345475 3:-0.7112213648072445 6:-1.090553039038719 7:0.6572656600072281 9:1.8683828903512338 10:0.12671818535180457 11:0.9338882799116482 12:1.1054421874533766 13:1.594184983680379 14:-0.2678946859096339 15:0.0 16:0.0 17:0.0 18:0.0 19:0.0 20:0.0 21:0.0 22:0.0 23:0.0 24:0.0 25:0.0 33:0.0 34:0.0 35:0.0 36:0.0 37:0.0 
380.0 1:0.9345224575193416 2:-0.3870110182345475 3:-0.7112213648072445 6:-1.0151393154304769 7:1.3907610454132482 9:1.8683828903512338 10:-0.3804416851219224 11:0.9338882799116482 12:1.0995760860975046 13:1.594184983680379 14:-0.2677583962589219 15:0.0 16:0.0 17:0.0 18:0.0 19:0.0 20:0.0 21:0.0 22:0.0 23:0.0 24:0.0 25:0.0 33:0.0 34:0.0 35:0.0 36:0.0 37:0.0 
380.0 1:0.9345224575193416 2:-0.3870110182345475 3:-0.7112213648072445 6:-0.03476086638262738 7:-0.4537639490682217 9:-0.6464174796804675 10:-0.580448402726974 11:-0.8686809451269245 12:-0.07086587358525101 13:0.10018600208725617 14:-0.2677583962589219 15:0.0 16:0.0 17:0.0 18:0.0 19:0.0 20:0.0 21:0.0 22:0.0 23:0.0 24:0.0 25:0.0 33:0.0 34:0.0 35:0.0 36:0.0 37:0.0 
380.0 1:-1.0699632634026595 2:2.583659511637529 3:-0.7112213648072445 6:0.0 7:0.0 9:0.0 10:0.0 11:0.0 12:0.0 13:0.0 14:0.0 15:-0.724904223381682 16:-0.43467632568940767 17:-0.5704857113472929 18:-0.17753591118729983 19:0.0 20:0.0 21:0.0 22:0.0 23:0.0 24:0.0 25:0.0 33:0.0 34:-0.6043367543518751 35:-0.33308127130260334 36:0.15950685058268568 37:-0.08840283896393097 
380.0 1:-1.0699632634026595 2:-0.3870110182345475 3:1.405898005667202 6:0.0 7:0.0 9:0.0 10:0.0 11:0.0 12:0.0 13:0.0 14:0.0 15:0.0 16:0.0 17:0.0 18:0.0 19:-0.9430377070138675 20:-0.5084949665919675 21:-1.117082376921574 22:-1.0207514259066428 23:-0.4539472601318375 24:0.03063339232016232 25:0.03342794826453293 33:-0.16280535436160506 34:0.0 35:0.0 36:0.0 37:0.0 
380.0 1:0.9345224575193416 2:-0.3870110182345475 3:-0.7112213648072445 6:0.4931351567343641 7:-0.2447168080770835 9:-0.6875944223154041 10:1.9396361774037962 11:0.8599022905421279 12:-0.43167918976937925 13:-0.1843852325019102 14:-0.2204688817397566 15:0.0 16:0.0 17:0.0 18:0.0 19:0.0 20:0.0 21:0.0 22:0.0 23:0.0 24:0.0 25:0.0 33:0.0 34:0.0 35:0.0 36:0.0 37:0.0 
380.0 1:0.9345224575193416 2:-0.3870110182345475 3:-0.7112213648072445 6:-0.7134844209975088 7:-0.44348028239807213 9:-0.9585858804241781 10:-0.580448402726974 11:-1.2664417842466749 12:0.6742273497882207 13:-0.7875525232072081 14:-0.2204688817397566 15:0.0 16:0.0 17:0.0 18:0.0 19:0.0 20:0.0 21:0.0 22:0.0 23:0.0 24:0.0 25:0.0 33:0.0 34:0.0 35:0.0 36:0.0 37:0.0 
380.0 1:0.9345224575193416 2:-0.3870110182345475 3:-0.7112213648072445 6:-0.8643118682139929 7:0.221768128743917 9:-0.2758694328986091 10:2.1196422648239786 11:-0.009031844269696226 12:0.7211622802640332 13:0.3491858323527766 14:-0.2613416111540226 15:0.0 16:0.0 17:0.0 18:0.0 19:0.0 20:0.0 21:0.0 22:0.0 23:0.0 24:0.0 25:0.0 33:0.0 34:0.0 35:0.0 36:0.0 37:0.0 
103.05347250729976 1:-1.0699632634026595 2:2.583659511637529 3:-0.7112213648072445 6:0.0 7:0.0 9:0.0 10:0.0 11:0.0 12:0.0 13:0.0 14:0.0 15:-0.9202909975653624 16:0.02582680312801919 17:-0.5724531971158348 18:-0.13864227228430412 19:0.0 20:0.0 21:0.0 22:0.0 23:0.0 24:0.0 25:0.0 33:0.0 34:-0.7973780258369543 35:-0.33308127130260334 36:2.1417419846420573 37:1.0081124896897227 
380.0 1:0.9345224575193416 2:-0.3870110182345475 3:-0.7112213648072445 6:0.945617638852826 7:0.6572656600072281 9:1.8683828903512338 10:0.4014027783711806 11:0.9338882799116482 12:-0.5842179323739423 13:1.594184983680379 14:-0.26747808435392206 15:0.0 16:0.0 17:0.0 18:0.0 19:0.0 20:0.0 21:0.0 22:0.0 23:0.0 24:0.0 25:0.0 33:0.0 34:0.0 35:0.0 36:0.0 37:0.0 
380.0 1:-1.0699632634026595 2:2.583659511637529 3:-0.7112213648072445 6:0.0 7:0.0 9:0.0 10:0.0 11:0.0 12:0.0 13:0.0 14:0.0 15:0.6654820360393663 16:-0.8184289330372634 17:0.8319062515385867 18:-0.0019513811551066288 19:0.0 20:0.0 21:0.0 22:0.0 23:0.0 24:0.0 25:0.0 33:0.0 34:0.505650546979011 35:-0.33308127130260334 36:-0.8316107164469999 37:0.6948223957886785 
380.0 1:0.9345224575193416 2:-0.3870110182345475 3:-0.7112213648072445 6:1.624340968717292 7:0.06946923670277749 9:0.40601637033556615 10:-0.2204363083555821 11:0.5333173738435347 12:-1.475982922763414 13:-0.2733137433110246 14:-0.2652513368259878 15:0.0 16:0.0 17:0.0 18:0.0 19:0.0 20:0.0 21:0.0 22:0.0 23:0.0 24:0.0 25:0.0 33:0.0 34:0.0 35:0.0 36:0.0 37:0.0 
380.0 1:0.9345224575193416 2:-0.3870110182345475 3:-0.7112213648072445 6:1.3226861304719277 7:-1.071517424201769 9:-0.7628635226757481 10:-0.580448402726974 11:-0.947791870521781 12:-1.1943733399085397 13:-0.5127366570278712 14:1.00621968716566 15:0.0 16:0.0 17:0.0 18:0.0 19:0.0 20:0.0 21:0.0 22:0.0 23:0.0 24:0.0 25:0.0 33:0.0 34:0.0 35:0.0 36:0.0 37:0.0 
380.0 1:0.9345224575193416 2:-0.3870110182345475 3:-0.7112213648072445 6:-0.18558828550530956 7:-0.0021575784716823046 9:0.053103437651383804 10:-0.580448402726974 11:0.6810494357140977 12:-0.17646968571400162 13:-0.6468134887093052 14:-0.2562128175789783 15:0.0 16:0.0 17:0.0 18:0.0 19:0.0 20:0.0 21:0.0 22:0.0 23:0.0 24:0.0 25:0.0 33:0.0 34:0.0 35:0.0 36:0.0 37:0.0 
380.0 1:-1.0699632634026595 2:-0.3870110182345475 3:1.405898005667202 6:0.0 7:0.0 9:0.0 10:0.0 11:0.0 12:0.0 13:0.0 14:0.0 15:0.0 16:0.0 17:0.0 18:0.0 19:1.2172221820060736 20:2.940127230020689 21:-1.3004311465384506 22:-1.1986576372826634 23:-0.4539472601318375 24:1.815471539899797 25:-0.44518663510764855 33:0.08005804781042 34:0.0 35:0.0 36:0.0 37:0.0 
380.0 1:0.9345224575193416 2:-0.3870110182345475 3:-0.7112213648072445 6:-1.090553039038719 7:1.4653473363261114 9:1.8683828903512338 10:0.8195986339198822 11:0.9338882799116482 12:1.0467737429167838 13:1.594184983680379 14:-0.2678313959779104 15:0.0 16:0.0 17:0.0 18:0.0 19:0.0 20:0.0 21:0.0 22:0.0 23:0.0 24:0.0 25:0.0 33:0.0 34:0.0 35:0.0 36:0.0 37:0.0 
380.0 1:0.9345224575193416 2:-0.3870110182345475 3:-0.7112213648072445 6:1.1718588237244532 7:-0.1797086786049393 9:-0.37446425703559916 10:-0.580448402726974 11:-1.5091644146682168 12:-0.8540944382843817 13:-0.7493428305833432 14:-0.2678313959779104 15:0.0 16:0.0 17:0.0 18:0.0 19:0.0 20:0.0 21:0.0 22:0.0 23:0.0 24:0.0 25:0.0 33:0.0 34:0.0 35:0.0 36:0.0 37:0.0 
380.0 1:0.9345224575193416 2:-0.3870110182345475 3:-0.7112213648072445 6:0.41772150336062686 7:-0.8273995316905777 9:-0.1557895753890982 10:-0.580448402726974 11:0.7085671914146037 12:-0.7103552848299721 13:0.10018600208725617 14:-0.26758130895821436 15:0.0 16:0.0 17:0.0 18:0.0 19:0.0 20:0.0 21:0.0 22:0.0 23:0.0 24:0.0 25:0.0 33:0.0 34:0.0 35:0.0 36:0.0 37:0.0 
380.0 1:-1.0699632634026595 2:-0.3870110182345475 3:1.405898005667202 6:0.0 7:0.0 9:0.0 10:0.0 11:0.0 12:0.0 13:0.0 14:0.0 15:0.0 16:0.0 17:0.0 18:0.0 19:-0.07893375140589105 20:-0.3744732272813405 21:-0.6403755709998978 22:-0.5581952715571731 23:-0.4539472601318375 24:0.9230524661099796 25:-0.2324690424977902 33:-0.13029305759541174 34:0.0 35:0.0 36:0.0 37:0.0 
380.0 1:0.9345224575193416 2:-0.3870110182345475 3:-0.7112213648072445 6:-0.11017463213157232 7:-0.13031675458579636 9:-0.16714540221414026 10:1.5796242171473587 11:0.7518108773691693 12:0.26061256465606264 13:-0.8619357910475441 14:0.2504235477396847 15:0.0 16:0.0 17:0.0 18:0.0 19:0.0 20:0.0 21:0.0 22:0.0 23:0.0 24:0.0 25:0.0 33:0.0 34:0.0 35:0.0 36:0.0 37:0.0 
380.0 1:0.9345224575193416 2:-0.3870110182345475 3:-0.7112213648072445 6:0.7193764539811989 7:-0.7280029735427389 9:-0.9820227077085439 10:-0.580448402726974 11:0.510724118693422 12:-0.6311528628497547 13:-0.5127366570278712 14:0.2504235477396847 15:0.0 16:0.0 17:0.0 18:0.0 19:0.0 20:0.0 21:0.0 22:0.0 23:0.0 24:0.0 25:0.0 33:0.0 34:0.0 35:0.0 36:0.0 37:0.0 
380.0 1:0.9345224575193416 2:-0.3870110182345475 3:-0.7112213648072445 6:0.8702037607286734 7:-0.5467739076828241 9:0.019541036114077846 10:-0.580448402726974 11:0.6947245494852701 12:-0.7983590444257249 13:-0.8275941873952312 14:0.023990970645115177 15:0.0 16:0.0 17:0.0 18:0.0 19:0.0 20:0.0 21:0.0 22:0.0 23:0.0 24:0.0 25:0.0 33:0.0 34:0.0 35:0.0 36:0.0 37:0.0 
380.0 1:-1.0699632634026595 2:-0.3870110182345475 3:1.405898005667202 6:0.0 7:0.0 9:0.0 10:0.0 11:0.0 12:0.0 13:0.0 14:0.0 15:0.0 16:0.0 17:0.0 18:0.0 19:0.7851702042020854 20:1.6069677400963713 21:-1.3004311465384506 22:-1.1986576372826634 23:-0.4539472601318375 24:0.03063339232016232 25:1.3629129020761483 33:0.047046742947461015 34:0.0 35:0.0 36:0.0 37:0.0 
380.0 1:-1.0699632634026595 2:-0.3870110182345475 3:1.405898005667202 6:0.0 7:0.0 9:0.0 10:0.0 11:0.0 12:0.0 13:0.0 14:0.0 15:0.0 16:0.0 17:0.0 18:0.0 19:-0.9430377070138675 20:-0.4818230633327627 21:-1.0004058804592928 22:-0.9075383757966984 23:-0.0798850644736883 24:-0.861785681469655 25:0.03342794826453293 33:-0.161054987499104 34:0.0 35:0.0 36:0.0 37:0.0 
128.7865572791966 1:0.9345224575193416 2:-0.3870110182345475 3:-0.7112213648072445 6:1.0210312922265632 7:0.09657957689850961 9:-0.02824011092219499 10:-0.580448402726974 11:0.6912346749877017 12:-1.1386375089335374 13:0.10018600208725617 14:-0.25994267462704096 15:0.0 16:0.0 17:0.0 18:0.0 19:0.0 20:0.0 21:0.0 22:0.0 23:0.0 24:0.0 25:0.0 33:0.0 34:0.0 35:0.0 36:0.0 37:0.0 
380.0 1:-1.0699632634026595 2:-0.3870110182345475 3:1.405898005667202 6:0.0 7:0.0 9:0.0 10:0.0 11:0.0 12:0.0 13:0.0 14:0.0 15:0.0 16:0.0 17:0.0 18:0.0 19:1.2172221820060736 20:0.2223988319331417 21:-0.47536168940975265 22:-0.3980796920553415 23:-0.4539472601318375 24:0.9230524661099796 25:0.03342794826453293 33:-0.04584553352737709 34:0.0 35:0.0 36:0.0 37:0.0 
380.0 1:0.9345224575193416 2:-0.3870110182345475 3:-0.7112213648072445 6:-0.7888981305588498 7:-0.0018362384805863882 9:-0.41200783220794107 10:-0.580448402726974 11:-1.4466860165664175 12:0.8120986534213764 13:-0.7535277016802426 14:0.1698058069489428 15:0.0 16:0.0 17:0.0 18:0.0 19:0.0 20:0.0 21:0.0 22:0.0 23:0.0 24:0.0 25:0.0 33:0.0 34:0.0 35:0.0 36:0.0 37:0.0 
380.0 1:0.9345224575193416 2:-0.3870110182345475 3:-0.7112213648072445 6:0.6439625758570463 7:0.1816031218813482 9:-0.16190908640719434 10:1.9910665800598168 11:0.7578777899540077 12:-0.7338236243005692 13:-0.86024191465118 14:0.1698058069489428 15:0.0 16:0.0 17:0.0 18:0.0 19:0.0 20:0.0 21:0.0 22:0.0 23:0.0 24:0.0 25:0.0 33:0.0 34:0.0 35:0.0 36:0.0 37:0.0 
380.0 1:0.9345224575193416 2:-0.3870110182345475 3:-0.7112213648072445 6:0.6439625758570463 7:-0.2926508978100913 9:0.05721962088034938 10:-0.580448402726974 11:0.7544145072275761 12:-0.7103552848299721 13:-0.850540622562913 14:0.07672008048359275 15:0.0 16:0.0 17:0.0 18:0.0 19:0.0 20:0.0 21:0.0 22:0.0 23:0.0 24:0.0 25:0.0 33:0.0 34:0.0 35:0.0 36:0.0 37:0.0 
380.0 1:-1.0699632634026595 2:2.583659511637529 3:-0.7112213648072445 6:0.0 7:0.0 9:0.0 10:0.0 11:0.0 12:0.0 13:0.0 14:0.0 15:0.5451097629562762 16:-0.20442476128069423 17:-0.5695887226708681 18:-0.17750475793371148 19:0.0 20:0.0 21:0.0 22:0.0 23:0.0 24:0.0 25:0.0 33:0.0 34:0.6504314649956493 35:-0.33308127130260334 36:0.15950685058268568 37:0.17267223928693898 
380.0 1:-1.0699632634026595 2:-0.3870110182345475 3:1.405898005667202 6:0.0 7:0.0 9:0.0 10:0.0 11:0.0 12:0.0 13:0.0 14:0.0 15:0.0 16:0.0 17:0.0 18:0.0 19:-0.5109857292098793 20:-0.5076323339808401 21:0.07468458255739806 22:0.13563890628409717 23:-0.4539472601318375 24:0.03063339232016232 25:-0.2324690424977902 33:-0.1627554535519285 34:0.0 35:0.0 36:0.0 37:0.0 
380.0 1:0.9345224575193416 2:-0.3870110182345475 3:-0.7112213648072445 6:0.8702037607286734 7:-0.4250794363936597 9:0.053103437651383804 10:-0.580448402726974 11:0.6810494357140977 12:-1.0711686010141004 13:-0.6468134887093052 14:-0.2562128175789783 15:0.0 16:0.0 17:0.0 18:0.0 19:0.0 20:0.0 21:0.0 22:0.0 23:0.0 24:0.0 25:0.0 33:0.0 34:0.0 35:0.0 36:0.0 37:0.0 
380.0 1:0.9345224575193416 2:-0.3870110182345475 3:-0.7112213648072445 6:0.568548922483309 7:0.8710246945412727 9:1.8683828903512338 10:-0.580448402726974 11:-1.368653941486386 12:-0.3935447226764112 13:-0.6694498369152618 14:-0.2677779653114209 15:0.0 16:0.0 17:0.0 18:0.0 19:0.0 20:0.0 21:0.0 22:0.0 23:0.0 24:0.0 25:0.0 33:0.0 34:0.0 35:0.0 36:0.0 37:0.0 
380.0 1:-1.0699632634026595 2:2.583659511637529 3:-0.7112213648072445 6:0.0 7:0.0 9:0.0 10:0.0 11:0.0 12:0.0 13:0.0 14:0.0 15:-0.3575771046865441 16:-0.20442476128069423 17:0.333579209080382 18:-0.17473691117259255 19:0.0 20:0.0 21:0.0 22:0.0 23:0.0 24:0.0 25:0.0 33:0.0 34:-0.7973780258369543 35:-0.11867047223587178 36:-0.8316107164469999 37:2.261272865293898 
380.0 1:0.9345224575193416 2:-0.3870110182345475 3:-0.7112213648072445 6:-0.2610020512542545 7:-0.5547613705880283 9:-0.7016712736252543 10:-0.580448402726974 11:-1.2740000519960966 12:0.19021016894234408 13:-0.658670623483854 14:-0.05304345219931017 15:0.0 16:0.0 17:0.0 18:0.0 19:0.0 20:0.0 21:0.0 22:0.0 23:0.0 24:0.0 25:0.0 33:0.0 34:0.0 35:0.0 36:0.0 37:0.0 
380.0 1:0.9345224575193416 2:-0.3870110182345475 3:-0.7112213648072445 6:0.568548922483309 7:-0.1774057857218119 9:-0.18718976698600678 10:1.476763626419244 11:0.7201352027873162 12:-0.2146045899233151 13:-0.8358133598747004 14:-0.05304345219931017 15:0.0 16:0.0 17:0.0 18:0.0 19:0.0 20:0.0 21:0.0 22:0.0 23:0.0 24:0.0 25:0.0 33:0.0 34:0.0 35:0.0 36:0.0 37:0.0 
380.0 1:0.9345224575193416 2:-0.3870110182345475 3:-0.7112213648072445 6:0.945617638852826 7:-0.4080308415354509 9:-0.8649931617422806 10:-0.580448402726974 11:-1.5276293331282154 12:-1.1034360925185056 13:-0.6468134887093052 14:-0.2666754844854427 15:0.0 16:0.0 17:0.0 18:0.0 19:0.0 20:0.0 21:0.0 22:0.0 23:0.0 24:0.0 25:0.0 33:0.0 34:0.0 35:0.0 36:0.0 37:0.0 
380.0 1:-1.0699632634026595 2:2.583659511637529 3:-0.7112213648072445 6:0.0 7:0.0 9:0.0 10:0.0 11:0.0 12:0.0 13:0.0 14:0.0 15:-0.3251128114011413 16:-0.3579258042198365 17:-0.1556873416967644 18:-0.17661569200438237 19:0.0 20:0.0 21:0.0 22:0.0 23:0.0 24:0.0 25:0.0 33:0.0 34:-0.20934460188926057 35:-0.33308127130260334 36:0.15950685058268568 37:2.261272865293898 
380.0 1:-1.0699632634026595 2:-0.3870110182345475 3:1.405898005667202 6:0.0 7:0.0 9:0.0 10:0.0 11:0.0 12:0.0 13:0.0 14:0.0 15:0.0 16:0.0 17:0.0 18:0.0 19:-0.9430377070138675 20:-0.10958402144016885 21:-0.7419225750553718 22:-0.6567279358659925 23:-0.4539472601318375 24:2.707890613689614 25:0.1929661427219269 33:-0.16133136121423575 34:0.0 35:0.0 36:0.0 37:0.0 
380.0 1:0.9345224575193416 2:-0.3870110182345475 3:-0.7112213648072445 6:-0.9397255777753339 7:-0.012993031812256564 9:0.22270454598329886 10:2.2053595310560374 11:0.8507424595099673 12:0.9851713734695642 13:-0.8455103229615893 14:2.3308808174923534 15:0.0 16:0.0 17:0.0 18:0.0 19:0.0 20:0.0 21:0.0 22:0.0 23:0.0 24:0.0 25:0.0 33:0.0 34:0.0 35:0.0 36:0.0 37:0.0 
380.0 1:0.9345224575193416 2:-0.3870110182345475 3:-0.7112213648072445 6:-0.7134844209975088 7:-0.7273807543926332 9:-0.7512820241850913 10:-0.580448402726974 11:0.6577178157187559 12:0.5099546560065319 13:-0.8018511188746295 14:2.3308808174923534 15:0.0 16:0.0 17:0.0 18:0.0 19:0.0 20:0.0 21:0.0 22:0.0 23:0.0 24:0.0 25:0.0 33:0.0 34:0.0 35:0.0 36:0.0 37:0.0 
380.0 1:0.9345224575193416 2:-0.3870110182345475 3:-0.7112213648072445 6:0.568548922483309 7:-0.2577545552096951 9:-0.9198557408008163 10:-0.580448402726974 11:-1.0449402528097704 12:-0.3436758672899719 13:-0.8236394551297473 14:-0.26710397611531894 15:0.0 16:0.0 17:0.0 18:0.0 19:0.0 20:0.0 21:0.0 22:0.0 23:0.0 24:0.0 25:0.0 33:0.0 34:0.0 35:0.0 36:0.0 37:0.0 
380.0 1:0.9345224575193416 2:-0.3870110182345475 3:-0.7112213648072445 6:0.6439625758570463 7:-0.17007202016992287 9:-0.02331378071932457 10:-0.580448402726974 11:0.5466175436416796 12:-0.8570274889623177 13:-0.540099275738368 14:-0.2627312091098493 15:0.0 16:0.0 17:0.0 18:0.0 19:0.0 20:0.0 21:0.0 22:0.0 23:0.0 24:0.0 25:0.0 33:0.0 34:0.0 35:0.0 36:0.0 37:0.0 
380.0 1:0.9345224575193416 2:-0.3870110182345475 3:-0.7112213648072445 6:-1.090553039038719 7:0.9892096084909495 9:0.9590823671753202 10:1.6617321817306254 11:0.9338882799116482 12:0.9881048612638457 13:1.594184983680379 14:-0.2568291112440514 15:0.0 16:0.0 17:0.0 18:0.0 19:0.0 20:0.0 21:0.0 22:0.0 23:0.0 24:0.0 25:0.0 33:0.0 34:0.0 35:0.0 36:0.0 37:0.0 
380.0 1:0.9345224575193416 2:-0.3870110182345475 3:-0.7112213648072445 6:-0.9397255777753339 7:0.5580332475732083 9:0.37122234154237904 10:1.6617321817306254 11:0.9338882799116482 12:0.7387627699133764 13:1.594184983680379 14:-0.2568291112440514 15:0.0 16:0.0 17:0.0 18:0.0 19:0.0 20:0.0 21:0.0 22:0.0 23:0.0 24:0.0 25:0.0 33:0.0 34:0.0 35:0.0 36:0.0 37:0.0 
380.0 1:0.9345224575193416 2:-0.3870110182345475 3:-0.7112213648072445 6:0.04065289936631755 7:-0.33443965532154474 9:-0.2073559980337184 10:0.7459119082519559 11:0.7347204937916731 12:-0.22927159177837694 13:-0.06581388475642425 14:-0.26008317403454584 15:0.0 16:0.0 17:0.0 18:0.0 19:0.0 20:0.0 21:0.0 22:0.0 23:0.0 24:0.0 25:0.0 33:0.0 34:0.0 35:0.0 36:0.0 37:0.0 
380.0 1:-1.0699632634026595 2:-0.3870110182345475 3:1.405898005667202 6:0.0 7:0.0 9:0.0 10:0.0 11:0.0 12:0.0 13:0.0 14:0.0 15:0.0 16:0.0 17:0.0 18:0.0 19:-0.9430377070138675 20:-0.5103864846447307 21:0.6138747188700948 22:0.6588236244753144 23:-0.4539472601318375 24:-0.861785681469655 25:-0.7642630240224361 33:-0.16260958964672007 34:0.0 35:0.0 36:0.0 37:0.0 
380.0 1:0.9345224575193416 2:-0.3870110182345475 3:-0.7112213648072445 6:2.076823338460546 7:0.8381651228477045 9:0.9387704867047534 10:-0.580448402726974 11:-1.3802519609341661 12:-1.8426627774197597 13:-0.5845635311429253 14:-0.26694626823397405 15:0.0 16:0.0 17:0.0 18:0.0 19:0.0 20:0.0 21:0.0 22:0.0 23:0.0 24:0.0 25:0.0 33:0.0 34:0.0 35:0.0 36:0.0 37:0.0 
380.0 1:-1.0699632634026595 2:2.583659511637529 3:-0.7112213648072445 6:0.0 7:0.0 9:0.0 10:0.0 11:0.0 12:0.0 13:0.0 14:0.0 15:0.5084747780076659 16:1.9445898398672976 17:-0.4528714688354755 18:-0.16231874501145122 19:0.0 20:0.0 21:0.0 22:0.0 23:0.0 24:0.0 25:0.0 33:0.0 34:0.6142362613803415 35:-0.33308127130260334 36:1.1506244176123714 37:-0.3494779172148009 
380.0 1:-1.0699632634026595 2:-0.3870110182345475 3:1.405898005667202 6:0.0 7:0.0 9:0.0 10:0.0 11:0.0 12:0.0 13:0.0 14:0.0 15:0.0 16:0.0 17:0.0 18:0.0 19:-0.9430377070138675 20:-0.39538553300564355 21:0.04030672129568358 22:0.10228152371173477 23:-0.4539472601318375 24:0.9230524661099796 25:-0.2324690424977902 33:-0.13843072809651324 34:0.0 35:0.0 36:0.0 37:0.0 
380.0 1:0.9345224575193416 2:-0.3870110182345475 3:-0.7112213648072445 6:-1.0151393154304769 7:1.2785931900070473 9:1.332648548958959 10:0.7053090886664215 11:0.9338882799116482 12:0.8619670716914704 13:1.594184983680379 14:-0.2665151174680237 15:0.0 16:0.0 17:0.0 18:0.0 19:0.0 20:0.0 21:0.0 22:0.0 23:0.0 24:0.0 25:0.0 33:0.0 34:0.0 35:0.0 36:0.0 37:0.0 
380.0 1:0.9345224575193416 2:-0.3870110182345475 3:-0.7112213648072445 6:1.0210312922265632 7:-0.5012695417600416 9:-1.0939923863543317 10:-0.580448402726974 11:-1.416306164532008 12:-0.722089236007098 13:-0.8816252944582719 14:-0.2665151174680237 15:0.0 16:0.0 17:0.0 18:0.0 19:0.0 20:0.0 21:0.0 22:0.0 23:0.0 24:0.0 25:0.0 33:0.0 34:0.0 35:0.0 36:0.0 37:0.0 
380.0 1:0.9345224575193416 2:-0.3870110182345475 3:-0.7112213648072445 6:2.076823338460546 7:-1.1863846994821508 9:-0.6452251035581857 10:0.13957578601580975 11:0.9338882799116482 12:-1.9658670791978536 13:1.594184983680379 14:-0.267097444675702 15:0.0 16:0.0 17:0.0 18:0.0 19:0.0 20:0.0 21:0.0 22:0.0 23:0.0 24:0.0 25:0.0 33:0.0 34:0.0 35:0.0 36:0.0 37:0.0 
380.0 1:0.9345224575193416 2:-0.3870110182345475 3:-0.7112213648072445 6:1.1718588237244532 7:-0.6271579589901378 9:-0.6038389407578217 10:-0.580448402726974 11:-0.06215762330690751 12:-1.3263776679531325 13:-0.7743499871379866 14:-0.26329590164735833 15:0.0 16:0.0 17:0.0 18:0.0 19:0.0 20:0.0 21:0.0 22:0.0 23:0.0 24:0.0 25:0.0 33:0.0 34:0.0 35:0.0 36:0.0 37:0.0 
380.0 1:0.9345224575193416 2:-0.3870110182345475 3:-0.7112213648072445 6:-0.7134844209975088 7:0.7409520371495675 9:1.2614237459245876 10:0.8595999747585934 11:0.9338882799116482 12:0.5832905395145319 13:1.594184983680379 14:-0.26329590164735833 15:0.0 16:0.0 17:0.0 18:0.0 19:0.0 20:0.0 21:0.0 22:0.0 23:0.0 24:0.0 25:0.0 33:0.0 34:0.0 35:0.0 36:0.0 37:0.0 
380.0 1:0.9345224575193416 2:-0.3870110182345475 3:-0.7112213648072445 6:-0.6380706552485638 7:0.44649115261497424 9:1.2476699341265705 10:-0.580448402726974 11:0.9338882799116482 12:0.6507598845503145 13:1.594184983680379 14:-0.2675157228650733 15:0.0 16:0.0 17:0.0 18:0.0 19:0.0 20:0.0 21:0.0 22:0.0 23:0.0 24:0.0 25:0.0 33:0.0 34:0.0 35:0.0 36:0.0 37:0.0 
380.0 1:-1.0699632634026595 2:2.583659511637529 3:-0.7112213648072445 6:0.0 7:0.0 9:0.0 10:0.0 11:0.0 12:0.0 13:0.0 14:0.0 15:-0.2808433586714585 16:2.021340361336869 17:2.7980329463282305 18:-0.0268739840257878 19:0.0 20:0.0 21:0.0 22:0.0 23:0.0 24:0.0 25:0.0 33:0.0 34:-0.16560657776459406 35:-0.33308127130260334 36:0.15950685058268568 37:1.2169725522904185 
276.08234863248833 1:-1.0699632634026595 2:-0.3870110182345475 3:1.405898005667202 6:0.0 7:0.0 9:0.0 10:0.0 11:0.0 12:0.0 13:0.0 14:0.0 15:0.0 16:0.0 17:0.0 18:0.0 19:-0.9430377070138675 20:2.731004172777659 21:-0.700380614380135 22:-0.6164191143107333 23:-0.4539472601318375 24:-0.861785681469655 25:0.8311189205515019 33:0.07852263828191029 34:0.0 35:0.0 36:0.0 37:0.0 
380.0 1:0.9345224575193416 2:-0.3870110182345475 3:-0.7112213648072445 6:-0.18558828550530956 7:-0.7181732487947049 9:-0.33849367774802797 10:-0.580448402726974 11:0.5490833394863612 12:0.04647145260427998 13:-0.8167657538111686 14:-0.14460783681754114 15:0.0 16:0.0 17:0.0 18:0.0 19:0.0 20:0.0 21:0.0 22:0.0 23:0.0 24:0.0 25:0.0 33:0.0 34:0.0 35:0.0 36:0.0 37:0.0 
380.0 1:-1.0699632634026595 2:-0.3870110182345475 3:1.405898005667202 6:0.0 7:0.0 9:0.0 10:0.0 11:0.0 12:0.0 13:0.0 14:0.0 15:0.0 16:0.0 17:0.0 18:0.0 19:1.2172221820060736 20:-0.19584728255291883 21:-0.01698974692582182 22:0.04668585427902143 23:-0.4539472601318375 24:0.03063339232016232 25:-0.7642630240224361 33:-0.07425060980480692 34:0.0 35:0.0 36:0.0 37:0.0 
380.0 1:0.9345224575193416 2:-0.3870110182345475 3:-0.7112213648072445 6:-0.03476086638262738 7:-0.32983649273889076 9:-0.44330274314468265 10:-0.580448402726974 11:-0.6376141874135791 12:0.15794180320524806 13:-0.768121098325841 14:-0.2380927197378064 15:0.0 16:0.0 17:0.0 18:0.0 19:0.0 20:0.0 21:0.0 22:0.0 23:0.0 24:0.0 25:0.0 33:0.0 34:0.0 35:0.0 36:0.0 37:0.0 
380.0 1:0.9345224575193416 2:-0.3870110182345475 3:-0.7112213648072445 6:0.19148031848899974 7:-0.7797634356146188 9:-1.0567270309732884 10:-0.580448402726974 11:0.9338882799116482 12:-0.4815476080394731 13:1.594184983680379 14:-0.2380927197378064 15:0.0 16:0.0 17:0.0 18:0.0 19:0.0 20:0.0 21:0.0 22:0.0 23:0.0 24:0.0 25:0.0 33:0.0 34:0.0 35:0.0 36:0.0 37:0.0 
380.0 1:-1.0699632634026595 2:-0.3870110182345475 3:1.405898005667202 6:0.0 7:0.0 9:0.0 10:0.0 11:0.0 12:0.0 13:0.0 14:0.0 15:0.0 16:0.0 17:0.0 18:0.0 19:0.7851702042020854 20:1.5198331329117754 21:-1.3004311465384506 22:-1.1986576372826634 23:-0.4539472601318375 24:0.03063339232016232 25:-0.7642630240224361 33:0.07929034304616514 34:0.0 35:0.0 36:0.0 37:0.0 
380.0 1:0.9345224575193416 2:-0.3870110182345475 3:-0.7112213648072445 6:0.7947901073549362 7:-0.740861032598697 9:-0.4687186568432425 10:0.6795938873384112 11:0.7148490541494638 12:-0.9215633462038189 13:-0.7042749880013485 14:-0.20182403955154124 15:0.0 16:0.0 17:0.0 18:0.0 19:0.0 20:0.0 21:0.0 22:0.0 23:0.0 24:0.0 25:0.0 33:0.0 34:0.0 35:0.0 36:0.0 37:0.0 
380.0 1:-1.0699632634026595 2:-0.3870110182345475 3:1.405898005667202 6:0.0 7:0.0 9:0.0 10:0.0 11:0.0 12:0.0 13:0.0 14:0.0 15:0.0 16:0.0 17:0.0 18:0.0 19:-0.9430377070138675 20:1.4936927507563966 21:-0.14533392622946223 22:-0.07784853305167828 23:-0.4539472601318375 24:0.03063339232016232 25:-0.2324690424977902 33:0.014803142848756877 34:0.0 35:0.0 36:0.0 37:0.0 
380.0 1:0.9345224575193416 2:-0.3870110182345475 3:-0.7112213648072445 6:-0.9397255777753339 7:1.3907610454132482 9:1.8683828903512338 10:0.619591929726326 11:0.9338882799116482 12:0.8707675350743147 13:1.594184983680379 14:-0.26781333898505444 15:0.0 16:0.0 17:0.0 18:0.0 19:0.0 20:0.0 21:0.0 22:0.0 23:0.0 24:0.0 25:0.0 33:0.0 34:0.0 35:0.0 36:0.0 37:0.0 
380.0 1:0.9345224575193416 2:-0.3870110182345475 3:-0.7112213648072445 6:-0.8643118682139929 7:-0.3019204417001781 9:-0.43939613772245284 10:-0.580448402726974 11:-0.7184668368848741 12:0.5979575413695938 13:-0.1843852325019102 14:-0.26781333898505444 15:0.0 16:0.0 17:0.0 18:0.0 19:0.0 20:0.0 21:0.0 22:0.0 23:0.0 24:0.0 25:0.0 33:0.0 34:0.0 35:0.0 36:0.0 37:0.0 
380.0 1:0.9345224575193416 2:-0.3870110182345475 3:-0.7112213648072445 6:1.3981000085960802 7:-0.8012560313905042 9:-0.12014588025742554 10:-0.580448402726974 11:0.1161830444626174 12:-1.3117106660980706 13:-0.8099513085384394 14:-0.20696720647663913 15:0.0 16:0.0 17:0.0 18:0.0 19:0.0 20:0.0 21:0.0 22:0.0 23:0.0 24:0.0 25:0.0 33:0.0 34:0.0 35:0.0 36:0.0 37:0.0 
380.0 1:-1.0699632634026595 2:2.583659511637529 3:-0.7112213648072445 6:0.0 7:0.0 9:0.0 10:0.0 11:0.0 12:0.0 13:0.0 14:0.0 15:-0.9202909975653624 16:-0.12767423981112308 17:1.7107739446012384 18:-0.06761285410286279 19:0.0 20:0.0 21:0.0 22:0.0 23:0.0 24:0.0 25:0.0 33:0.0 34:-0.7973780258369543 35:-0.33308127130260334 36:1.1506244176123714 37:-0.48001545634023574 
246.33399405868656 1:-1.0699632634026595 2:-0.3870110182345475 3:1.405898005667202 6:0.0 7:0.0 9:0.0 10:0.0 11:0.0 12:0.0 13:0.0 14:0.0 15:0.0 16:0.0 17:0.0 18:0.0 19:-0.9430377070138675 20:1.6853888865625075 21:-1.3004311465384506 22:-1.1986576372826634 23:-0.4539472601318375 24:0.9230524661099796 25:-0.3654175378789516 33:0.013267733320247157 34:0.0 35:0.0 36:0.0 37:0.0 
380.0 1:-1.0699632634026595 2:2.583659511637529 3:-0.7112213648072445 6:0.0 7:0.0 9:0.0 10:0.0 11:0.0 12:0.0 13:0.0 14:0.0 15:0.838189956986057 16:-0.2811752827502654 17:-0.5418454971434677 18:-0.17521139918878437 19:0.0 20:0.0 21:0.0 22:0.0 23:0.0 24:0.0 25:0.0 33:0.0 34:0.9399934045843328 35:0.26726894819241453 36:-0.8316107164469999 37:-0.8716280737165405 
380.0 1:-1.0699632634026595 2:-0.3870110182345475 3:1.405898005667202 6:0.0 7:0.0 9:0.0 10:0.0 11:0.0 12:0.0 13:0.0 14:0.0 15:0.0 16:0.0 17:0.0 18:0.0 19:-0.07893375140589105 20:-0.48095171726091673 21:0.3497077677189453 22:0.4024982531719805 23:-0.042478851039230374 24:-0.861785681469655 25:-0.7642630240224361 33:-0.159081986254969 34:0.0 35:0.0 36:0.0 37:0.0 
380.0 1:0.9345224575193416 2:-0.3870110182345475 3:-0.7112213648072445 6:-0.8643118682139929 7:-0.4181478048877707 9:-0.4404596288582117 10:-0.580448402726974 11:0.9338882799116482 12:0.8913015125179394 13:1.594184983680379 14:-0.250979498015144 15:0.0 16:0.0 17:0.0 18:0.0 19:0.0 20:0.0 21:0.0 22:0.0 23:0.0 24:0.0 25:0.0 33:0.0 34:0.0 35:0.0 36:0.0 37:0.0 
380.0 1:-1.0699632634026595 2:-0.3870110182345475 3:1.405898005667202 6:0.0 7:0.0 9:0.0 10:0.0 11:0.0 12:0.0 13:0.0 14:0.0 15:0.0 16:0.0 17:0.0 18:0.0 19:-0.07893375140589105 20:0.01240442861826547 21:-0.016989648569878002 22:0.04668594971534951 23:-0.4539472601318375 24:0.9230524661099796 25:0.2993249390268561 33:-0.010531114371653515 34:0.0 35:0.0 36:0.0 37:0.0 
380.0 1:-1.0699632634026595 2:2.583659511637529 3:-0.7112213648072445 6:0.0 7:0.0 9:0.0 10:0.0 11:0.0 12:0.0 13:0.0 14:0.0 15:1.001565272082453 16:-0.58817736862855 17:-0.5681299835102177 18:-0.17757952574232352 19:0.0 20:0.0 21:0.0 22:0.0 23:0.0 24:0.0 25:0.0 33:0.0 34:1.1014074956211968 35:-0.33308127130260334 36:0.15950685058268568 37:-0.08840283896393097 
380.0 1:-1.0699632634026595 2:-0.3870110182345475 3:1.405898005667202 6:0.0 7:0.0 9:0.0 10:0.0 11:0.0 12:0.0 13:0.0 14:0.0 15:0.0 16:0.0 17:0.0 18:0.0 19:-0.9430377070138675 20:-0.506229466805168 21:0.5030173411731534 22:0.5512569573503879 23:-0.4539472601318375 24:0.03063339232016232 25:0.03342794826453293 33:-0.16287521549515227 34:0.0 35:0.0 36:0.0 37:0.0 
380.0 1:0.9345224575193416 2:-0.3870110182345475 3:-0.7112213648072445 6:-0.9397255777753339 7:1.718023135806292 9:1.8683828903512338 10:1.819632262179626 11:0.9338882799116482 12:0.9499703941708777 13:1.594184983680379 14:-0.26786794521439183 15:0.0 16:0.0 17:0.0 18:0.0 19:0.0 20:0.0 21:0.0 22:0.0 23:0.0 24:0.0 25:0.0 33:0.0 34:0.0 35:0.0 36:0.0 37:0.0 
380.0 1:0.9345224575193416 2:-0.3870110182345475 3:-0.7112213648072445 6:-1.090553039038719 7:1.718023135806292 9:1.8683828903512338 10:1.819632262179626 11:0.9338882799116482 12:1.146511016573317 13:1.594184983680379 14:-0.26786794521439183 15:0.0 16:0.0 17:0.0 18:0.0 19:0.0 20:0.0 21:0.0 22:0.0 23:0.0 24:0.0 25:0.0 33:0.0 34:0.0 35:0.0 36:0.0 37:0.0 
380.0 1:-1.0699632634026595 2:-0.3870110182345475 3:1.405898005667202 6:0.0 7:0.0 9:0.0 10:0.0 11:0.0 12:0.0 13:0.0 14:0.0 15:0.0 16:0.0 17:0.0 18:0.0 19:-0.9430377070138675 20:-0.49724588880443615 21:0.3497077677189453 22:0.4024982531719805 23:0.917614123948043 24:-0.861785681469655 25:0.03342794826453293 33:-0.1587979354921947 34:0.0 35:0.0 36:0.0 37:0.0 
380.0 1:0.9345224575193416 2:-0.3870110182345475 3:-0.7112213648072445 6:1.2472724770981904 7:-0.05214207966624211 9:0.38481074423525063 10:-0.580448402726974 11:0.4381817670325008 12:-1.2295743192072264 13:0.10018600208725617 14:-0.26717893444682944 15:0.0 16:0.0 17:0.0 18:0.0 19:0.0 20:0.0 21:0.0 22:0.0 23:0.0 24:0.0 25:0.0 33:0.0 34:0.0 35:0.0 36:0.0 37:0.0 
380.0 1:0.9345224575193416 2:-0.3870110182345475 3:-0.7112213648072445 6:-0.18558828550530956 7:-0.12187049686881525 9:-0.3527628506714825 10:2.4658077680357304 11:0.8561886019708256 12:0.26941302803890704 13:-0.7898559443937533 14:0.14046350321030787 15:0.0 16:0.0 17:0.0 18:0.0 19:0.0 20:0.0 21:0.0 22:0.0 23:0.0 24:0.0 25:0.0 33:0.0 34:0.0 35:0.0 36:0.0 37:0.0 
380.0 1:0.9345224575193416 2:-0.3870110182345475 3:-0.7112213648072445 6:0.4931351567343641 7:-0.40611381895999865 9:-0.7402962667039398 10:-0.580448402726974 11:-1.4808840452895138 12:-0.37887728370500395 13:-0.8775045079258905 14:0.14046350321030787 15:0.0 16:0.0 17:0.0 18:0.0 19:0.0 20:0.0 21:0.0 22:0.0 23:0.0 24:0.0 25:0.0 33:0.0 34:0.0 35:0.0 36:0.0 37:0.0 
380.0 1:0.9345224575193416 2:-0.3870110182345475 3:-0.7112213648072445 6:-1.0151393154304769 7:-0.10374508514248502 9:-0.6580278577067795 10:-0.4604443667993448 11:0.9338882799116482 12:1.102509573891786 13:1.594184983680379 14:-0.26506187432122025 15:0.0 16:0.0 17:0.0 18:0.0 19:0.0 20:0.0 21:0.0 22:0.0 23:0.0 24:0.0 25:0.0 33:0.0 34:0.0 35:0.0 36:0.0 37:0.0 
380.0 1:0.9345224575193416 2:-0.3870110182345475 3:-0.7112213648072445 6:-1.090553039038719 7:0.5739953197839728 9:0.30832423286103533 10:2.2182169707820973 11:-1.527251219840798 12:1.0907756227146603 13:-0.6191468409020253 14:-0.2601152293036436 15:0.0 16:0.0 17:0.0 18:0.0 19:0.0 20:0.0 21:0.0 22:0.0 23:0.0 24:0.0 25:0.0 33:0.0 34:0.0 35:0.0 36:0.0 37:0.0 
380.0 1:-1.0699632634026595 2:-0.3870110182345475 3:1.405898005667202 6:0.0 7:0.0 9:0.0 10:0.0 11:0.0 12:0.0 13:0.0 14:0.0 15:0.0 16:0.0 17:0.0 18:0.0 19:-0.07893375140589105 20:-0.5103839577411223 21:0.2885914497075216 22:-1.1986576372826634 23:-0.4539472601318375 24:0.03063339232016232 25:0.8311189205515019 33:-0.1633029498816045 34:0.0 35:0.0 36:0.0 37:0.0 
380.0 1:0.9345224575193416 2:-0.3870110182345475 3:-0.7112213648072445 6:-0.8643118682139929 7:-0.4071320076746426 9:-0.8726381917614544 10:-0.580448402726974 11:-1.5152081771772974 12:1.0174393020903147 13:-0.887256623776698 14:-0.26453261423150193 15:0.0 16:0.0 17:0.0 18:0.0 19:0.0 20:0.0 21:0.0 22:0.0 23:0.0 24:0.0 25:0.0 33:0.0 34:0.0 35:0.0 36:0.0 37:0.0 
256.744168049673 1:-1.0699632634026595 2:2.583659511637529 3:-0.7112213648072445 6:0.0 7:0.0 9:0.0 10:0.0 11:0.0 12:0.0 13:0.0 14:0.0 15:-0.9202909975653624 16:-0.7416784115676922 17:-0.2789100285591568 18:-0.17662048481262674 19:0.0 20:0.0 21:0.0 22:0.0 23:0.0 24:0.0 25:0.0 33:0.0 34:-0.7973780258369543 35:-0.33308127130260334 36:2.1417419846420573 37:0.3032097784123738 
380.0 1:-1.0699632634026595 2:-0.3870110182345475 3:1.405898005667202 6:0.0 7:0.0 9:0.0 10:0.0 11:0.0 12:0.0 13:0.0 14:0.0 15:0.0 16:0.0 17:0.0 18:0.0 19:1.2172221820060736 20:-0.2280870872112193 21:-1.3004311465384506 22:-1.1986576372826634 23:-0.4539472601318375 24:0.03063339232016232 25:0.8311189205515019 33:-0.1613390382618783 34:0.0 35:0.0 36:0.0 37:0.0 
380.0 1:0.9345224575193416 2:-0.3870110182345475 3:-0.7112213648072445 6:1.1718588237244532 7:-0.23992057918141188 9:0.07932480428167543 10:-0.580448402726974 11:0.5959065733000505 12:-1.367445622840382 13:0.10018600208725617 14:-0.2659532724882155 15:0.0 16:0.0 17:0.0 18:0.0 19:0.0 20:0.0 21:0.0 22:0.0 23:0.0 24:0.0 25:0.0 33:0.0 34:0.0 35:0.0 36:0.0 37:0.0 
380.0 1:0.9345224575193416 2:-0.3870110182345475 3:-0.7112213648072445 6:-1.0151393154304769 7:1.0722958012254298 9:1.8683828903512338 10:-0.580448402726974 11:0.9338882799116482 12:0.8854345369293766 13:1.594184983680379 14:-0.2659532724882155 15:0.0 16:0.0 17:0.0 18:0.0 19:0.0 20:0.0 21:0.0 22:0.0 23:0.0 24:0.0 25:0.0 33:0.0 34:0.0 35:0.0 36:0.0 37:0.0 
380.0 1:0.9345224575193416 2:-0.3870110182345475 3:-0.7112213648072445 6:0.568548922483309 7:-0.7520998004178916 9:-0.3652850352136185 10:-0.580448402726974 11:0.3690342981533651 12:-0.5020815854830978 13:-0.8778996621211912 14:-0.14855902111364153 15:0.0 16:0.0 17:0.0 18:0.0 19:0.0 20:0.0 21:0.0 22:0.0 23:0.0 24:0.0 25:0.0 33:0.0 34:0.0 35:0.0 36:0.0 37:0.0 
380.0 1:-1.0699632634026595 2:-0.3870110182345475 3:1.405898005667202 6:0.0 7:0.0 9:0.0 10:0.0 11:0.0 12:0.0 13:0.0 14:0.0 15:0.0 16:0.0 17:0.0 18:0.0 19:-0.07893375140589105 20:-0.5103815179721212 21:-1.3004311465384506 22:-1.1986576372826634 23:-0.4539472601318375 24:-0.861785681469655 25:-0.7642630240224361 33:-0.14894828336680482 34:0.0 35:0.0 36:0.0 37:0.0 
380.0 1:-1.0699632634026595 2:2.583659511637529 3:-0.7112213648072445 6:0.0 7:0.0 9:0.0 10:0.0 11:0.0 12:0.0 13:0.0 14:0.0 15:0.0029114616486797655 16:2.9423466189717224 17:-0.5724577273616752 18:-0.057547956789703085 19:0.0 20:0.0 21:0.0 22:0.0 23:0.0 24:0.0 25:0.0 33:0.0 34:0.11474193371205868 35:-0.33308127130260334 36:1.1506244176123714 37:1.0864350131649834 
380.0 1:-1.0699632634026595 2:-0.3870110182345475 3:1.405898005667202 6:0.0 7:0.0 9:0.0 10:0.0 11:0.0 12:0.0 13:0.0 14:0.0 15:0.0 16:0.0 17:0.0 18:0.0 19:-0.9430377070138675 20:-0.5103914513173402 21:-0.43410825589569524 22:-0.3580508329685066 23:-0.4539472601318375 24:0.9230524661099796 25:1.2299644066949864 33:0.029389533369599225 34:0.0 35:0.0 36:0.0 37:0.0 
380.0 1:0.9345224575193416 2:-0.3870110182345475 3:-0.7112213648072445 6:-1.090553039038719 7:-1.2110714147695294 9:-0.6788826376835322 10:-0.580448402726974 11:0.0044385128637235765 12:1.0467737429167838 13:0.7641855494619774 14:-0.2679261013900694 15:0.0 16:0.0 17:0.0 18:0.0 19:0.0 20:0.0 21:0.0 22:0.0 23:0.0 24:0.0 25:0.0 33:0.0 34:0.0 35:0.0 36:0.0 37:0.0 
380.0 1:0.9345224575193416 2:-0.3870110182345475 3:-0.7112213648072445 6:-0.03476086638262738 7:-0.3758783489814737 9:-0.22113457649234386 10:-0.2204363083555821 11:-1.4263156580515095 12:0.14620872626081313 13:-0.8214850114328794 14:-0.26064529919189305 15:0.0 16:0.0 17:0.0 18:0.0 19:0.0 20:0.0 21:0.0 22:0.0 23:0.0 24:0.0 25:0.0 33:0.0 34:0.0 35:0.0 36:0.0 37:0.0 
380.0 1:0.9345224575193416 2:-0.3870110182345475 3:-0.7112213648072445 6:1.3226861304719277 7:-0.5541059681653726 9:-0.8736449967498282 10:-0.580448402726974 11:-1.4646917664657713 12:-1.1855733136420408 13:-0.8891107663431833 14:-0.26787317067852734 15:0.0 16:0.0 17:0.0 18:0.0 19:0.0 20:0.0 21:0.0 22:0.0 23:0.0 24:0.0 25:0.0 33:0.0 34:0.0 35:0.0 36:0.0 37:0.0 
380.0 1:0.9345224575193416 2:-0.3870110182345475 3:-0.7112213648072445 6:0.04065289936631755 7:0.07028360405164057 9:0.5971581252634618 10:0.3195818197900102 11:0.7462588110199497 12:0.1491422140550946 13:-0.8167657538111686 14:0.10322023470029577 15:0.0 16:0.0 17:0.0 18:0.0 19:0.0 20:0.0 21:0.0 22:0.0 23:0.0 24:0.0 25:0.0 33:0.0 34:0.0 35:0.0 36:0.0 37:0.0 
380.0 1:-1.0699632634026595 2:-0.3870110182345475 3:1.405898005667202 6:0.0 7:0.0 9:0.0 10:0.0 11:0.0 12:0.0 13:0.0 14:0.0 15:0.0 16:0.0 17:0.0 18:0.0 19:-0.9430377070138675 20:0.0028196218279599172 21:-0.47536168940975265 22:-0.3980796920553415 23:-0.4539472601318375 24:0.03063339232016232 25:-0.7642630240224361 33:-0.052754876405670836 34:0.0 35:0.0 36:0.0 37:0.0 
380.0 1:0.9345224575193416 2:-0.3870110182345475 3:-0.7112213648072445 6:-0.03476086638262738 7:-0.6548387760394503 9:-0.22857825445487556 10:-0.580448402726974 11:0.8603372137322748 12:0.22834507315165753 13:-0.48081360186562505 14:-0.22211130721378855 15:0.0 16:0.0 17:0.0 18:0.0 19:0.0 20:0.0 21:0.0 22:0.0 23:0.0 24:0.0 25:0.0 33:0.0 34:0.0 35:0.0 36:0.0 37:0.0 
380.0 1:0.9345224575193416 2:-0.3870110182345475 3:-0.7112213648072445 6:0.6439625758570463 7:-0.22243050252319127 9:-0.4221443704022425 10:-0.580448402726974 11:-1.2130791353147619 12:-0.531416026309567 13:-0.820358824954971 14:-0.26583991140616053 15:0.0 16:0.0 17:0.0 18:0.0 19:0.0 20:0.0 21:0.0 22:0.0 23:0.0 24:0.0 25:0.0 33:0.0 34:0.0 35:0.0 36:0.0 37:0.0 
380.0 1:-1.0699632634026595 2:-0.3870110182345475 3:1.405898005667202 6:0.0 7:0.0 9:0.0 10:0.0 11:0.0 12:0.0 13:0.0 14:0.0 15:0.0 16:0.0 17:0.0 18:0.0 19:-0.9430377070138675 20:0.5090716895704623 21:0.019680004538654896 22:0.08226709416831735 23:-0.4539472601318375 24:1.815471539899797 25:-0.12611024619286101 33:0.11537246696614359 34:0.0 35:0.0 36:0.0 37:0.0 
380.0 1:0.9345224575193416 2:-0.3870110182345475 3:-0.7112213648072445 6:-0.7134844209975088 7:-0.393702488071254 9:-1.0117253436587326 10:-0.580448402726974 11:0.17126287548219063 12:0.727029255852596 13:0.3491858323527766 14:-0.2680224673993264 15:0.0 16:0.0 17:0.0 18:0.0 19:0.0 20:0.0 21:0.0 22:0.0 23:0.0 24:0.0 25:0.0 33:0.0 34:0.0 35:0.0 36:0.0 37:0.0 
380.0 1:0.9345224575193416 2:-0.3870110182345475 3:-0.7112213648072445 6:-1.0151393154304769 7:-0.2964263148075182 9:-0.8791003902107649 10:-0.580448402726974 11:-1.5240329334266278 12:0.9558373697594406 13:-0.8862547842237501 14:-0.2680224673993264 15:0.0 16:0.0 17:0.0 18:0.0 19:0.0 20:0.0 21:0.0 22:0.0 23:0.0 24:0.0 25:0.0 33:0.0 34:0.0 35:0.0 36:0.0 37:0.0 
11.92024169567416 1:0.9345224575193416 2:-0.3870110182345475 3:-0.7112213648072445 6:1.2472724770981904 7:-0.4227272276588376 9:-0.30369875485156983 10:-0.580448402726974 11:0.6213460343541615 12:-1.2647757356222584 13:-0.44308635485569764 14:-0.24692630103882854 15:0.0 16:0.0 17:0.0 18:0.0 19:0.0 20:0.0 21:0.0 22:0.0 23:0.0 24:0.0 25:0.0 33:0.0 34:0.0 35:0.0 36:0.0 37:0.0 
380.0 1:-1.0699632634026595 2:-0.3870110182345475 3:1.405898005667202 6:0.0 7:0.0 9:0.0 10:0.0 11:0.0 12:0.0 13:0.0 14:0.0 15:0.0 16:0.0 17:0.0 18:0.0 19:-0.9430377070138675 20:-0.2115315118461461 21:-0.01698974692582182 22:0.04668585427902143 23:-0.4539472601318375 24:0.9230524661099796 25:-0.7642630240224361 33:-0.15654088348528541 34:0.0 35:0.0 36:0.0 37:0.0 
380.0 1:0.9345224575193416 2:-0.3870110182345475 3:-0.7112213648072445 6:-1.0151393154304769 7:-1.2972920823783802 9:-1.083855711250467 10:-0.580448402726974 11:0.9338882799116482 12:1.0673077203604087 13:1.594184983680379 14:-0.2662369975824374 15:0.0 16:0.0 17:0.0 18:0.0 19:0.0 20:0.0 21:0.0 22:0.0 23:0.0 24:0.0 25:0.0 33:0.0 34:0.0 35:0.0 36:0.0 37:0.0 
380.0 1:-1.0699632634026595 2:-0.3870110182345475 3:1.405898005667202 6:0.0 7:0.0 9:0.0 10:0.0 11:0.0 12:0.0 13:0.0 14:0.0 15:0.0 16:0.0 17:0.0 18:0.0 19:0.35311822639809715 20:0.36965631807510885 21:-0.4203570130350657 22:-0.3447077845032336 23:-0.4539472601318375 24:-0.861785681469655 25:0.8311189205515019 33:-0.15201910242382427 34:0.0 35:0.0 36:0.0 37:0.0 
380.0 1:-1.0699632634026595 2:2.583659511637529 3:-0.7112213648072445 6:0.0 7:0.0 9:0.0 10:0.0 11:0.0 12:0.0 13:0.0 14:0.0 15:0.524175545736289 16:1.023583582232444 17:-0.5724502977584968 18:-0.1570466559426533 19:0.0 20:0.0 21:0.0 22:0.0 23:0.0 24:0.0 25:0.0 33:0.0 34:0.629748550675706 35:-0.33308127130260334 36:0.15950685058268568 37:-0.3494779172148009 
380.0 1:-1.0699632634026595 2:-0.3870110182345475 3:1.405898005667202 6:0.0 7:0.0 9:0.0 10:0.0 11:0.0 12:0.0 13:0.0 14:0.0 15:0.0 16:0.0 17:0.0 18:0.0 19:-0.5109857292098793 20:-0.5103843062795511 21:0.055040146611243394 22:0.11657759934922042 23:-0.4539472601318375 24:0.9230524661099796 25:-0.44518663510764855 33:-0.1299859756897098 34:0.0 35:0.0 36:0.0 37:0.0 
380.0 1:0.9345224575193416 2:-0.3870110182345475 3:-0.7112213648072445 6:0.04065289936631755 7:-0.31160969496639024 9:-0.05823030166064651 10:-0.580448402726974 11:0.7111473318751731 12:0.04647145260427998 13:-0.8294133642373537 14:-0.02379481269190792 15:0.0 16:0.0 17:0.0 18:0.0 19:0.0 20:0.0 21:0.0 22:0.0 23:0.0 24:0.0 25:0.0 33:0.0 34:0.0 35:0.0 36:0.0 37:0.0 
380.0 1:0.9345224575193416 2:-0.3870110182345475 3:-0.7112213648072445 6:-0.11017463213157232 7:-1.040242845619384 9:-1.0516389016072294 10:2.219645670566738 11:-0.12531367068482066 12:0.06113845445934181 13:-0.5845635311429253 14:-0.02379481269190792 15:0.0 16:0.0 17:0.0 18:0.0 19:0.0 20:0.0 21:0.0 22:0.0 23:0.0 24:0.0 25:0.0 33:0.0 34:0.0 35:0.0 36:0.0 37:0.0 
380.0 1:0.9345224575193416 2:-0.3870110182345475 3:-0.7112213648072445 6:1.4735136619698175 7:0.576133739055331 9:1.1223343587691317 10:0.3195818197900102 11:0.92338600763327 12:-1.329311155747414 13:0.3491858323527766 14:-0.21486577169381776 15:0.0 16:0.0 17:0.0 18:0.0 19:0.0 20:0.0 21:0.0 22:0.0 23:0.0 24:0.0 25:0.0 33:0.0 34:0.0 35:0.0 36:0.0 37:0.0 
380.0 1:-1.0699632634026595 2:-0.3870110182345475 3:1.405898005667202 6:0.0 7:0.0 9:0.0 10:0.0 11:0.0 12:0.0 13:0.0 14:0.0 15:0.0 16:0.0 17:0.0 18:0.0 19:-0.5109857292098793 20:-0.5103920612595906 21:-0.47536168940975265 22:-0.3980796920553415 23:-0.4539472601318375 24:-1.7542047552594724 25:-0.7642630240224361 33:-0.16330276563246107 34:0.0 35:0.0 36:0.0 37:0.0 
380.0 1:0.9345224575193416 2:-0.3870110182345475 3:-0.7112213648072445 6:-1.090553039038719 7:0.5981781870812312 9:0.8683453696360155 10:-0.580448402726974 11:0.9338882799116482 12:1.0614407447718457 13:1.594184983680379 14:-0.2672293780088397 15:0.0 16:0.0 17:0.0 18:0.0 19:0.0 20:0.0 21:0.0 22:0.0 23:0.0 24:0.0 25:0.0 33:0.0 34:0.0 35:0.0 36:0.0 37:0.0 
380.0 1:0.9345224575193416 2:-0.3870110182345475 3:-0.7112213648072445 6:1.624340968717292 7:-0.5902411092212386 9:-0.7519294443636637 10:-0.580448402726974 11:-1.323628773064231 12:-1.5698536579477298 13:-0.8767328722111843 14:-0.2672293780088397 15:0.0 16:0.0 17:0.0 18:0.0 19:0.0 20:0.0 21:0.0 22:0.0 23:0.0 24:0.0 25:0.0 33:0.0 34:0.0 35:0.0 36:0.0 37:0.0 
380.0 1:0.9345224575193416 2:-0.3870110182345475 3:-0.7112213648072445 6:-0.33641581700319945 7:-0.3141814641685979 9:-0.2984999913820083 10:-0.580448402726974 11:0.3431687778328194 12:0.30754749513187507 13:-0.8327753872620358 14:-0.14281079925180856 15:0.0 16:0.0 17:0.0 18:0.0 19:0.0 20:0.0 21:0.0 22:0.0 23:0.0 24:0.0 25:0.0 33:0.0 34:0.0 35:0.0 36:0.0 37:0.0 
380.0 1:0.9345224575193416 2:-0.3870110182345475 3:-0.7112213648072445 6:-1.090553039038719 7:-0.0940417978440087 9:-0.36678247937198494 10:0.3195818197900102 11:0.9338882799116482 12:1.1259770391296924 13:1.594184983680379 14:-0.1944091477403472 15:0.0 16:0.0 17:0.0 18:0.0 19:0.0 20:0.0 21:0.0 22:0.0 23:0.0 24:0.0 25:0.0 33:0.0 34:0.0 35:0.0 36:0.0 37:0.0 
380.0 1:0.9345224575193416 2:-0.3870110182345475 3:-0.7112213648072445 6:-0.03476086638262738 7:-0.18615226680190264 9:-0.49236460370641766 10:-0.580448402726974 11:0.17269942205181998 12:-0.16766922233115727 13:-0.8717553643597997 14:-0.1944091477403472 15:0.0 16:0.0 17:0.0 18:0.0 19:0.0 20:0.0 21:0.0 22:0.0 23:0.0 24:0.0 25:0.0 33:0.0 34:0.0 35:0.0 36:0.0 37:0.0 
380.0 1:0.9345224575193416 2:-0.3870110182345475 3:-0.7112213648072445 6:-0.11017463213157232 7:-0.4954443690969628 9:-0.41200783220794107 10:1.9910665800598168 11:-1.4466860165664175 12:0.14327523846653167 13:-0.7535277016802426 14:0.1698058069489428 15:0.0 16:0.0 17:0.0 18:0.0 19:0.0 20:0.0 21:0.0 22:0.0 23:0.0 24:0.0 25:0.0 33:0.0 34:0.0 35:0.0 36:0.0 37:0.0 
380.0 1:0.9345224575193416 2:-0.3870110182345475 3:-0.7112213648072445 6:0.34230773761168193 7:-0.31200500873502823 9:-0.16190908640719434 10:-0.580448402726974 11:0.7578777899540077 12:0.055271915987124345 13:-0.86024191465118 14:0.1698058069489428 15:0.0 16:0.0 17:0.0 18:0.0 19:0.0 20:0.0 21:0.0 22:0.0 23:0.0 24:0.0 25:0.0 33:0.0 34:0.0 35:0.0 36:0.0 37:0.0 
380.0 1:-1.0699632634026595 2:-0.3870110182345475 3:1.405898005667202 6:0.0 7:0.0 9:0.0 10:0.0 11:0.0 12:0.0 13:0.0 14:0.0 15:0.0 16:0.0 17:0.0 18:0.0 19:-0.5109857292098793 20:-0.45716396949952204 21:-1.3004311465384506 22:-1.1986576372826634 23:-0.4539472601318375 24:2.707890613689614 25:-0.44518663510764855 33:-0.1469522509797422 34:0.0 35:0.0 36:0.0 37:0.0 
380.0 1:0.9345224575193416 2:-0.3870110182345475 3:-0.7112213648072445 6:-0.2610020512542545 7:-0.18242341131338963 9:-0.01784392513797854 10:-0.580448402726974 11:0.7264910792851735 12:0.3456819622248431 13:-0.8214850114328794 14:-0.09778715581151921 15:0.0 16:0.0 17:0.0 18:0.0 19:0.0 20:0.0 21:0.0 22:0.0 23:0.0 24:0.0 25:0.0 33:0.0 34:0.0 35:0.0 36:0.0 37:0.0 
380.0 1:0.9345224575193416 2:-0.3870110182345475 3:-0.7112213648072445 6:-1.0151393154304769 7:-0.5403061861967335 9:-0.3003733165555271 10:2.1196422648239786 11:-0.7560204008784022 12:0.9646373960259395 13:-0.2733137433110246 14:-0.26412622264117536 15:0.0 16:0.0 17:0.0 18:0.0 19:0.0 20:0.0 21:0.0 22:0.0 23:0.0 24:0.0 25:0.0 33:0.0 34:0.0 35:0.0 36:0.0 37:0.0 
380.0 1:-1.0699632634026595 2:2.583659511637529 3:-0.7112213648072445 6:0.0 7:0.0 9:0.0 10:0.0 11:0.0 12:0.0 13:0.0 14:0.0 15:1.5338852029545966 16:-0.8184289330372634 17:-0.5724485762650774 18:-0.14338715244622227 19:0.0 20:0.0 21:0.0 22:0.0 23:0.0 24:0.0 25:0.0 33:0.0 34:1.6273372404656716 35:-0.33308127130260334 36:0.15950685058268568 37:-0.8716280737165405 
380.0 1:-1.0699632634026595 2:-0.3870110182345475 3:1.405898005667202 6:0.0 7:0.0 9:0.0 10:0.0 11:0.0 12:0.0 13:0.0 14:0.0 15:0.0 16:0.0 17:0.0 18:0.0 19:-0.5109857292098793 20:-0.5103826507220146 21:1.0025404269895748 22:1.0359521089903818 23:-0.4539472601318375 24:0.03063339232016232 25:-0.7642630240224361 33:-0.10810638990844626 34:0.0 35:0.0 36:0.0 37:0.0 
380.0 1:0.9345224575193416 2:-0.3870110182345475 3:-0.7112213648072445 6:0.1160665527400548 7:0.36209363039846254 9:0.8781518943129698 10:-0.580448402726974 11:0.8486329933985175 12:0.020070499572092323 13:-0.8154907930827224 14:0.1258084299864704 15:0.0 16:0.0 17:0.0 18:0.0 19:0.0 20:0.0 21:0.0 22:0.0 23:0.0 24:0.0 25:0.0 33:0.0 34:0.0 35:0.0 36:0.0 37:0.0 
192.5101162357586 1:0.9345224575193416 2:-0.3870110182345475 3:-0.7112213648072445 6:2.001409685086809 7:-0.9236445314808457 9:-0.2870087079114011 10:-0.580448402726974 11:0.9338882799116482 12:-1.86319719197973 13:1.594184983680379 14:-0.26174757960867573 15:0.0 16:0.0 17:0.0 18:0.0 19:0.0 20:0.0 21:0.0 22:0.0 23:0.0 24:0.0 25:0.0 33:0.0 34:0.0 35:0.0 36:0.0 37:0.0 
380.0 1:0.9345224575193416 2:-0.3870110182345475 3:-0.7112213648072445 6:-0.4118295265645405 7:-1.4704769016055828 9:-1.0325525740784458 10:-0.580448402726974 11:0.9338882799116482 12:0.33101496036978123 13:0.7641855494619774 14:-0.2668746335834425 15:0.0 16:0.0 17:0.0 18:0.0 19:0.0 20:0.0 21:0.0 22:0.0 23:0.0 24:0.0 25:0.0 33:0.0 34:0.0 35:0.0 36:0.0 37:0.0 
380.0 1:-1.0699632634026595 2:-0.3870110182345475 3:1.405898005667202 6:0.0 7:0.0 9:0.0 10:0.0 11:0.0 12:0.0 13:0.0 14:0.0 15:0.0 16:0.0 17:0.0 18:0.0 19:-0.9430377070138675 20:-0.34833284512596174 21:-0.750384825393328 22:-0.6649389912250608 23:-0.4539472601318375 24:-0.861785681469655 25:0.8311189205515019 33:-0.16310706233395722 34:0.0 35:0.0 36:0.0 37:0.0 
380.0 1:0.9345224575193416 2:-0.3870110182345475 3:-0.7112213648072445 6:-1.090553039038719 7:-0.5794509057977778 9:-0.6963108115791221 10:2.219645670566738 11:-1.4662098519002993 12:1.2374473897306604 13:-0.8084449574781519 14:0.12187528315560389 15:0.0 16:0.0 17:0.0 18:0.0 19:0.0 20:0.0 21:0.0 22:0.0 23:0.0 24:0.0 25:0.0 33:0.0 34:0.0 35:0.0 36:0.0 37:0.0 
380.0 1:0.9345224575193416 2:-0.3870110182345475 3:-0.7112213648072445 6:0.34230773761168193 7:0.9863912600302683 9:1.4385373781709057 10:-0.18043496751687088 11:0.7464774544715183 12:0.08460591969724801 13:-0.8335633614084457 14:0.12187528315560389 15:0.0 16:0.0 17:0.0 18:0.0 19:0.0 20:0.0 21:0.0 22:0.0 23:0.0 24:0.0 25:0.0 33:0.0 34:0.0 35:0.0 36:0.0 37:0.0 
380.0 1:0.9345224575193416 2:-0.3870110182345475 3:-0.7112213648072445 6:-0.6380706552485638 7:-0.4831403264174902 9:-0.5650022687297135 10:-0.580448402726974 11:-1.4558081297565315 12:0.8531670454249715 13:-0.7493428305833432 14:0.12187528315560389 15:0.0 16:0.0 17:0.0 18:0.0 19:0.0 20:0.0 21:0.0 22:0.0 23:0.0 24:0.0 25:0.0 33:0.0 34:0.0 35:0.0 36:0.0 37:0.0 
380.0 1:-1.0699632634026595 2:-0.3870110182345475 3:1.405898005667202 6:0.0 7:0.0 9:0.0 10:0.0 11:0.0 12:0.0 13:0.0 14:0.0 15:0.0 16:0.0 17:0.0 18:0.0 19:-0.5109857292098793 20:-0.057303257129411284 21:-0.9337336073046975 22:-0.8428452145306223 23:0.003239857675860975 24:0.03063339232016232 25:-0.7642630240224361 33:-0.04507782876312223 34:0.0 35:0.0 36:0.0 37:0.0 
380.0 1:0.9345224575193416 2:-0.3870110182345475 3:-0.7112213648072445 6:-0.2610020512542545 7:-0.4145417143917743 9:-0.019183560069003396 10:-0.580448402726974 11:0.8119090187984237 12:0.14327523846653167 13:-0.8068848081657114 14:0.10158853784529094 15:0.0 16:0.0 17:0.0 18:0.0 19:0.0 20:0.0 21:0.0 22:0.0 23:0.0 24:0.0 25:0.0 33:0.0 34:0.0 35:0.0 36:0.0 37:0.0 
380.0 1:0.9345224575193416 2:-0.3870110182345475 3:-0.7112213648072445 6:0.266893971862737 7:-0.8549141700587805 9:-0.7940500012382923 10:-0.580448402726974 11:-1.0665518284087532 12:-0.4228787263865349 13:-0.8335633614084457 14:-0.26467168635315486 15:0.0 16:0.0 17:0.0 18:0.0 19:0.0 20:0.0 21:0.0 22:0.0 23:0.0 24:0.0 25:0.0 33:0.0 34:0.0 35:0.0 36:0.0 37:0.0 
380.0 1:0.9345224575193416 2:-0.3870110182345475 3:-0.7112213648072445 6:1.2472724770981904 7:0.4492663497054226 9:0.9840521680467861 10:-0.580448402726974 11:-0.41715503493872574 12:-1.0799690643969448 13:-0.06581388475642425 14:-0.26467168635315486 15:0.0 16:0.0 17:0.0 18:0.0 19:0.0 20:0.0 21:0.0 22:0.0 23:0.0 24:0.0 25:0.0 33:0.0 34:0.0 35:0.0 36:0.0 37:0.0 
380.0 1:-1.0699632634026595 2:2.583659511637529 3:-0.7112213648072445 6:0.0 7:0.0 9:0.0 10:0.0 11:0.0 12:0.0 13:0.0 14:0.0 15:0.05664280784451917 16:1.8678393183977267 17:0.044549524454623304 18:-0.07384350482053308 19:0.0 20:0.0 21:0.0 22:0.0 23:0.0 24:0.0 25:0.0 33:0.0 34:0.16782826686631247 35:-0.33308127130260334 36:-0.8316107164469999 37:-0.5583379798154967 
380.0 1:-1.0699632634026595 2:-0.3870110182345475 3:1.405898005667202 6:0.0 7:0.0 9:0.0 10:0.0 11:0.0 12:0.0 13:0.0 14:0.0 15:0.0 16:0.0 17:0.0 18:0.0 19:0.7851702042020854 20:0.08298346043778818 21:-0.38368735992653275 22:-0.30912664005026574 23:-0.4539472601318375 24:-0.861785681469655 25:-0.2324690424977902 33:0.0032875713849339723 34:0.0 35:0.0 36:0.0 37:0.0 
380.0 1:0.9345224575193416 2:-0.3870110182345475 3:-0.7112213648072445 6:-0.03476086638262738 7:-0.5422411775798511 9:-0.8303153440217491 10:0.7695969310485022 11:-1.4518462882543022 12:-0.2791400100484708 13:-0.8114065968509205 14:0.3421396347861068 15:0.0 16:0.0 17:0.0 18:0.0 19:0.0 20:0.0 21:0.0 22:0.0 23:0.0 24:0.0 25:0.0 33:0.0 34:0.0 35:0.0 36:0.0 37:0.0 
380.0 1:0.9345224575193416 2:-0.3870110182345475 3:-0.7112213648072445 6:-1.090553039038719 7:0.22170976290879957 9:-0.8932527932470193 10:-0.580448402726974 11:-1.4762396678115617 12:1.1142430879525664 13:-0.8918229370795451 14:-0.2643895533100923 15:0.0 16:0.0 17:0.0 18:0.0 19:0.0 20:0.0 21:0.0 22:0.0 23:0.0 24:0.0 25:0.0 33:0.0 34:0.0 35:0.0 36:0.0 37:0.0 
380.0 1:0.9345224575193416 2:-0.3870110182345475 3:-0.7112213648072445 6:1.0964449456003005 7:1.1378124348385859 9:0.355749169154119 10:-0.580448402726974 11:-1.3144749251805763 12:-1.2149073173521645 13:-0.5127366570278712 14:-0.2643895533100923 15:0.0 16:0.0 17:0.0 18:0.0 19:0.0 20:0.0 21:0.0 22:0.0 23:0.0 24:0.0 25:0.0 33:0.0 34:0.0 35:0.0 36:0.0 37:0.0 
117.26774946037972 1:-1.0699632634026595 2:-0.3870110182345475 3:1.405898005667202 6:0.0 7:0.0 9:0.0 10:0.0 11:0.0 12:0.0 13:0.0 14:0.0 15:0.0 16:0.0 17:0.0 18:0.0 19:-0.9430377070138675 20:-0.041619027836184014 21:-1.3004311465384506 22:-1.1986576372826634 23:-0.4539472601318375 24:0.03063339232016232 25:-0.3654175378789516 33:-0.07655372409757151 34:0.0 35:0.0 36:0.0 37:0.0 
380.0 1:0.9345224575193416 2:-0.3870110182345475 3:-0.7112213648072445 6:0.7947901073549362 7:1.0222333914779267 9:0.5485053169482353 10:0.3195818197900102 11:0.8844770758381104 12:-0.989032254123256 13:0.3491858323527766 14:-0.2243555025205933 15:0.0 16:0.0 17:0.0 18:0.0 19:0.0 20:0.0 21:0.0 22:0.0 23:0.0 24:0.0 25:0.0 33:0.0 34:0.0 35:0.0 36:0.0 37:0.0 
380.0 1:-1.0699632634026595 2:-0.3870110182345475 3:1.405898005667202 6:0.0 7:0.0 9:0.0 10:0.0 11:0.0 12:0.0 13:0.0 14:0.0 15:0.0 16:0.0 17:0.0 18:0.0 19:-0.9430377070138675 20:-0.5103877045292313 21:-0.47536168940975265 22:-0.3980796920553415 23:0.5747237472712879 24:-0.861785681469655 25:-0.7642630240224361 33:-0.14211571096493658 34:0.0 35:0.0 36:0.0 37:0.0 
380.0 1:-1.0699632634026595 2:2.583659511637529 3:-0.7112213648072445 6:0.0 7:0.0 9:0.0 10:0.0 11:0.0 12:0.0 13:0.0 14:0.0 15:0.25202967374012814 16:-0.8184289330372634 17:0.5872729761500135 18:-0.11218597077542718 19:0.0 20:0.0 21:0.0 22:0.0 23:0.0 24:0.0 25:0.0 33:0.0 34:-0.7973780258369543 35:-0.33308127130260334 36:0.15950685058268568 37:0.6948223957886785 
129.19178065751453 1:-1.0699632634026595 2:2.583659511637529 3:-0.7112213648072445 6:0.0 7:0.0 9:0.0 10:0.0 11:0.0 12:0.0 13:0.0 14:0.0 15:-0.9202909975653624 16:-0.664927890098121 17:2.6893070461555313 18:-0.005306346926159863 19:0.0 20:0.0 21:0.0 22:0.0 23:0.0 24:0.0 25:0.0 33:0.0 34:-0.7973780258369543 35:-0.33308127130260334 36:1.1506244176123714 37:0.6948223957886785 
380.0 1:-1.0699632634026595 2:-0.3870110182345475 3:1.405898005667202 6:0.0 7:0.0 9:0.0 10:0.0 11:0.0 12:0.0 13:0.0 14:0.0 15:0.0 16:0.0 17:0.0 18:0.0 19:-0.5109857292098793 20:2.626442644156144 21:-1.3004311465384506 22:-1.1986576372826634 23:-0.4539472601318375 24:1.815471539899797 25:1.1501953094662898 33:0.113069352673379 34:0.0 35:0.0 36:0.0 37:0.0 
380.0 1:0.9345224575193416 2:-0.3870110182345475 3:-0.7112213648072445 6:-0.5626569456872227 7:-0.07622959423961197 9:0.26832276779655745 10:0.619591929726326 11:0.9338882799116482 12:0.3808833786398751 13:1.594184983680379 14:-0.26765962629577356 15:0.0 16:0.0 17:0.0 18:0.0 19:0.0 20:0.0 21:0.0 22:0.0 23:0.0 24:0.0 25:0.0 33:0.0 34:0.0 35:0.0 36:0.0 37:0.0 
380.0 1:-1.0699632634026595 2:-0.3870110182345475 3:1.405898005667202 6:0.0 7:0.0 9:0.0 10:0.0 11:0.0 12:0.0 13:0.0 14:0.0 15:0.0 16:0.0 17:0.0 18:0.0 19:2.08132613761405 20:-0.09564248429063349 21:0.07468468091334188 22:0.13563900172042526 23:-0.4539472601318375 24:0.9230524661099796 25:0.8311189205515019 33:-0.1593506829224582 34:0.0 35:0.0 36:0.0 37:0.0 
380.0 1:0.9345224575193416 2:-0.3870110182345475 3:-0.7112213648072445 6:-0.7888981305588498 7:-0.3820886049971474 9:-1.0325168211238944 10:-0.580448402726974 11:-1.3891592809395743 12:1.035039791739658 13:-0.86946413058694 14:0.10661731785850963 15:0.0 16:0.0 17:0.0 18:0.0 19:0.0 20:0.0 21:0.0 22:0.0 23:0.0 24:0.0 25:0.0 33:0.0 34:0.0 35:0.0 36:0.0 37:0.0 
380.0 1:0.9345224575193416 2:-0.3870110182345475 3:-0.7112213648072445 6:0.04065289936631755 7:-0.16346566343053093 9:-0.7344491889525347 10:-0.580448402726974 11:-0.5157699534049042 12:-0.04446492055306336 13:-0.8035911596172256 14:0.10661731785850963 15:0.0 16:0.0 17:0.0 18:0.0 19:0.0 20:0.0 21:0.0 22:0.0 23:0.0 24:0.0 25:0.0 33:0.0 34:0.0 35:0.0 36:0.0 37:0.0 
380.0 1:0.9345224575193416 2:-0.3870110182345475 3:-0.7112213648072445 6:-0.7134844209975088 7:-0.08238896049343046 9:-0.6239103074484742 10:-0.580448402726974 11:0.8607576591803584 12:0.8267660923927838 13:-0.7449043309351164 14:0.10661731785850963 15:0.0 16:0.0 17:0.0 18:0.0 19:0.0 20:0.0 21:0.0 22:0.0 23:0.0 24:0.0 25:0.0 33:0.0 34:0.0 35:0.0 36:0.0 37:0.0 
380.0 1:0.9345224575193416 2:-0.3870110182345475 3:-0.7112213648072445 6:-0.6380706552485638 7:-0.11712253455139804 9:-0.05871311742701734 10:-0.580448402726974 11:0.6042798788348122 12:0.6712938619939393 13:-0.8501252767242716 14:-0.014972517049280418 15:0.0 16:0.0 17:0.0 18:0.0 19:0.0 20:0.0 21:0.0 22:0.0 23:0.0 24:0.0 25:0.0 33:0.0 34:0.0 35:0.0 36:0.0 37:0.0 
380.0 1:0.9345224575193416 2:-0.3870110182345475 3:-0.7112213648072445 6:1.0210312922265632 7:-0.6379224552143109 9:-0.7687647383802156 10:2.219645670566738 11:-0.7976216017690909 12:-0.8394274364293198 13:-0.7298134321311456 14:-0.014972517049280418 15:0.0 16:0.0 17:0.0 18:0.0 19:0.0 20:0.0 21:0.0 22:0.0 23:0.0 24:0.0 25:0.0 33:0.0 34:0.0 35:0.0 36:0.0 37:0.0 
380.0 1:-1.0699632634026595 2:-0.3870110182345475 3:1.405898005667202 6:0.0 7:0.0 9:0.0 10:0.0 11:0.0 12:0.0 13:0.0 14:0.0 15:0.0 16:0.0 17:0.0 18:0.0 19:-0.5109857292098793 20:-0.5103917127211618 21:1.1657107739468355 22:1.1942788776768352 23:3.2035496823297502 24:-0.861785681469655 25:-0.7642630240224361 33:-0.16249059540826058 34:0.0 35:0.0 36:0.0 37:0.0 
380.0 1:0.9345224575193416 2:-0.3870110182345475 3:-0.7112213648072445 6:0.4931351567343641 7:-0.11956642355306751 9:0.2938267059621529 10:-0.580448402726974 11:0.701951601951978 12:-0.6604868665598783 13:-0.8720990494257286 14:1.4867309704215297 15:0.0 16:0.0 17:0.0 18:0.0 19:0.0 20:0.0 21:0.0 22:0.0 23:0.0 24:0.0 25:0.0 33:0.0 34:0.0 35:0.0 36:0.0 37:0.0 
380.0 1:-1.0699632634026595 2:-0.3870110182345475 3:1.405898005667202 6:0.0 7:0.0 9:0.0 10:0.0 11:0.0 12:0.0 13:0.0 14:0.0 15:0.0 16:0.0 17:0.0 18:0.0 19:0.7851702042020854 20:3.9247482912066234 21:-1.3004311465384506 22:-1.1986576372826634 23:-0.4539472601318375 24:1.815471539899797 25:-0.7642630240224361 33:-0.0958231136803685 34:0.0 35:0.0 36:0.0 37:0.0 
380.0 1:0.9345224575193416 2:-0.3870110182345475 3:-0.7112213648072445 6:1.2472724770981904 7:1.2298505039290981 9:1.1884010800327747 10:-0.18043496751687088 11:0.7124023157407635 12:-1.250108296650851 13:-0.658670623483854 14:-0.23260840598863033 15:0.0 16:0.0 17:0.0 18:0.0 19:0.0 20:0.0 21:0.0 22:0.0 23:0.0 24:0.0 25:0.0 33:0.0 34:0.0 35:0.0 36:0.0 37:0.0 
380.0 1:-1.0699632634026595 2:-0.3870110182345475 3:1.405898005667202 6:0.0 7:0.0 9:0.0 10:0.0 11:0.0 12:0.0 13:0.0 14:0.0 15:0.0 16:0.0 17:0.0 18:0.0 19:-0.5109857292098793 20:-0.39974226336487334 21:-0.9337336073046975 22:-0.8428452145306223 23:0.003239857675860975 24:-0.861785681469655 25:-0.7642630240224361 33:-0.14395820239914825 34:0.0 35:0.0 36:0.0 37:0.0 
380.0 1:0.9345224575193416 2:-0.3870110182345475 3:-0.7112213648072445 6:-0.4118295265645405 7:1.0394249498423782 9:1.8683828903512338 10:-0.32329689908369663 11:0.9338882799116482 12:-0.050331896141626274 13:1.594184983680379 14:-0.2677211849164958 15:0.0 16:0.0 17:0.0 18:0.0 19:0.0 20:0.0 21:0.0 22:0.0 23:0.0 24:0.0 25:0.0 33:0.0 34:0.0 35:0.0 36:0.0 37:0.0 
380.0 1:-1.0699632634026595 2:2.583659511637529 3:-0.7112213648072445 6:0.0 7:0.0 9:0.0 10:0.0 11:0.0 12:0.0 13:0.0 14:0.0 15:-0.6690794213994132 16:-0.050923718341551946 17:-0.5704494693805686 18:-0.17711893687004035 19:0.0 20:0.0 21:0.0 22:0.0 23:0.0 24:0.0 25:0.0 33:0.0 34:-0.5491820961101196 35:-0.33308127130260334 36:1.1506244176123714 37:0.17267223928693898 
380.0 1:-1.0699632634026595 2:-0.3870110182345475 3:1.405898005667202 6:0.0 7:0.0 9:0.0 10:0.0 11:0.0 12:0.0 13:0.0 14:0.0 15:0.0 16:0.0 17:0.0 18:0.0 19:-0.9430377070138675 20:-0.5084601127490936 21:-1.0646970053921143 22:-0.9699210712781078 23:-0.4539472601318375 24:0.9230524661099796 25:0.2993249390268561 33:-0.16213745121670334 34:0.0 35:0.0 36:0.0 37:0.0 
380.0 1:-1.0699632634026595 2:-0.3870110182345475 3:1.405898005667202 6:0.0 7:0.0 9:0.0 10:0.0 11:0.0 12:0.0 13:0.0 14:0.0 15:0.0 16:0.0 17:0.0 18:0.0 19:1.2172221820060736 20:0.03244538827072253 21:-0.6816290536919272 22:-0.598224178362172 23:-0.4539472601318375 24:0.03063339232016232 25:0.2993249390268561 33:-0.13029305759541174 34:0.0 35:0.0 36:0.0 37:0.0 
380.0 1:-1.0699632634026595 2:-0.3870110182345475 3:1.405898005667202 6:0.0 7:0.0 9:0.0 10:0.0 11:0.0 12:0.0 13:0.0 14:0.0 15:0.0 16:0.0 17:0.0 18:0.0 19:1.2172221820060736 20:-0.5103832606642649 21:-0.14533392622946223 22:-1.1986576372826634 23:-0.4539472601318375 24:0.9230524661099796 25:0.5120425316367144 33:-0.11870071565516334 34:0.0 35:0.0 36:0.0 37:0.0 
380.0 1:0.9345224575193416 2:-0.3870110182345475 3:-0.7112213648072445 6:-1.0151393154304769 7:-0.9287537061800908 9:-0.36300408835882475 10:0.21957846769323217 11:-0.9454492832166995 12:0.8414330942478456 13:-0.8052679261510002 14:-0.21775656932051285 15:0.0 16:0.0 17:0.0 18:0.0 19:0.0 20:0.0 21:0.0 22:0.0 23:0.0 24:0.0 25:0.0 33:0.0 34:0.0 35:0.0 36:0.0 37:0.0 
380.0 1:0.9345224575193416 2:-0.3870110182345475 3:-0.7112213648072445 6:-1.0151393154304769 7:-0.4881504759358057 9:-0.6917890184012414 10:-0.580448402726974 11:0.9338882799116482 12:0.9734378594087839 13:1.594184983680379 14:-0.045376011389594656 15:0.0 16:0.0 17:0.0 18:0.0 19:0.0 20:0.0 21:0.0 22:0.0 23:0.0 24:0.0 25:0.0 33:0.0 34:0.0 35:0.0 36:0.0 37:0.0 
380.0 1:-1.0699632634026595 2:-0.3870110182345475 3:1.405898005667202 6:0.0 7:0.0 9:0.0 10:0.0 11:0.0 12:0.0 13:0.0 14:0.0 15:0.0 16:0.0 17:0.0 18:0.0 19:-0.07893375140589105 20:0.665913982502735 21:-1.3004311465384506 22:-1.1986576372826634 23:-0.4539472601318375 24:2.707890613689614 25:-0.7642630240224361 33:-0.14564715288050895 34:0.0 35:0.0 36:0.0 37:0.0 
380.0 1:0.9345224575193416 2:-0.3870110182345475 3:-0.7112213648072445 6:0.266893971862737 7:-0.060816160878951225 9:0.2938267059621529 10:-0.580448402726974 11:0.701951601951978 12:-0.23513856736693983 13:-0.8720990494257286 14:1.4867309704215297 15:0.0 16:0.0 17:0.0 18:0.0 19:0.0 20:0.0 21:0.0 22:0.0 23:0.0 24:0.0 25:0.0 33:0.0 34:0.0 35:0.0 36:0.0 37:0.0 
380.0 1:0.9345224575193416 2:-0.3870110182345475 3:-0.7112213648072445 6:-1.0151393154304769 7:1.39699871369755 9:1.8683828903512338 10:-0.580448402726974 11:0.9338882799116482 12:0.8179656290099394 13:1.594184983680379 14:-0.24409957722245867 15:0.0 16:0.0 17:0.0 18:0.0 19:0.0 20:0.0 21:0.0 22:0.0 23:0.0 24:0.0 25:0.0 33:0.0 34:0.0 35:0.0 36:0.0 37:0.0 
380.0 1:-1.0699632634026595 2:-0.3870110182345475 3:1.405898005667202 6:0.0 7:0.0 9:0.0 10:0.0 11:0.0 12:0.0 13:0.0 14:0.0 15:0.0 16:0.0 17:0.0 18:0.0 19:0.35311822639809715 20:-0.320449770826891 21:-0.20033850424820537 22:-0.13122034516745812 23:-0.4539472601318375 24:0.03063339232016232 25:-0.7642630240224361 33:-0.10925794705482855 34:0.0 35:0.0 36:0.0 37:0.0 
380.0 1:0.9345224575193416 2:-0.3870110182345475 3:-0.7112213648072445 6:-0.8643118682139929 7:-0.8618161595899807 9:-0.9669655392197251 10:2.1196422648239786 11:-0.7506064640070317 12:0.6683603741996579 13:-0.8597263870522867 14:-0.0661029687926024 15:0.0 16:0.0 17:0.0 18:0.0 19:0.0 20:0.0 21:0.0 22:0.0 23:0.0 24:0.0 25:0.0 33:0.0 34:0.0 35:0.0 36:0.0 37:0.0 
