svm_type c_svc
kernel_type rbf
gamma 0.03
nr_class 2
total_sv 5091
rho -3.4340776431224196
label 1 -1
nr_sv 3103 1988
SV
19.0 1:1.0 2:-1.0 3:-1.0 6:-0.12000000476837158 7:-0.6032051260790781 8:0.3441836431939136 9:-0.8207945972681046 10:-0.2857142735500723 11:-0.13461536169052124 12:0.5294117857512342 13:-0.5555555555555556 14:-0.9998277173436955 15:-1.0 16:-1.0 17:-1.0 18:-1.0 19:-1.0 20:-1.0 21:-1.0 22:-1.0 23:-1.0 24:-1.0 25:-1.0 
19.0 1:-1.0 2:1.0 3:-1.0 6:-1.0 7:-0.9621009194534308 8:-0.4653500317792659 9:-1.0 10:-1.0 11:-1.0 12:-1.0 13:-1.0 14:-1.0 15:-0.27777785062789917 16:-0.6326530612244898 17:-0.9927822500450495 18:-0.9297142857142857 19:-1.0 20:-1.0 21:-1.0 22:-1.0 23:-1.0 24:-1.0 25:-1.0 
19.0 1:-1.0 2:-1.0 3:1.0 6:-1.0 7:-0.9621009194534308 8:-0.4653500317792659 9:-1.0 10:-1.0 11:-1.0 12:-1.0 13:-1.0 14:-1.0 15:-1.0 16:-1.0 17:-1.0 18:-1.0 19:-1.0 20:-0.804140127388535 21:-0.27777785062789917 22:-0.5 23:-1.0 24:-0.19999999999999996 25:-0.6000000000000001 
19.0 1:1.0 2:-1.0 3:-1.0 6:-0.5200000107288361 7:-0.4583182588471667 8:-0.4653500317792659 9:0.027027010917663574 10:-1.0 11:0.5789474248886108 12:0.7567027349504383 13:0.33333333333333326 14:-0.9964676880920922 15:-1.0 16:-1.0 17:-1.0 18:-1.0 19:-1.0 20:-1.0 21:-1.0 22:-1.0 23:-1.0 24:-1.0 25:-1.0 
19.0 1:1.0 2:-1.0 3:-1.0 6:-0.9200000017881393 7:0.0944150142293374 8:1.0 9:1.0 10:-0.7959183547482891 11:1.0 12:0.9399759279759317 13:1.0 14:-0.9999103142454099 15:-1.0 16:-1.0 17:-1.0 18:-1.0 19:-1.0 20:-1.0 21:-1.0 22:-1.0 23:-1.0 24:-1.0 25:-1.0 
19.0 1:1.0 2:-1.0 3:-1.0 6:-0.880000002682209 7:-0.38398188183585524 8:1.0 9:-0.6785714328289032 10:-1.0 11:-0.7999999970197678 12:0.9359744980845837 13:-0.5 14:-0.9999103142454099 15:-1.0 16:-1.0 17:-1.0 18:-1.0 19:-1.0 20:-1.0 21:-1.0 22:-1.0 23:-1.0 24:-1.0 25:-1.0 
19.0 1:-1.0 2:1.0 3:-1.0 6:-1.0 7:-0.9621009194534308 8:-0.4653500317792659 9:-1.0 10:-1.0 11:-1.0 12:-1.0 13:-1.0 14:-1.0 15:-0.19999998807907104 16:-0.5918367346938775 17:-0.999947380274522 18:-0.9729142857142857 19:-1.0 20:-1.0 21:-1.0 22:-1.0 23:-1.0 24:-1.0 25:-1.0 
19.0 1:1.0 2:-1.0 3:-1.0 6:-0.760000005364418 7:-0.7109831570969548 8:-0.1535628980978644 9:-0.8072232455015182 10:-1.0 11:-0.154557466506958 12:0.899959959464548 13:-0.9974143503555268 14:-0.9924164341367704 15:-1.0 16:-1.0 17:-1.0 18:-1.0 19:-1.0 20:-1.0 21:-1.0 22:-1.0 23:-1.0 24:-1.0 25:-1.0 
19.0 1:-1.0 2:-1.0 3:1.0 6:-1.0 7:-0.9621009194534308 8:-0.4653500317792659 9:-1.0 10:-1.0 11:-1.0 12:-1.0 13:-1.0 14:-1.0 15:-1.0 16:-1.0 17:-1.0 18:-1.0 19:-0.33333333333333337 20:-0.9732484076433121 21:-1.0 22:-1.0 23:-1.0 24:-0.4 25:-0.7142857142857143 
19.0 1:1.0 2:-1.0 3:-1.0 6:0.559999942779541 7:-0.6572495685743504 8:0.7557358365222504 9:-0.795173853635788 10:-1.0 11:-0.6296296417713165 12:0.14685872607891048 13:-0.9801980198019802 14:-0.9996678496348967 15:-1.0 16:-1.0 17:-1.0 18:-1.0 19:-1.0 20:-1.0 21:-1.0 22:-1.0 23:-1.0 24:-1.0 25:-1.0 
19.0 1:1.0 2:-1.0 3:-1.0 6:-0.9600000008940697 7:0.06565575899278353 8:0.511471847727837 9:0.8285714387893677 10:0.4761904559167871 11:1.0 12:0.9823930167875088 13:1.0 14:-0.9996678496348967 15:-1.0 16:-1.0 17:-1.0 18:-1.0 19:-1.0 20:-1.0 21:-1.0 22:-1.0 23:-1.0 24:-1.0 25:-1.0 
19.0 1:1.0 2:-1.0 3:-1.0 6:-0.880000002682209 7:-0.5696807297152282 8:-0.4653500317792659 9:-0.19999998807907104 10:-1.0 11:1.0 12:0.885554191719331 13:1.0 14:-0.9999967433643324 15:-1.0 16:-1.0 17:-1.0 18:-1.0 19:-1.0 20:-1.0 21:-1.0 22:-1.0 23:-1.0 24:-1.0 25:-1.0 
19.0 1:1.0 2:-1.0 3:-1.0 6:-0.4399999976158142 7:-0.40362111656955446 8:-0.01251990407439274 9:-0.17049098014831543 10:-1.0 11:1.0 12:0.700680331331704 13:1.0 14:-0.9870870881094779 15:-1.0 16:-1.0 17:-1.0 18:-1.0 19:-1.0 20:-1.0 21:-1.0 22:-1.0 23:-1.0 24:-1.0 25:-1.0 
19.0 1:-1.0 2:1.0 3:-1.0 6:-1.0 7:-0.9621009194534308 8:-0.4653500317792659 9:-1.0 10:-1.0 11:-1.0 12:-1.0 13:-1.0 14:-1.0 15:-0.875 16:-0.9591836734693877 17:-0.999994598329066 18:-0.9999966742857143 19:-1.0 20:-1.0 21:-1.0 22:-1.0 23:-1.0 24:-1.0 25:-1.0 
19.0 1:-1.0 2:-1.0 3:1.0 6:-1.0 7:-0.9621009194534308 8:-0.4653500317792659 9:-1.0 10:-1.0 11:-1.0 12:-1.0 13:-1.0 14:-1.0 15:-1.0 16:-1.0 17:-1.0 18:-1.0 19:-1.0 20:-0.9999907324840764 21:-0.875 22:-0.875 23:-0.875 24:-0.8 25:-0.4285714285714286 
19.0 1:1.0 2:-1.0 3:-1.0 6:0.3999999761581421 7:-0.5696807297152282 8:-0.4653500317792659 9:-0.19999998807907104 10:-1.0 11:1.0 12:0.286914615868753 13:1.0 14:-0.999927356743836 15:-1.0 16:-1.0 17:-1.0 18:-1.0 19:-1.0 20:-1.0 21:-1.0 22:-1.0 23:-1.0 24:-1.0 25:-1.0 
19.0 1:1.0 2:-1.0 3:-1.0 6:-0.9600000008940697 7:-0.5696807297152282 8:-0.4653500317792659 9:-0.19999998807907104 10:-1.0 11:1.0 12:0.9791916820632414 13:1.0 14:-0.999927356743836 15:-1.0 16:-1.0 17:-1.0 18:-1.0 19:-1.0 20:-1.0 21:-1.0 22:-1.0 23:-1.0 24:-1.0 25:-1.0 
19.0 1:1.0 2:-1.0 3:-1.0 6:-0.9200000017881393 7:-0.5696807297152282 8:-0.4653500317792659 9:-0.19999998807907104 10:-1.0 11:1.0 12:0.9807923494253752 13:1.0 14:-0.999927356743836 15:-1.0 16:-1.0 17:-1.0 18:-1.0 19:-1.0 20:-1.0 21:-1.0 22:-1.0 23:-1.0 24:-1.0 25:-1.0 
19.0 1:1.0 2:-1.0 3:-1.0 6:-0.9200000017881393 7:-0.5696807297152282 8:-0.4653500317792659 9:-0.19999998807907104 10:-1.0 11:1.0 12:0.971988798190633 13:1.0 14:-0.999927356743836 15:-1.0 16:-1.0 17:-1.0 18:-1.0 19:-1.0 20:-1.0 21:-1.0 22:-1.0 23:-1.0 24:-1.0 25:-1.0 
19.0 1:-1.0 2:-1.0 3:1.0 6:-1.0 7:-0.9621009194534308 8:-0.4653500317792659 9:-1.0 10:-1.0 11:-1.0 12:-1.0 13:-1.0 14:-1.0 15:-1.0 16:-1.0 17:-1.0 18:-1.0 19:-1.0 20:-0.964968152866242 21:-1.0 22:-1.0 23:-1.0 24:-0.8 25:0.1428571428571428 
19.0 1:1.0 2:-1.0 3:-1.0 6:0.0 7:-0.47385353113471285 8:0.13239197647993683 9:-0.69810351729393 10:-1.0 11:0.5338376760482788 12:0.43977584455566476 13:-0.9928443649373881 14:-0.96631767939045 15:-1.0 16:-1.0 17:-1.0 18:-1.0 19:-1.0 20:-1.0 21:-1.0 22:-1.0 23:-1.0 24:-1.0 25:-1.0 
19.0 1:1.0 2:-1.0 3:-1.0 6:-0.24000000953674316 7:-0.6945416951904406 8:-0.4653500317792659 9:-0.45454543828964233 10:-0.4642857051625542 11:1.0 12:0.6070428409877937 13:1.0 14:-0.9999982265244337 15:-1.0 16:-1.0 17:-1.0 18:-1.0 19:-1.0 20:-1.0 21:-1.0 22:-1.0 23:-1.0 24:-1.0 25:-1.0 
19.0 1:-1.0 2:1.0 3:-1.0 6:-1.0 7:-0.9621009194534308 8:-0.4653500317792659 9:-1.0 10:-1.0 11:-1.0 12:-1.0 13:-1.0 14:-1.0 15:-0.625 16:-0.7142857142857143 17:-0.9984307214614075 18:-0.9989657142857142 19:-1.0 20:-1.0 21:-1.0 22:-1.0 23:-1.0 24:-1.0 25:-1.0 
19.0 1:-1.0 2:-1.0 3:1.0 6:-1.0 7:-0.9621009194534308 8:-0.4653500317792659 9:-1.0 10:-1.0 11:-1.0 12:-1.0 13:-1.0 14:-1.0 15:-1.0 16:-1.0 17:-1.0 18:-1.0 19:-1.0 20:-0.9971178343949044 21:-0.625 22:-0.625 23:-0.625 24:-0.8 25:-0.5714285714285714 
19.0 1:1.0 2:-1.0 3:-1.0 6:0.23076927661895752 7:-0.05524515141527031 8:0.07091532059326999 9:0.11681640148162842 10:-1.0 11:0.8454440832138062 12:0.3917466409031809 13:0.0 14:-0.9832183729187878 15:-1.0 16:-1.0 17:-1.0 18:-1.0 19:-1.0 20:-1.0 21:-1.0 22:-1.0 23:-1.0 24:-1.0 25:-1.0 
19.0 1:1.0 2:-1.0 3:-1.0 6:-0.9200000017881393 7:-0.2854354419340478 8:0.22462172105184863 9:-0.22591745853424072 10:0.9047619939661367 11:0.9549691677093506 12:0.9551821486592085 13:-0.9865319865319865 14:1.0 15:-1.0 16:-1.0 17:-1.0 18:-1.0 19:-1.0 20:-1.0 21:-1.0 22:-1.0 23:-1.0 24:-1.0 25:-1.0 
19.0 1:1.0 2:-1.0 3:-1.0 6:-0.7999999970197678 7:-0.505136252842955 8:0.07746149127688184 9:-0.5446864068508148 10:-1.0 11:0.9158914089202881 12:0.9119647261665644 13:-0.9578947368421052 14:1.0 15:-1.0 16:-1.0 17:-1.0 18:-1.0 19:-1.0 20:-1.0 21:-1.0 22:-1.0 23:-1.0 24:-1.0 25:-1.0 
19.0 1:1.0 2:-1.0 3:-1.0 6:-0.9200000017881393 7:-0.727864089099704 8:1.0 9:-0.9510489515960217 10:-1.0 11:1.0 12:0.963185366212884 13:1.0 14:-0.9996991241810783 15:-1.0 16:-1.0 17:-1.0 18:-1.0 19:-1.0 20:-1.0 21:-1.0 22:-1.0 23:-1.0 24:-1.0 25:-1.0 
19.0 1:1.0 2:-1.0 3:-1.0 6:-0.9600000008940697 7:-0.727864089099704 8:1.0 9:-0.9510489515960217 10:-1.0 11:1.0 12:0.9967987845327257 13:1.0 14:-0.9996991241810783 15:-1.0 16:-1.0 17:-1.0 18:-1.0 19:-1.0 20:-1.0 21:-1.0 22:-1.0 23:-1.0 24:-1.0 25:-1.0 
19.0 1:1.0 2:-1.0 3:-1.0 6:-0.36000001430511475 7:-0.46071772873325667 8:1.0 9:-0.3111979365348816 10:-1.0 11:0.895635724067688 12:0.7302922005032049 13:-0.75 14:-0.9889898294732515 15:-1.0 16:-1.0 17:-1.0 18:-1.0 19:-1.0 20:-1.0 21:-1.0 22:-1.0 23:-1.0 24:-1.0 25:-1.0 
19.0 1:1.0 2:-1.0 3:-1.0 6:-0.9600000008940697 7:-0.4511370993623237 8:1.0 9:-0.3333333134651184 10:0.07142858967489163 11:1.0 12:0.9743897992338335 13:1.0 14:-0.9889898294732515 15:-1.0 16:-1.0 17:-1.0 18:-1.0 19:-1.0 20:-1.0 21:-1.0 22:-1.0 23:-1.0 24:-1.0 25:-1.0 
19.0 1:1.0 2:-1.0 3:-1.0 6:-0.9600000008940697 7:-0.6473472380877981 8:1.0 9:-0.7333333194255829 10:-1.0 11:-0.3333333134651184 12:0.9839936841496424 13:0.33333333333333326 14:-0.9889898294732515 15:-1.0 16:-1.0 17:-1.0 18:-1.0 19:-1.0 20:-1.0 21:-1.0 22:-1.0 23:-1.0 24:-1.0 25:-1.0 
19.0 1:-1.0 2:-1.0 3:1.0 6:-1.0 7:-0.9621009194534308 8:-0.4653500317792659 9:-1.0 10:-1.0 11:-1.0 12:-1.0 13:-1.0 14:-1.0 15:-1.0 16:-1.0 17:-1.0 18:-1.0 19:-0.5555555555555556 20:-0.9999993312101911 21:-1.0 22:-1.0 23:-1.0 24:-0.6 25:-0.5714285714285714 
19.0 1:1.0 2:-1.0 3:-1.0 6:-0.7999999970197678 7:-0.6585370162636335 8:1.0 9:-0.8021977990865707 10:-1.0 11:0.3333333730697632 12:0.9239697313825672 13:-0.19999999999999996 14:-0.9996610969636098 15:-1.0 16:-1.0 17:-1.0 18:-1.0 19:-1.0 20:-1.0 21:-1.0 22:-1.0 23:-1.0 24:-1.0 25:-1.0 
19.0 1:1.0 2:-1.0 3:-1.0 6:-0.880000002682209 7:-0.6683594989135269 8:1.0 9:-0.8222222179174423 10:-1.0 11:1.0 12:0.976790800277034 13:1.0 14:-0.9996610969636098 15:-1.0 16:-1.0 17:-1.0 18:-1.0 19:-1.0 20:-1.0 21:-1.0 22:-1.0 23:-1.0 24:-1.0 25:-1.0 
19.0 1:-1.0 2:1.0 3:-1.0 6:-1.0 7:-0.9621009194534308 8:-0.4653500317792659 9:-1.0 10:-1.0 11:-1.0 12:-1.0 13:-1.0 14:-1.0 15:-1.0 16:-0.7142857142857143 17:-0.9999830033630093 18:-0.9999999988571429 19:-1.0 20:-1.0 21:-1.0 22:-1.0 23:-1.0 24:-1.0 25:-1.0 
19.0 1:1.0 2:-1.0 3:-1.0 6:-0.36000001430511475 7:-0.5378398040899266 8:-0.31163391456010936 9:-0.2474815845489502 10:-1.0 11:0.7933579683303833 12:0.6134453911793354 13:-0.9436619718309859 14:-0.93296398392933 15:-1.0 16:-1.0 17:-1.0 18:-1.0 19:-1.0 20:-1.0 21:-1.0 22:-1.0 23:-1.0 24:-1.0 25:-1.0 
19.0 1:1.0 2:-1.0 3:-1.0 6:-0.9200000017881393 7:0.34679955330456624 8:0.514038906695429 9:1.0 10:-0.8095237963459117 11:1.0 12:0.9711884645095661 13:1.0 14:-0.9999001145992281 15:-1.0 16:-1.0 17:-1.0 18:-1.0 19:-1.0 20:-1.0 21:-1.0 22:-1.0 23:-1.0 24:-1.0 25:-1.0 
19.0 1:-1.0 2:1.0 3:-1.0 6:-1.0 7:-0.9621009194534308 8:-0.4653500317792659 9:-1.0 10:-1.0 11:-1.0 12:-1.0 13:-1.0 14:-1.0 15:-0.5666666626930237 16:-1.0 17:-0.999932944774612 18:-0.9998912 19:-1.0 20:-1.0 21:-1.0 22:-1.0 23:-1.0 24:-1.0 25:-1.0 
19.0 1:-1.0 2:-1.0 3:1.0 6:-1.0 7:-0.9621009194534308 8:-0.4653500317792659 9:-1.0 10:-1.0 11:-1.0 12:-1.0 13:-1.0 14:-1.0 15:-1.0 16:-1.0 17:-1.0 18:-1.0 19:-1.0 20:-0.9996968152866242 21:-0.5666666626930237 22:-0.5666666626930237 23:-1.0 24:-0.4 25:-0.6190476190476191 
19.0 1:1.0 2:-1.0 3:-1.0 6:0.24000000953674316 7:-0.5041400407087646 8:-0.24283470790194916 9:-0.2081146240234375 10:-1.0 11:0.8547290563583374 12:0.36774712508657315 13:-0.963302752293578 14:-0.8876263174501171 15:-1.0 16:-1.0 17:-1.0 18:-1.0 19:-1.0 20:-1.0 21:-1.0 22:-1.0 23:-1.0 24:-1.0 25:-1.0 
19.0 1:1.0 2:-1.0 3:-1.0 6:0.24000000953674316 7:-0.7848474056328486 8:0.569688301168745 9:-0.9211822673678398 10:-1.0 11:1.0 12:0.3373349222340054 13:1.0 14:-0.9985805094120991 15:-1.0 16:-1.0 17:-1.0 18:-1.0 19:-1.0 20:-1.0 21:-1.0 22:-1.0 23:-1.0 24:-1.0 25:-1.0 
19.0 1:1.0 2:-1.0 3:-1.0 6:-0.6399999856948853 7:-0.49513767223619765 8:0.569688301168745 9:-0.3690987229347229 10:-1.0 11:0.007299304008483887 12:0.76310528514198 13:-0.8 14:-0.9985805094120991 15:-1.0 16:-1.0 17:-1.0 18:-1.0 19:-1.0 20:-1.0 21:-1.0 22:-1.0 23:-1.0 24:-1.0 25:-1.0 
19.0 1:1.0 2:-1.0 3:-1.0 6:-0.9600000008940697 7:0.10391149783904563 8:0.6926344509252933 9:0.7122302055358887 10:-0.14285709420028914 11:1.0 12:0.9975989989567995 13:1.0 14:-0.9985805094120991 15:-1.0 16:-1.0 17:-1.0 18:-1.0 19:-1.0 20:-1.0 21:-1.0 22:-1.0 23:-1.0 24:-1.0 25:-1.0 
19.0 1:1.0 2:-1.0 3:-1.0 6:-0.9600000008940697 7:-0.697318534548429 8:0.6926344509252933 9:-0.9211822673678398 10:-1.0 11:1.0 12:1.0 13:1.0 14:-0.9985805094120991 15:-1.0 16:-1.0 17:-1.0 18:-1.0 19:-1.0 20:-1.0 21:-1.0 22:-1.0 23:-1.0 24:-1.0 25:-1.0 
19.0 1:1.0 2:-1.0 3:-1.0 6:0.12000000476837158 7:0.31765822134539934 8:0.5919921315638028 9:0.7843136787414551 10:-1.0 11:0.7465565204620361 12:0.3221289400647147 13:-0.6923076923076923 14:-0.9971949318326224 15:-1.0 16:-1.0 17:-1.0 18:-1.0 19:-1.0 20:-1.0 21:-1.0 22:-1.0 23:-1.0 24:-1.0 25:-1.0 
19.0 1:1.0 2:-1.0 3:-1.0 6:-0.7199999988079071 7:-0.07744513053780933 8:0.7279947252619792 9:-0.28234678506851196 10:-1.0 11:-0.7130307555198669 12:0.8359344575491316 13:-0.7142857142857143 14:-0.9971949318326224 15:-1.0 16:-1.0 17:-1.0 18:-1.0 19:-1.0 20:-1.0 21:-1.0 22:-1.0 23:-1.0 24:-1.0 25:-1.0 
19.0 1:1.0 2:-1.0 3:-1.0 6:-0.1600000262260437 7:-0.8388166198294307 8:-0.4653500317792659 9:-0.7486687898635864 10:-1.0 11:0.1504424810409546 12:0.5302120001753077 13:-0.9428571428571428 14:-0.9995599165848476 15:-1.0 16:-1.0 17:-1.0 18:-1.0 19:-1.0 20:-1.0 21:-1.0 22:-1.0 23:-1.0 24:-1.0 25:-1.0 
19.0 1:-1.0 2:-1.0 3:1.0 6:-1.0 7:-0.9621009194534308 8:-0.4653500317792659 9:-1.0 10:-1.0 11:-1.0 12:-1.0 13:-1.0 14:-1.0 15:-1.0 16:-1.0 17:-1.0 18:-1.0 19:-1.0 20:-0.9989554140127389 21:-0.055555522441864014 22:-0.055555522441864014 23:-1.0 24:-0.8 25:-0.7142857142857143 
19.0 1:1.0 2:-1.0 3:-1.0 6:-0.3999999761581421 7:-0.3636301272268816 8:-0.05523080952887116 9:-0.25573140382766724 10:-1.0 11:0.2613973617553711 12:0.6702680092221434 13:-0.9814814814814815 14:-0.9162815893952947 15:-1.0 16:-1.0 17:-1.0 18:-1.0 19:-1.0 20:-1.0 21:-1.0 22:-1.0 23:-1.0 24:-1.0 25:-1.0 
19.0 1:1.0 2:-1.0 3:-1.0 6:-0.9600000008940697 7:-0.8590493920981324 8:1.0 9:-0.9327731058001518 10:-1.0 11:1.0 12:0.9607843651696832 13:1.0 14:-0.999786881731451 15:-1.0 16:-1.0 17:-1.0 18:-1.0 19:-1.0 20:-1.0 21:-1.0 22:-1.0 23:-1.0 24:-1.0 25:-1.0 
19.0 1:1.0 2:-1.0 3:-1.0 6:-0.2799999713897705 7:-0.7560647310930493 8:-0.3132207052333119 9:-0.6541237533092499 10:-1.0 11:0.9309778213500977 12:0.6638655782875948 13:-0.8571428571428572 14:-0.9608497647004025 15:-1.0 16:-1.0 17:-1.0 18:-1.0 19:-1.0 20:-1.0 21:-1.0 22:-1.0 23:-1.0 24:-1.0 25:-1.0 
19.0 1:1.0 2:-1.0 3:-1.0 6:-0.48000001907348633 7:-0.7314806756713851 8:1.0 9:-0.9913888704031706 10:-1.0 11:-0.8524590134620667 12:0.7591036167366456 13:-0.8181818181818181 14:-0.9985111268260949 15:-1.0 16:-1.0 17:-1.0 18:-1.0 19:-1.0 20:-1.0 21:-1.0 22:-1.0 23:-1.0 24:-1.0 25:-1.0 
19.0 1:1.0 2:-1.0 3:-1.0 6:0.48000001907348633 7:-0.5490270385961209 8:-0.4653500317792659 9:-0.15789473056793213 10:-1.0 11:1.0 12:0.2468987666143625 13:1.0 14:-0.9980661132045052 15:-1.0 16:-1.0 17:-1.0 18:-1.0 19:-1.0 20:-1.0 21:-1.0 22:-1.0 23:-1.0 24:-1.0 25:-1.0 
19.0 1:1.0 2:-1.0 3:-1.0 6:-0.5600000023841858 7:-0.4842769922842478 8:-0.21913504847331566 9:-0.2576514482498169 10:-1.0 11:0.9020135402679443 12:0.7839136030787386 13:-0.9272727272727272 14:-0.86856862459756 15:-1.0 16:-1.0 17:-1.0 18:-1.0 19:-1.0 20:-1.0 21:-1.0 22:-1.0 23:-1.0 24:-1.0 25:-1.0 
19.0 1:1.0 2:-1.0 3:-1.0 6:0.15999996662139893 7:-0.8178774968152736 8:-0.20707340429610954 9:-0.9540455602109432 10:0.9047619939661367 11:0.7285068035125732 12:0.44937984872846704 13:-0.6 14:-0.86856862459756 15:-1.0 16:-1.0 17:-1.0 18:-1.0 19:-1.0 20:-1.0 21:-1.0 22:-1.0 23:-1.0 24:-1.0 25:-1.0 
19.0 1:1.0 2:-1.0 3:-1.0 6:-0.9200000017881393 7:-0.8457182461014083 8:-0.276507846906476 9:-0.9316050410270691 10:-1.0 11:-0.9827036876231432 12:0.9871948996169166 13:-0.875 14:-0.86856862459756 15:-1.0 16:-1.0 17:-1.0 18:-1.0 19:-1.0 20:-1.0 21:-1.0 22:-1.0 23:-1.0 24:-1.0 25:-1.0 
19.0 1:1.0 2:-1.0 3:-1.0 6:0.20000004768371582 7:-0.6263748573240258 8:0.18427808049914707 9:-0.9604165442287922 10:-1.0 11:-0.6396694183349609 12:0.3197279390215142 13:-0.9393939393939394 14:-0.9045601012864133 15:-1.0 16:-1.0 17:-1.0 18:-1.0 19:-1.0 20:-1.0 21:-1.0 22:-1.0 23:-1.0 24:-1.0 25:-1.0 
19.0 1:1.0 2:-1.0 3:-1.0 6:0.12000000476837158 7:-0.8241647172280396 8:0.4280353129351526 9:-0.9220235198736191 10:-1.0 11:-0.016666650772094727 12:0.45978394806834966 13:-0.6923076923076923 14:-0.999684659742285 15:-1.0 16:-1.0 17:-1.0 18:-1.0 19:-1.0 20:-1.0 21:-1.0 22:-1.0 23:-1.0 24:-1.0 25:-1.0 
19.0 1:1.0 2:-1.0 3:-1.0 6:-0.19999998807907104 7:-0.31768168815971576 8:0.059549549321359585 9:-0.2373555302619934 10:-1.0 11:0.5757219791412354 12:0.6598639098822605 13:-0.9529411764705882 14:-0.9453334735508235 15:-1.0 16:-1.0 17:-1.0 18:-1.0 19:-1.0 20:-1.0 21:-1.0 22:-1.0 23:-1.0 24:-1.0 25:-1.0 
19.0 1:1.0 2:-1.0 3:-1.0 6:-0.12000000476837158 7:0.02298210454399996 8:0.9398363514101182 9:-0.4834672808647156 10:-1.0 11:-0.987779182381928 12:0.48619448251558306 13:-0.9365079365079365 14:-0.9929201310408541 15:-1.0 16:-1.0 17:-1.0 18:-1.0 19:-1.0 20:-1.0 21:-1.0 22:-1.0 23:-1.0 24:-1.0 25:-1.0 
19.0 1:1.0 2:-1.0 3:-1.0 6:-0.9200000017881393 7:0.6794204380292317 8:0.9157709269108327 9:1.0 10:0.5384616432609157 11:1.0 12:0.943177381957192 13:1.0 14:-0.9929201310408541 15:-1.0 16:-1.0 17:-1.0 18:-1.0 19:-1.0 20:-1.0 21:-1.0 22:-1.0 23:-1.0 24:-1.0 25:-1.0 
19.0 1:-1.0 2:1.0 3:-1.0 6:-1.0 7:-0.9621009194534308 8:-0.4653500317792659 9:-1.0 10:-1.0 11:-1.0 12:-1.0 13:-1.0 14:-1.0 15:-0.8571428507566452 16:-0.5510204081632653 17:-0.99394640326359 18:-0.9955085714285714 19:-1.0 20:-1.0 21:-1.0 22:-1.0 23:-1.0 24:-1.0 25:-1.0 
19.0 1:-1.0 2:-1.0 3:1.0 6:-1.0 7:-0.9621009194534308 8:-0.4653500317792659 9:-1.0 10:-1.0 11:-1.0 12:-1.0 13:-1.0 14:-1.0 15:-1.0 16:-1.0 17:-1.0 18:-1.0 19:-1.0 20:-0.987484076433121 21:-0.8571428507566452 22:-0.8571428507566452 23:-0.8571428507566452 24:-0.6 25:-0.4285714285714286 
19.0 1:1.0 2:-1.0 3:-1.0 6:0.039999961853027344 7:0.3091829480025592 8:0.16082872045591645 9:1.0 10:-0.8571428525812771 11:1.0 12:0.5358143359427758 13:1.0 14:-0.9991455901874828 15:-1.0 16:-1.0 17:-1.0 18:-1.0 19:-1.0 20:-1.0 21:-1.0 22:-1.0 23:-1.0 24:-1.0 25:-1.0 
19.0 1:1.0 2:-1.0 3:-1.0 6:-0.9200000017881393 7:-0.6956603250807973 8:0.055932337807177435 9:-0.9742647055536509 10:-1.0 11:1.0 12:0.9839936841496424 13:1.0 14:-0.9991455901874828 15:-1.0 16:-1.0 17:-1.0 18:-1.0 19:-1.0 20:-1.0 21:-1.0 22:-1.0 23:-1.0 24:-1.0 25:-1.0 
19.0 1:-1.0 2:1.0 3:-1.0 6:-1.0 7:-0.9621009194534308 8:-0.4653500317792659 9:-1.0 10:-1.0 11:-1.0 12:-1.0 13:-1.0 14:-1.0 15:-0.8999999985098839 16:-0.8775510204081632 17:-0.993201345203724 18:-0.9457142857142857 19:-1.0 20:-1.0 21:-1.0 22:-1.0 23:-1.0 24:-1.0 25:-1.0 
19.0 1:-1.0 2:-1.0 3:1.0 6:-1.0 7:-0.9621009194534308 8:-0.4653500317792659 9:-1.0 10:-1.0 11:-1.0 12:-1.0 13:-1.0 14:-1.0 15:-1.0 16:-1.0 17:-1.0 18:-1.0 19:-1.0 20:-0.8487261146496815 21:-0.8999999985098839 22:-0.8999999985098839 23:-1.0 24:-0.8 25:-0.1428571428571429 
19.0 1:1.0 2:-1.0 3:-1.0 6:-0.19999998807907104 7:-0.5461015846084232 8:0.6396836519717513 9:-0.870129868388176 10:-1.0 11:-0.8181818127632141 12:0.6366547101592945 13:-0.33333333333333337 14:-0.9979888269889196 15:-1.0 16:-1.0 17:-1.0 18:-1.0 19:-1.0 20:-1.0 21:-1.0 22:-1.0 23:-1.0 24:-1.0 25:-1.0 
19.0 1:1.0 2:-1.0 3:-1.0 6:-0.9600000008940697 7:0.220497993685139 8:0.6210463374625272 9:0.5416666269302368 10:0.0 11:0.9459459781646729 12:0.976790800277034 13:0.33333333333333326 14:-0.9985220240951169 15:-1.0 16:-1.0 17:-1.0 18:-1.0 19:-1.0 20:-1.0 21:-1.0 22:-1.0 23:-1.0 24:-1.0 25:-1.0 
19.0 1:-1.0 2:1.0 3:-1.0 6:-1.0 7:-0.9621009194534308 8:-0.4653500317792659 9:-1.0 10:-1.0 11:-1.0 12:-1.0 13:-1.0 14:-1.0 15:-0.30000001192092896 16:-1.0 17:-0.9986682087179898 18:-0.998936 19:-1.0 20:-1.0 21:-1.0 22:-1.0 23:-1.0 24:-1.0 25:-1.0 
19.0 1:-1.0 2:-1.0 3:1.0 6:-1.0 7:-0.9621009194534308 8:-0.4653500317792659 9:-1.0 10:-1.0 11:-1.0 12:-1.0 13:-1.0 14:-1.0 15:-1.0 16:-1.0 17:-1.0 18:-1.0 19:-1.0 20:-0.9970350318471337 21:-0.30000001192092896 22:-0.30000001192092896 23:-1.0 24:-0.8 25:-0.47619047619047616 
19.0 1:1.0 2:-1.0 3:-1.0 6:-0.880000002682209 7:-0.7449859095412052 8:0.09370372256303416 9:-0.8117262274026871 10:-1.0 11:-0.8585858643054962 12:0.9447778108053395 13:-0.9836065573770492 14:-0.9947049483495696 15:-1.0 16:-1.0 17:-1.0 18:-1.0 19:-1.0 20:-1.0 21:-1.0 22:-1.0 23:-1.0 24:-1.0 25:-1.0 
19.0 1:1.0 2:-1.0 3:-1.0 6:-0.6399999856948853 7:-0.7352063476618043 8:0.291138777263811 9:-0.9963356540538371 10:0.14285717934978304 11:1.0 12:0.7350940833326127 13:1.0 14:-0.9947049483495696 15:-1.0 16:-1.0 17:-1.0 18:-1.0 19:-1.0 20:-1.0 21:-1.0 22:-1.0 23:-1.0 24:-1.0 25:-1.0 
19.0 1:1.0 2:-1.0 3:-1.0 6:-0.9600000008940697 7:-0.7766519944256722 8:0.08185460249977106 9:-0.7713097780942917 10:-0.7142857051625542 11:-0.5849056541919708 12:0.9887955669790505 13:-0.5555555555555556 14:-0.9947049483495696 15:-1.0 16:-1.0 17:-1.0 18:-1.0 19:-1.0 20:-1.0 21:-1.0 22:-1.0 23:-1.0 24:-1.0 25:-1.0 
19.0 1:1.0 2:-1.0 3:-1.0 6:-0.9600000008940697 7:-0.6319002048229676 8:0.5813451822204856 9:-0.5789473652839661 10:-1.0 11:1.0 12:1.0 13:1.0 14:-0.9947049483495696 15:-1.0 16:-1.0 17:-1.0 18:-1.0 19:-1.0 20:-1.0 21:-1.0 22:-1.0 23:-1.0 24:-1.0 25:-1.0 
19.0 1:1.0 2:-1.0 3:-1.0 6:-0.9200000017881393 7:-0.7879430515858304 8:0.2659888312715313 9:-0.7217391431331635 10:-1.0 11:-0.4285714030265808 12:0.9447778108053395 13:-0.19999999999999996 14:-0.9892065097932509 15:-1.0 16:-1.0 17:-1.0 18:-1.0 19:-1.0 20:-1.0 21:-1.0 22:-1.0 23:-1.0 24:-1.0 25:-1.0 
19.0 1:1.0 2:-1.0 3:-1.0 6:-0.880000002682209 7:-0.4715756895900731 8:-0.4653500317792659 9:0.0 10:-1.0 11:0.0 12:0.9623850325318171 13:0.33333333333333326 14:-0.999999999936193 15:-1.0 16:-1.0 17:-1.0 18:-1.0 19:-1.0 20:-1.0 21:-1.0 22:-1.0 23:-1.0 24:-1.0 25:-1.0 
19.0 1:-1.0 2:-1.0 3:1.0 6:-1.0 7:-0.9621009194534308 8:-0.4653500317792659 9:-1.0 10:-1.0 11:-1.0 12:-1.0 13:-1.0 14:-1.0 15:-1.0 16:-1.0 17:-1.0 18:-1.0 19:-0.7777777777777778 20:-0.9983375796178344 21:-0.444444477558136 22:-0.444444477558136 23:-1.0 24:-0.6 25:-0.7142857142857143 
19.0 1:-1.0 2:-1.0 3:1.0 6:-1.0 7:-0.9621009194534308 8:-0.4653500317792659 9:-1.0 10:-1.0 11:-1.0 12:-1.0 13:-1.0 14:-1.0 15:-1.0 16:-1.0 17:-1.0 18:-1.0 19:-0.11111111111111116 20:-0.9983375796178344 21:0.5 22:0.5 23:0.5 24:-0.4 25:-0.6190476190476191 
19.0 1:1.0 2:-1.0 3:-1.0 6:0.12000000476837158 7:-0.8764955742752221 8:-0.4653500317792659 9:-0.8254822790622711 10:-1.0 11:0.22279787063598633 12:0.4069627599168899 13:-0.7777777777777778 14:-0.9887476382431736 15:-1.0 16:-1.0 17:-1.0 18:-1.0 19:-1.0 20:-1.0 21:-1.0 22:-1.0 23:-1.0 24:-1.0 25:-1.0 
19.0 1:-1.0 2:-1.0 3:1.0 6:-1.0 7:-0.9621009194534308 8:-0.4653500317792659 9:-1.0 10:-1.0 11:-1.0 12:-1.0 13:-1.0 14:-1.0 15:-1.0 16:-1.0 17:-1.0 18:-1.0 19:-1.0 20:-0.9942993630573248 21:-0.2222222089767456 22:-0.2222222089767456 23:-1.0 24:-0.6 25:-0.7142857142857143 
19.0 1:1.0 2:-1.0 3:-1.0 6:-0.760000005364418 7:-0.34616266009003804 8:0.33471196333676256 9:-0.3866666555404663 10:-0.7959183547482891 11:1.0 12:0.8471388905700812 13:1.0 14:-0.9957495983933365 15:-1.0 16:-1.0 17:-1.0 18:-1.0 19:-1.0 20:-1.0 21:-1.0 22:-1.0 23:-1.0 24:-1.0 25:-1.0 
19.0 1:1.0 2:-1.0 3:-1.0 6:-0.7999999970197678 7:-0.47411269306226445 8:0.33471196333676256 9:-0.6475095748901367 10:-0.5918367094965783 11:-0.8369565159082413 12:0.9023609605077485 13:-0.5 14:-0.9957495983933365 15:-1.0 16:-1.0 17:-1.0 18:-1.0 19:-1.0 20:-1.0 21:-1.0 22:-1.0 23:-1.0 24:-1.0 25:-1.0 
19.0 1:1.0 2:-1.0 3:-1.0 6:-0.9600000008940697 7:0.2437461986003877 8:0.23976388402808246 9:1.0 10:-0.6371881814886533 11:1.0 12:0.9695879164044254 13:1.0 14:-0.9957495983933365 15:-1.0 16:-1.0 17:-1.0 18:-1.0 19:-1.0 20:-1.0 21:-1.0 22:-1.0 23:-1.0 24:-1.0 25:-1.0 
19.0 1:-1.0 2:-1.0 3:1.0 6:-1.0 7:-0.9621009194534308 8:-0.4653500317792659 9:-1.0 10:-1.0 11:-1.0 12:-1.0 13:-1.0 14:-1.0 15:-1.0 16:-1.0 17:-1.0 18:-1.0 19:-1.0 20:-0.7872611464968153 21:-0.2857142686843872 22:-0.2857142686843872 23:-1.0 24:-0.4 25:-0.6000000000000001 
19.0 1:1.0 2:-1.0 3:-1.0 6:-0.8400000035762787 7:-0.7717074807323192 8:-0.20604563305197376 9:-0.944954127073288 10:-0.2380951853836466 11:-0.5555555522441864 12:0.9439777156382589 13:0.0 14:-0.9498824664278451 15:-1.0 16:-1.0 17:-1.0 18:-1.0 19:-1.0 20:-1.0 21:-1.0 22:-1.0 23:-1.0 24:-1.0 25:-1.0 
19.0 1:1.0 2:-1.0 3:-1.0 6:-0.880000002682209 7:-0.4835260834637033 8:0.16540669031937272 9:-0.8278650343418121 10:-0.8571428525812771 11:0.9527273178100586 12:0.914365727209765 13:-0.19999999999999996 14:-0.920581040533951 15:-1.0 16:-1.0 17:-1.0 18:-1.0 19:-1.0 20:-1.0 21:-1.0 22:-1.0 23:-1.0 24:-1.0 25:-1.0 
19.0 1:1.0 2:-1.0 3:-1.0 6:-0.6399999856948853 7:-0.5079632346542096 8:0.22690295441053143 9:-0.9634320996701717 10:-0.7142857051625542 11:-0.9575134962797165 12:0.7951180360996881 13:-0.9875389408099688 14:-0.920581040533951 15:-1.0 16:-1.0 17:-1.0 18:-1.0 19:-1.0 20:-1.0 21:-1.0 22:-1.0 23:-1.0 24:-1.0 25:-1.0 
19.0 1:1.0 2:-1.0 3:-1.0 6:-0.6800000071525574 7:-0.4038121549308611 8:0.15023684003434634 9:-0.6526230871677399 10:0.49206351368876033 11:0.9925442934036255 12:0.9023609605077485 13:0.0 14:-0.920581040533951 15:-1.0 16:-1.0 17:-1.0 18:-1.0 19:-1.0 20:-1.0 21:-1.0 22:-1.0 23:-1.0 24:-1.0 25:-1.0 
19.0 1:-1.0 2:-1.0 3:1.0 6:-1.0 7:-0.9621009194534308 8:-0.4653500317792659 9:-1.0 10:-1.0 11:-1.0 12:-1.0 13:-1.0 14:-1.0 15:-1.0 16:-1.0 17:-1.0 18:-1.0 19:-0.5555555555555556 20:-0.6592356687898089 21:0.24920642375946045 22:0.24920642375946045 23:-0.8181818127632141 24:-0.6 25:-0.48571428571428565 
19.0 1:1.0 2:-1.0 3:-1.0 6:-0.760000005364418 7:-0.7691559900382076 8:-0.1269253051434024 9:-0.7991160005331039 10:-0.5238095015084658 11:-0.9802666660398245 12:0.8727490913362477 13:-0.9090909090909091 14:-0.9186573811285065 15:-1.0 16:-1.0 17:-1.0 18:-1.0 19:-1.0 20:-1.0 21:-1.0 22:-1.0 23:-1.0 24:-1.0 25:-1.0 
19.0 1:-1.0 2:-1.0 3:1.0 6:-1.0 7:-0.9621009194534308 8:-0.4653500317792659 9:-1.0 10:-1.0 11:-1.0 12:-1.0 13:-1.0 14:-1.0 15:-1.0 16:-1.0 17:-1.0 18:-1.0 19:-0.5555555555555556 20:-0.9980700636942675 21:-1.0 22:-1.0 23:-1.0 24:0.0 25:-0.6000000000000001 
19.0 1:1.0 2:-1.0 3:-1.0 6:0.559999942779541 7:-0.620618591401821 8:0.6809662154566978 9:-0.6949842572212219 10:-1.0 11:-0.6827757060527802 12:0.2541015312299779 13:-0.9245283018867925 14:-0.9982500652253102 15:-1.0 16:-1.0 17:-1.0 18:-1.0 19:-1.0 20:-1.0 21:-1.0 22:-1.0 23:-1.0 24:-1.0 25:-1.0 
19.0 1:1.0 2:-1.0 3:-1.0 6:-0.9600000008940697 7:0.08752359918290087 8:0.6012077256500381 9:0.8333333730697632 10:-1.0 11:1.0 12:0.9991996663189331 13:1.0 14:-0.9982500652253102 15:-1.0 16:-1.0 17:-1.0 18:-1.0 19:-1.0 20:-1.0 21:-1.0 22:-1.0 23:-1.0 24:-1.0 25:-1.0 
19.0 1:1.0 2:-1.0 3:-1.0 6:-0.04000002145767212 7:-0.3108698578116995 8:0.9101075184668672 9:-0.8670314699411392 10:-1.0 11:-0.9699248112738132 12:0.4469788476852665 13:-0.9487179487179487 14:-0.9990650463213325 15:-1.0 16:-1.0 17:-1.0 18:-1.0 19:-1.0 20:-1.0 21:-1.0 22:-1.0 23:-1.0 24:-1.0 25:-1.0 
19.0 1:-1.0 2:1.0 3:-1.0 6:-1.0 7:-0.9621009194534308 8:-0.4653500317792659 9:-1.0 10:-1.0 11:-1.0 12:-1.0 13:-1.0 14:-1.0 15:-0.5 16:-0.7551020408163265 17:-0.9997653067111423 18:-0.9996102857142857 19:-1.0 20:-1.0 21:-1.0 22:-1.0 23:-1.0 24:-1.0 25:-1.0 
19.0 1:-1.0 2:-1.0 3:1.0 6:-1.0 7:-0.9621009194534308 8:-0.4653500317792659 9:-1.0 10:-1.0 11:-1.0 12:-1.0 13:-1.0 14:-1.0 15:-1.0 16:-1.0 17:-1.0 18:-1.0 19:-1.0 20:-0.9989140127388535 21:-0.5 22:-0.5 23:-1.0 24:-0.8 25:-0.2857142857142857 
19.0 1:1.0 2:-1.0 3:-1.0 6:0.0 7:-0.4237200245687057 8:-0.1355559065720151 9:-0.3525632619857788 10:-1.0 11:0.8595048189163208 12:0.5022009176229338 13:-0.9692307692307692 14:-0.8904453271523604 15:-1.0 16:-1.0 17:-1.0 18:-1.0 19:-1.0 20:-1.0 21:-1.0 22:-1.0 23:-1.0 24:-1.0 25:-1.0 
19.0 1:-1.0 2:1.0 3:-1.0 6:-1.0 7:-0.9621009194534308 8:-0.4653500317792659 9:-1.0 10:-1.0 11:-1.0 12:-1.0 13:-1.0 14:-1.0 15:0.6750000715255737 16:0.1428571428571428 17:-0.9995902180670738 18:-0.9998952 19:-1.0 20:-1.0 21:-1.0 22:-1.0 23:-1.0 24:-1.0 25:-1.0 
19.0 1:-1.0 2:-1.0 3:1.0 6:-1.0 7:-0.9621009194534308 8:-0.4653500317792659 9:-1.0 10:-1.0 11:-1.0 12:-1.0 13:-1.0 14:-1.0 15:-1.0 16:-1.0 17:-1.0 18:-1.0 19:-0.7777777777777778 20:-0.9997079617834395 21:0.6750000715255737 22:0.6750000715255737 23:1.0 24:-1.0 25:-1.0 
19.0 1:-1.0 2:1.0 3:-1.0 6:-1.0 7:-0.9621009194534308 8:-0.4653500317792659 9:-1.0 10:-1.0 11:-1.0 12:-1.0 13:-1.0 14:-1.0 15:-0.5555555522441864 16:-0.8367346938775511 17:-0.9953433871258384 18:-0.9959428571428571 19:-1.0 20:-1.0 21:-1.0 22:-1.0 23:-1.0 24:-1.0 25:-1.0 
19.0 1:-1.0 2:-1.0 3:1.0 6:-1.0 7:-0.9621009194534308 8:-0.4653500317792659 9:-1.0 10:-1.0 11:-1.0 12:-1.0 13:-1.0 14:-1.0 15:-1.0 16:-1.0 17:-1.0 18:-1.0 19:-1.0 20:-0.9886942675159236 21:-0.5555555522441864 22:-0.5555555522441864 23:0.9090909957885742 24:-1.0 25:-0.4285714285714286 
19.0 1:-1.0 2:-1.0 3:1.0 6:-1.0 7:-0.9621009194534308 8:-0.4653500317792659 9:-1.0 10:-1.0 11:-1.0 12:-1.0 13:-1.0 14:-1.0 15:-1.0 16:-1.0 17:-1.0 18:-1.0 19:-0.5555555555555556 20:-0.9991496815286625 21:0.0 22:0.0 23:-1.0 24:-0.8 25:-0.7142857142857143 
19.0 1:-1.0 2:1.0 3:-1.0 6:-1.0 7:-0.9621009194534308 8:-0.4653500317792659 9:-1.0 10:-1.0 11:-1.0 12:-1.0 13:-1.0 14:-1.0 15:0.0 16:-0.18367346938775508 17:-0.9998677521943738 18:-0.99984 19:-1.0 20:-1.0 21:-1.0 22:-1.0 23:-1.0 24:-1.0 25:-1.0 
19.0 1:-1.0 2:-1.0 3:1.0 6:-1.0 7:-0.9621009194534308 8:-0.4653500317792659 9:-1.0 10:-1.0 11:-1.0 12:-1.0 13:-1.0 14:-1.0 15:-1.0 16:-1.0 17:-1.0 18:-1.0 19:-0.7777777777777778 20:-0.9995541401273885 21:0.0 22:0.0 23:-1.0 24:-0.6 25:-0.7142857142857143 
19.0 1:1.0 2:-1.0 3:-1.0 6:-0.8400000035762787 7:-0.7085867863945653 8:0.07196914148992128 9:-0.9145701751112938 10:-0.5238095015084658 11:-0.8633782863616943 12:0.9079631770182233 13:-0.9692307692307692 14:-0.3288876889043624 15:-1.0 16:-1.0 17:-1.0 18:-1.0 19:-1.0 20:-1.0 21:-1.0 22:-1.0 23:-1.0 24:-1.0 25:-1.0 
19.0 1:1.0 2:-1.0 3:-1.0 6:-0.04000002145767212 7:-0.4069350795479231 8:-0.16705517696339045 9:-0.2576514482498169 10:-1.0 11:0.9020135402679443 12:0.5270107847080336 13:-0.9272727272727272 14:-0.86856862459756 15:-1.0 16:-1.0 17:-1.0 18:-1.0 19:-1.0 20:-1.0 21:-1.0 22:-1.0 23:-1.0 24:-1.0 25:-1.0 
19.0 1:1.0 2:-1.0 3:-1.0 6:-0.7999999970197678 7:-0.6573771613825448 8:-0.02700857668978396 9:-0.9540455602109432 10:0.9047619939661367 11:0.7285068035125732 12:0.9167667282529655 13:-0.6 14:-0.86856862459756 15:-1.0 16:-1.0 17:-1.0 18:-1.0 19:-1.0 20:-1.0 21:-1.0 22:-1.0 23:-1.0 24:-1.0 25:-1.0 
19.0 1:1.0 2:-1.0 3:-1.0 6:-0.9600000008940697 7:-0.6743242872711217 8:-0.06980057888310798 9:-0.9316050410270691 10:-1.0 11:-0.9827036876231432 12:0.9919967824463247 13:-0.875 14:-0.86856862459756 15:-1.0 16:-1.0 17:-1.0 18:-1.0 19:-1.0 20:-1.0 21:-1.0 22:-1.0 23:-1.0 24:-1.0 25:-1.0 
19.0 1:-1.0 2:-1.0 3:1.0 6:-1.0 7:-0.9621009194534308 8:-0.4653500317792659 9:-1.0 10:-1.0 11:-1.0 12:-1.0 13:-1.0 14:-1.0 15:-1.0 16:-1.0 17:-1.0 18:-1.0 19:-0.33333333333333337 20:-0.9999993439490446 21:-1.0 22:-1.0 23:-1.0 24:-0.8 25:-0.1428571428571429 
19.0 1:-1.0 2:1.0 3:-1.0 6:-1.0 7:-0.9621009194534308 8:-0.4653500317792659 9:-1.0 10:-1.0 11:-1.0 12:-1.0 13:-1.0 14:-1.0 15:-0.9285714253783226 16:-0.9183673469387755 17:-0.9998002313076985 18:-0.9999997348571429 19:-1.0 20:-1.0 21:-1.0 22:-1.0 23:-1.0 24:-1.0 25:-1.0 
19.0 1:-1.0 2:-1.0 3:1.0 6:-1.0 7:-0.9621009194534308 8:-0.4653500317792659 9:-1.0 10:-1.0 11:-1.0 12:-1.0 13:-1.0 14:-1.0 15:-1.0 16:-1.0 17:-1.0 18:-1.0 19:-1.0 20:-0.9999992611464968 21:-0.9285714253783226 22:-0.9285714253783226 23:-1.0 24:-0.8 25:-0.4285714285714286 
19.0 1:1.0 2:-1.0 3:-1.0 6:-0.6800000071525574 7:-0.23567658574480566 8:0.2288208901006865 9:-0.12816190719604492 10:0.7875458817404659 11:0.7151162624359131 12:0.8255302389522559 13:-0.6923076923076923 14:-0.9947049483495696 15:-1.0 16:-1.0 17:-1.0 18:-1.0 19:-1.0 20:-1.0 21:-1.0 22:-1.0 23:-1.0 24:-1.0 25:-1.0 
19.0 1:1.0 2:-1.0 3:-1.0 6:-0.6800000071525574 7:-0.20006386584335467 8:0.1546068930568527 9:0.13043475151062012 10:0.42857145289985543 11:0.9384615421295166 12:0.8511404397184223 13:0.33333333333333326 14:-0.9947049483495696 15:-1.0 16:-1.0 17:-1.0 18:-1.0 19:-1.0 20:-1.0 21:-1.0 22:-1.0 23:-1.0 24:-1.0 25:-1.0 
19.0 1:-1.0 2:-1.0 3:1.0 6:-1.0 7:-0.9621009194534308 8:-0.4653500317792659 9:-1.0 10:-1.0 11:-1.0 12:-1.0 13:-1.0 14:-1.0 15:-1.0 16:-1.0 17:-1.0 18:-1.0 19:-1.0 20:-0.9989681528662421 21:0.25128209590911865 22:0.25128209590911865 23:-0.5999999940395355 24:-0.8 25:-0.4285714285714286 
19.0 1:1.0 2:-1.0 3:-1.0 6:0.440000057220459 7:-0.6097465087928602 8:-0.18608528878954844 9:-0.524234265089035 10:-1.0 11:0.1485210657119751 12:0.3021208365520298 13:-0.9858657243816255 14:-0.9789331718705031 15:-1.0 16:-1.0 17:-1.0 18:-1.0 19:-1.0 20:-1.0 21:-1.0 22:-1.0 23:-1.0 24:-1.0 25:-1.0 
19.0 1:-1.0 2:-1.0 3:1.0 6:-1.0 7:-0.9621009194534308 8:-0.4653500317792659 9:-1.0 10:-1.0 11:-1.0 12:-1.0 13:-1.0 14:-1.0 15:-1.0 16:-1.0 17:-1.0 18:-1.0 19:-1.0 20:-0.9986624203821656 21:-0.1428571343421936 22:-0.1428571343421936 23:-1.0 24:-0.8 25:-0.7142857142857143 
19.0 1:1.0 2:-1.0 3:-1.0 6:-0.3999999761581421 7:-0.3340606985909085 8:0.33535112966403413 9:-0.5392923653125763 10:-1.0 11:0.1446230411529541 12:0.6982792110315104 13:-0.9540229885057472 14:-0.972411386449666 15:-1.0 16:-1.0 17:-1.0 18:-1.0 19:-1.0 20:-1.0 21:-1.0 22:-1.0 23:-1.0 24:-1.0 25:-1.0 
19.0 1:1.0 2:-1.0 3:-1.0 6:0.039999961853027344 7:-0.4388826931102323 8:0.4069551393103974 9:-0.873279333114624 10:-1.0 11:-0.771292433142662 12:0.4245697431293811 13:-0.9735099337748344 14:-0.992006260560719 15:-1.0 16:-1.0 17:-1.0 18:-1.0 19:-1.0 20:-1.0 21:-1.0 22:-1.0 23:-1.0 24:-1.0 25:-1.0 
19.0 1:1.0 2:-1.0 3:-1.0 6:-0.9600000008940697 7:0.25503178833269713 8:0.47652627163136496 9:0.5171363353729248 10:0.38095244988292376 11:0.995979905128479 12:0.9687875827233587 13:0.33333333333333326 14:-0.992006260560719 15:-1.0 16:-1.0 17:-1.0 18:-1.0 19:-1.0 20:-1.0 21:-1.0 22:-1.0 23:-1.0 24:-1.0 25:-1.0 
19.0 1:1.0 2:-1.0 3:-1.0 6:-0.9200000017881393 7:-0.35497048169144896 8:0.4069552266520655 9:-0.7022132873535156 10:-1.0 11:0.9459459781646729 12:0.9647859143180244 13:0.33333333333333326 14:-0.992006260560719 15:-1.0 16:-1.0 17:-1.0 18:-1.0 19:-1.0 20:-1.0 21:-1.0 22:-1.0 23:-1.0 24:-1.0 25:-1.0 
19.0 1:1.0 2:-1.0 3:-1.0 6:-0.9200000017881393 7:0.01894954027328466 8:-0.4653500317792659 9:1.0 10:-0.4387755128106988 11:1.0 12:0.9615846988507502 13:1.0 14:-0.9999882157396378 15:-1.0 16:-1.0 17:-1.0 18:-1.0 19:-1.0 20:-1.0 21:-1.0 22:-1.0 23:-1.0 24:-1.0 25:-1.0 
19.0 1:1.0 2:-1.0 3:-1.0 6:-0.9200000017881393 7:-0.5124570217822271 8:0.8952963804127925 9:-0.9630180671811104 10:-0.7402597280955268 11:-0.7922077924013138 12:0.9343737114654567 13:-0.6 14:-0.9984551066123314 15:-1.0 16:-1.0 17:-1.0 18:-1.0 19:-1.0 20:-1.0 21:-1.0 22:-1.0 23:-1.0 24:-1.0 25:-1.0 
19.0 1:1.0 2:-1.0 3:-1.0 6:-0.1600000262260437 7:-0.6226601348080952 8:1.0 9:-0.6716417968273163 10:-1.0 11:-0.45454543828964233 12:0.5358143359427758 13:-0.19999999999999996 14:-0.9999587411786517 15:-1.0 16:-1.0 17:-1.0 18:-1.0 19:-1.0 20:-1.0 21:-1.0 22:-1.0 23:-1.0 24:-1.0 25:-1.0 
19.0 1:-1.0 2:-1.0 3:1.0 6:-1.0 7:-0.9621009194534308 8:-0.4653500317792659 9:-1.0 10:-1.0 11:-1.0 12:-1.0 13:-1.0 14:-1.0 15:-1.0 16:-1.0 17:-1.0 18:-1.0 19:-1.0 20:-0.9999458598726114 21:-0.8888888880610466 22:-0.8888888880610466 23:-1.0 24:-0.6 25:-0.5714285714285714 
19.0 1:1.0 2:-1.0 3:-1.0 6:0.15999996662139893 7:-0.4178247924188777 8:0.542710556087806 9:-0.7034318149089813 10:1.0 11:0.9402985572814941 12:0.41336531010843136 13:-0.4285714285714286 14:-0.9775419206217253 15:-1.0 16:-1.0 17:-1.0 18:-1.0 19:-1.0 20:-1.0 21:-1.0 22:-1.0 23:-1.0 24:-1.0 25:-1.0 
19.0 1:1.0 2:-1.0 3:-1.0 6:-0.5600000023841858 7:-0.5365223001662659 8:0.5046030369222054 9:-0.8888888880610466 10:-1.0 11:-0.7634408622980118 12:0.7983192515669624 13:-0.9069767441860466 14:-0.9775419206217253 15:-1.0 16:-1.0 17:-1.0 18:-1.0 19:-1.0 20:-1.0 21:-1.0 22:-1.0 23:-1.0 24:-1.0 25:-1.0 
19.0 1:1.0 2:-1.0 3:-1.0 6:0.20000004768371582 7:0.01894954027328466 8:-0.4653500317792659 9:1.0 10:-0.2207791842865805 11:1.0 12:0.4941975808122654 13:1.0 14:-0.9998587896519592 15:-1.0 16:-1.0 17:-1.0 18:-1.0 19:-1.0 20:-1.0 21:-1.0 22:-1.0 23:-1.0 24:-1.0 25:-1.0 
19.0 1:-1.0 2:1.0 3:-1.0 6:-1.0 7:-0.9621009194534308 8:-0.4653500317792659 9:-1.0 10:-1.0 11:-1.0 12:-1.0 13:-1.0 14:-1.0 15:-0.09821426868438721 16:-1.0 17:-0.9773688614315746 18:-0.9754285714285714 19:-1.0 20:-1.0 21:-1.0 22:-1.0 23:-1.0 24:-1.0 25:-1.0 
19.0 1:-1.0 2:1.0 3:-1.0 6:-1.0 7:-0.9621009194534308 8:-0.4653500317792659 9:-1.0 10:-1.0 11:-1.0 12:-1.0 13:-1.0 14:-1.0 15:-0.25 16:-0.8775510204081632 17:-0.9773688614315746 18:-0.9754285714285714 19:-1.0 20:-1.0 21:-1.0 22:-1.0 23:-1.0 24:-1.0 25:-1.0 
19.0 1:-1.0 2:-1.0 3:1.0 6:-1.0 7:-0.9621009194534308 8:-0.4653500317792659 9:-1.0 10:-1.0 11:-1.0 12:-1.0 13:-1.0 14:-1.0 15:-1.0 16:-1.0 17:-1.0 18:-1.0 19:-0.33333333333333337 20:-0.9315286624203821 21:-0.22857141494750977 22:-0.25 23:-1.0 24:-0.8 25:-0.7142857142857143 
19.0 1:1.0 2:-1.0 3:-1.0 6:-0.9200000017881393 7:0.23639622131661864 8:0.6714154040482339 9:1.0 10:0.09523817633285137 11:1.0 12:0.9591836978075496 13:1.0 14:-0.9992450660155139 15:-1.0 16:-1.0 17:-1.0 18:-1.0 19:-1.0 20:-1.0 21:-1.0 22:-1.0 23:-1.0 24:-1.0 25:-1.0 
19.0 1:1.0 2:-1.0 3:-1.0 6:-0.04000002145767212 7:-0.3531534244403801 8:0.15925215967559203 9:-0.22745323181152344 10:-1.0 11:-0.9881656803190708 12:0.4549820652389418 13:-0.6923076923076923 14:-0.9972515208438759 15:-1.0 16:-1.0 17:-1.0 18:-1.0 19:-1.0 20:-1.0 21:-1.0 22:-1.0 23:-1.0 24:-1.0 25:-1.0 
19.0 1:1.0 2:-1.0 3:-1.0 6:-0.9200000017881393 7:-0.029300071929020288 8:0.5723161499373455 9:-0.022018015384674072 10:0.26984130092759306 11:0.8860510587692261 12:0.9511803609968812 13:-0.6666666666666667 14:-0.9871703477266565 15:-1.0 16:-1.0 17:-1.0 18:-1.0 19:-1.0 20:-1.0 21:-1.0 22:-1.0 23:-1.0 24:-1.0 25:-1.0 
19.0 1:1.0 2:-1.0 3:-1.0 6:0.440000057220459 7:-0.278977795655341 8:0.5738331873708489 9:-0.4938271641731262 10:-1.0 11:-0.9710743799805641 12:0.3069226001244447 13:-0.8823529411764706 14:-0.9999875262547134 15:-1.0 16:-1.0 17:-1.0 18:-1.0 19:-1.0 20:-1.0 21:-1.0 22:-1.0 23:-1.0 24:-1.0 25:-1.0 
19.0 1:1.0 2:-1.0 3:-1.0 6:-0.9200000017881393 7:0.4859125535898612 8:0.6125755931219834 9:1.0 10:0.1111111489553307 11:1.0 12:0.9671869153612249 13:1.0 14:-0.9999875262547134 15:-1.0 16:-1.0 17:-1.0 18:-1.0 19:-1.0 20:-1.0 21:-1.0 22:-1.0 23:-1.0 24:-1.0 25:-1.0 
19.0 1:1.0 2:-1.0 3:-1.0 6:-0.9600000008940697 7:0.4537820881892274 8:0.5738331873708489 9:1.0 10:-1.0 11:1.0 12:0.9711884645095661 13:1.0 14:-0.9999875262547134 15:-1.0 16:-1.0 17:-1.0 18:-1.0 19:-1.0 20:-1.0 21:-1.0 22:-1.0 23:-1.0 24:-1.0 25:-1.0 
19.0 1:1.0 2:-1.0 3:-1.0 6:0.440000057220459 7:-0.7083881754995001 8:-0.12296311587557973 9:-0.9500840343534946 10:-1.0 11:0.2708333730697632 12:0.2757103021047964 13:-0.9642857142857143 14:1.0 15:-1.0 16:-1.0 17:-1.0 18:-1.0 19:-1.0 20:-1.0 21:-1.0 22:-1.0 23:-1.0 24:-1.0 25:-1.0 
19.0 1:1.0 2:-1.0 3:-1.0 6:-0.9200000017881393 7:-0.7715441888364059 8:-0.1853500029565155 9:-0.9936863998882473 10:-1.0 11:0.8313252925872803 12:0.9735894655527666 13:0.33333333333333326 14:1.0 15:-1.0 16:-1.0 17:-1.0 18:-1.0 19:-1.0 20:-1.0 21:-1.0 22:-1.0 23:-1.0 24:-1.0 25:-1.0 
19.0 1:1.0 2:-1.0 3:-1.0 6:-0.9600000008940697 7:-0.7715441888364059 8:-0.1853500029565155 9:-0.9936863998882473 10:-1.0 11:0.8313252925872803 12:0.9911964487652578 13:0.33333333333333326 14:1.0 15:-1.0 16:-1.0 17:-1.0 18:-1.0 19:-1.0 20:-1.0 21:-1.0 22:-1.0 23:-1.0 24:-1.0 25:-1.0 
19.0 1:1.0 2:-1.0 3:-1.0 6:-0.12000000476837158 7:-0.6467632758609269 8:-0.4653500317792659 9:-0.3571428656578064 10:-1.0 11:0.8181818723678589 12:0.5366146696238425 13:-0.19999999999999996 14:-0.9999203288021901 15:-1.0 16:-1.0 17:-1.0 18:-1.0 19:-1.0 20:-1.0 21:-1.0 22:-1.0 23:-1.0 24:-1.0 25:-1.0 
19.0 1:-1.0 2:-1.0 3:1.0 6:-1.0 7:-0.9621009194534308 8:-0.4653500317792659 9:-1.0 10:-1.0 11:-1.0 12:-1.0 13:-1.0 14:-1.0 15:-1.0 16:-1.0 17:-1.0 18:-1.0 19:-1.0 20:-0.9997108280254777 21:-1.0 22:-1.0 23:-1.0 24:-0.8 25:-0.7142857142857143 
19.0 1:1.0 2:-1.0 3:-1.0 6:0.7200000286102295 7:-0.33490993339998587 8:0.4651544737843547 9:-0.4833948612213135 10:-1.0 11:0.05263161659240723 12:0.10764309124859395 13:-0.8620689655172413 14:-0.9961507527600302 15:-1.0 16:-1.0 17:-1.0 18:-1.0 19:-1.0 20:-1.0 21:-1.0 22:-1.0 23:-1.0 24:-1.0 25:-1.0 
19.0 1:1.0 2:-1.0 3:-1.0 6:-0.04000002145767212 7:-0.663095301497718 8:-0.0017708086502139508 9:-0.9327705278992653 10:-1.0 11:0.7525773048400879 12:0.5678272061574772 13:-0.5555555555555556 14:-0.8386356882064766 15:-1.0 16:-1.0 17:-1.0 18:-1.0 19:-1.0 20:-1.0 21:-1.0 22:-1.0 23:-1.0 24:-1.0 25:-1.0 
19.0 1:1.0 2:-1.0 3:-1.0 6:-0.4399999976158142 7:-0.3804302757903455 8:-0.0017708086502139508 9:-0.3565208315849304 10:0.7142858115994217 11:0.8547878265380859 12:0.6590635762011936 13:-0.9710144927536232 14:-0.8386356882064766 15:-1.0 16:-1.0 17:-1.0 18:-1.0 19:-1.0 20:-1.0 21:-1.0 22:-1.0 23:-1.0 24:-1.0 25:-1.0 
19.0 1:1.0 2:-1.0 3:-1.0 6:-0.9600000008940697 7:0.13788042240083032 8:0.4063304717000331 9:0.5935162305831909 10:-0.4285714103251085 11:0.9874608516693115 12:0.9903962343411841 13:0.0 14:-0.9961507527600302 15:-1.0 16:-1.0 17:-1.0 18:-1.0 19:-1.0 20:-1.0 21:-1.0 22:-1.0 23:-1.0 24:-1.0 25:-1.0 
19.0 1:1.0 2:-1.0 3:-1.0 6:-0.9600000008940697 7:-0.26528899362643554 8:0.4651544737843547 9:-0.3414633870124817 10:-1.0 11:1.0 12:0.9935974498084583 13:1.0 14:-0.9961507527600302 15:-1.0 16:-1.0 17:-1.0 18:-1.0 19:-1.0 20:-1.0 21:-1.0 22:-1.0 23:-1.0 24:-1.0 25:-1.0 
19.0 1:-1.0 2:-1.0 3:1.0 6:-1.0 7:-0.9621009194534308 8:-0.4653500317792659 9:-1.0 10:-1.0 11:-1.0 12:-1.0 13:-1.0 14:-1.0 15:-1.0 16:-1.0 17:-1.0 18:-1.0 19:-0.5555555555555556 20:-0.9956050955414013 21:-0.5999999940395355 22:-0.5999999940395355 23:-1.0 24:-0.19999999999999996 25:-0.5 
19.0 1:-1.0 2:1.0 3:-1.0 6:-1.0 7:-0.9621009194534308 8:-0.4653500317792659 9:-1.0 10:-1.0 11:-1.0 12:-1.0 13:-1.0 14:-1.0 15:-0.875 16:-0.8775510204081632 17:-0.999983049929138 18:-0.9999773714285715 19:-1.0 20:-1.0 21:-1.0 22:-1.0 23:-1.0 24:-1.0 25:-1.0 
19.0 1:-1.0 2:1.0 3:-1.0 6:-1.0 7:-0.9621009194534308 8:-0.4653500317792659 9:-1.0 10:-1.0 11:-1.0 12:-1.0 13:-1.0 14:-1.0 15:0.0 16:-0.7551020408163265 17:-0.999983049929138 18:-0.9999773714285715 19:-1.0 20:-1.0 21:-1.0 22:-1.0 23:-1.0 24:-1.0 25:-1.0 
19.0 1:-1.0 2:-1.0 3:1.0 6:-1.0 7:-0.9621009194534308 8:-0.4653500317792659 9:-1.0 10:-1.0 11:-1.0 12:-1.0 13:-1.0 14:-1.0 15:-1.0 16:-1.0 17:-1.0 18:-1.0 19:-0.5555555555555556 20:-0.9999369426751592 21:0.0 22:-1.0 23:-1.0 24:-0.6 25:-0.7142857142857143 
19.0 1:-1.0 2:-1.0 3:1.0 6:-1.0 7:-0.9621009194534308 8:-0.4653500317792659 9:-1.0 10:-1.0 11:-1.0 12:-1.0 13:-1.0 14:-1.0 15:-1.0 16:-1.0 17:-1.0 18:-1.0 19:-1.0 20:-0.9999369426751592 21:-0.875 22:-0.875 23:-1.0 24:-0.4 25:-0.7142857142857143 
19.0 1:1.0 2:-1.0 3:-1.0 6:0.15999996662139893 7:-0.38072083888105035 8:-0.16157944392878898 9:-0.22938531637191772 10:-1.0 11:0.8091394901275635 12:0.442977060022939 13:-0.9436619718309859 14:-0.9007720251326584 15:-1.0 16:-1.0 17:-1.0 18:-1.0 19:-1.0 20:-1.0 21:-1.0 22:-1.0 23:-1.0 24:-1.0 25:-1.0 
19.0 1:-1.0 2:-1.0 3:1.0 6:-1.0 7:-0.9621009194534308 8:-0.4653500317792659 9:-1.0 10:-1.0 11:-1.0 12:-1.0 13:-1.0 14:-1.0 15:-1.0 16:-1.0 17:-1.0 18:-1.0 19:-0.33333333333333337 20:-0.7280254777070063 21:-1.0 22:-1.0 23:-1.0 24:-0.6 25:-0.33333333333333326 
19.0 1:-1.0 2:1.0 3:-1.0 6:-1.0 7:-0.9621009194534308 8:-0.4653500317792659 9:-1.0 10:-1.0 11:-1.0 12:-1.0 13:-1.0 14:-1.0 15:-0.8181818127632141 16:-0.9591836734693877 17:-0.9998705461620984 18:-0.9996708571428572 19:-1.0 20:-1.0 21:-1.0 22:-1.0 23:-1.0 24:-1.0 25:-1.0 
19.0 1:-1.0 2:-1.0 3:1.0 6:-1.0 7:-0.9621009194534308 8:-0.4653500317792659 9:-1.0 10:-1.0 11:-1.0 12:-1.0 13:-1.0 14:-1.0 15:-1.0 16:-1.0 17:-1.0 18:-1.0 19:-1.0 20:-0.9990828025477707 21:-0.8181818127632141 22:-0.8181818127632141 23:-0.8181818127632141 24:-0.8 25:-0.5714285714285714 
19.0 1:1.0 2:-1.0 3:-1.0 6:-0.7199999988079071 7:-0.29489976420346886 8:0.18604181447424373 9:-0.528882622718811 10:-1.0 11:-0.9192757457494736 12:0.8807523088899232 13:-0.8461538461538461 14:-0.8904453271523604 15:-1.0 16:-1.0 17:-1.0 18:-1.0 19:-1.0 20:-1.0 21:-1.0 22:-1.0 23:-1.0 24:-1.0 25:-1.0 
19.0 1:1.0 2:-1.0 3:-1.0 6:0.039999961853027344 7:-0.4754823568323546 8:-0.29204210846629863 9:-0.2081146240234375 10:-1.0 11:0.8547290563583374 12:0.4901960316639242 13:-0.963302752293578 14:-0.8876263174501171 15:-1.0 16:-1.0 17:-1.0 18:-1.0 19:-1.0 20:-1.0 21:-1.0 22:-1.0 23:-1.0 24:-1.0 25:-1.0 
19.0 1:-1.0 2:-1.0 3:1.0 6:-1.0 7:-0.9621009194534308 8:-0.4653500317792659 9:-1.0 10:-1.0 11:-1.0 12:-1.0 13:-1.0 14:-1.0 15:-1.0 16:-1.0 17:-1.0 18:-1.0 19:-1.0 20:-0.9986050955414013 21:-1.0 22:-1.0 23:-1.0 24:-0.8 25:-0.7142857142857143 
19.0 1:-1.0 2:1.0 3:-1.0 6:-1.0 7:-0.9621009194534308 8:-0.4653500317792659 9:-1.0 10:-1.0 11:-1.0 12:-1.0 13:-1.0 14:-1.0 15:-0.1666666865348816 16:-0.7551020408163265 17:-0.9999667517840785 18:-0.9999397714285714 19:-1.0 20:-1.0 21:-1.0 22:-1.0 23:-1.0 24:-1.0 25:-1.0 
19.0 1:-1.0 2:-1.0 3:1.0 6:-1.0 7:-0.9621009194534308 8:-0.4653500317792659 9:-1.0 10:-1.0 11:-1.0 12:-1.0 13:-1.0 14:-1.0 15:-1.0 16:-1.0 17:-1.0 18:-1.0 19:-0.7777777777777778 20:-0.9998321656050956 21:-0.1666666865348816 22:-0.1666666865348816 23:-1.0 24:-0.6 25:-0.6190476190476191 
19.0 1:1.0 2:-1.0 3:-1.0 6:0.08000004291534424 7:0.3556661424459566 8:0.42876234498054866 9:1.0 10:-1.0 11:-0.8471337556838989 12:0.5310124531133678 13:-0.7777777777777778 14:-0.9999623990192614 15:-1.0 16:-1.0 17:-1.0 18:-1.0 19:-1.0 20:-1.0 21:-1.0 22:-1.0 23:-1.0 24:-1.0 25:-1.0 
19.0 1:-1.0 2:1.0 3:-1.0 6:-1.0 7:-0.9621009194534308 8:-0.4653500317792659 9:-1.0 10:-1.0 11:-1.0 12:-1.0 13:-1.0 14:-1.0 15:-0.6800000071525574 16:-0.5918367346938775 17:-0.9996996484696166 18:-0.9932685714285714 19:-1.0 20:-1.0 21:-1.0 22:-1.0 23:-1.0 24:-1.0 25:-1.0 
19.0 1:1.0 2:-1.0 3:-1.0 6:-0.48000001907348633 7:-0.519799865095969 8:0.23619864080642916 9:-0.717881053686142 10:-1.0 11:-0.7774524092674255 12:0.7430973008862882 13:-0.7647058823529411 14:-0.9404351485555406 15:-1.0 16:-1.0 17:-1.0 18:-1.0 19:-1.0 20:-1.0 21:-1.0 22:-1.0 23:-1.0 24:-1.0 25:-1.0 
19.0 1:1.0 2:-1.0 3:-1.0 6:-0.36000001430511475 7:-0.3487680795042951 8:0.23619864080642916 9:-0.36921030282974243 10:0.6326531620136868 11:0.8289685249328613 12:0.7519007328640372 13:-0.95 14:-0.9404351485555406 15:-1.0 16:-1.0 17:-1.0 18:-1.0 19:-1.0 20:-1.0 21:-1.0 22:-1.0 23:-1.0 24:-1.0 25:-1.0 
19.0 1:1.0 2:-1.0 3:-1.0 6:0.20000004768371582 7:-0.44691022212110887 8:0.49358409941438275 9:-0.8222578018903732 10:-1.0 11:-0.9862542953342199 12:0.3869546564042048 13:-0.8 14:-0.9993487939474323 15:-1.0 16:-1.0 17:-1.0 18:-1.0 19:-1.0 20:-1.0 21:-1.0 22:-1.0 23:-1.0 24:-1.0 25:-1.0 
19.0 1:-1.0 2:1.0 3:-1.0 6:-1.0 7:-0.9621009194534308 8:-0.4653500317792659 9:-1.0 10:-1.0 11:-1.0 12:-1.0 13:-1.0 14:-1.0 15:-0.6615384519100189 16:-0.6326530612244898 17:-0.999905936419942 18:-0.9976114285714286 19:-1.0 20:-1.0 21:-1.0 22:-1.0 23:-1.0 24:-1.0 25:-1.0 
19.0 1:-1.0 2:-1.0 3:1.0 6:-1.0 7:-0.9621009194534308 8:-0.4653500317792659 9:-1.0 10:-1.0 11:-1.0 12:-1.0 13:-1.0 14:-1.0 15:-1.0 16:-1.0 17:-1.0 18:-1.0 19:-1.0 20:-0.993343949044586 21:-0.6615384519100189 22:-0.6615384519100189 23:-1.0 24:-0.6 25:-0.1428571428571429 
19.0 1:1.0 2:-1.0 3:-1.0 6:0.36000001430511475 7:-0.4935734615949512 8:0.7330049053701064 9:-0.8626396358013153 10:-1.0 11:-0.5744680762290955 12:0.36694679140550623 13:-0.9384615384615385 14:-0.9997117898192247 15:-1.0 16:-1.0 17:-1.0 18:-1.0 19:-1.0 20:-1.0 21:-1.0 22:-1.0 23:-1.0 24:-1.0 25:-1.0 
19.0 1:1.0 2:-1.0 3:-1.0 6:-0.19999998807907104 7:-0.626435729969915 8:-0.4653500317792659 9:-0.31570249795913696 10:-1.0 11:0.8155339956283569 12:0.5462184352826585 13:-0.33333333333333337 14:-0.9983068394383972 15:-1.0 16:-1.0 17:-1.0 18:-1.0 19:-1.0 20:-1.0 21:-1.0 22:-1.0 23:-1.0 24:-1.0 25:-1.0 
19.0 1:-1.0 2:1.0 3:-1.0 6:-1.0 7:-0.9621009194534308 8:-0.4653500317792659 9:-1.0 10:-1.0 11:-1.0 12:-1.0 13:-1.0 14:-1.0 15:-1.0 16:0.5918367346938775 17:-0.999808613210872 18:-0.99984 19:-1.0 20:-1.0 21:-1.0 22:-1.0 23:-1.0 24:-1.0 25:-1.0 
19.0 1:1.0 2:-1.0 3:-1.0 6:0.7999999523162842 7:0.1413722083534057 8:0.7242963296672833 9:0.347517728805542 10:-1.0 11:-0.8624338656663895 12:0.09963987369491845 13:-0.6923076923076923 14:-0.9995680170663315 15:-1.0 16:-1.0 17:-1.0 18:-1.0 19:-1.0 20:-1.0 21:-1.0 22:-1.0 23:-1.0 24:-1.0 25:-1.0 
19.0 1:1.0 2:-1.0 3:-1.0 6:0.24000000953674316 7:-0.4094592769591635 8:0.8030688193825835 9:-0.9750505723059177 10:-1.0 11:-0.9030100330710411 12:0.39175665849060604 13:-0.9884393063583815 14:-0.9995117006752605 15:-1.0 16:-1.0 17:-1.0 18:-1.0 19:-1.0 20:-1.0 21:-1.0 22:-1.0 23:-1.0 24:-1.0 25:-1.0 
19.0 1:1.0 2:-1.0 3:-1.0 6:-0.760000005364418 7:0.42978013840797247 8:0.8030688193825835 9:0.7358490228652954 10:0.020408204971180677 11:1.0 12:0.863145325677432 13:1.0 14:-0.9995117006752605 15:-1.0 16:-1.0 17:-1.0 18:-1.0 19:-1.0 20:-1.0 21:-1.0 22:-1.0 23:-1.0 24:-1.0 25:-1.0 
19.0 1:1.0 2:-1.0 3:-1.0 6:-0.9600000008940697 7:0.5593529156607682 8:0.8030688193825835 9:1.0 10:0.16071430548113264 11:1.0 12:0.9679872490422918 13:1.0 14:-0.9995680170663315 15:-1.0 16:-1.0 17:-1.0 18:-1.0 19:-1.0 20:-1.0 21:-1.0 22:-1.0 23:-1.0 24:-1.0 25:-1.0 
19.0 1:-1.0 2:1.0 3:-1.0 6:-1.0 7:-0.9621009194534308 8:-0.4653500317792659 9:-1.0 10:-1.0 11:-1.0 12:-1.0 13:-1.0 14:-1.0 15:-0.1875 16:0.7142857142857142 17:-0.9988405033943337 18:-0.998928 19:-1.0 20:-1.0 21:-1.0 22:-1.0 23:-1.0 24:-1.0 25:-1.0 
19.0 1:-1.0 2:-1.0 3:1.0 6:-1.0 7:-0.9621009194534308 8:-0.4653500317792659 9:-1.0 10:-1.0 11:-1.0 12:-1.0 13:-1.0 14:-1.0 15:-1.0 16:-1.0 17:-1.0 18:-1.0 19:-0.33333333333333337 20:-0.9970127388535032 21:-0.1875 22:-0.1875 23:-1.0 24:-0.4 25:-0.6190476190476191 
19.0 1:1.0 2:-1.0 3:-1.0 6:0.7200000286102295 7:-0.7905511170012657 8:-0.4653500317792659 9:-0.6502732336521149 10:-0.4285714103251085 11:1.0 12:0.15166060890831856 13:1.0 14:-0.9997137316544512 15:-1.0 16:-1.0 17:-1.0 18:-1.0 19:-1.0 20:-1.0 21:-1.0 22:-1.0 23:-1.0 24:-1.0 25:-1.0 
19.0 1:-1.0 2:1.0 3:-1.0 6:-1.0 7:-0.9621009194534308 8:-0.4653500317792659 9:-1.0 10:-1.0 11:-1.0 12:-1.0 13:-1.0 14:-1.0 15:-0.5999999940395355 16:-0.6734693877551021 17:-0.9791849404524977 18:-0.9858285714285714 19:-1.0 20:-1.0 21:-1.0 22:-1.0 23:-1.0 24:-1.0 25:-1.0 
19.0 1:1.0 2:-1.0 3:-1.0 6:-0.6800000071525574 7:0.12428436198228066 8:0.44777662612936053 9:0.6331361532211304 10:0.14285717934978304 11:1.0 12:0.7751100518439964 13:1.0 14:-0.9983995962604144 15:-1.0 16:-1.0 17:-1.0 18:-1.0 19:-1.0 20:-1.0 21:-1.0 22:-1.0 23:-1.0 24:-1.0 25:-1.0 
19.0 1:1.0 2:-1.0 3:-1.0 6:0.3200000524520874 7:-0.6112035344582036 8:0.194674359254972 9:-0.6449864506721497 10:-1.0 11:0.18691587448120117 12:0.29651862004155505 13:-0.9024390243902439 14:-0.9983995962604144 15:-1.0 16:-1.0 17:-1.0 18:-1.0 19:-1.0 20:-1.0 21:-1.0 22:-1.0 23:-1.0 24:-1.0 25:-1.0 
19.0 1:1.0 2:-1.0 3:-1.0 6:0.20000004768371582 7:-0.4715756895900731 8:-0.4653500317792659 9:0.0 10:-1.0 11:1.0 12:0.33253303940459755 13:1.0 14:-0.9998471375055754 15:-1.0 16:-1.0 17:-1.0 18:-1.0 19:-1.0 20:-1.0 21:-1.0 22:-1.0 23:-1.0 24:-1.0 25:-1.0 
19.0 1:1.0 2:-1.0 3:-1.0 6:0.039999961853027344 7:0.01894954027328466 8:-0.4653500317792659 9:1.0 10:-1.0 11:1.0 12:0.4893958172398505 13:1.0 14:-0.9998970349334503 15:-1.0 16:-1.0 17:-1.0 18:-1.0 19:-1.0 20:-1.0 21:-1.0 22:-1.0 23:-1.0 24:-1.0 25:-1.0 
19.0 1:-1.0 2:-1.0 3:1.0 6:-1.0 7:-0.9621009194534308 8:-0.4653500317792659 9:-1.0 10:-1.0 11:-1.0 12:-1.0 13:-1.0 14:-1.0 15:-1.0 16:-1.0 17:-1.0 18:-1.0 19:-1.0 20:-0.9999993789808918 21:-1.0 22:-1.0 23:-1.0 24:-1.0 25:-0.1428571428571429 
19.0 1:-1.0 2:-1.0 3:1.0 6:-1.0 7:-0.9621009194534308 8:-0.4653500317792659 9:-1.0 10:-1.0 11:-1.0 12:-1.0 13:-1.0 14:-1.0 15:-1.0 16:-1.0 17:-1.0 18:-1.0 19:-1.0 20:-0.8394904458598726 21:-0.6363636255264282 22:-0.6363636255264282 23:-1.0 24:-0.6 25:-0.33333333333333326 
19.0 1:1.0 2:-1.0 3:-1.0 6:-0.24000000953674316 7:-0.6287169045989118 8:-0.25232824501154616 9:-0.4720461368560791 10:-1.0 11:0.6886647939682007 12:0.5830330690697745 13:-0.9344262295081968 14:-0.9666325108570969 15:-1.0 16:-1.0 17:-1.0 18:-1.0 19:-1.0 20:-1.0 21:-1.0 22:-1.0 23:-1.0 24:-1.0 25:-1.0 
19.0 1:1.0 2:-1.0 3:-1.0 6:-0.3999999761581421 7:-0.5822895831748679 8:0.14731430047752303 9:-0.9504132233560085 10:-1.0 11:1.0 12:0.6262504915624187 13:1.0 14:-0.9906777730311285 15:-1.0 16:-1.0 17:-1.0 18:-1.0 19:-1.0 20:-1.0 21:-1.0 22:-1.0 23:-1.0 24:-1.0 25:-1.0 
19.0 1:1.0 2:-1.0 3:-1.0 6:-0.3199999928474426 7:-0.34267198516558184 8:0.20822044058805744 9:-0.5416271090507507 10:-1.0 11:-0.26968640089035034 12:0.7166866471820617 13:-0.8974358974358975 14:-0.9906777730311285 15:-1.0 16:-1.0 17:-1.0 18:-1.0 19:-1.0 20:-1.0 21:-1.0 22:-1.0 23:-1.0 24:-1.0 25:-1.0 
19.0 1:-1.0 2:-1.0 3:1.0 6:-1.0 7:-0.9621009194534308 8:-0.4653500317792659 9:-1.0 10:-1.0 11:-1.0 12:-1.0 13:-1.0 14:-1.0 15:-1.0 16:-1.0 17:-1.0 18:-1.0 19:-0.11111111111111116 20:-0.9737898089171975 21:-1.0 22:-1.0 23:-1.0 24:-0.4 25:-0.6190476190476191 
19.0 1:1.0 2:-1.0 3:-1.0 6:-0.9200000017881393 7:-0.5558891868228959 8:0.3164313522001234 9:-0.972151655703783 10:-1.0 11:-0.9707565158605576 12:0.9559824823402754 13:-0.9754601226993865 14:-0.9762970627703309 15:-1.0 16:-1.0 17:-1.0 18:-1.0 19:-1.0 20:-1.0 21:-1.0 22:-1.0 23:-1.0 24:-1.0 25:-1.0 
19.0 1:-1.0 2:-1.0 3:1.0 6:-1.0 7:-0.9621009194534308 8:-0.4653500317792659 9:-1.0 10:-1.0 11:-1.0 12:-1.0 13:-1.0 14:-1.0 15:-1.0 16:-1.0 17:-1.0 18:-1.0 19:-1.0 20:-0.910828025477707 21:-0.30000001192092896 22:-0.30000001192092896 23:-1.0 24:-0.6 25:-0.6190476190476191 
19.0 1:1.0 2:-1.0 3:-1.0 6:-0.4399999976158142 7:-0.37095513561555504 8:1.0 9:-0.7948717921972275 10:-1.0 11:0.0 12:0.6878752309486209 13:0.0 14:-0.999965828853671 15:-1.0 16:-1.0 17:-1.0 18:-1.0 19:-1.0 20:-1.0 21:-1.0 22:-1.0 23:-1.0 24:-1.0 25:-1.0 
19.0 1:1.0 2:-1.0 3:-1.0 6:0.36000001430511475 7:-0.5778735972527638 8:0.4026018558881692 9:-0.3243962526321411 10:-1.0 11:-0.9634649381041527 12:0.28531406776361234 13:-0.9298245614035088 14:-0.998335963583134 15:-1.0 16:-1.0 17:-1.0 18:-1.0 19:-1.0 20:-1.0 21:-1.0 22:-1.0 23:-1.0 24:-1.0 25:-1.0 
19.0 1:1.0 2:-1.0 3:-1.0 6:0.6799999475479126 7:-0.4934638791373177 8:0.04009301363604334 9:-0.5275238156318665 10:-1.0 11:-0.7437341511249542 12:0.10524209020539343 13:-0.9661016949152542 14:-0.9911992561641968 15:-1.0 16:-1.0 17:-1.0 18:-1.0 19:-1.0 20:-1.0 21:-1.0 22:-1.0 23:-1.0 24:-1.0 25:-1.0 
19.0 1:1.0 2:-1.0 3:-1.0 6:-0.880000002682209 7:-0.06700053061643096 8:-0.11614454836453159 9:0.45407724380493164 10:-1.0 11:0.9858323335647583 12:0.9695879164044254 13:0.0 14:-0.9911992561641968 15:-1.0 16:-1.0 17:-1.0 18:-1.0 19:-1.0 20:-1.0 21:-1.0 22:-1.0 23:-1.0 24:-1.0 25:-1.0 
19.0 1:-1.0 2:1.0 3:-1.0 6:-1.0 7:-0.9621009194534308 8:-0.4653500317792659 9:-1.0 10:-1.0 11:-1.0 12:-1.0 13:-1.0 14:-1.0 15:0.0 16:-0.7142857142857143 17:-0.9997499398886576 18:-0.9996491428571429 19:-1.0 20:-1.0 21:-1.0 22:-1.0 23:-1.0 24:-1.0 25:-1.0 
19.0 1:-1.0 2:-1.0 3:1.0 6:-1.0 7:-0.9621009194534308 8:-0.4653500317792659 9:-1.0 10:-1.0 11:-1.0 12:-1.0 13:-1.0 14:-1.0 15:-1.0 16:-1.0 17:-1.0 18:-1.0 19:-0.7777777777777778 20:-0.9990222929936305 21:0.0 22:0.0 23:-0.7999999970197678 24:-0.8 25:-0.7142857142857143 
19.0 1:1.0 2:-1.0 3:-1.0 6:-0.7999999970197678 7:-0.36028447070953906 8:0.2261616856732327 9:-0.5596330165863037 10:-1.0 11:1.0 12:0.8975589584213475 13:1.0 14:-0.9952777880709565 15:-1.0 16:-1.0 17:-1.0 18:-1.0 19:-1.0 20:-1.0 21:-1.0 22:-1.0 23:-1.0 24:-1.0 25:-1.0 
19.0 1:1.0 2:-1.0 3:-1.0 6:-0.9600000008940697 7:0.20121171504230206 8:0.23438595182635358 9:0.5673187971115112 10:0.1111112341048246 11:0.9941263198852539 12:0.9943977834895252 13:0.33333333333333326 14:-0.9952777880709565 15:-1.0 16:-1.0 17:-1.0 18:-1.0 19:-1.0 20:-1.0 21:-1.0 22:-1.0 23:-1.0 24:-1.0 25:-1.0 
19.0 1:-1.0 2:-1.0 3:1.0 6:-1.0 7:-0.9621009194534308 8:-0.4653500317792659 9:-1.0 10:-1.0 11:-1.0 12:-1.0 13:-1.0 14:-1.0 15:-1.0 16:-1.0 17:-1.0 18:-1.0 19:0.11111111111111116 20:-0.9907324840764331 21:-0.22222214937210083 22:-0.22222214937210083 23:-1.0 24:-0.4 25:-0.5238095238095237 
19.0 1:1.0 2:-1.0 3:-1.0 6:0.5199999809265137 7:-0.6849986361124798 8:1.0 9:-0.5600906908512115 10:-1.0 11:0.5913978815078735 12:0.19567824582503635 13:-0.19999999999999996 14:-0.9994019469164384 15:-1.0 16:-1.0 17:-1.0 18:-1.0 19:-1.0 20:-1.0 21:-1.0 22:-1.0 23:-1.0 24:-1.0 25:-1.0 
19.0 1:1.0 2:-1.0 3:-1.0 6:-0.6800000071525574 7:-0.7463143044641904 8:-0.4653500317792659 9:-0.5600906908512115 10:-1.0 11:0.5913978815078735 12:0.857542989909964 13:-0.19999999999999996 14:-0.9994019469164384 15:-1.0 16:-1.0 17:-1.0 18:-1.0 19:-1.0 20:-1.0 21:-1.0 22:-1.0 23:-1.0 24:-1.0 25:-1.0 
19.0 1:1.0 2:-1.0 3:-1.0 6:-0.9600000008940697 7:-0.5206282242714417 8:1.0 9:-0.5999999940395355 10:-0.5918367094965783 11:1.0 12:0.9959984508516588 13:1.0 14:-0.9994019469164384 15:-1.0 16:-1.0 17:-1.0 18:-1.0 19:-1.0 20:-1.0 21:-1.0 22:-1.0 23:-1.0 24:-1.0 25:-1.0 
19.0 1:-1.0 2:1.0 3:-1.0 6:-1.0 7:-0.9621009194534308 8:-0.4653500317792659 9:-1.0 10:-1.0 11:-1.0 12:-1.0 13:-1.0 14:-1.0 15:0.09290707111358643 16:-0.8775510204081632 17:-0.9999729450792011 18:-0.9999336 19:-1.0 20:-1.0 21:-1.0 22:-1.0 23:-1.0 24:-1.0 25:-1.0 
19.0 1:-1.0 2:-1.0 3:1.0 6:-1.0 7:-0.9621009194534308 8:-0.4653500317792659 9:-1.0 10:-1.0 11:-1.0 12:-1.0 13:-1.0 14:-1.0 15:-1.0 16:-1.0 17:-1.0 18:-1.0 19:-0.5555555555555556 20:-0.9998149681528662 21:0.14139187335968018 22:0.14139187335968018 23:-1.0 24:-0.8 25:-0.6190476190476191 
19.0 1:-1.0 2:-1.0 3:1.0 6:-1.0 7:-0.9621009194534308 8:-0.4653500317792659 9:-1.0 10:-1.0 11:-1.0 12:-1.0 13:-1.0 14:-1.0 15:-1.0 16:-1.0 17:-1.0 18:-1.0 19:-1.0 20:-0.9998149681528662 21:0.09290707111358643 22:0.09290707111358643 23:-1.0 24:-0.19999999999999996 25:-0.5428571428571428 
19.0 1:1.0 2:-1.0 3:-1.0 6:0.6799999475479126 7:-0.3314256322684229 8:-0.4653500317792659 9:0.2857142686843872 10:0.42857145289985543 11:1.0 12:0.15646249173772642 13:1.0 14:-0.9999903859103288 15:-1.0 16:-1.0 17:-1.0 18:-1.0 19:-1.0 20:-1.0 21:-1.0 22:-1.0 23:-1.0 24:-1.0 25:-1.0 
19.0 1:-1.0 2:1.0 3:-1.0 6:-1.0 7:-0.9621009194534308 8:-0.4653500317792659 9:-1.0 10:-1.0 11:-1.0 12:-1.0 13:-1.0 14:-1.0 15:0.0 16:0.7959183673469388 17:-0.9997559934853939 18:-0.9998491428571429 19:-1.0 20:-1.0 21:-1.0 22:-1.0 23:-1.0 24:-1.0 25:-1.0 
19.0 1:-1.0 2:-1.0 3:1.0 6:-1.0 7:-0.9621009194534308 8:-0.4653500317792659 9:-1.0 10:-1.0 11:-1.0 12:-1.0 13:-1.0 14:-1.0 15:-1.0 16:-1.0 17:-1.0 18:-1.0 19:-1.0 20:-0.9995796178343949 21:0.0 22:0.0 23:0.0 24:-0.8 25:-0.4285714285714286 
19.0 1:1.0 2:-1.0 3:-1.0 6:0.6399999856948853 7:-0.34193625065013644 8:0.3743224579273001 9:-0.02222222089767456 10:-1.0 11:0.674418568611145 12:0.16286516118626126 13:0.0 14:-0.9998451547880294 15:-1.0 16:-1.0 17:-1.0 18:-1.0 19:-1.0 20:-1.0 21:-1.0 22:-1.0 23:-1.0 24:-1.0 25:-1.0 
19.0 1:1.0 2:-1.0 3:-1.0 6:0.08000004291534424 7:-0.5462726244635874 8:-0.03471460105513979 9:-0.7400372326374054 10:-1.0 11:-0.9482360705733299 12:0.4733893821324999 13:-0.9849056603773585 14:-0.8653031842484136 15:-1.0 16:-1.0 17:-1.0 18:-1.0 19:-1.0 20:-1.0 21:-1.0 22:-1.0 23:-1.0 24:-1.0 25:-1.0 
19.0 1:1.0 2:-1.0 3:-1.0 6:-0.9200000017881393 7:-0.8071982214413351 8:-0.4653500317792659 9:-0.6842105388641357 10:-0.9047618981729558 11:1.0 12:0.951980813934941 13:1.0 14:-0.9991375518968089 15:-1.0 16:-1.0 17:-1.0 18:-1.0 19:-1.0 20:-1.0 21:-1.0 22:-1.0 23:-1.0 24:-1.0 25:-1.0 
19.0 1:-1.0 2:-1.0 3:1.0 6:-1.0 7:-0.9621009194534308 8:-0.4653500317792659 9:-1.0 10:-1.0 11:-1.0 12:-1.0 13:-1.0 14:-1.0 15:-1.0 16:-1.0 17:-1.0 18:-1.0 19:-1.0 20:-0.8828025477707007 21:-0.9333333298563957 22:-1.0 23:-1.0 24:-0.6 25:-0.2857142857142857 
19.0 1:1.0 2:-1.0 3:-1.0 6:0.6000000238418579 7:0.2379449945145271 8:0.5977362437091072 9:1.0 10:-1.0 11:-0.9818491209298372 12:0.13725496042009477 13:-0.7647058823529411 14:-0.9996525791569494 15:-1.0 16:-1.0 17:-1.0 18:-1.0 19:-1.0 20:-1.0 21:-1.0 22:-1.0 23:-1.0 24:-1.0 25:-1.0 
19.0 1:1.0 2:-1.0 3:-1.0 6:-0.8400000035762787 7:-0.5176038010684052 8:0.38900887207930546 9:-0.8358863443136215 10:-1.0 11:-0.9751861039549112 12:0.9367748317656506 13:-0.9926739926739927 14:-0.9993454925234462 15:-1.0 16:-1.0 17:-1.0 18:-1.0 19:-1.0 20:-1.0 21:-1.0 22:-1.0 23:-1.0 24:-1.0 25:-1.0 
19.0 1:1.0 2:-1.0 3:-1.0 6:-0.9600000008940697 7:-0.5650847864754255 8:0.09192518417519202 9:-0.8878504708409309 10:-0.1836734189931566 11:1.0 12:0.9679872490422918 13:1.0 14:-0.988716677156663 15:-1.0 16:-1.0 17:-1.0 18:-1.0 19:-1.0 20:-1.0 21:-1.0 22:-1.0 23:-1.0 24:-1.0 25:-1.0 
19.0 1:1.0 2:-1.0 3:-1.0 6:-0.12000000476837158 7:-0.55893045087321 8:-0.04751548327586108 9:-0.48914945125579834 10:-1.0 11:0.5432621240615845 12:0.5782313054973598 13:-0.9854014598540146 14:-0.9588121868077666 15:-1.0 16:-1.0 17:-1.0 18:-1.0 19:-1.0 20:-1.0 21:-1.0 22:-1.0 23:-1.0 24:-1.0 25:-1.0 
19.0 1:1.0 2:-1.0 3:-1.0 6:-0.19999998807907104 7:-0.6866783936781038 8:1.0 9:-0.838515043258667 10:-1.0 11:-0.9601139612495899 12:0.5310124531133678 13:-0.9847908745247148 14:-0.9998246918700129 15:-1.0 16:-1.0 17:-1.0 18:-1.0 19:-1.0 20:-1.0 21:-1.0 22:-1.0 23:-1.0 24:-1.0 25:-1.0 
19.0 1:1.0 2:-1.0 3:-1.0 6:-0.9600000008940697 7:0.34596639916563254 8:1.0 9:1.0 10:-0.14285709420028914 11:1.0 12:0.9775910147011078 13:1.0 14:-0.9998246918700129 15:-1.0 16:-1.0 17:-1.0 18:-1.0 19:-1.0 20:-1.0 21:-1.0 22:-1.0 23:-1.0 24:-1.0 25:-1.0 
19.0 1:1.0 2:-1.0 3:-1.0 6:-0.880000002682209 7:-0.8274469281922701 8:-0.4653500317792659 9:-0.7254901826381683 10:-1.0 11:0.14285719394683838 12:0.9399759279759317 13:0.33333333333333326 14:-0.9999985608488913 15:-1.0 16:-1.0 17:-1.0 18:-1.0 19:-1.0 20:-1.0 21:-1.0 22:-1.0 23:-1.0 24:-1.0 25:-1.0 
19.0 1:-1.0 2:-1.0 3:1.0 6:-1.0 7:-0.9621009194534308 8:-0.4653500317792659 9:-1.0 10:-1.0 11:-1.0 12:-1.0 13:-1.0 14:-1.0 15:-1.0 16:-1.0 17:-1.0 18:-1.0 19:-0.7777777777777778 20:-0.971656050955414 21:-0.4750000238418579 22:-0.4750000238418579 23:-1.0 24:-1.0 25:-0.1428571428571429 
19.0 1:1.0 2:-1.0 3:-1.0 6:-0.24000000953674316 7:-0.4385541796379885 8:0.40577157236576 9:-0.3950548768043518 10:-0.7142857051625542 11:-0.9049387276172638 12:0.7094838825664462 13:-0.9393939393939394 14:-0.9977277569932322 15:-1.0 16:-1.0 17:-1.0 18:-1.0 19:-1.0 20:-1.0 21:-1.0 22:-1.0 23:-1.0 24:-1.0 25:-1.0 
19.0 1:1.0 2:-1.0 3:-1.0 6:-0.04000002145767212 7:-0.1602569563174534 8:0.32295123304163265 9:-0.4412580728530884 10:-1.0 11:0.8904109001159668 12:0.4301719596398559 13:-0.5555555555555556 14:-0.9992017214195517 15:-1.0 16:-1.0 17:-1.0 18:-1.0 19:-1.0 20:-1.0 21:-1.0 22:-1.0 23:-1.0 24:-1.0 25:-1.0 
19.0 1:1.0 2:-1.0 3:-1.0 6:-0.6800000071525574 7:-0.1602569563174534 8:0.32295123304163265 9:-0.4412580728530884 10:-1.0 11:0.8904109001159668 12:0.8607443246342315 13:-0.5555555555555556 14:-0.9992017214195517 15:-1.0 16:-1.0 17:-1.0 18:-1.0 19:-1.0 20:-1.0 21:-1.0 22:-1.0 23:-1.0 24:-1.0 25:-1.0 
19.0 1:1.0 2:-1.0 3:-1.0 6:0.6000000238418579 7:-0.54099790151823 8:0.6226781418479348 9:-0.8269145637750626 10:-1.0 11:-0.9354838728904724 12:0.2629050824647201 13:-0.9946091644204852 14:-0.9999905420472208 15:-1.0 16:-1.0 17:-1.0 18:-1.0 19:-1.0 20:-1.0 21:-1.0 22:-1.0 23:-1.0 24:-1.0 25:-1.0 
19.0 1:1.0 2:-1.0 3:-1.0 6:-0.9200000017881393 7:0.3551498067464349 8:0.6226781418479348 9:1.0 10:-0.2857142735500723 11:1.0 12:0.9743897992338335 13:1.0 14:-0.9999905420472208 15:-1.0 16:-1.0 17:-1.0 18:-1.0 19:-1.0 20:-1.0 21:-1.0 22:-1.0 23:-1.0 24:-1.0 25:-1.0 
19.0 1:1.0 2:-1.0 3:-1.0 6:-0.48000001907348633 7:-0.24673014602573318 8:-0.24099909173399325 9:0.1521691083908081 10:-0.2857142735500723 11:0.8489148616790771 12:0.7374950843758135 13:-0.9333333333333333 14:-0.8594172952331229 15:-1.0 16:-1.0 17:-1.0 18:-1.0 19:-1.0 20:-1.0 21:-1.0 22:-1.0 23:-1.0 24:-1.0 25:-1.0 
19.0 1:-1.0 2:-1.0 3:1.0 6:-1.0 7:-0.9621009194534308 8:-0.4653500317792659 9:-1.0 10:-1.0 11:-1.0 12:-1.0 13:-1.0 14:-1.0 15:-1.0 16:-1.0 17:-1.0 18:-1.0 19:-1.0 20:-0.9892675159235669 21:-0.5 22:-0.5 23:-1.0 24:-0.6 25:-0.7142857142857143 
19.0 1:1.0 2:-1.0 3:-1.0 6:-0.12000000476837158 7:-0.5977872851694421 8:-0.3011689088291858 9:-0.39989811182022095 10:-1.0 11:0.9396698474884033 12:0.6038416255205195 13:-0.6666666666666667 14:-0.9854076429343411 15:-1.0 16:-1.0 17:-1.0 18:-1.0 19:-1.0 20:-1.0 21:-1.0 22:-1.0 23:-1.0 24:-1.0 25:-1.0 
19.0 1:1.0 2:-1.0 3:-1.0 6:-0.07999998331069946 7:-0.3061343635926319 8:0.4371516868864085 9:-0.5425760746002197 10:-1.0 11:-0.7300944626331329 12:0.5622249896470022 13:-0.9285714285714286 14:-0.9992795561306688 15:-1.0 16:-1.0 17:-1.0 18:-1.0 19:-1.0 20:-1.0 21:-1.0 22:-1.0 23:-1.0 24:-1.0 25:-1.0 
19.0 1:1.0 2:-1.0 3:-1.0 6:0.08000004291534424 7:-0.14502546250771198 8:0.23468518438131825 9:-0.14274317026138306 10:-1.0 11:-0.29137909412384033 12:0.4413763926608054 13:-0.9333333333333333 14:-0.9963327528802918 15:-1.0 16:-1.0 17:-1.0 18:-1.0 19:-1.0 20:-1.0 21:-1.0 22:-1.0 23:-1.0 24:-1.0 25:-1.0 
19.0 1:-1.0 2:-1.0 3:1.0 6:-1.0 7:-0.9621009194534308 8:-0.4653500317792659 9:-1.0 10:-1.0 11:-1.0 12:-1.0 13:-1.0 14:-1.0 15:-1.0 16:-1.0 17:-1.0 18:-1.0 19:-1.0 20:-0.9780573248407644 21:-0.19999998807907104 22:-0.19999998807907104 23:-1.0 24:0.0 25:-0.6190476190476191 
19.0 1:1.0 2:-1.0 3:-1.0 6:-0.6800000071525574 7:-0.45059889395140673 8:0.6632788289299012 9:-0.9200000017881393 10:-1.0 11:0.384615421295166 12:0.8335334565059311 13:0.0 14:-0.9999999999392315 15:-1.0 16:-1.0 17:-1.0 18:-1.0 19:-1.0 20:-1.0 21:-1.0 22:-1.0 23:-1.0 24:-1.0 25:-1.0 
19.0 1:1.0 2:-1.0 3:-1.0 6:-0.9600000008940697 7:-0.22869663929983297 8:0.5382680968224316 9:-0.22580647468566895 10:-1.0 11:1.0 12:0.971988798190633 13:1.0 14:-0.994190666329785 15:-1.0 16:-1.0 17:-1.0 18:-1.0 19:-1.0 20:-1.0 21:-1.0 22:-1.0 23:-1.0 24:-1.0 25:-1.0 
19.0 1:1.0 2:-1.0 3:-1.0 6:-0.9200000017881393 7:0.2667819047690836 8:0.580243716443877 9:0.7203389406204224 10:0.1111111489553307 11:1.0 12:0.9831933504685757 13:1.0 14:-0.994190666329785 15:-1.0 16:-1.0 17:-1.0 18:-1.0 19:-1.0 20:-1.0 21:-1.0 22:-1.0 23:-1.0 24:-1.0 25:-1.0 
19.0 1:-1.0 2:-1.0 3:1.0 6:-1.0 7:-0.9621009194534308 8:-0.4653500317792659 9:-1.0 10:-1.0 11:-1.0 12:-1.0 13:-1.0 14:-1.0 15:-1.0 16:-1.0 17:-1.0 18:-1.0 19:-0.7777777777777778 20:-0.9953821656050955 21:-0.2222222089767456 22:-0.2222222089767456 23:-1.0 24:-0.4 25:-0.7142857142857143 
19.0 1:1.0 2:-1.0 3:-1.0 6:-0.880000002682209 7:-0.7111828205449748 8:0.23770061180218272 9:-0.9682539664208889 10:-1.0 11:1.0 12:0.9199679437202397 13:1.0 14:-0.9995862624879284 15:-1.0 16:-1.0 17:-1.0 18:-1.0 19:-1.0 20:-1.0 21:-1.0 22:-1.0 23:-1.0 24:-1.0 25:-1.0 
19.0 1:-1.0 2:1.0 3:-1.0 6:-1.0 7:-0.9621009194534308 8:-0.4653500317792659 9:-1.0 10:-1.0 11:-1.0 12:-1.0 13:-1.0 14:-1.0 15:-0.1785714030265808 16:0.8367346938775511 17:-0.9925494194013414 18:-0.9982742857142857 19:-1.0 20:-1.0 21:-1.0 22:-1.0 23:-1.0 24:-1.0 25:-1.0 
19.0 1:-1.0 2:-1.0 3:1.0 6:-1.0 7:-0.9621009194534308 8:-0.4653500317792659 9:-1.0 10:-1.0 11:-1.0 12:-1.0 13:-1.0 14:-1.0 15:-1.0 16:-1.0 17:-1.0 18:-1.0 19:-0.7777777777777778 20:-0.9951910828025478 21:-0.1785714030265808 22:-0.1785714030265808 23:-1.0 24:-0.4 25:-0.6571428571428571 
19.0 1:1.0 2:-1.0 3:-1.0 6:-0.12000000476837158 7:-0.4671053217653013 8:-0.0787251068603474 9:-0.2811158299446106 10:-1.0 11:0.8204028606414795 12:0.5598238693468085 13:-0.9459459459459459 14:-0.9271453966777796 15:-1.0 16:-1.0 17:-1.0 18:-1.0 19:-1.0 20:-1.0 21:-1.0 22:-1.0 23:-1.0 24:-1.0 25:-1.0 
19.0 1:1.0 2:-1.0 3:-1.0 6:0.48000001907348633 7:-0.7031262293775113 8:-0.4653500317792659 9:-0.4720461368560791 10:-1.0 11:0.6886647939682007 12:0.22609044867760386 13:-0.9344262295081968 14:-0.9666325108570969 15:-1.0 16:-1.0 17:-1.0 18:-1.0 19:-1.0 20:-1.0 21:-1.0 22:-1.0 23:-1.0 24:-1.0 25:-1.0 
19.0 1:-1.0 2:-1.0 3:1.0 6:-1.0 7:-0.9621009194534308 8:-0.4653500317792659 9:-1.0 10:-1.0 11:-1.0 12:-1.0 13:-1.0 14:-1.0 15:-1.0 16:-1.0 17:-1.0 18:-1.0 19:-0.7777777777777778 20:-0.9739808917197452 21:-0.5 22:-0.5 23:-0.5 24:-1.0 25:-0.7142857142857143 
19.0 1:1.0 2:-1.0 3:-1.0 6:0.6799999475479126 7:-0.5655934034532782 8:0.657771762071863 9:-0.7490877509117126 10:-1.0 11:-0.8139534890651703 12:0.12685074182321876 13:-0.984251968503937 14:-0.9997469816797168 15:-1.0 16:-1.0 17:-1.0 18:-1.0 19:-1.0 20:-1.0 21:-1.0 22:-1.0 23:-1.0 24:-1.0 25:-1.0 
19.0 1:1.0 2:-1.0 3:-1.0 6:-0.3999999761581421 7:-0.4832418941658918 8:0.15260895239870353 9:-0.4454973340034485 10:-1.0 11:0.5261603593826294 12:0.6774708930947517 13:-0.9473684210526316 14:-0.951079534325303 15:-1.0 16:-1.0 17:-1.0 18:-1.0 19:-1.0 20:-1.0 21:-1.0 22:-1.0 23:-1.0 24:-1.0 25:-1.0 
19.0 1:1.0 2:-1.0 3:-1.0 6:-0.8400000035762787 7:-0.03463850356572873 8:0.657771762071863 9:0.3333333730697632 10:-1.0 11:1.0 12:0.885554191719331 13:1.0 14:-0.9997469816797168 15:-1.0 16:-1.0 17:-1.0 18:-1.0 19:-1.0 20:-1.0 21:-1.0 22:-1.0 23:-1.0 24:-1.0 25:-1.0 
19.0 1:1.0 2:-1.0 3:-1.0 6:-0.9200000017881393 7:0.29237823837629096 8:0.657771762071863 9:1.0 10:0.07142858967489163 11:1.0 12:0.9871948996169166 13:1.0 14:-0.9997469816797168 15:-1.0 16:-1.0 17:-1.0 18:-1.0 19:-1.0 20:-1.0 21:-1.0 22:-1.0 23:-1.0 24:-1.0 25:-1.0 
19.0 1:-1.0 2:-1.0 3:1.0 6:-1.0 7:-0.9621009194534308 8:-0.4653500317792659 9:-1.0 10:-1.0 11:-1.0 12:-1.0 13:-1.0 14:-1.0 15:-1.0 16:-1.0 17:-1.0 18:-1.0 19:-0.7777777777777778 20:-0.9538216560509554 21:-1.0 22:-1.0 23:-1.0 24:-0.4 25:-0.4285714285714286 
19.0 1:1.0 2:-1.0 3:-1.0 6:-0.3999999761581421 7:-0.5654037100207472 8:0.15384846168176902 9:-0.575426310300827 10:-1.0 11:0.3830239772796631 12:0.6254501578813518 13:-0.9804878048780488 14:-0.9733363635574173 15:-1.0 16:-1.0 17:-1.0 18:-1.0 19:-1.0 20:-1.0 21:-1.0 22:-1.0 23:-1.0 24:-1.0 25:-1.0 
19.0 1:1.0 2:-1.0 3:-1.0 6:-0.9200000017881393 7:0.09675378689503056 8:0.5237818697737475 9:0.299505352973938 10:-1.0 11:0.9941003322601318 12:0.9671869153612249 13:0.33333333333333326 14:-0.9733363635574173 15:-1.0 16:-1.0 17:-1.0 18:-1.0 19:-1.0 20:-1.0 21:-1.0 22:-1.0 23:-1.0 24:-1.0 25:-1.0 
19.0 1:1.0 2:-1.0 3:-1.0 6:-0.19999998807907104 7:-0.40650897102669825 8:0.13900251797295016 9:-0.3525632619857788 10:-1.0 11:0.8595048189163208 12:0.6766707979276712 13:-0.9692307692307692 14:-0.8904453271523604 15:-1.0 16:-1.0 17:-1.0 18:-1.0 19:-1.0 20:-1.0 21:-1.0 22:-1.0 23:-1.0 24:-1.0 25:-1.0 
19.0 1:-1.0 2:-1.0 3:1.0 6:-1.0 7:-0.9621009194534308 8:-0.4653500317792659 9:-1.0 10:-1.0 11:-1.0 12:-1.0 13:-1.0 14:-1.0 15:-1.0 16:-1.0 17:-1.0 18:-1.0 19:-0.33333333333333337 20:-0.9987292993630573 21:-1.0 22:-1.0 23:-1.0 24:0.0 25:-0.6571428571428571 
19.0 1:1.0 2:-1.0 3:-1.0 6:-0.48000001907348633 7:-0.24707427236680735 8:0.08144483906380562 9:-0.2561759352684021 10:-1.0 11:0.8400881290435791 12:0.8311325747197238 13:-0.9375 14:-0.9387896434581063 15:-1.0 16:-1.0 17:-1.0 18:-1.0 19:-1.0 20:-1.0 21:-1.0 22:-1.0 23:-1.0 24:-1.0 25:-1.0 
19.0 1:1.0 2:-1.0 3:-1.0 6:-0.9200000017881393 7:-0.6255703560155297 8:0.018906850897029592 9:-0.9087875410914421 10:-1.0 11:0.7999999523162842 12:0.9647859143180244 13:0.33333333333333326 14:-0.9387896434581063 15:-1.0 16:-1.0 17:-1.0 18:-1.0 19:-1.0 20:-1.0 21:-1.0 22:-1.0 23:-1.0 24:-1.0 25:-1.0 
19.0 1:-1.0 2:1.0 3:-1.0 6:-1.0 7:-0.9621009194534308 8:-0.4653500317792659 9:-1.0 10:-1.0 11:-1.0 12:-1.0 13:-1.0 14:-1.0 15:0.3956228494644165 16:-1.0 17:-0.9975459650153169 18:-0.9982057142857143 19:-1.0 20:-1.0 21:-1.0 22:-1.0 23:-1.0 24:-1.0 25:-1.0 
19.0 1:-1.0 2:-1.0 3:1.0 6:-1.0 7:-0.9621009194534308 8:-0.4653500317792659 9:-1.0 10:-1.0 11:-1.0 12:-1.0 13:-1.0 14:-1.0 15:-1.0 16:-1.0 17:-1.0 18:-1.0 19:-0.7777777777777778 20:-0.995 21:0.3956228494644165 22:0.3956228494644165 23:-1.0 24:-0.8 25:-0.7142857142857143 
19.0 1:1.0 2:-1.0 3:-1.0 6:-0.6399999856948853 7:0.01894954027328466 8:-0.4653500317792659 9:1.0 10:-1.0 11:1.0 12:0.7094838825664462 13:1.0 14:-1.0 15:-1.0 16:-1.0 17:-1.0 18:-1.0 19:-1.0 20:-1.0 21:-1.0 22:-1.0 23:-1.0 24:-1.0 25:-1.0 
19.0 1:1.0 2:-1.0 3:-1.0 6:-0.1600000262260437 7:-0.11673114330138445 8:-0.18599888604436488 9:0.3421214818954468 10:-1.0 11:0.931078314781189 12:0.5310123338563746 13:-0.9344262295081968 14:-0.8592347208329858 15:-1.0 16:-1.0 17:-1.0 18:-1.0 19:-1.0 20:-1.0 21:-1.0 22:-1.0 23:-1.0 24:-1.0 25:-1.0 
19.0 1:-1.0 2:-1.0 3:1.0 6:-1.0 7:-0.9621009194534308 8:-0.4653500317792659 9:-1.0 10:-1.0 11:-1.0 12:-1.0 13:-1.0 14:-1.0 15:-1.0 16:-1.0 17:-1.0 18:-1.0 19:-0.5555555555555556 20:-0.997515923566879 21:-1.0 22:-1.0 23:-1.0 24:-0.6 25:-0.7142857142857143 
19.0 1:1.0 2:-1.0 3:-1.0 6:0.7599999904632568 7:-0.7001424464135652 8:-0.4653500317792659 9:-0.4386317729949951 10:-1.0 11:1.0 12:0.1364545074820347 13:1.0 14:-0.9984177002964304 15:-1.0 16:-1.0 17:-1.0 18:-1.0 19:-1.0 20:-1.0 21:-1.0 22:-1.0 23:-1.0 24:-1.0 25:-1.0 
19.0 1:-1.0 2:-1.0 3:1.0 6:-1.0 7:-0.9621009194534308 8:-0.4653500317792659 9:-1.0 10:-1.0 11:-1.0 12:-1.0 13:-1.0 14:-1.0 15:-1.0 16:-1.0 17:-1.0 18:-1.0 19:-1.0 20:-0.9999992261146496 21:-0.6666666567325592 22:-0.6666666567325592 23:-1.0 24:-0.4 25:-0.5238095238095237 
19.0 1:1.0 2:-1.0 3:-1.0 6:-0.1600000262260437 7:0.07661821496795174 8:0.6307209993563792 9:0.7186357975006104 10:-0.6825396747681017 11:0.8483500480651855 12:0.595838288709851 13:-0.95 14:-0.8695087440539144 15:-1.0 16:-1.0 17:-1.0 18:-1.0 19:-1.0 20:-1.0 21:-1.0 22:-1.0 23:-1.0 24:-1.0 25:-1.0 
19.0 1:1.0 2:-1.0 3:-1.0 6:-0.5999999940395355 7:-0.5814596451699628 8:0.6307209993563792 9:-0.6229422688484192 10:-1.0 11:-0.9295718297362328 12:0.8239296908471152 13:-0.875 14:-0.8695087440539144 15:-1.0 16:-1.0 17:-1.0 18:-1.0 19:-1.0 20:-1.0 21:-1.0 22:-1.0 23:-1.0 24:-1.0 25:-1.0 
19.0 1:-1.0 2:-1.0 3:1.0 6:-1.0 7:-0.9621009194534308 8:-0.4653500317792659 9:-1.0 10:-1.0 11:-1.0 12:-1.0 13:-1.0 14:-1.0 15:-1.0 16:-1.0 17:-1.0 18:-1.0 19:-0.5555555555555556 20:-0.99 21:-0.7777777761220932 22:-0.7777777761220932 23:-0.7777777761220932 24:-0.6 25:-0.7142857142857143 
19.0 1:1.0 2:-1.0 3:-1.0 6:0.6399999856948853 7:-0.5017062459013135 8:-0.4653500317792659 9:-0.061425089836120605 10:-1.0 11:0.2910052537918091 12:0.15486194363258599 13:-0.6666666666666667 14:-0.9992633821513168 15:-1.0 16:-1.0 17:-1.0 18:-1.0 19:-1.0 20:-1.0 21:-1.0 22:-1.0 23:-1.0 24:-1.0 25:-1.0 
19.0 1:1.0 2:-1.0 3:-1.0 6:-0.48000001907348633 7:-0.39930161466831215 8:-0.10503840020109545 9:-0.2576514482498169 10:-1.0 11:0.9020135402679443 12:0.6734693439464108 13:-0.9272727272727272 14:-0.86856862459756 15:-1.0 16:-1.0 17:-1.0 18:-1.0 19:-1.0 20:-1.0 21:-1.0 22:-1.0 23:-1.0 24:-1.0 25:-1.0 
19.0 1:1.0 2:-1.0 3:-1.0 6:-0.880000002682209 7:-0.6784906134798502 8:0.01458352566696508 9:-0.9540455602109432 10:0.9047619939661367 11:0.7285068035125732 12:0.929571947893042 13:-0.6 14:-0.86856862459756 15:-1.0 16:-1.0 17:-1.0 18:-1.0 19:-1.0 20:-1.0 21:-1.0 22:-1.0 23:-1.0 24:-1.0 25:-1.0 
19.0 1:1.0 2:-1.0 3:-1.0 6:0.3999999761581421 7:0.07198639721493749 8:0.6587682431633963 9:0.3999999761581421 10:-1.0 11:-0.09163343906402588 12:0.286914615868753 13:-0.33333333333333337 14:-0.9994441370847839 15:-1.0 16:-1.0 17:-1.0 18:-1.0 19:-1.0 20:-1.0 21:-1.0 22:-1.0 23:-1.0 24:-1.0 25:-1.0 
19.0 1:1.0 2:-1.0 3:-1.0 6:-0.5999999940395355 7:-0.5573624393462934 8:0.48815232107426065 9:-0.7755331099033356 10:-1.0 11:-0.6082474291324615 12:0.7919167013754207 13:-0.95 14:-0.9994441370847839 15:-1.0 16:-1.0 17:-1.0 18:-1.0 19:-1.0 20:-1.0 21:-1.0 22:-1.0 23:-1.0 24:-1.0 25:-1.0 
19.0 1:-1.0 2:-1.0 3:1.0 6:-1.0 7:-0.9621009194534308 8:-0.4653500317792659 9:-1.0 10:-1.0 11:-1.0 12:-1.0 13:-1.0 14:-1.0 15:-1.0 16:-1.0 17:-1.0 18:-1.0 19:-0.33333333333333337 20:-0.9904777070063694 21:-0.444444477558136 22:-0.444444477558136 23:-1.0 24:-0.8 25:-0.5714285714285714 
19.0 1:-1.0 2:-1.0 3:1.0 6:-1.0 7:-0.9621009194534308 8:-0.4653500317792659 9:-1.0 10:-1.0 11:-1.0 12:-1.0 13:-1.0 14:-1.0 15:-1.0 16:-1.0 17:-1.0 18:-1.0 19:-0.5555555555555556 20:-0.9904777070063694 21:-0.444444477558136 22:-0.444444477558136 23:-1.0 24:-0.8 25:-0.6190476190476191 
19.0 1:1.0 2:-1.0 3:-1.0 6:0.0 7:-0.6166425726148472 8:-0.09560785826962703 9:-0.8003847748041153 10:0.07142858967489163 11:-0.927272729575634 12:0.442977060022939 13:-0.9245283018867925 14:-0.7350665302824604 15:-1.0 16:-1.0 17:-1.0 18:-1.0 19:-1.0 20:-1.0 21:-1.0 22:-1.0 23:-1.0 24:-1.0 25:-1.0 
19.0 1:1.0 2:-1.0 3:-1.0 6:0.2799999713897705 7:0.18886199427263173 8:0.8576205911126884 9:-0.007865190505981445 10:-1.0 11:-0.8134243488311768 12:0.35734290648969713 13:-0.6923076923076923 14:-0.9991685774013485 15:-1.0 16:-1.0 17:-1.0 18:-1.0 19:-1.0 20:-1.0 21:-1.0 22:-1.0 23:-1.0 24:-1.0 25:-1.0 
19.0 1:1.0 2:-1.0 3:-1.0 6:-0.9200000017881393 7:-0.18425680099279862 8:0.8779605441001621 9:-0.840266227722168 10:-1.0 11:-0.9445983394980431 12:0.9543818149781418 13:-0.9967923015236568 14:-0.9991685774013485 15:-1.0 16:-1.0 17:-1.0 18:-1.0 19:-1.0 20:-1.0 21:-1.0 22:-1.0 23:-1.0 24:-1.0 25:-1.0 
19.0 1:1.0 2:-1.0 3:-1.0 6:-0.9600000008940697 7:0.3243255595627794 8:1.0 9:0.12254905700683594 10:-0.7619047507542329 11:-0.9825327508151531 12:0.9751901329149002 13:-0.5555555555555556 14:-0.9991685774013485 15:-1.0 16:-1.0 17:-1.0 18:-1.0 19:-1.0 20:-1.0 21:-1.0 22:-1.0 23:-1.0 24:-1.0 25:-1.0 
19.0 1:-1.0 2:-1.0 3:1.0 6:-1.0 7:-0.9621009194534308 8:-0.4653500317792659 9:-1.0 10:-1.0 11:-1.0 12:-1.0 13:-1.0 14:-1.0 15:-1.0 16:-1.0 17:-1.0 18:-1.0 19:-1.0 20:-0.9985700636942675 21:-0.5 22:-0.5 23:-0.5 24:-0.8 25:-0.7142857142857143 
19.0 1:-1.0 2:1.0 3:-1.0 6:-1.0 7:-0.9621009194534308 8:-0.4653500317792659 9:-1.0 10:-1.0 11:-1.0 12:-1.0 13:-1.0 14:-1.0 15:-0.3333333134651184 16:-0.9591836734693877 17:-0.99077990650916 18:-0.9926742857142857 19:-1.0 20:-1.0 21:-1.0 22:-1.0 23:-1.0 24:-1.0 25:-1.0 
19.0 1:1.0 2:-1.0 3:-1.0 6:-0.9200000017881393 7:-0.07694978742222058 8:1.0 9:0.4408602714538574 10:-1.0 11:0.6716418266296387 12:0.9583833641264827 13:0.0 14:-0.9995970940111562 15:-1.0 16:-1.0 17:-1.0 18:-1.0 19:-1.0 20:-1.0 21:-1.0 22:-1.0 23:-1.0 24:-1.0 25:-1.0 
19.0 1:1.0 2:-1.0 3:-1.0 6:-0.9600000008940697 7:0.2189666460861499 8:0.057473612553583076 9:1.0 10:-0.2857142735500723 11:1.0 12:0.9847938985737161 13:1.0 14:-0.99704416263503 15:-1.0 16:-1.0 17:-1.0 18:-1.0 19:-1.0 20:-1.0 21:-1.0 22:-1.0 23:-1.0 24:-1.0 25:-1.0 
19.0 1:1.0 2:-1.0 3:-1.0 6:-0.5600000023841858 7:-0.3571197948252678 8:1.0 9:-0.06666666269302368 10:-0.04761900301693167 11:1.0 12:0.7198879819063291 13:1.0 14:-0.999906744580725 15:-1.0 16:-1.0 17:-1.0 18:-1.0 19:-1.0 20:-1.0 21:-1.0 22:-1.0 23:-1.0 24:-1.0 25:-1.0 
19.0 1:1.0 2:-1.0 3:-1.0 6:-0.12000000476837158 7:-0.43384295261204675 8:-0.4653500317792659 9:0.07692313194274902 10:-1.0 11:1.0 12:0.6382552582644352 13:1.0 14:-0.999906744580725 15:-1.0 16:-1.0 17:-1.0 18:-1.0 19:-1.0 20:-1.0 21:-1.0 22:-1.0 23:-1.0 24:-1.0 25:-1.0 
19.0 1:-1.0 2:-1.0 3:1.0 6:-1.0 7:-0.9621009194534308 8:-0.4653500317792659 9:-1.0 10:-1.0 11:-1.0 12:-1.0 13:-1.0 14:-1.0 15:-1.0 16:-1.0 17:-1.0 18:-1.0 19:1.0 20:-0.9893312101910828 21:-0.16666662693023682 22:-0.16666662693023682 23:-0.7142857015132904 24:-0.4 25:-0.33333333333333326 
19.0 1:1.0 2:-1.0 3:-1.0 6:-0.5999999940395355 7:-0.3706945702840637 8:0.45305896287533653 9:-0.7344664335250854 10:-1.0 11:-0.17039507627487183 12:0.7334934159704791 13:-0.9259259259259259 14:-0.8185113314766906 15:-1.0 16:-1.0 17:-1.0 18:-1.0 19:-1.0 20:-1.0 21:-1.0 22:-1.0 23:-1.0 24:-1.0 25:-1.0 
19.0 1:1.0 2:-1.0 3:-1.0 6:-0.7199999988079071 7:-0.2770009257806263 8:0.5311934217050509 9:-0.6612235307693481 10:-1.0 11:0.9426968097686768 12:0.8967587439972737 13:-0.875 14:-0.8185113314766906 15:-1.0 16:-1.0 17:-1.0 18:-1.0 19:-1.0 20:-1.0 21:-1.0 22:-1.0 23:-1.0 24:-1.0 25:-1.0 
19.0 1:1.0 2:-1.0 3:-1.0 6:-0.6800000071525574 7:-0.4107304685528105 8:0.5311934217050509 9:-0.9338487759232521 10:-1.0 11:-0.8737961798906326 12:0.819127569503721 13:-0.978021978021978 14:-0.8185113314766906 15:-1.0 16:-1.0 17:-1.0 18:-1.0 19:-1.0 20:-1.0 21:-1.0 22:-1.0 23:-1.0 24:-1.0 25:-1.0 
19.0 1:1.0 2:-1.0 3:-1.0 6:-0.24000000953674316 7:-0.493740612851699 8:-0.22790369340838545 9:-0.28284579515457153 10:-1.0 11:0.7346711158752441 12:0.6014406244773189 13:-0.962962962962963 14:-0.924413375985415 15:-1.0 16:-1.0 17:-1.0 18:-1.0 19:-1.0 20:-1.0 21:-1.0 22:-1.0 23:-1.0 24:-1.0 25:-1.0 
19.0 1:-1.0 2:-1.0 3:1.0 6:-1.0 7:-0.9621009194534308 8:-0.4653500317792659 9:-1.0 10:-1.0 11:-1.0 12:-1.0 13:-1.0 14:-1.0 15:-1.0 16:-1.0 17:-1.0 18:-1.0 19:-0.7777777777777778 20:-0.999913694267516 21:0.4945056438446045 22:0.4945056438446045 23:0.7777777910232544 24:-0.8 25:-0.7142857142857143 
19.0 1:1.0 2:-1.0 3:-1.0 6:0.3200000524520874 7:-0.4045356096618331 8:0.011324109296219076 9:-0.04921412467956543 10:-1.0 11:0.8135014772415161 12:0.3469388071498145 13:-0.9807692307692307 14:-0.3301110064633377 15:-1.0 16:-1.0 17:-1.0 18:-1.0 19:-1.0 20:-1.0 21:-1.0 22:-1.0 23:-1.0 24:-1.0 25:-1.0 
19.0 1:1.0 2:-1.0 3:-1.0 6:-0.760000005364418 7:-0.3021688118600424 8:0.5605885221344313 9:-0.3179249167442322 10:0.22448982893551817 11:0.23799145221710205 12:0.8775509741656558 13:-0.9689922480620154 14:-0.3301110064633377 15:-1.0 16:-1.0 17:-1.0 18:-1.0 19:-1.0 20:-1.0 21:-1.0 22:-1.0 23:-1.0 24:-1.0 25:-1.0 
19.0 1:-1.0 2:-1.0 3:1.0 6:-1.0 7:-0.9621009194534308 8:-0.4653500317792659 9:-1.0 10:-1.0 11:-1.0 12:-1.0 13:-1.0 14:-1.0 15:-1.0 16:-1.0 17:-1.0 18:-1.0 19:0.5555555555555556 20:-0.6305732484076434 21:-1.0 22:-1.0 23:-1.0 24:-0.6 25:-0.6571428571428571 
19.0 1:1.0 2:-1.0 3:-1.0 6:0.48000001907348633 7:0.30856392991477466 8:0.2962890534075959 9:0.5508849620819092 10:-0.6825396747681017 11:0.8236559629440308 12:0.20208079601657802 13:-0.8 14:-0.9854322931099047 15:-1.0 16:-1.0 17:-1.0 18:-1.0 19:-1.0 20:-1.0 21:-1.0 22:-1.0 23:-1.0 24:-1.0 25:-1.0 
19.0 1:1.0 2:-1.0 3:-1.0 6:-0.9600000008940697 7:-0.31916894548492925 8:0.4444386022573106 9:-0.9310344830155373 10:0.42857145289985543 11:1.0 12:0.9751901329149002 13:1.0 14:-0.9854322931099047 15:-1.0 16:-1.0 17:-1.0 18:-1.0 19:-1.0 20:-1.0 21:-1.0 22:-1.0 23:-1.0 24:-1.0 25:-1.0 
19.0 1:-1.0 2:1.0 3:-1.0 6:-1.0 7:-0.9621009194534308 8:-0.4653500317792659 9:-1.0 10:-1.0 11:-1.0 12:-1.0 13:-1.0 14:-1.0 15:-0.7777777761220932 16:-0.9591836734693877 17:-0.9984772875901492 18:-0.999032 19:-1.0 20:-1.0 21:-1.0 22:-1.0 23:-1.0 24:-1.0 25:-1.0 
19.0 1:-1.0 2:-1.0 3:1.0 6:-1.0 7:-0.9621009194534308 8:-0.4653500317792659 9:-1.0 10:-1.0 11:-1.0 12:-1.0 13:-1.0 14:-1.0 15:-1.0 16:-1.0 17:-1.0 18:-1.0 19:-1.0 20:-0.9973025477707006 21:-0.7777777761220932 22:-0.7777777761220932 23:-0.7777777761220932 24:-0.8 25:-0.7142857142857143 
19.0 1:1.0 2:-1.0 3:-1.0 6:-0.5999999940395355 7:0.10418948876945633 8:0.5532025613118858 9:1.0 10:-0.7959183547482891 11:1.0 12:0.6838736818002797 13:1.0 14:-0.9999244906073343 15:-1.0 16:-1.0 17:-1.0 18:-1.0 19:-1.0 20:-1.0 21:-1.0 22:-1.0 23:-1.0 24:-1.0 25:-1.0 
19.0 1:-1.0 2:1.0 3:-1.0 6:-1.0 7:-0.9621009194534308 8:-0.4653500317792659 9:-1.0 10:-1.0 11:-1.0 12:-1.0 13:-1.0 14:-1.0 15:-0.8571428507566452 16:-0.7551020408163265 17:-0.999941792339073 18:-0.9999792 19:-1.0 20:-1.0 21:-1.0 22:-1.0 23:-1.0 24:-1.0 25:-1.0 
19.0 1:-1.0 2:-1.0 3:1.0 6:-1.0 7:-0.9621009194534308 8:-0.4653500317792659 9:-1.0 10:-1.0 11:-1.0 12:-1.0 13:-1.0 14:-1.0 15:-1.0 16:-1.0 17:-1.0 18:-1.0 19:-1.0 20:-0.9999420382165605 21:-0.8571428507566452 22:-0.8571428507566452 23:-0.8571428507566452 24:-0.19999999999999996 25:-0.3571428571428571 
19.0 1:-1.0 2:-1.0 3:1.0 6:-1.0 7:-0.9621009194534308 8:-0.4653500317792659 9:-1.0 10:-1.0 11:-1.0 12:-1.0 13:-1.0 14:-1.0 15:-1.0 16:-1.0 17:-1.0 18:-1.0 19:0.5555555555555556 20:-0.9886624203821656 21:-0.625 22:-0.625 23:-1.0 24:-0.4 25:-0.5 
19.0 1:1.0 2:-1.0 3:-1.0 6:0.5199999809265137 7:0.24043603650768963 8:0.4167199378057449 9:0.9043004512786865 10:-1.0 11:-0.6743002533912659 12:0.21968777922906924 13:-0.875 14:-0.9990262180973686 15:-1.0 16:-1.0 17:-1.0 18:-1.0 19:-1.0 20:-1.0 21:-1.0 22:-1.0 23:-1.0 24:-1.0 25:-1.0 
19.0 1:1.0 2:-1.0 3:-1.0 6:-0.19999998807907104 7:-0.3790686815929092 8:-0.21368246098076482 9:-0.04921412467956543 10:-1.0 11:0.8135014772415161 12:0.5558222009414744 13:-0.9807692307692307 14:-0.3301110064633377 15:-1.0 16:-1.0 17:-1.0 18:-1.0 19:-1.0 20:-1.0 21:-1.0 22:-1.0 23:-1.0 24:-1.0 25:-1.0 
19.0 1:1.0 2:-1.0 3:-1.0 6:-0.7999999970197678 7:-0.4783113852743547 8:0.16875750974580161 9:-0.7061068713665009 10:-1.0 11:1.0 12:0.8863545254003979 13:1.0 14:-0.8876301880142423 15:-1.0 16:-1.0 17:-1.0 18:-1.0 19:-1.0 20:-1.0 21:-1.0 22:-1.0 23:-1.0 24:-1.0 25:-1.0 
19.0 1:-1.0 2:-1.0 3:1.0 6:-1.0 7:-0.9621009194534308 8:-0.4653500317792659 9:-1.0 10:-1.0 11:-1.0 12:-1.0 13:-1.0 14:-1.0 15:-1.0 16:-1.0 17:-1.0 18:-1.0 19:0.11111111111111116 20:-0.9837579617834394 21:-1.0 22:-1.0 23:-1.0 24:0.0 25:-0.7142857142857143 
19.0 1:-1.0 2:-1.0 3:1.0 6:-1.0 7:-0.9621009194534308 8:-0.4653500317792659 9:-1.0 10:-1.0 11:-1.0 12:-1.0 13:-1.0 14:-1.0 15:-1.0 16:-1.0 17:-1.0 18:-1.0 19:0.33333333333333326 20:-0.9949681528662421 21:-0.3333333134651184 22:-0.3333333134651184 23:-1.0 24:-0.8 25:-0.7142857142857143 
19.0 1:1.0 2:-1.0 3:-1.0 6:-0.24000000953674316 7:-0.6438384943376169 8:-0.32985672734787286 9:-0.3838149309158325 10:-1.0 11:0.8034099340438843 12:0.5574231068175943 13:-0.9473684210526316 14:-0.9328865836115973 15:-1.0 16:-1.0 17:-1.0 18:-1.0 19:-1.0 20:-1.0 21:-1.0 22:-1.0 23:-1.0 24:-1.0 25:-1.0 
19.0 1:1.0 2:-1.0 3:-1.0 6:0.24000000953674316 7:-0.3373169465822523 8:0.2270816117926624 9:-0.49953776597976685 10:-1.0 11:-0.14713215827941895 12:0.306122385700371 13:-0.9024390243902439 14:-0.9935437208616696 15:-1.0 16:-1.0 17:-1.0 18:-1.0 19:-1.0 20:-1.0 21:-1.0 22:-1.0 23:-1.0 24:-1.0 25:-1.0 
19.0 1:1.0 2:-1.0 3:-1.0 6:-0.9200000017881393 7:-0.33338414094159174 8:0.3043733982083954 9:-0.59375 10:0.14285717934978304 11:1.0 12:0.9455781444864064 13:1.0 14:-0.9935437208616696 15:-1.0 16:-1.0 17:-1.0 18:-1.0 19:-1.0 20:-1.0 21:-1.0 22:-1.0 23:-1.0 24:-1.0 25:-1.0 
19.0 1:-1.0 2:-1.0 3:1.0 6:-1.0 7:-0.9621009194534308 8:-0.4653500317792659 9:-1.0 10:-1.0 11:-1.0 12:-1.0 13:-1.0 14:-1.0 15:-1.0 16:-1.0 17:-1.0 18:-1.0 19:-0.7777777777777778 20:-0.9982420382165605 21:-1.0 22:-1.0 23:-1.0 24:-0.6 25:-0.6190476190476191 
19.0 1:1.0 2:-1.0 3:-1.0 6:-0.7999999970197678 7:-0.7142062204326385 8:-0.4653500317792659 9:-0.49463415145874023 10:-1.0 11:-0.41850221157073975 12:0.8671468748257729 13:-0.8857142857142857 14:-0.9994222485752267 15:-1.0 16:-1.0 17:-1.0 18:-1.0 19:-1.0 20:-1.0 21:-1.0 22:-1.0 23:-1.0 24:-1.0 25:-1.0 
19.0 1:1.0 2:-1.0 3:-1.0 6:0.3999999761581421 7:-0.6186646437914565 8:-0.2736339348233764 9:-0.4306930899620056 10:0.42857145289985543 11:0.6228070259094238 12:0.3173268187213205 13:-0.8181818181818181 14:-0.9898591418656707 15:-1.0 16:-1.0 17:-1.0 18:-1.0 19:-1.0 20:-1.0 21:-1.0 22:-1.0 23:-1.0 24:-1.0 25:-1.0 
19.0 1:-1.0 2:-1.0 3:1.0 6:-1.0 7:-0.9621009194534308 8:-0.4653500317792659 9:-1.0 10:-1.0 11:-1.0 12:-1.0 13:-1.0 14:-1.0 15:-1.0 16:-1.0 17:-1.0 18:-1.0 19:-1.0 20:-0.9982261146496816 21:0.11111116409301758 22:0.11111116409301758 23:0.0 24:-0.6 25:-0.4285714285714286 
19.0 1:1.0 2:-1.0 3:-1.0 6:-0.4399999976158142 7:-0.16470925531650027 8:0.28251282677902534 9:-0.34874504804611206 10:-1.0 11:0.7864476442337036 12:0.7166867664390548 13:-0.6 14:-0.9778111523474214 15:-1.0 16:-1.0 17:-1.0 18:-1.0 19:-1.0 20:-1.0 21:-1.0 22:-1.0 23:-1.0 24:-1.0 25:-1.0 
19.0 1:1.0 2:-1.0 3:-1.0 6:-0.3999999761581421 7:-0.5706575865700821 8:-0.06134520667615251 9:-0.5212291777133942 10:-1.0 11:-0.9750293157994747 12:0.7198879819063291 13:-0.9428571428571428 14:-0.9794095445655219 15:-1.0 16:-1.0 17:-1.0 18:-1.0 19:-1.0 20:-1.0 21:-1.0 22:-1.0 23:-1.0 24:-1.0 25:-1.0 
19.0 1:-1.0 2:1.0 3:-1.0 6:-1.0 7:-0.9621009194534308 8:-0.4653500317792659 9:-1.0 10:-1.0 11:-1.0 12:-1.0 13:-1.0 14:-1.0 15:-0.444444477558136 16:-0.8367346938775511 17:-0.9997653067111423 18:-0.99672 19:-1.0 20:-1.0 21:-1.0 22:-1.0 23:-1.0 24:-1.0 25:-1.0 
19.0 1:-1.0 2:-1.0 3:1.0 6:-1.0 7:-0.9621009194534308 8:-0.4653500317792659 9:-1.0 10:-1.0 11:-1.0 12:-1.0 13:-1.0 14:-1.0 15:-1.0 16:-1.0 17:-1.0 18:-1.0 19:-1.0 20:-0.990859872611465 21:-0.444444477558136 22:-0.444444477558136 23:-1.0 24:-0.6 25:-0.6190476190476191 
19.0 1:-1.0 2:-1.0 3:1.0 6:-1.0 7:-0.9621009194534308 8:-0.4653500317792659 9:-1.0 10:-1.0 11:-1.0 12:-1.0 13:-1.0 14:-1.0 15:-1.0 16:-1.0 17:-1.0 18:-1.0 19:-1.0 20:-0.9987707006369426 21:-0.9090909063816071 22:-0.9090909063816071 23:-1.0 24:-0.8 25:-0.7142857142857143 
19.0 1:1.0 2:-1.0 3:-1.0 6:0.3999999761581421 7:-0.1924784090735181 8:0.1113688369644612 9:0.21913576126098633 10:-1.0 11:0.9100514650344849 12:0.25970386699744585 13:-0.9518072289156626 14:-0.8403836700526757 15:-1.0 16:-1.0 17:-1.0 18:-1.0 19:-1.0 20:-1.0 21:-1.0 22:-1.0 23:-1.0 24:-1.0 25:-1.0 
19.0 1:1.0 2:-1.0 3:-1.0 6:-0.9600000008940697 7:-0.6276087125253573 8:0.40757919552908484 9:-0.9679633863270283 10:-1.0 11:1.0 12:0.9903962343411841 13:1.0 14:-0.8403836700526757 15:-1.0 16:-1.0 17:-1.0 18:-1.0 19:-1.0 20:-1.0 21:-1.0 22:-1.0 23:-1.0 24:-1.0 25:-1.0 
19.0 1:1.0 2:-1.0 3:-1.0 6:-0.8400000035762787 7:-0.394511387695592 8:1.0 9:-0.8428943306207657 10:-1.0 11:-0.9795918371528387 12:0.9463785974244663 13:-0.9979939819458375 14:-0.9937220868456784 15:-1.0 16:-1.0 17:-1.0 18:-1.0 19:-1.0 20:-1.0 21:-1.0 22:-1.0 23:-1.0 24:-1.0 25:-1.0 
19.0 1:1.0 2:-1.0 3:-1.0 6:-0.9200000017881393 7:-0.42942059289704926 8:1.0 9:-0.8029501736164093 10:-1.0 11:-0.9581151828169823 12:0.9823930167875088 13:-0.9661016949152542 14:-0.9937220868456784 15:-1.0 16:-1.0 17:-1.0 18:-1.0 19:-1.0 20:-1.0 21:-1.0 22:-1.0 23:-1.0 24:-1.0 25:-1.0 
19.0 1:1.0 2:-1.0 3:-1.0 6:-0.48000001907348633 7:0.02973505040170843 8:0.14012001094565796 9:0.5054984092712402 10:-1.0 11:0.9915174245834351 12:0.6806722278190191 13:0.0 14:-0.9773835811064542 15:-1.0 16:-1.0 17:-1.0 18:-1.0 19:-1.0 20:-1.0 21:-1.0 22:-1.0 23:-1.0 24:-1.0 25:-1.0 
19.0 1:1.0 2:-1.0 3:-1.0 6:-0.880000002682209 7:-0.49493403247701484 8:-0.4653500317792659 9:-0.0476190447807312 10:-1.0 11:1.0 12:0.9367748317656506 13:1.0 14:-0.999882891546147 15:-1.0 16:-1.0 17:-1.0 18:-1.0 19:-1.0 20:-1.0 21:-1.0 22:-1.0 23:-1.0 24:-1.0 25:-1.0 
19.0 1:1.0 2:-1.0 3:-1.0 6:0.2799999713897705 7:-0.44242693128505794 8:1.0 9:-0.5405764877796173 10:-1.0 11:-0.3333333134651184 12:0.32853125174227005 13:-0.8709677419354839 14:-0.9931163675455238 15:-1.0 16:-1.0 17:-1.0 18:-1.0 19:-1.0 20:-1.0 21:-1.0 22:-1.0 23:-1.0 24:-1.0 25:-1.0 
19.0 1:1.0 2:-1.0 3:-1.0 6:-0.9600000008940697 7:-0.49460733173485993 8:1.0 9:-0.9560439549386501 10:-1.0 11:1.0 12:0.966386581680158 13:1.0 14:-0.9999839078067028 15:-1.0 16:-1.0 17:-1.0 18:-1.0 19:-1.0 20:-1.0 21:-1.0 22:-1.0 23:-1.0 24:-1.0 25:-1.0 
19.0 1:1.0 2:-1.0 3:-1.0 6:0.08000004291534424 7:-0.3803151966672811 8:-0.4653500317792659 9:0.18604648113250732 10:-1.0 11:0.9686274528503418 12:0.46458583089775773 13:0.33333333333333326 14:-0.99896693003923 15:-1.0 16:-1.0 17:-1.0 18:-1.0 19:-1.0 20:-1.0 21:-1.0 22:-1.0 23:-1.0 24:-1.0 25:-1.0 
19.0 1:1.0 2:-1.0 3:-1.0 6:-0.6800000071525574 7:-0.40394536135481474 8:0.4287771057224601 9:-0.879093199968338 10:-0.7142857051625542 11:0.8518518209457397 12:0.8831533099331237 13:-0.6363636363636364 14:-0.9862926548227843 15:-1.0 16:-1.0 17:-1.0 18:-1.0 19:-1.0 20:-1.0 21:-1.0 22:-1.0 23:-1.0 24:-1.0 25:-1.0 
19.0 1:-1.0 2:-1.0 3:1.0 6:-1.0 7:-0.9621009194534308 8:-0.4653500317792659 9:-1.0 10:-1.0 11:-1.0 12:-1.0 13:-1.0 14:-1.0 15:-1.0 16:-1.0 17:-1.0 18:-1.0 19:-1.0 20:-0.9835987261146497 21:-0.8666666597127914 22:-0.8666666597127914 23:-0.7999999970197678 24:-0.8 25:-0.1428571428571429 
19.0 1:-1.0 2:1.0 3:-1.0 6:-1.0 7:-0.9621009194534308 8:-0.4653500317792659 9:-1.0 10:-1.0 11:-1.0 12:-1.0 13:-1.0 14:-1.0 15:0.6000001430511475 16:-0.8367346938775511 17:-0.9999718274921113 18:-0.9999999462857143 19:-1.0 20:-1.0 21:-1.0 22:-1.0 23:-1.0 24:-1.0 25:-1.0 
19.0 1:-1.0 2:-1.0 3:1.0 6:-1.0 7:-0.9621009194534308 8:-0.4653500317792659 9:-1.0 10:-1.0 11:-1.0 12:-1.0 13:-1.0 14:-1.0 15:-1.0 16:-1.0 17:-1.0 18:-1.0 19:-0.7777777777777778 20:-0.9999998503184714 21:0.6000001430511475 22:0.6000001430511475 23:1.0 24:-1.0 25:-1.0 
19.0 1:1.0 2:-1.0 3:-1.0 6:-0.3199999928474426 7:-0.7210099373516279 8:-0.21350502638198754 9:-0.7464738190174103 10:-1.0 11:0.7782880067825317 12:0.6790715604568855 13:-0.9166666666666666 14:0.08253946199114792 15:-1.0 16:-1.0 17:-1.0 18:-1.0 19:-1.0 20:-1.0 21:-1.0 22:-1.0 23:-1.0 24:-1.0 25:-1.0 
19.0 1:1.0 2:-1.0 3:-1.0 6:-0.9200000017881393 7:-0.40207754766125614 8:-0.2135050700528216 9:-0.09628826379776001 10:0.9727891168047551 11:0.9340975284576416 12:0.9687875827233587 13:-0.9550561797752809 14:0.08253946199114792 15:-1.0 16:-1.0 17:-1.0 18:-1.0 19:-1.0 20:-1.0 21:-1.0 22:-1.0 23:-1.0 24:-1.0 25:-1.0 
19.0 1:1.0 2:-1.0 3:-1.0 6:0.5199999809265137 7:-0.698197416265735 8:0.023552641565777632 9:-0.9624614454805851 10:-1.0 11:0.8594211339950562 12:0.21408556271859425 13:-0.75 14:-0.970323329493032 15:-1.0 16:-1.0 17:-1.0 18:-1.0 19:-1.0 20:-1.0 21:-1.0 22:-1.0 23:-1.0 24:-1.0 25:-1.0 
19.0 1:1.0 2:-1.0 3:-1.0 6:-0.9600000008940697 7:-0.5584752509578164 8:0.26766448117433317 9:-0.9775268528610468 10:-0.6825396747681017 11:0.8899999856948853 12:0.9871948996169166 13:-0.19999999999999996 14:-0.970323329493032 15:-1.0 16:-1.0 17:-1.0 18:-1.0 19:-1.0 20:-1.0 21:-1.0 22:-1.0 23:-1.0 24:-1.0 25:-1.0 
19.0 1:1.0 2:-1.0 3:-1.0 6:0.6799999475479126 7:-0.34986308542833167 8:0.3100856306448374 9:-0.6590406000614166 10:-1.0 11:-0.017699122428894043 12:0.18527402722816033 13:-0.6363636363636364 14:-0.9942330198132533 15:-1.0 16:-1.0 17:-1.0 18:-1.0 19:-1.0 20:-1.0 21:-1.0 22:-1.0 23:-1.0 24:-1.0 25:-1.0 
19.0 1:1.0 2:-1.0 3:-1.0 6:-0.9600000008940697 7:-0.41078449960449315 8:0.31461429613664227 9:-0.940612580627203 10:-0.6428571367750362 11:0.384615421295166 12:0.9879952332979836 13:-0.6 14:-0.9200191892262441 15:-1.0 16:-1.0 17:-1.0 18:-1.0 19:-1.0 20:-1.0 21:-1.0 22:-1.0 23:-1.0 24:-1.0 25:-1.0 
19.0 1:-1.0 2:1.0 3:-1.0 6:-1.0 7:-0.9621009194534308 8:-0.4653500317792659 9:-1.0 10:-1.0 11:-1.0 12:-1.0 13:-1.0 14:-1.0 15:-0.3333333134651184 16:-0.9183673469387755 17:-0.9999966798350207 18:-0.9998765714285714 19:-1.0 20:-1.0 21:-1.0 22:-1.0 23:-1.0 24:-1.0 25:-1.0 
19.0 1:-1.0 2:-1.0 3:1.0 6:-1.0 7:-0.9621009194534308 8:-0.4653500317792659 9:-1.0 10:-1.0 11:-1.0 12:-1.0 13:-1.0 14:-1.0 15:-1.0 16:-1.0 17:-1.0 18:-1.0 19:-1.0 20:-0.999656050955414 21:-0.3333333134651184 22:-0.3333333134651184 23:-1.0 24:-0.4 25:-0.7142857142857143 
19.0 1:-1.0 2:-1.0 3:1.0 6:-1.0 7:-0.9621009194534308 8:-0.4653500317792659 9:-1.0 10:-1.0 11:-1.0 12:-1.0 13:-1.0 14:-1.0 15:-1.0 16:-1.0 17:-1.0 18:-1.0 19:-0.11111111111111116 20:-0.999656050955414 21:-1.0 22:-1.0 23:-1.0 24:-0.6 25:-0.7142857142857143 
19.0 1:1.0 2:-1.0 3:-1.0 6:-0.7999999970197678 7:-0.5209475279053306 8:-0.4653500317792659 9:-0.10065096616744995 10:-1.0 11:0.8387458324432373 12:0.8687475421879067 13:-0.7894736842105263 14:-0.9899519264422643 15:-1.0 16:-1.0 17:-1.0 18:-1.0 19:-1.0 20:-1.0 21:-1.0 22:-1.0 23:-1.0 24:-1.0 25:-1.0 
19.0 1:1.0 2:-1.0 3:-1.0 6:0.2799999713897705 7:-0.5155588368650277 8:-0.23951792989066834 9:-0.36707204580307007 10:-1.0 11:0.6609247922897339 12:0.4389755108745981 13:-0.962962962962963 14:-0.9460883267557866 15:-1.0 16:-1.0 17:-1.0 18:-1.0 19:-1.0 20:-1.0 21:-1.0 22:-1.0 23:-1.0 24:-1.0 25:-1.0 
19.0 1:1.0 2:-1.0 3:-1.0 6:0.36000001430511475 7:-0.7978358506206248 8:-0.4653500317792659 9:-0.6651241183280945 10:-0.5918367094965783 11:0.42245984077453613 12:0.39175665849060604 13:-0.8666666666666667 14:-0.9991651783223716 15:-1.0 16:-1.0 17:-1.0 18:-1.0 19:-1.0 20:-1.0 21:-1.0 22:-1.0 23:-1.0 24:-1.0 25:-1.0 
19.0 1:-1.0 2:1.0 3:-1.0 6:-1.0 7:-0.9621009194534308 8:-0.4653500317792659 9:-1.0 10:-1.0 11:-1.0 12:-1.0 13:-1.0 14:-1.0 15:-0.5714285373687744 16:-0.7959183673469388 17:-0.9990034848449294 18:-0.9994182857142857 19:-1.0 20:-1.0 21:-1.0 22:-1.0 23:-1.0 24:-1.0 25:-1.0 
19.0 1:1.0 2:-1.0 3:-1.0 6:0.559999942779541 7:-0.27677380824303377 8:-0.4653500317792659 9:0.3971291780471802 10:-1.0 11:-0.15068495273590088 12:0.2741096347426628 13:-0.5555555555555556 14:-0.9998212659037903 15:-1.0 16:-1.0 17:-1.0 18:-1.0 19:-1.0 20:-1.0 21:-1.0 22:-1.0 23:-1.0 24:-1.0 25:-1.0 
19.0 1:1.0 2:-1.0 3:-1.0 6:-0.3199999928474426 7:-0.405723532621718 8:0.4323492926067287 9:-0.04078531265258789 10:-1.0 11:-0.9032895267009735 12:0.7438976345673549 13:-0.9298245614035088 14:-0.9926730111462598 15:-1.0 16:-1.0 17:-1.0 18:-1.0 19:-1.0 20:-1.0 21:-1.0 22:-1.0 23:-1.0 24:-1.0 25:-1.0 
19.0 1:1.0 2:-1.0 3:-1.0 6:-0.9600000008940697 7:-0.7177704571136065 8:-0.10295534508736748 9:-0.9740362539887428 10:0.9047619939661367 11:-0.7042253613471985 12:0.9727891318716997 13:-0.8787878787878788 14:-0.9137913693130448 15:-1.0 16:-1.0 17:-1.0 18:-1.0 19:-1.0 20:-1.0 21:-1.0 22:-1.0 23:-1.0 24:-1.0 25:-1.0 
19.0 1:1.0 2:-1.0 3:-1.0 6:0.559999942779541 7:-0.5633163220857725 8:0.12774251746112797 9:-0.49058377742767334 10:-1.0 11:-0.8227216005325317 12:0.2629050824647201 13:-0.9452054794520548 14:-0.9993715709032497 15:-1.0 16:-1.0 17:-1.0 18:-1.0 19:-1.0 20:-1.0 21:-1.0 22:-1.0 23:-1.0 24:-1.0 25:-1.0 
19.0 1:1.0 2:-1.0 3:-1.0 6:0.3200000524520874 7:-0.31039363607479065 8:-0.02842713639248695 9:-0.2081146240234375 10:-1.0 11:0.8547290563583374 12:0.31892748608345434 13:-0.963302752293578 14:-0.8876263174501171 15:-1.0 16:-1.0 17:-1.0 18:-1.0 19:-1.0 20:-1.0 21:-1.0 22:-1.0 23:-1.0 24:-1.0 25:-1.0 
19.0 1:1.0 2:-1.0 3:-1.0 6:-0.880000002682209 7:-0.4585328042244652 8:-0.05230040922191759 9:-0.48591548204421997 10:-1.0 11:1.0 12:0.951980813934941 13:1.0 14:-0.9639174828184233 15:-1.0 16:-1.0 17:-1.0 18:-1.0 19:-1.0 20:-1.0 21:-1.0 22:-1.0 23:-1.0 24:-1.0 25:-1.0 
19.0 1:1.0 2:-1.0 3:-1.0 6:-0.7999999970197678 7:0.31657549520583594 8:0.4670521462075068 9:0.8997493982315063 10:-1.0 11:0.7407407760620117 12:0.9215686110823735 13:-0.33333333333333337 14:-0.9987052491858768 15:-1.0 16:-1.0 17:-1.0 18:-1.0 19:-1.0 20:-1.0 21:-1.0 22:-1.0 23:-1.0 24:-1.0 25:-1.0 
19.0 1:1.0 2:-1.0 3:-1.0 6:0.15999996662139893 7:-0.6150302661510803 8:0.1836930223352733 9:-0.8561762124300003 10:0.14285717934978304 11:0.8533605337142944 12:0.4093637609600904 13:-0.7894736842105263 14:-0.9740316533856975 15:-1.0 16:-1.0 17:-1.0 18:-1.0 19:-1.0 20:-1.0 21:-1.0 22:-1.0 23:-1.0 24:-1.0 25:-1.0 
19.0 1:1.0 2:-1.0 3:-1.0 6:0.039999961853027344 7:0.0819192224995986 8:0.09319456430875306 9:0.5902523994445801 10:-1.0 11:0.8406306505203247 12:0.472589048451433 13:-0.8709677419354839 14:-0.9637039466464774 15:-1.0 16:-1.0 17:-1.0 18:-1.0 19:-1.0 20:-1.0 21:-1.0 22:-1.0 23:-1.0 24:-1.0 25:-1.0 
19.0 1:1.0 2:-1.0 3:-1.0 6:-0.8400000035762787 7:-0.4439068792147517 8:0.27208047591426854 9:-0.9500840343534946 10:-1.0 11:0.2708333730697632 12:0.8879551927625315 13:-0.9642857142857143 14:1.0 15:-1.0 16:-1.0 17:-1.0 18:-1.0 19:-1.0 20:-1.0 21:-1.0 22:-1.0 23:-1.0 24:-1.0 25:-1.0 
19.0 1:1.0 2:-1.0 3:-1.0 6:-0.9600000008940697 7:-0.04566557459729226 8:0.3363364310220487 9:-0.22591745853424072 10:0.9480519967088017 11:0.9549691677093506 12:0.9815926831064419 13:-0.9865319865319865 14:1.0 15:-1.0 16:-1.0 17:-1.0 18:-1.0 19:-1.0 20:-1.0 21:-1.0 22:-1.0 23:-1.0 24:-1.0 25:-1.0 
19.0 1:1.0 2:-1.0 3:-1.0 6:-0.9600000008940697 7:-0.06304211285386896 8:0.3206085548194302 9:-0.23987537622451782 10:0.5990260941475816 11:0.9733502864837646 12:0.9839936841496424 13:-0.7142857142857143 14:1.0 15:-1.0 16:-1.0 17:-1.0 18:-1.0 19:-1.0 20:-1.0 21:-1.0 22:-1.0 23:-1.0 24:-1.0 25:-1.0 
