svm_type c_svc
kernel_type rbf
gamma 0.03
nr_class 2
total_sv 1272
rho -1.9996506445894502
label 1 -1
nr_sv 522 750
SV
14.42175 7:-0.2345549464225769 8:1.0 9:-0.8024432212114334 10:-1.0 11:-0.9827586207538843 12:0.9090176139641875 13:-0.9916492693110647 15:-1.0 17:-1.0 20:-1.0 21:-1.0 23:-1.0 24:-1.0 25:-1.0 33:-1.0 34:-1.0 35:-1.0 37:-1.0 
14.42175 7:-1.0 8:-1.0 9:-1.0 10:-1.0 11:-1.0 12:-1.0 13:-1.0 15:-1.0 17:-1.0 20:-0.9979448818897638 21:-1.0 23:-1.0 24:-0.5 25:-0.6 33:-0.9971171171171171 34:-1.0 35:-1.0 37:-1.0 
14.42175 7:-0.6388466954231262 8:-0.02959597110748291 9:-0.8168067187070847 10:-0.5 11:-0.14018690586090088 12:0.5024154398104073 13:-0.6 15:-1.0 17:-1.0 20:-1.0 21:-1.0 23:-1.0 24:-1.0 25:-1.0 33:-1.0 34:-1.0 35:-1.0 37:-1.0 
14.42175 7:-1.0 8:-1.0 9:-1.0 10:-1.0 11:-1.0 12:-1.0 13:-1.0 15:-0.24338635406556108 17:-0.1076115485564304 20:-1.0 21:-1.0 23:-1.0 24:-1.0 25:-1.0 33:-1.0 34:-0.5 35:-0.4375000041909516 37:-0.4 
14.42175 7:-1.0 8:-1.0 9:-1.0 10:-1.0 11:-1.0 12:-1.0 13:-1.0 15:-1.0 17:-1.0 20:-0.1076115485564304 21:-0.27777785062789917 23:-1.0 24:-0.5 25:-0.19999999999999996 33:-0.5927927927927927 34:-1.0 35:-1.0 37:-1.0 
14.42175 7:-0.1837638020515442 8:0.4249112606048584 9:-0.7924388498067856 10:-1.0 11:-0.9571428559720516 12:0.6916263513475414 13:-0.8095238095238095 15:-1.0 17:-1.0 20:-1.0 21:-1.0 23:-1.0 24:-1.0 25:-1.0 33:-1.0 34:-1.0 35:-1.0 37:-1.0 
14.42175 7:-1.0 8:-1.0 9:-1.0 10:-1.0 11:-1.0 12:-1.0 13:-1.0 15:-1.0 17:-1.0 20:-0.9975643044619422 21:-0.4166666865348816 23:-0.875 24:-0.25 25:-0.33333333333333326 33:-0.9934234234234234 34:-1.0 35:-1.0 37:-1.0 
14.42175 7:-0.3198198080062866 8:1.0 9:0.027027010917663574 10:-1.0 11:0.5789474248886108 12:0.7117552763847432 13:0.33333333333333326 15:-1.0 17:-1.0 20:-1.0 21:-1.0 23:-1.0 24:-1.0 25:-1.0 33:-1.0 34:-1.0 35:-1.0 37:-1.0 
14.42175 7:0.23333334922790527 8:1.0 9:0.7999999523162842 10:-0.19999998807907104 11:1.0 12:0.6682769998659854 13:1.0 15:-1.0 17:-1.0 20:-1.0 21:-1.0 23:-1.0 24:-1.0 25:-1.0 33:-1.0 34:-1.0 35:-1.0 37:-1.0 
14.42175 7:-0.506903350353241 8:1.0 9:-0.6804733872413635 10:-1.0 11:-0.7999999970197678 12:0.8848630958829724 13:-0.5 15:-1.0 17:-1.0 20:-1.0 21:-1.0 23:-1.0 24:-1.0 25:-1.0 33:-1.0 34:-1.0 35:-1.0 37:-1.0 
14.42175 7:-0.7624059319496155 8:-0.5755667686462402 9:-0.8077673465013504 10:-1.0 11:-0.1703510880470276 12:0.8389694395423783 13:-0.9974193548387097 15:-1.0 17:-1.0 20:-1.0 21:-1.0 23:-1.0 24:-1.0 25:-1.0 33:-1.0 34:-1.0 35:-1.0 37:-1.0 
14.42175 7:-1.0 8:-1.0 9:-1.0 10:-1.0 11:-1.0 12:-1.0 13:-1.0 15:-1.0 17:-1.0 20:-0.46981627296587924 21:-1.0 23:-1.0 24:0.0 25:-0.6 33:-0.9999700900900901 34:-1.0 35:-1.0 37:-1.0 
14.42175 7:-0.6983515024185181 8:-0.002231121063232422 9:-0.7958105355501175 10:-1.0 11:-0.6330275237560272 12:0.12721416315763512 13:-0.9802955665024631 15:-1.0 17:-1.0 20:-1.0 21:-1.0 23:-1.0 24:-1.0 25:-1.0 33:-1.0 34:-1.0 35:-1.0 37:-1.0 
14.42175 7:-1.0 8:-1.0 9:-1.0 10:-1.0 11:-1.0 12:-1.0 13:-1.0 15:-1.0 17:-1.0 20:-0.9772703412073491 21:0.03333330154418945 23:-1.0 24:-0.5 25:-0.4 33:-0.9986774774774775 34:-1.0 35:-1.0 37:-1.0 
14.42175 7:-0.5999999940395355 8:-1.0 9:-0.19999998807907104 10:-1.0 11:1.0 12:0.9895329541815694 13:1.0 15:-1.0 17:-1.0 20:-1.0 21:-1.0 23:-1.0 24:-1.0 25:-1.0 33:-1.0 34:-1.0 35:-1.0 37:-1.0 
12.184916604769697 7:-0.4485456943511963 8:-0.19854676723480225 9:-0.6985446512699127 10:-1.0 11:0.5317848920822144 12:0.518518531849312 13:-0.9929078014184397 15:-1.0 17:-1.0 20:-1.0 21:-1.0 23:-1.0 24:-1.0 25:-1.0 33:-1.0 34:-1.0 35:-1.0 37:-1.0 
14.42175 7:-0.7272727191448212 8:-1.0 9:-0.45454543828964233 10:-0.625 11:1.0 12:0.5829307800277892 13:1.0 15:-1.0 17:-1.0 20:-1.0 21:-1.0 23:-1.0 24:-1.0 25:-1.0 33:-1.0 34:-1.0 35:-1.0 37:-1.0 
14.42175 7:-1.0 8:-1.0 9:-1.0 10:-1.0 11:-1.0 12:-1.0 13:-1.0 15:-0.6071428749837025 17:-0.9643044619422572 20:-1.0 21:-1.0 23:-1.0 24:-1.0 25:-1.0 33:-1.0 34:-0.625 35:-0.5781250031432137 37:-0.25 
14.42175 7:-1.0 8:-1.0 9:-1.0 10:-1.0 11:-1.0 12:-1.0 13:-1.0 15:-1.0 17:-1.0 20:-0.9643044619422572 21:-0.625 23:-0.625 24:-0.75 25:-0.4 33:-0.9466666666666667 34:-1.0 35:-1.0 37:-1.0 
14.42175 7:-0.4420243501663208 8:-1.0 9:0.1159512996673584 10:-1.0 11:0.8456220626831055 12:0.40511457757068126 13:0.0 15:-1.0 17:-1.0 20:-1.0 21:-1.0 23:-1.0 24:-1.0 25:-1.0 33:-1.0 34:-1.0 35:-1.0 37:-1.0 
14.42175 7:-0.7468381226062775 8:-0.48048585653305054 9:-0.8400190323591232 10:-1.0 11:0.5529263019561768 12:0.6143316775287972 13:-0.95 15:-1.0 17:-1.0 20:-1.0 21:-1.0 23:-1.0 24:-1.0 25:-1.0 33:-1.0 34:-1.0 35:-1.0 37:-1.0 
14.42175 7:-0.4242566227912903 8:-0.6218987107276917 9:-0.22661453485488892 10:0.3333333730697632 11:0.95460045337677 12:0.9339774186222041 13:-0.9871382636655949 15:-1.0 17:-1.0 20:-1.0 21:-1.0 23:-1.0 24:-1.0 25:-1.0 33:-1.0 34:-1.0 35:-1.0 37:-1.0 
14.42175 7:-0.5834996402263641 8:-0.6218987703323364 9:-0.5451005101203918 10:-1.0 11:0.914043664932251 12:0.9460546776628116 13:-0.9603960396039604 15:-1.0 17:-1.0 20:-1.0 21:-1.0 23:-1.0 24:-1.0 25:-1.0 33:-1.0 34:-1.0 35:-1.0 37:-1.0 
14.42175 7:-0.597484290599823 8:-1.0 9:-0.194968581199646 10:-0.7142857015132904 11:1.0 12:0.3003219826558643 13:1.0 15:-1.0 17:-1.0 20:-1.0 21:-1.0 23:-1.0 24:-1.0 25:-1.0 33:-1.0 34:-1.0 35:-1.0 37:-1.0 
14.42175 7:-0.4677157998085022 8:-0.01331263780593872 9:-0.3054393529891968 10:-1.0 11:0.8976744413375854 12:0.676328425908296 13:-0.75 15:-1.0 17:-1.0 20:-1.0 21:-1.0 23:-1.0 24:-1.0 25:-1.0 33:-1.0 34:-1.0 35:-1.0 37:-1.0 
14.42175 7:-0.4071507453918457 8:-0.3441448211669922 9:-0.2515382170677185 10:-1.0 11:0.7931315898895264 12:0.6119162977069608 13:-0.9444444444444444 15:-1.0 17:-1.0 20:-1.0 21:-1.0 23:-1.0 24:-1.0 25:-1.0 33:-1.0 34:-1.0 35:-1.0 37:-1.0 
14.42175 7:-0.7151319682598114 8:-0.3441448211669922 9:-0.8675007075071335 10:0.5 11:0.517241358757019 12:0.9275362058020706 13:-0.8 15:-1.0 17:-1.0 20:-1.0 21:-1.0 23:-1.0 24:-1.0 25:-1.0 33:-1.0 34:-1.0 35:-1.0 37:-1.0 
14.42175 7:-1.0 8:-1.0 9:-1.0 10:-1.0 11:-1.0 12:-1.0 13:-1.0 15:-0.54603176248497 17:-0.9977112860892389 20:-1.0 21:-1.0 23:-1.0 24:-1.0 25:-1.0 33:-1.0 34:-0.5666666626930237 35:-1.0 37:-0.33333333333333337 
14.42175 7:-1.0 8:-1.0 9:-1.0 10:-1.0 11:-1.0 12:-1.0 13:-1.0 15:-1.0 17:-1.0 20:-0.9977112860892389 21:-0.5666666626930237 23:-1.0 24:-0.25 25:-0.4666666666666667 33:-0.9966666666666667 34:-1.0 35:-1.0 37:-1.0 
14.42175 7:-0.5618749260902405 8:0.01874256134033203 9:-0.37843549251556396 10:-1.0 11:0.010909080505371094 12:0.8285022737468057 13:-0.8 15:-1.0 17:-1.0 20:-1.0 21:-1.0 23:-1.0 24:-1.0 25:-1.0 33:-1.0 34:-1.0 35:-1.0 37:-1.0 
14.42175 7:-0.8748674392700195 8:-1.0 9:-0.7497348785400391 10:-1.0 11:0.1504424810409546 12:0.5442833831298461 13:-0.9428571428571428 15:-1.0 17:-1.0 20:-1.0 21:-1.0 23:-1.0 24:-1.0 25:-1.0 33:-1.0 34:-1.0 35:-1.0 37:-1.0 
14.42175 7:0.2116391658782959 8:0.6349173784255981 9:0.3333333730697632 10:-0.4285714030265808 11:1.0 12:0.9645732695006948 13:1.0 15:-1.0 17:-1.0 20:-1.0 21:-1.0 23:-1.0 24:-1.0 25:-1.0 33:-1.0 34:-1.0 35:-1.0 37:-1.0 
14.42175 7:-0.0960531234741211 8:0.6349173784255981 9:-0.2820512652397156 10:-1.0 11:-0.7134502828121185 12:0.9331722520225447 13:-0.7142857142857143 15:-1.0 17:-1.0 20:-1.0 21:-1.0 23:-1.0 24:-1.0 25:-1.0 33:-1.0 34:-1.0 35:-1.0 37:-1.0 
14.42175 7:-0.26827502250671387 8:-0.25463390350341797 9:0.27710843086242676 10:-1.0 11:-0.9230769202113152 12:0.950080390683967 13:-0.6363636363636364 15:-1.0 17:-1.0 20:-1.0 21:-1.0 23:-1.0 24:-1.0 25:-1.0 33:-1.0 34:-1.0 35:-1.0 37:-1.0 
14.42175 7:-1.0 8:-1.0 9:-1.0 10:-1.0 11:-1.0 12:-1.0 13:-1.0 15:-1.0 17:-1.0 20:-0.9894225721784777 21:-0.055555522441864014 23:-1.0 24:-0.5 25:-0.6 33:-0.9607207207207207 34:-1.0 35:-1.0 37:-1.0 
14.42175 7:-0.6843332052230835 8:-0.07205575704574585 9:-0.9254329577088356 10:0.4285714626312256 11:-0.4301369786262512 12:0.9339774186222041 13:-0.9069767441860466 15:-1.0 17:-1.0 20:-1.0 21:-1.0 23:-1.0 24:-1.0 25:-1.0 33:-1.0 34:-1.0 35:-1.0 37:-1.0 
14.42175 7:-0.35062897205352783 8:-0.07205575704574585 9:-0.25802457332611084 10:-1.0 11:0.2598724365234375 12:0.676328425908296 13:-0.9818181818181818 15:-1.0 17:-1.0 20:-1.0 21:-1.0 23:-1.0 24:-1.0 25:-1.0 33:-1.0 34:-1.0 35:-1.0 37:-1.0 
14.42175 7:-0.7952516078948975 8:-0.7787132263183594 9:-0.6537280082702637 10:-1.0 11:0.9231712818145752 12:0.8357486531665987 13:-0.8787878787878788 15:-1.0 17:-1.0 20:-1.0 21:-1.0 23:-1.0 24:-1.0 25:-1.0 33:-1.0 34:-1.0 35:-1.0 37:-1.0 
14.42175 7:-0.9953205734491348 8:-1.0 9:-0.9906411468982697 10:-1.0 11:-0.8656716346740723 12:0.7149758228062391 13:-0.8461538461538461 15:-1.0 17:-1.0 20:-1.0 21:-1.0 23:-1.0 24:-1.0 25:-1.0 33:-1.0 34:-1.0 35:-1.0 37:-1.0 
0.3709956896202713 7:-0.32028400897979736 8:-0.25868523120880127 9:-0.2583303451538086 10:-1.0 11:0.9015713930130005 12:0.6876005183492442 13:-0.9285714285714286 15:-1.0 17:-1.0 20:-1.0 21:-1.0 23:-1.0 24:-1.0 25:-1.0 33:-1.0 34:-1.0 35:-1.0 37:-1.0 
14.42175 7:-0.6670177280902863 8:-0.25868523120880127 9:-0.9517977871000767 10:0.3333333730697632 11:0.7297297716140747 12:0.5024154398104073 13:-0.6 15:-1.0 17:-1.0 20:-1.0 21:-1.0 23:-1.0 24:-1.0 25:-1.0 33:-1.0 34:-1.0 35:-1.0 37:-1.0 
14.42175 7:-0.797476053237915 8:-0.2761263847351074 9:-0.9568889141082764 10:-1.0 11:-0.6561514139175415 12:0.3816424894729056 13:-0.9487179487179487 15:-1.0 17:-1.0 20:-1.0 21:-1.0 23:-1.0 24:-1.0 25:-1.0 33:-1.0 34:-1.0 35:-1.0 37:-1.0 
14.42175 7:-0.5346783101558685 8:-0.2761263847351074 9:-0.43129342794418335 10:0.5 11:0.7529935836791992 12:0.8752013366413431 13:-0.9708029197080292 15:-1.0 17:-1.0 20:-1.0 21:-1.0 23:-1.0 24:-1.0 25:-1.0 33:-1.0 34:-1.0 35:-1.0 37:-1.0 
14.42175 7:-1.0 8:-1.0 9:-1.0 10:-1.0 11:-1.0 12:-1.0 13:-1.0 15:-1.0 17:-1.0 20:-0.5721784776902887 21:0.5 23:-1.0 24:0.0 25:-0.6 33:-0.6432432432432432 34:-1.0 35:-1.0 37:-1.0 
14.42175 7:-0.9596203342080116 8:-1.0 9:-0.9192406684160233 10:-1.0 11:-0.044176697731018066 12:0.5169081986499933 13:-0.7647058823529411 15:-1.0 17:-1.0 20:-1.0 21:-1.0 23:-1.0 24:-1.0 25:-1.0 33:-1.0 34:-1.0 35:-1.0 37:-1.0 
14.42175 7:-0.2790399193763733 8:-0.08983182907104492 9:-0.2407059669494629 10:-1.0 11:0.5751608610153198 12:0.7190014158502522 13:-0.9540229885057472 15:-1.0 17:-1.0 20:-1.0 21:-1.0 23:-1.0 24:-1.0 25:-1.0 33:-1.0 34:-1.0 35:-1.0 37:-1.0 
14.42175 7:-0.6054967641830444 8:-0.08983182907104492 9:-0.893619678914547 10:0.5 11:-0.8232044130563736 12:0.7713365249652637 13:-0.9 15:-1.0 17:-1.0 20:-1.0 21:-1.0 23:-1.0 24:-1.0 25:-1.0 33:-1.0 34:-1.0 35:-1.0 37:-1.0 
14.42175 7:-0.020537495613098145 8:0.44360268115997314 9:-0.4846777319908142 10:-1.0 11:-0.9873923091217875 12:0.5169081986499933 13:-0.9365079365079365 15:-1.0 17:-1.0 20:-1.0 21:-1.0 23:-1.0 24:-1.0 25:-1.0 33:-1.0 34:-1.0 35:-1.0 37:-1.0 
14.42175 7:0.7218012809753418 8:0.44360268115997314 9:1.0 10:0.07692313194274902 11:1.0 12:0.9339774186222041 13:1.0 15:-1.0 17:-1.0 20:-1.0 21:-1.0 23:-1.0 24:-1.0 25:-1.0 33:-1.0 34:-1.0 35:-1.0 37:-1.0 
14.42175 7:-0.6530815958976746 8:-0.6667225956916809 9:-0.6394406259059906 10:-1.0 11:0.6046404838562012 12:0.43075681221213724 13:-0.9746835443037974 15:-1.0 17:-1.0 20:-1.0 21:-1.0 23:-1.0 24:-1.0 25:-1.0 33:-1.0 34:-1.0 35:-1.0 37:-1.0 
14.42175 7:-0.5827786028385162 8:-0.0758170485496521 9:-0.9742173105478287 10:-1.0 11:1.0 12:0.9476651308392725 13:1.0 15:-1.0 17:-1.0 20:-1.0 21:-1.0 23:-1.0 24:-1.0 25:-1.0 33:-1.0 34:-1.0 35:-1.0 37:-1.0 
14.42175 7:-0.5883242189884186 8:-0.0758170485496521 9:-0.9853085214272141 10:-0.6875 11:-0.8666666597127914 12:0.7600644325243155 13:-0.6363636363636364 15:-1.0 17:-1.0 20:-1.0 21:-1.0 23:-1.0 24:-1.0 25:-1.0 33:-1.0 34:-1.0 35:-1.0 37:-1.0 
14.42175 7:-1.0 8:-1.0 9:-1.0 10:-1.0 11:-1.0 12:-1.0 13:-1.0 15:-1.0 17:-1.0 20:-0.002624671916010457 21:-0.8999999985098839 23:-1.0 24:-0.5 25:0.040000000000000036 33:-0.609009009009009 34:-1.0 35:-1.0 37:-1.0 
14.42175 7:-0.4514971971511841 8:0.30376362800598145 9:-0.8342541456222534 10:-1.0 11:-0.24444442987442017 12:0.5507245959499796 13:-0.5555555555555556 15:-1.0 17:-1.0 20:-1.0 21:-1.0 23:-1.0 24:-1.0 25:-1.0 33:-1.0 34:-1.0 35:-1.0 37:-1.0 
14.42175 7:-1.0 8:-1.0 9:-1.0 10:-1.0 11:-1.0 12:-1.0 13:-1.0 15:-0.2666667124581694 17:-0.9661417322834646 20:-1.0 21:-1.0 23:-1.0 24:-1.0 25:-1.0 33:-1.0 34:-0.30000001192092896 35:-1.0 37:-0.16666666666666663 
14.42175 7:-1.0 8:-1.0 9:-1.0 10:-1.0 11:-1.0 12:-1.0 13:-1.0 15:-1.0 17:-1.0 20:-0.9661417322834646 21:-0.30000001192092896 23:-1.0 24:-0.5 25:-0.33333333333333326 33:-0.9405405405405405 34:-1.0 35:-1.0 37:-1.0 
14.42175 7:-0.7833091765642166 8:0.3316690921783447 9:-0.8087400048971176 10:-1.0 11:-0.8637469559907913 12:0.8872785956819507 13:-0.9841269841269842 15:-1.0 17:-1.0 20:-1.0 21:-1.0 23:-1.0 24:-1.0 25:-1.0 33:-1.0 34:-1.0 35:-1.0 37:-1.0 
14.42175 7:-0.678939163684845 8:0.3316690921783447 9:-0.5999999940395355 10:-1.0 11:1.0 12:0.9243155394034328 13:1.0 15:-1.0 17:-1.0 20:-1.0 21:-1.0 23:-1.0 24:-1.0 25:-1.0 33:-1.0 34:-1.0 35:-1.0 37:-1.0 
14.42175 7:-0.5 8:-1.0 9:0.0 10:-1.0 11:0.0 12:0.935587871798665 13:0.33333333333333326 15:-1.0 17:-1.0 20:-1.0 21:-1.0 23:-1.0 24:-1.0 25:-1.0 33:-1.0 34:-1.0 35:-1.0 37:-1.0 
14.42175 7:-1.0 8:-1.0 9:-1.0 10:-1.0 11:-1.0 12:-1.0 13:-1.0 15:-1.0 17:-1.0 20:-0.9824409448818897 21:-0.444444477558136 23:-1.0 24:-0.5 25:-0.4666666666666667 33:-0.9789189189189189 34:-1.0 35:-1.0 37:-1.0 
14.42175 7:-0.3231242895126343 8:0.3904712200164795 9:0.07565724849700928 10:0.5 11:0.46448814868927 12:0.5885668262482633 13:-0.9 15:-1.0 17:-1.0 20:-1.0 21:-1.0 23:-1.0 24:-1.0 25:-1.0 33:-1.0 34:-1.0 35:-1.0 37:-1.0 
14.42175 7:-1.0 8:-1.0 9:-1.0 10:-1.0 11:-1.0 12:-1.0 13:-1.0 15:-1.0 17:-1.0 20:-0.9824409448818897 21:0.5 23:0.5 24:-0.25 25:-0.4666666666666667 33:-0.9789189189189189 34:-1.0 35:-1.0 37:-1.0 
14.42175 7:-1.0 8:-1.0 9:-1.0 10:-1.0 11:-1.0 12:-1.0 13:-1.0 15:-1.0 17:-1.0 20:-0.9999934383202099 21:-0.2222222089767456 23:-1.0 24:-0.5 25:-0.6 33:-0.8365765765765766 34:-1.0 35:-1.0 37:-1.0 
14.42175 7:-0.3628363013267517 8:0.36344170570373535 9:-0.6346336901187897 10:-0.7142857015132904 11:-0.8404255360364914 12:0.9202898263822776 13:-0.6363636363636364 15:-1.0 17:-1.0 20:-1.0 21:-1.0 23:-1.0 24:-1.0 25:-1.0 33:-1.0 34:-1.0 35:-1.0 37:-1.0 
14.42175 7:0.44547152519226074 8:0.36344170570373535 9:0.9819819927215576 10:-0.4285714030265808 11:1.0 12:0.8743961700416836 13:1.0 15:-1.0 17:-1.0 20:-1.0 21:-1.0 23:-1.0 24:-1.0 25:-1.0 33:-1.0 34:-1.0 35:-1.0 37:-1.0 
14.42175 7:-1.0 8:-1.0 9:-1.0 10:-1.0 11:-1.0 12:-1.0 13:-1.0 15:-1.0 17:-1.0 20:0.10498687664042006 21:-0.2857142686843872 23:-1.0 24:0.0 25:-0.4 33:-0.4972972972972973 34:-1.0 35:-1.0 37:-1.0 
14.42175 7:-0.5720266699790955 8:-0.18131095170974731 9:-0.9627424106001854 10:-0.7999999970197678 11:-0.9585034027695656 12:0.7769725711857376 13:-0.9879154078549849 15:-1.0 17:-1.0 20:-1.0 21:-1.0 23:-1.0 24:-1.0 25:-1.0 33:-1.0 34:-1.0 35:-1.0 37:-1.0 
14.42175 7:-0.4164837598800659 8:-0.1813110113143921 9:-0.6516564786434174 10:0.04444444179534912 11:0.9925925731658936 12:0.8824475960839941 13:0.0 15:-1.0 17:-1.0 20:-1.0 21:-1.0 23:-1.0 24:-1.0 25:-1.0 33:-1.0 34:-1.0 35:-1.0 37:-1.0 
14.42175 7:-1.0 8:-1.0 9:-1.0 10:-1.0 11:-1.0 12:-1.0 13:-1.0 15:-1.0 17:-1.0 20:-0.36220472440944884 21:0.24920642375946045 23:-0.8181818127632141 24:-0.25 25:-0.28 33:-0.45945945945945943 34:-1.0 35:-1.0 37:-1.0 
14.42175 7:-0.7594405114650726 8:-0.579943984746933 9:-0.7989183515310287 10:-0.6666666567325592 11:-0.9792883694171906 12:0.8196458010819778 13:-0.9090909090909091 15:-1.0 17:-1.0 20:-1.0 21:-1.0 23:-1.0 24:-1.0 25:-1.0 33:-1.0 34:-1.0 35:-1.0 37:-1.0 
14.42175 7:-0.5564338564872742 8:0.16057801246643066 9:-0.6931567192077637 10:-1.0 11:-0.6842105388641357 12:0.49919477341176965 13:-0.9272727272727272 15:-1.0 17:-1.0 20:-1.0 21:-1.0 23:-1.0 24:-1.0 25:-1.0 33:-1.0 34:-1.0 35:-1.0 37:-1.0 
2.2040188855273377 7:-1.0 8:-1.0 9:-1.0 10:-1.0 11:-1.0 12:-1.0 13:-1.0 15:-0.4761904999782699 17:-0.9889238845144357 20:-1.0 21:-1.0 23:-1.0 24:-1.0 25:-1.0 33:-1.0 34:-0.5 35:-0.4375000041909516 37:1.0 
14.42175 7:-1.0 8:-1.0 9:-1.0 10:-1.0 11:-1.0 12:-1.0 13:-1.0 15:-1.0 17:-1.0 20:-0.9889238845144357 21:-0.5 23:-1.0 24:-0.5 25:0.06666666666666665 33:-0.9884864864864865 34:-1.0 35:-1.0 37:-1.0 
14.42175 7:-0.3325757384300232 8:-0.14494812488555908 9:-0.5202033519744873 10:0.4285714626312256 11:-0.9209545105695724 12:0.9581320566805611 13:-0.8857142857142857 15:-1.0 17:-1.0 20:-1.0 21:-1.0 23:-1.0 24:-1.0 25:-1.0 33:-1.0 34:-1.0 35:-1.0 37:-1.0 
14.42175 7:-1.0 8:-1.0 9:-1.0 10:-1.0 11:-1.0 12:-1.0 13:-1.0 15:0.754761900004346 17:-0.9971391076115486 20:-1.0 21:-1.0 23:-1.0 24:-1.0 25:-1.0 33:-1.0 34:0.6750000715255737 35:0.8562500934582196 37:0.0 
14.42175 7:-1.0 8:-1.0 9:-1.0 10:-1.0 11:-1.0 12:-1.0 13:-1.0 15:-1.0 17:-1.0 20:-0.9971391076115486 21:0.6750000715255737 23:0.6500000953674316 24:-0.5 25:-0.19999999999999996 33:-0.9785585585585586 34:-1.0 35:-1.0 37:-1.0 
14.42175 7:-0.15163403749465942 8:-0.11290884017944336 9:0.03141355514526367 10:-0.5555555522441864 11:0.8979592323303223 12:0.7745571913639013 13:-0.19999999999999996 15:-1.0 17:-1.0 20:-1.0 21:-1.0 23:-1.0 24:-1.0 25:-1.0 33:-1.0 34:-1.0 35:-1.0 37:-1.0 
14.42175 7:-1.0 8:-1.0 9:-1.0 10:-1.0 11:-1.0 12:-1.0 13:-1.0 15:-1.0 17:-1.0 20:-0.9999966141732284 21:-0.5555555522441864 23:1.0 24:-1.0 25:-1.0 33:-0.9475675675675675 34:-1.0 35:-1.0 37:-1.0 
14.42175 7:-1.0 8:-1.0 9:-1.0 10:-1.0 11:-1.0 12:-1.0 13:-1.0 15:-1.0 17:-1.0 20:-0.9905249343832021 21:0.0 23:-1.0 24:-0.75 25:-0.6 33:-0.9925945945945946 34:-1.0 35:-1.0 37:-1.0 
14.42175 7:-1.0 8:-1.0 9:-1.0 10:-1.0 11:-1.0 12:-1.0 13:-1.0 15:-1.0 17:-1.0 20:-0.9958530183727035 21:0.0 23:-1.0 24:-0.25 25:-0.6 33:-0.992990990990991 34:-1.0 35:-1.0 37:-1.0 
14.42175 7:-0.07850909233093262 8:-0.4427782893180847 9:0.28576016426086426 10:-1.0 11:0.9230151176452637 12:0.7648953121451301 13:-0.9811320754716981 15:-1.0 17:-1.0 20:-1.0 21:-1.0 23:-1.0 24:-1.0 25:-1.0 33:-1.0 34:-1.0 35:-1.0 37:-1.0 
14.42175 7:-0.678552508354187 8:-0.4427782893180847 9:-0.9143267571926117 10:-0.6666666567325592 11:-0.8635161370038986 12:0.9323670854228852 13:-0.9701492537313433 15:-1.0 17:-1.0 20:-1.0 21:-1.0 23:-1.0 24:-1.0 25:-1.0 33:-1.0 34:-1.0 35:-1.0 37:-1.0 
14.42175 7:-0.6537160277366638 8:-0.35563427209854126 9:-0.9517977871000767 10:0.3333333730697632 11:0.7297297716140747 12:0.9380031316433592 13:-0.6 15:-1.0 17:-1.0 20:-1.0 21:-1.0 23:-1.0 24:-1.0 25:-1.0 33:-1.0 34:-1.0 35:-1.0 37:-1.0 
14.42175 7:-1.0 8:-1.0 9:-1.0 10:-1.0 11:-1.0 12:-1.0 13:-1.0 15:-1.0 17:-1.0 20:-0.7695538057742782 21:-0.9285714253783226 23:-1.0 24:-0.75 25:-0.19999999999999996 33:-0.9899639639639639 34:-1.0 35:-1.0 37:-1.0 
14.42175 7:-0.22730779647827148 8:-0.05492144823074341 9:0.1403508186340332 10:0.0 11:0.9384615421295166 12:0.8985506881228988 13:0.33333333333333326 15:-1.0 17:-1.0 20:-1.0 21:-1.0 23:-1.0 24:-1.0 25:-1.0 33:-1.0 34:-1.0 35:-1.0 37:-1.0 
14.42175 7:-0.7018531858921051 8:-0.05492144823074341 9:-0.8087400048971176 10:-0.38461536169052124 11:-0.8637469559907913 12:0.9082125673416701 13:-0.9841269841269842 15:-1.0 17:-1.0 20:-1.0 21:-1.0 23:-1.0 24:-1.0 25:-1.0 33:-1.0 34:-1.0 35:-1.0 37:-1.0 
14.42175 7:-1.0 8:-1.0 9:-1.0 10:-1.0 11:-1.0 12:-1.0 13:-1.0 15:-1.0 17:-1.0 20:-0.9900787401574803 21:0.25128209590911865 23:-1.0 24:-0.5 25:0.06666666666666665 33:-0.9679279279279279 34:-1.0 35:-1.0 37:-1.0 
14.42175 7:-0.6584687530994415 8:-0.5927702188491821 9:-0.520552396774292 10:-1.0 11:0.15639519691467285 12:0.3204506677387824 13:-0.9859649122807017 15:-1.0 17:-1.0 20:-1.0 21:-1.0 23:-1.0 24:-1.0 25:-1.0 33:-1.0 34:-1.0 35:-1.0 37:-1.0 
14.42175 7:-1.0 8:-1.0 9:-1.0 10:-1.0 11:-1.0 12:-1.0 13:-1.0 15:-1.0 17:-1.0 20:-0.9870866141732283 21:-0.1428571343421936 23:-1.0 24:-0.75 25:-0.6 33:-0.9358558558558558 34:-1.0 35:-1.0 37:-1.0 
14.42175 7:-0.09115761518478394 8:0.35385775566101074 9:-0.5361729562282562 10:-1.0 11:0.13601303100585938 12:0.747987053506566 13:-0.9550561797752809 15:-1.0 17:-1.0 20:-1.0 21:-1.0 23:-1.0 24:-1.0 25:-1.0 33:-1.0 34:-1.0 35:-1.0 37:-1.0 
14.42175 7:-1.0 8:-1.0 9:-1.0 10:-1.0 11:-1.0 12:-1.0 13:-1.0 15:-1.0 17:-1.0 20:-0.920734908136483 21:-0.03333330154418945 23:-1.0 24:0.0 25:-0.4 33:-0.9983891891891892 34:-1.0 35:-1.0 37:-1.0 
14.42175 7:-0.19122934341430664 8:0.4889841079711914 9:-0.8714427649974823 10:-1.0 11:-0.7707279026508331 12:0.5611915217912684 13:-0.9753086419753086 15:-1.0 17:-1.0 20:-1.0 21:-1.0 23:-1.0 24:-1.0 25:-1.0 33:-1.0 34:-1.0 35:-1.0 37:-1.0 
14.42175 7:0.0 8:-1.0 9:1.0 10:-0.6071428656578064 11:1.0 12:0.9565216035041004 13:1.0 15:-1.0 17:-1.0 20:-1.0 21:-1.0 23:-1.0 24:-1.0 25:-1.0 33:-1.0 34:-1.0 35:-1.0 37:-1.0 
14.42175 7:-0.5049019455909729 8:1.0 9:-0.6764705777168274 10:-1.0 11:-0.45454543828964233 12:0.6336554359663398 13:-0.19999999999999996 15:-1.0 17:-1.0 20:-1.0 21:-1.0 23:-1.0 24:-1.0 25:-1.0 33:-1.0 34:-1.0 35:-1.0 37:-1.0 
14.42175 7:-1.0 8:-1.0 9:-1.0 10:-1.0 11:-1.0 12:-1.0 13:-1.0 15:-0.8835978880167966 17:-0.9994251968503937 20:-1.0 21:-1.0 23:-1.0 24:-1.0 25:-1.0 33:-1.0 34:-0.8888888880610466 35:-1.0 37:-0.25 
14.42175 7:-1.0 8:-1.0 9:-1.0 10:-1.0 11:-1.0 12:-1.0 13:-1.0 15:-1.0 17:-1.0 20:-0.9994251968503937 21:-0.8888888880610466 23:-1.0 24:-0.5 25:-0.4 33:-0.9988288288288288 34:-1.0 35:-1.0 37:-1.0 
14.42175 7:-0.40990149974823 8:0.3261767625808716 9:-0.703920841217041 10:0.3999999761581421 11:0.9402985572814941 12:0.5346215039110749 13:-0.4285714285714286 15:-1.0 17:-1.0 20:-1.0 21:-1.0 23:-1.0 24:-1.0 25:-1.0 33:-1.0 34:-1.0 35:-1.0 37:-1.0 
14.42175 7:-0.5002285838127136 8:0.3261767625808716 9:-0.8845750242471695 10:-1.0 11:-0.7755102068185806 12:0.838164272942719 13:-0.9130434782608696 15:-1.0 17:-1.0 20:-1.0 21:-1.0 23:-1.0 24:-1.0 25:-1.0 33:-1.0 34:-1.0 35:-1.0 37:-1.0 
14.42175 7:-0.19790971279144287 8:0.32895076274871826 9:-0.42944782972335815 10:0.5 11:0.23913037776947021 12:0.8510466985829859 13:0.0 15:-1.0 17:-1.0 20:-1.0 21:-1.0 23:-1.0 24:-1.0 25:-1.0 33:-1.0 34:-1.0 35:-1.0 37:-1.0 
14.42175 7:0.0 8:-1.0 9:1.0 10:-0.45454543828964233 11:1.0 12:0.492753560591636 13:1.0 15:-1.0 17:-1.0 20:-1.0 21:-1.0 23:-1.0 24:-1.0 25:-1.0 33:-1.0 34:-1.0 35:-1.0 37:-1.0 
14.42175 7:-1.0 8:-1.0 9:-1.0 10:-1.0 11:-1.0 12:-1.0 13:-1.0 15:-0.14480078698109278 17:-0.5931758530183727 20:-1.0 21:-1.0 23:-1.0 24:-1.0 25:-1.0 33:-1.0 34:-0.25 35:-1.0 37:-0.125 
14.42175 7:0.18764519691467285 8:0.1258711814880371 9:1.0 10:-0.25 11:0.04210531711578369 12:0.3397745461534669 13:-0.33333333333333337 15:-1.0 17:-1.0 20:-1.0 21:-1.0 23:-1.0 24:-1.0 25:-1.0 33:-1.0 34:-1.0 35:-1.0 37:-1.0 
14.42175 7:-1.0 8:-1.0 9:-1.0 10:-1.0 11:-1.0 12:-1.0 13:-1.0 15:-1.0 17:-1.0 20:-0.5931758530183727 21:-0.25 23:-1.0 24:-0.5 25:-0.19999999999999996 33:-0.3387387387387387 34:-1.0 35:-1.0 37:-1.0 
14.42175 7:-1.0 8:-1.0 9:-1.0 10:-1.0 11:-1.0 12:-1.0 13:-1.0 15:-0.0552721339056772 17:-0.5931758530183727 20:-1.0 21:-1.0 23:-1.0 24:-1.0 25:-1.0 33:-1.0 34:-0.25 35:-1.0 37:0.0 
14.42175 7:-0.7856369763612747 8:-0.8171755969524384 9:-0.7540983557701111 10:-1.0 11:-0.518382340669632 12:0.3252816673367389 13:-0.6923076923076923 15:-1.0 17:-1.0 20:-1.0 21:-1.0 23:-1.0 24:-1.0 25:-1.0 33:-1.0 34:-1.0 35:-1.0 37:-1.0 
2.315821008899484 7:-1.0 8:-1.0 9:-1.0 10:-1.0 11:-1.0 12:-1.0 13:-1.0 15:-1.0 17:-1.0 20:0.03937007874015741 21:-1.0 23:-1.0 24:0.0 25:-0.52 33:-0.4288288288288288 34:-1.0 35:-1.0 37:-1.0 
14.42175 7:-0.15634429454803467 8:0.41969549655914307 9:-0.022536277770996094 10:-0.1111111044883728 11:0.8839670419692993 12:0.8913043087031058 13:-0.6923076923076923 15:-1.0 17:-1.0 20:-1.0 21:-1.0 23:-1.0 24:-1.0 25:-1.0 33:-1.0 34:-1.0 35:-1.0 37:-1.0 
14.42175 7:0.36722874641418457 8:0.22409582138061523 9:1.0 10:-0.2222222089767456 11:1.0 12:0.9404186314423375 13:1.0 15:-1.0 17:-1.0 20:-1.0 21:-1.0 23:-1.0 24:-1.0 25:-1.0 33:-1.0 34:-1.0 35:-1.0 37:-1.0 
14.42175 7:-0.38035887479782104 8:0.22409582138061523 9:-0.49517524242401123 10:-1.0 11:-0.971370143815875 12:0.4186794331943877 13:-0.8823529411764706 15:-1.0 17:-1.0 20:-1.0 21:-1.0 23:-1.0 24:-1.0 25:-1.0 33:-1.0 34:-1.0 35:-1.0 37:-1.0 
14.42175 7:-0.6746987998485565 8:-1.0 9:-0.34939759969711304 10:-1.0 11:0.8181818723678589 12:0.4581321166691321 13:-0.19999999999999996 15:-1.0 17:-1.0 20:-1.0 21:-1.0 23:-1.0 24:-1.0 25:-1.0 33:-1.0 34:-1.0 35:-1.0 37:-1.0 
14.42175 7:-1.0 8:-1.0 9:-1.0 10:-1.0 11:-1.0 12:-1.0 13:-1.0 15:-1.0 17:-1.0 20:-0.999995249343832 21:-1.0 23:-1.0 24:-0.75 25:-0.6 33:-0.9935675675675676 34:-1.0 35:-1.0 37:-1.0 
14.42175 7:-0.5433195531368256 8:-0.21834206581115723 9:-0.4774680733680725 10:-1.0 11:0.04838705062866211 12:0.06038641518017984 13:-0.8823529411764706 15:-1.0 17:-1.0 20:-1.0 21:-1.0 23:-1.0 24:-1.0 25:-1.0 33:-1.0 34:-1.0 35:-1.0 37:-1.0 
14.42175 7:-1.0 8:-1.0 9:-1.0 10:-1.0 11:-1.0 12:-1.0 13:-1.0 15:-1.0 17:-1.0 20:-0.9590551181102362 21:-0.5999999940395355 23:-1.0 24:-0.25 25:-0.4666666666666667 33:-0.9225225225225225 34:-1.0 35:-1.0 37:-1.0 
14.42175 7:-0.35791295766830444 8:-0.35885804891586304 9:-0.35696786642074585 10:0.20000004768371582 11:0.8530764579772949 12:0.7246377020250101 13:-0.9727891156462585 15:-1.0 17:-1.0 20:-1.0 21:-1.0 23:-1.0 24:-1.0 25:-1.0 33:-1.0 34:-1.0 35:-1.0 37:-1.0 
14.42175 7:-0.6295285224914551 8:-0.35885804891586304 9:-0.9001989886164665 10:-1.0 11:0.6585365533828735 12:0.4798711349513691 13:-0.6923076923076923 15:-1.0 17:-1.0 20:-1.0 21:-1.0 23:-1.0 24:-1.0 25:-1.0 33:-1.0 34:-1.0 35:-1.0 37:-1.0 
14.42175 7:-1.0 8:-1.0 9:-1.0 10:-1.0 11:-1.0 12:-1.0 13:-1.0 15:0.0476190000434602 17:-0.999517060367454 20:-1.0 21:-1.0 23:-1.0 24:-1.0 25:-1.0 33:-1.0 34:-1.0 35:-1.0 37:-0.5 
14.42175 7:-1.0 8:-1.0 9:-1.0 10:-1.0 11:-1.0 12:-1.0 13:-1.0 15:-1.0 17:-1.0 20:-0.999517060367454 21:0.0 23:-1.0 24:-0.5 25:-0.6 33:-0.9991981981981982 34:-1.0 35:-1.0 37:-1.0 
14.42175 7:-0.5471698641777039 8:-0.8618247956037521 9:-0.23251491785049438 10:-1.0 11:0.8070118427276611 12:0.43397735863363307 13:-0.9452054794520548 15:-1.0 17:-1.0 20:-1.0 21:-1.0 23:-1.0 24:-1.0 25:-1.0 33:-1.0 34:-1.0 35:-1.0 37:-1.0 
14.42175 7:-1.0 8:-1.0 9:-1.0 10:-1.0 11:-1.0 12:-1.0 13:-1.0 15:-0.8095238124972837 17:-0.9913910761154856 20:-1.0 21:-1.0 23:-1.0 24:-1.0 25:-1.0 33:-1.0 34:-0.8181818127632141 35:-0.7954545408825984 37:-0.25 
14.42175 7:-1.0 8:-1.0 9:-1.0 10:-1.0 11:-1.0 12:-1.0 13:-1.0 15:-1.0 17:-1.0 20:-0.9913910761154856 21:-0.8181818127632141 23:-0.8181818127632141 24:-0.75 25:-0.4 33:-0.9947207207207207 34:-1.0 35:-1.0 37:-1.0 
14.42175 7:-1.0 8:-1.0 9:-1.0 10:-1.0 11:-1.0 12:-1.0 13:-1.0 15:-1.0 17:-1.0 20:-0.7792650918635171 21:-0.5 23:-1.0 24:-0.25 25:-0.4 33:-0.7243243243243243 34:-1.0 35:-1.0 37:-1.0 
14.42175 7:-0.2995256185531616 8:-0.07884788513183594 9:-0.5202033519744873 10:-1.0 11:-0.9209545105695724 12:0.8760063832638605 13:-0.8857142857142857 15:-1.0 17:-1.0 20:-1.0 21:-1.0 23:-1.0 24:-1.0 25:-1.0 33:-1.0 34:-1.0 35:-1.0 37:-1.0 
14.42175 7:-0.21616250276565552 8:-0.07884788513183594 9:-0.3534771203994751 10:0.4285714626312256 11:0.8579720258712769 12:0.4516906638947147 13:-0.9714285714285714 15:-1.0 17:-1.0 20:-1.0 21:-1.0 23:-1.0 24:-1.0 25:-1.0 33:-1.0 34:-1.0 35:-1.0 37:-1.0 
14.42175 7:-1.0 8:-1.0 9:-1.0 10:-1.0 11:-1.0 12:-1.0 13:-1.0 15:-1.0 17:-1.0 20:-0.9850393700787402 21:-1.0 23:-1.0 24:-0.75 25:-0.6 33:-0.939099099099099 34:-1.0 35:-1.0 37:-1.0 
14.42175 7:-1.0 8:-1.0 9:-1.0 10:-1.0 11:-1.0 12:-1.0 13:-1.0 15:-0.12698418744476925 17:-0.9991653543307086 20:-1.0 21:-1.0 23:-1.0 24:-1.0 25:-1.0 33:-1.0 34:-0.1666666865348816 35:-1.0 37:-0.16666666666666663 
14.42175 7:-1.0 8:-1.0 9:-1.0 10:-1.0 11:-1.0 12:-1.0 13:-1.0 15:-1.0 17:-1.0 20:-0.9991653543307086 21:-0.1666666865348816 23:-1.0 24:-0.5 25:-0.4666666666666667 33:-0.9987117117117117 34:-1.0 35:-1.0 37:-1.0 
14.42175 7:0.09714174270629883 8:0.16570043563842773 9:1.0 10:-1.0 11:-0.8579881638288498 12:0.5450884297523635 13:-0.8181818181818181 15:-1.0 17:-1.0 20:-1.0 21:-1.0 23:-1.0 24:-1.0 25:-1.0 33:-1.0 34:-1.0 35:-1.0 37:-1.0 
14.42175 7:-0.5507997274398804 8:0.019509315490722656 9:-0.7133050560951233 10:-1.0 11:-0.7816091924905777 12:0.7053140635646096 13:-0.8095238095238095 15:-1.0 17:-1.0 20:-1.0 21:-1.0 23:-1.0 24:-1.0 25:-1.0 33:-1.0 34:-1.0 35:-1.0 37:-1.0 
14.42175 7:-0.37931233644485474 8:0.019509315490722656 9:-0.370330274105072 10:0.14285719394683838 11:0.8275164365768433 12:0.5942028724687372 13:-0.9518072289156626 15:-1.0 17:-1.0 20:-1.0 21:-1.0 23:-1.0 24:-1.0 25:-1.0 33:-1.0 34:-1.0 35:-1.0 37:-1.0 
14.42175 7:-0.4841187596321106 8:0.3663114309310913 9:-0.822182223200798 10:-1.0 11:-0.9862700225785375 12:0.3502415919718975 13:-0.8 15:-1.0 17:-1.0 20:-1.0 21:-1.0 23:-1.0 24:-1.0 25:-1.0 33:-1.0 34:-1.0 35:-1.0 37:-1.0 
14.42175 7:-1.0 8:-1.0 9:-1.0 10:-1.0 11:-1.0 12:-1.0 13:-1.0 15:-0.6454212514368125 17:-0.8792650918635171 20:-1.0 21:-1.0 23:-1.0 24:-1.0 25:-1.0 33:-1.0 34:-0.6615384519100189 35:-1.0 37:0.5 
14.42175 7:-1.0 8:-1.0 9:-1.0 10:-1.0 11:-1.0 12:-1.0 13:-1.0 15:-1.0 17:-1.0 20:-0.8792650918635171 21:-0.6615384519100189 23:-1.0 24:0.25 25:-0.36 33:-0.9953693693693694 34:-1.0 35:-1.0 37:-1.0 
14.42175 7:-0.3045957684516907 8:-0.43079954385757446 9:-0.09707766771316528 10:0.547619104385376 11:0.932907223701477 12:0.9235103728037735 13:-0.9595959595959596 15:-1.0 17:-1.0 20:-1.0 21:-1.0 23:-1.0 24:-1.0 25:-1.0 33:-1.0 34:-1.0 35:-1.0 37:-1.0 
14.42175 7:-0.6292457580566406 8:-0.43079954385757446 9:-0.7463776469230652 10:-1.0 11:0.77715003490448 12:0.7930756632246425 13:-0.9245283018867925 15:-1.0 17:-1.0 20:-1.0 21:-1.0 23:-1.0 24:-1.0 25:-1.0 33:-1.0 34:-1.0 35:-1.0 37:-1.0 
14.42175 7:-0.4158264398574829 8:0.5406546592712402 9:-0.8587559014558792 10:-1.0 11:-0.5967741906642914 12:0.5587761419694319 13:-0.9420289855072463 15:-1.0 17:-1.0 20:-1.0 21:-1.0 23:-1.0 24:-1.0 25:-1.0 33:-1.0 34:-1.0 35:-1.0 37:-1.0 
14.42175 7:0.1508502960205078 8:0.3618171215057373 9:0.39382243156433105 10:0.24561405181884766 11:1.0 12:0.9243155394034328 13:1.0 15:-1.0 17:-1.0 20:-1.0 21:-1.0 23:-1.0 24:-1.0 25:-1.0 33:-1.0 34:-1.0 35:-1.0 37:-1.0 
14.42175 7:-0.04509568214416504 8:0.3618171215057373 9:0.0019304752349853516 10:0.24561405181884766 11:1.0 12:0.8558775782038006 13:1.0 15:-1.0 17:-1.0 20:-1.0 21:-1.0 23:-1.0 24:-1.0 25:-1.0 33:-1.0 34:-1.0 35:-1.0 37:-1.0 
14.42175 7:-0.4506756067276001 8:-0.27636587619781494 9:-0.38377392292022705 10:-0.2631579041481018 11:0.8392857313156128 12:0.590177159447582 13:-0.33333333333333337 15:-1.0 17:-1.0 20:-1.0 21:-1.0 23:-1.0 24:-1.0 25:-1.0 33:-1.0 34:-1.0 35:-1.0 37:-1.0 
14.42175 7:-1.0 8:-1.0 9:-1.0 10:-1.0 11:-1.0 12:-1.0 13:-1.0 15:-1.0 17:-1.0 20:-0.9999949606299212 21:0.1600877046585083 23:-1.0 24:-0.75 25:-0.6 33:-0.9983693693693694 34:-1.0 35:-1.0 37:-1.0 
14.42175 7:0.08220887184143066 8:0.3068934679031372 9:0.3802816867828369 10:-1.0 11:-0.8673469424247742 12:0.1473429682176952 13:-0.75 15:-1.0 17:-1.0 20:-1.0 21:-1.0 23:-1.0 24:-1.0 25:-1.0 33:-1.0 34:-1.0 35:-1.0 37:-1.0 
14.42175 7:-1.0 8:-1.0 9:-1.0 10:-1.0 11:-1.0 12:-1.0 13:-1.0 15:-0.14880956246468846 17:-0.9653543307086614 20:-1.0 21:-1.0 23:-1.0 24:-1.0 25:-1.0 33:-1.0 34:-0.1875 35:-1.0 37:-0.33333333333333337 
14.42175 7:-1.0 8:-1.0 9:-1.0 10:-1.0 11:-1.0 12:-1.0 13:-1.0 15:-1.0 17:-1.0 20:-0.9653543307086614 21:-0.1875 23:-1.0 24:-0.25 25:-0.4666666666666667 33:-0.9416216216216217 34:-1.0 35:-1.0 37:-1.0 
14.42175 7:0.28235924243927 8:0.536435604095459 9:0.6428571939468384 10:-0.2857142686843872 11:1.0 12:0.8896939755037869 13:1.0 15:-1.0 17:-1.0 20:-1.0 21:-1.0 23:-1.0 24:-1.0 25:-1.0 33:-1.0 34:-1.0 35:-1.0 37:-1.0 
14.42175 7:-0.5264906287193298 8:0.536435604095459 9:-0.9748426359146833 10:-1.0 11:-0.8964401260018349 12:0.4549114502704945 13:-0.9886039886039886 15:-1.0 17:-1.0 20:-1.0 21:-1.0 23:-1.0 24:-1.0 25:-1.0 33:-1.0 34:-1.0 35:-1.0 37:-1.0 
14.42175 7:-0.8378378450870514 8:-1.0 9:-0.6756756901741028 10:-0.5999999940395355 11:1.0 12:0.11352657091770868 13:1.0 15:-1.0 17:-1.0 20:-1.0 21:-1.0 23:-1.0 24:-1.0 25:-1.0 33:-1.0 34:-1.0 35:-1.0 37:-1.0 
14.42175 7:-1.0 8:-1.0 9:-1.0 10:-1.0 11:-1.0 12:-1.0 13:-1.0 15:-0.5809523937383201 17:-0.8068241469816273 20:-1.0 21:-1.0 23:-1.0 24:-1.0 25:-1.0 33:-1.0 34:-0.5999999940395355 35:-0.5499999966472388 37:0.0 
14.42175 7:-0.5837000012397766 8:0.12160062789916992 9:-0.6480859518051147 10:-1.0 11:0.19626164436340332 12:0.28904989021491634 13:-0.9024390243902439 15:-1.0 17:-1.0 20:-1.0 21:-1.0 23:-1.0 24:-1.0 25:-1.0 33:-1.0 34:-1.0 35:-1.0 37:-1.0 
14.42175 7:0.03803086280822754 8:0.12160062789916992 9:0.5953757762908936 10:-0.19999998807907104 11:1.0 12:0.8132044682847024 13:1.0 15:-1.0 17:-1.0 20:-1.0 21:-1.0 23:-1.0 24:-1.0 25:-1.0 33:-1.0 34:-1.0 35:-1.0 37:-1.0 
7.613296066762951 7:0.0 8:-1.0 9:1.0 10:-1.0 11:1.0 12:0.5273751244912819 13:1.0 15:-1.0 17:-1.0 20:-1.0 21:-1.0 23:-1.0 24:-1.0 25:-1.0 33:-1.0 34:-1.0 35:-1.0 37:-1.0 
14.42175 7:-1.0 8:-1.0 9:-1.0 10:-1.0 11:-1.0 12:-1.0 13:-1.0 15:-0.6190476249945674 17:-0.023622047244094446 20:-1.0 21:-1.0 23:-1.0 24:-1.0 25:-1.0 33:-1.0 34:-0.6363636255264282 35:-1.0 37:0.16666666666666674 
14.42175 7:-1.0 8:-1.0 9:-1.0 10:-1.0 11:-1.0 12:-1.0 13:-1.0 15:-1.0 17:-1.0 20:-0.023622047244094446 21:-0.6363636255264282 23:-1.0 24:-0.75 25:-0.19999999999999996 33:-0.43243243243243246 34:-1.0 35:-1.0 37:-1.0 
14.42175 7:-0.6250614523887634 8:-0.705236166715622 9:-0.4711957573890686 10:-1.0 11:0.6894897222518921 12:0.6658615000670072 13:-0.9365079365079365 15:-1.0 17:-1.0 20:-1.0 21:-1.0 23:-1.0 24:-1.0 25:-1.0 33:-1.0 34:-1.0 35:-1.0 37:-1.0 
14.42175 7:-1.0 8:-1.0 9:-1.0 10:-1.0 11:-1.0 12:-1.0 13:-1.0 15:-1.0 17:-1.0 20:-0.905249343832021 21:-0.2222222089767456 23:-1.0 24:-0.5 25:-0.6 33:-0.790990990990991 34:-1.0 35:-1.0 37:-1.0 
14.42175 7:-0.448583722114563 8:-0.26411616802215576 9:-0.5410658419132233 10:-1.0 11:-0.26809096336364746 12:0.6964572309683559 13:-0.8974358974358975 15:-1.0 17:-1.0 20:-1.0 21:-1.0 23:-1.0 24:-1.0 25:-1.0 33:-1.0 34:-1.0 35:-1.0 37:-1.0 
14.42175 7:-0.6530508100986481 8:-0.26411616802215576 9:-0.9499999992549419 10:-1.0 11:1.0 12:0.5209339116711484 13:1.0 15:-1.0 17:-1.0 20:-1.0 21:-1.0 23:-1.0 24:-1.0 25:-1.0 33:-1.0 34:-1.0 35:-1.0 37:-1.0 
14.42175 7:-1.0 8:-1.0 9:-1.0 10:-1.0 11:-1.0 12:-1.0 13:-1.0 15:-1.0 17:-1.0 20:-0.38845144356955386 21:-1.0 23:-1.0 24:-0.5 25:-0.6 33:-0.4306306306306307 34:-1.0 35:-1.0 37:-1.0 
14.42175 7:-0.6353718042373657 8:-0.13820326328277588 9:-0.558009147644043 10:-0.30000001192092896 11:0.8232508897781372 12:0.40016096133364676 13:-0.8461538461538461 15:-1.0 17:-1.0 20:-1.0 21:-1.0 23:-1.0 24:-1.0 25:-1.0 33:-1.0 34:-1.0 35:-1.0 37:-1.0 
14.42175 7:-1.0 8:-1.0 9:-1.0 10:-1.0 11:-1.0 12:-1.0 13:-1.0 15:-1.0 17:-1.0 20:-0.39632545931758534 21:-0.30000001192092896 23:-1.0 24:-0.5 25:-0.4666666666666667 33:-0.581981981981982 34:-1.0 35:-1.0 37:-1.0 
14.42175 7:0.3333333730697632 8:1.0 9:1.0 10:-0.3333333134651184 11:1.0 12:0.8921094753027654 13:1.0 15:-1.0 17:-1.0 20:-1.0 21:-1.0 23:-1.0 24:-1.0 25:-1.0 33:-1.0 34:-1.0 35:-1.0 37:-1.0 
14.42175 7:-0.4358974099159241 8:1.0 9:-0.5384615361690521 10:-1.0 11:-0.3333333134651184 12:0.8172301813058576 13:-0.4285714285714286 15:-1.0 17:-1.0 20:-1.0 21:-1.0 23:-1.0 24:-1.0 25:-1.0 33:-1.0 34:-1.0 35:-1.0 37:-1.0 
14.42175 7:-0.6628180146217346 8:-1.0 9:-0.32563602924346924 10:-1.0 11:0.34016990661621094 12:0.2930756032360715 13:-0.9310344827586207 15:-1.0 17:-1.0 20:-1.0 21:-1.0 23:-1.0 24:-1.0 25:-1.0 33:-1.0 34:-1.0 35:-1.0 37:-1.0 
14.42175 7:-1.0 8:-1.0 9:-1.0 10:-1.0 11:-1.0 12:-1.0 13:-1.0 15:0.0476190000434602 17:-0.9911286089238845 20:-1.0 21:-1.0 23:-1.0 24:-1.0 25:-1.0 33:-1.0 34:0.0 35:-0.7749999983236193 37:-0.5 
14.42175 7:-1.0 8:-1.0 9:-1.0 10:-1.0 11:-1.0 12:-1.0 13:-1.0 15:-1.0 17:-1.0 20:-0.9911286089238845 21:0.0 23:-0.7999999970197678 24:-0.75 25:-0.6 33:-0.9900900900900901 34:-1.0 35:-1.0 37:-1.0 
14.42175 7:-0.48871636390686035 8:-0.19751739501953125 9:-0.539170503616333 10:-1.0 11:1.0 12:0.8977455215232395 13:1.0 15:-1.0 17:-1.0 20:-1.0 21:-1.0 23:-1.0 24:-1.0 25:-1.0 33:-1.0 34:-1.0 35:-1.0 37:-1.0 
14.42175 7:-1.0 8:-1.0 9:-1.0 10:-1.0 11:-1.0 12:-1.0 13:-1.0 15:-1.0 17:-1.0 20:-0.8425196850393701 21:-0.22222214937210083 23:-1.0 24:-0.25 25:-0.33333333333333326 33:-0.6414414414414414 34:-1.0 35:-1.0 37:-1.0 
14.42175 7:-1.0 8:-1.0 9:-1.0 10:-1.0 11:-1.0 12:-1.0 13:-1.0 15:0.1449502129804423 17:-0.998742782152231 20:-1.0 21:-1.0 23:-1.0 24:-1.0 25:-1.0 33:-1.0 34:0.09290707111358643 35:-1.0 37:-0.25 
14.42175 7:-1.0 8:-1.0 9:-1.0 10:-1.0 11:-1.0 12:-1.0 13:-1.0 15:-1.0 17:-1.0 20:-0.998742782152231 21:0.09290707111358643 23:-1.0 24:-0.5 25:-0.4 33:-0.9989927927927927 34:-1.0 35:-1.0 37:-1.0 
2.905831877878607 7:0.12491309642791748 8:0.6068533658981323 9:0.2857142686843872 10:0.0 11:1.0 12:0.330917713557213 13:1.0 15:-1.0 17:-1.0 20:-1.0 21:-1.0 23:-1.0 24:-1.0 25:-1.0 33:-1.0 34:-1.0 35:-1.0 37:-1.0 
14.42175 7:0.48205602169036865 8:0.6068533658981323 9:1.0 10:0.3333333730697632 11:1.0 12:0.9138486135621442 13:1.0 15:-1.0 17:-1.0 20:-1.0 21:-1.0 23:-1.0 24:-1.0 25:-1.0 33:-1.0 34:-1.0 35:-1.0 37:-1.0 
14.42175 7:0.48205602169036865 8:0.6068533658981323 9:1.0 10:0.3333333730697632 11:1.0 12:0.9677939358993324 13:1.0 15:-1.0 17:-1.0 20:-1.0 21:-1.0 23:-1.0 24:-1.0 25:-1.0 33:-1.0 34:-1.0 35:-1.0 37:-1.0 
14.42175 7:-1.0 8:-1.0 9:-1.0 10:-1.0 11:-1.0 12:-1.0 13:-1.0 15:-1.0 17:-1.0 20:-0.9960367454068242 21:0.0 23:-0.3333333134651184 24:-0.75 25:-0.4 33:-0.9894234234234234 34:-1.0 35:-1.0 37:-1.0 
14.42175 7:-0.3540745973587036 8:-0.22744107246398926 9:-0.48070818185806274 10:0.692307710647583 11:0.9373018741607666 12:0.7270532018239886 13:-0.9148936170212766 15:-1.0 17:-1.0 20:-1.0 21:-1.0 23:-1.0 24:-1.0 25:-1.0 33:-1.0 34:-1.0 35:-1.0 37:-1.0 
14.42175 7:-0.4832475781440735 8:-0.22744107246398926 9:-0.7390540838241577 10:-1.0 11:-0.9485498927533627 12:0.5491142627506607 13:-0.9852941176470589 15:-1.0 17:-1.0 20:-1.0 21:-1.0 23:-1.0 24:-1.0 25:-1.0 33:-1.0 34:-1.0 35:-1.0 37:-1.0 
12.016897772573635 7:-0.3458375930786133 8:0.48880302906036377 9:-0.6842105388641357 10:-0.9333333298563957 11:1.0 12:0.9557166768587249 13:1.0 15:-1.0 17:-1.0 20:-1.0 21:-1.0 23:-1.0 24:-1.0 25:-1.0 33:-1.0 34:-1.0 35:-1.0 37:-1.0 
14.42175 7:-1.0 8:-1.0 9:-1.0 10:-1.0 11:-1.0 12:-1.0 13:-1.0 15:-1.0 17:-1.0 20:-0.29396325459317585 21:-0.9333333298563957 23:-0.8888888880610466 24:-0.5 25:0.0 33:-0.5297297297297296 34:-1.0 35:-1.0 37:-1.0 
14.42175 7:-0.037841796875 8:-0.035683631896972656 9:-0.04000002145767212 10:0.5547618865966797 11:-0.9859649119898677 12:0.9524960104600873 13:-0.7777777777777778 15:-1.0 17:-1.0 20:-1.0 21:-1.0 23:-1.0 24:-1.0 25:-1.0 33:-1.0 34:-1.0 35:-1.0 37:-1.0 
14.42175 7:-1.0 8:-1.0 9:-1.0 10:-1.0 11:-1.0 12:-1.0 13:-1.0 15:-1.0 17:-1.0 20:-0.9999941994750656 21:-0.03703707456588745 23:-1.0 24:-0.5 25:-0.19999999999999996 33:-0.9999966846846847 34:-1.0 35:-1.0 37:-1.0 
14.42175 7:-0.48371028900146484 8:0.43309688568115234 9:-0.8272787183523178 10:-1.0 11:-0.9762470312416553 12:0.9323670854228852 13:-0.993127147766323 15:-1.0 17:-1.0 20:-1.0 21:-1.0 23:-1.0 24:-1.0 25:-1.0 33:-1.0 34:-1.0 35:-1.0 37:-1.0 
14.42175 7:-0.6404792070388794 8:-0.3757072687149048 9:-0.4890559911727905 10:-1.0 11:0.5442029237747192 12:0.5152978654506744 13:-0.9856115107913669 15:-1.0 17:-1.0 20:-1.0 21:-1.0 23:-1.0 24:-1.0 25:-1.0 33:-1.0 34:-1.0 35:-1.0 37:-1.0 
14.42175 7:-1.0 8:-1.0 9:-1.0 10:-1.0 11:-1.0 12:-1.0 13:-1.0 15:-1.0 17:-1.0 20:-0.9999934645669292 21:-1.0 23:-1.0 24:-0.75 25:-0.6 33:-0.9663063063063063 34:-1.0 35:-1.0 37:-1.0 
14.42175 7:-1.0 8:-1.0 9:-1.0 10:-1.0 11:-1.0 12:-1.0 13:-1.0 15:-0.4500000499543667 17:-0.9999964566929134 20:-1.0 21:-1.0 23:-1.0 24:-1.0 25:-1.0 33:-1.0 34:-0.4750000238418579 35:-1.0 37:0.125 
14.42175 7:-1.0 8:-1.0 9:-1.0 10:-1.0 11:-1.0 12:-1.0 13:-1.0 15:-1.0 17:-1.0 20:-0.9999964566929134 21:-0.4750000238418579 23:-1.0 24:-0.25 25:-0.09999999999999998 33:-0.5477477477477477 34:-1.0 35:-1.0 37:-1.0 
14.42175 7:-0.849056601524353 8:-1.0 9:-0.698113203048706 10:-1.0 11:0.25 12:0.9404186314423375 13:0.33333333333333326 15:-1.0 17:-1.0 20:-1.0 21:-1.0 23:-1.0 24:-1.0 25:-1.0 33:-1.0 34:-1.0 35:-1.0 37:-1.0 
14.42175 7:-0.46950721740722656 8:-0.092110276222229 9:-0.3929592967033386 10:-0.7999999970197678 11:-0.9045170769095421 12:0.693236804524002 13:-0.9402985074626866 15:-1.0 17:-1.0 20:-1.0 21:-1.0 23:-1.0 24:-1.0 25:-1.0 33:-1.0 34:-1.0 35:-1.0 37:-1.0 
14.42175 7:-0.5505018830299377 8:-0.030738532543182373 9:-0.8279498964548111 10:-1.0 11:-0.9354838728904724 12:0.3276970471585754 13:-0.9946164199192463 15:-1.0 17:-1.0 20:-1.0 21:-1.0 23:-1.0 24:-1.0 25:-1.0 33:-1.0 34:-1.0 35:-1.0 37:-1.0 
14.42175 7:-1.0 8:-1.0 9:-1.0 10:-1.0 11:-1.0 12:-1.0 13:-1.0 15:-1.0 17:-1.0 20:-0.9572178477690289 21:-1.0 23:-1.0 24:-0.5 25:-0.6 33:-0.9445045045045045 34:-1.0 35:-1.0 37:-1.0 
14.42175 7:-0.26675111055374146 8:-0.6860508918762207 9:0.1525486707687378 10:-0.5 11:0.8485963344573975 12:0.6940419711236616 13:-0.9365079365079365 15:-1.0 17:-1.0 20:-1.0 21:-1.0 23:-1.0 24:-1.0 25:-1.0 33:-1.0 34:-1.0 35:-1.0 37:-1.0 
14.42175 7:-1.0 8:-1.0 9:-1.0 10:-1.0 11:-1.0 12:-1.0 13:-1.0 15:-1.0 17:-1.0 20:-0.8454068241469817 21:-0.5 23:-1.0 24:-0.5 25:-0.6 33:-0.7405405405405405 34:-1.0 35:-1.0 37:-1.0 
14.42175 7:-0.5962794125080109 8:-0.4865931272506714 9:-0.3979215621948242 10:-1.0 11:0.9406495094299316 12:0.7157811093830404 13:-0.6666666666666667 15:-1.0 17:-1.0 20:-1.0 21:-1.0 23:-1.0 24:-1.0 25:-1.0 33:-1.0 34:-1.0 35:-1.0 37:-1.0 
14.42175 7:-0.39977359771728516 8:0.272973895072937 9:-0.5269607901573181 10:-1.0 11:-0.7324503362178802 12:0.507246319431222 13:-0.9393939393939394 15:-1.0 17:-1.0 20:-1.0 21:-1.0 23:-1.0 24:-1.0 25:-1.0 33:-1.0 34:-1.0 35:-1.0 37:-1.0 
14.42175 7:-1.0 8:-1.0 9:-1.0 10:-1.0 11:-1.0 12:-1.0 13:-1.0 15:-1.0 17:-1.0 20:-0.6929133858267716 21:-0.19999998807907104 23:-1.0 24:0.0 25:-0.44000000000000006 33:-0.34594594594594597 34:-1.0 35:-1.0 37:-1.0 
14.42175 7:-0.4776073098182678 8:0.6079756021499634 9:-0.9200000017881393 10:-1.0 11:0.384615421295166 12:0.8526570317823048 13:0.0 15:-1.0 17:-1.0 20:-1.0 21:-1.0 23:-1.0 24:-1.0 25:-1.0 33:-1.0 34:-1.0 35:-1.0 37:-1.0 
14.42175 7:-0.43340063095092773 8:0.6079756021499634 9:-0.8315866887569427 10:-1.0 11:-0.9833679832518101 12:0.9154589467614631 13:-0.9923224568138196 15:-1.0 17:-1.0 20:-1.0 21:-1.0 23:-1.0 24:-1.0 25:-1.0 33:-1.0 34:-1.0 35:-1.0 37:-1.0 
14.42175 7:-1.0 8:-1.0 9:-1.0 10:-1.0 11:-1.0 12:-1.0 13:-1.0 15:-1.0 17:-1.0 20:-0.9099737532808398 21:-0.2222222089767456 23:-1.0 24:-0.25 25:-0.6 33:-0.9841261261261262 34:-1.0 35:-1.0 37:-1.0 
14.42175 7:-0.8882391601800919 8:-0.13776946067810059 9:-0.9680851064622402 10:-1.0 11:1.0 12:0.9460546776628116 13:1.0 15:-1.0 17:-1.0 20:-1.0 21:-1.0 23:-1.0 24:-1.0 25:-1.0 33:-1.0 34:-1.0 35:-1.0 37:-1.0 
14.42175 7:-1.0 8:-1.0 9:-1.0 10:-1.0 11:-1.0 12:-1.0 13:-1.0 15:-1.0 17:-1.0 20:-0.7349081364829396 21:-0.46666663885116577 23:-1.0 24:-0.75 25:-0.19999999999999996 33:-0.9735135135135136 34:-1.0 35:-1.0 37:-1.0 
14.42175 7:-1.0 8:-1.0 9:-1.0 10:-1.0 11:-1.0 12:-1.0 13:-1.0 15:-0.13945579463160407 17:-0.9999943044619423 20:-1.0 21:-1.0 23:-1.0 24:-1.0 25:-1.0 33:-1.0 34:-0.1785714030265808 35:-1.0 37:-0.33333333333333337 
14.42175 7:-1.0 8:-1.0 9:-1.0 10:-1.0 11:-1.0 12:-1.0 13:-1.0 15:-1.0 17:-1.0 20:-0.9999943044619423 21:-0.1785714030265808 23:-1.0 24:-0.25 25:-0.52 33:-0.9218018018018018 34:-1.0 35:-1.0 37:-1.0 
14.42175 7:-0.4403006434440613 8:-0.057895123958587646 9:-0.28436052799224854 10:-1.0 11:0.8202638626098633 12:0.6658615000670072 13:-0.9466666666666667 15:-1.0 17:-1.0 20:-1.0 21:-1.0 23:-1.0 24:-1.0 25:-1.0 33:-1.0 34:-1.0 35:-1.0 37:-1.0 
14.42175 7:-0.7714243978261948 8:-0.057895123958587646 9:-0.9466080404818058 10:0.5555555820465088 11:0.14529919624328613 12:0.6698872130881623 13:-0.75 15:-1.0 17:-1.0 20:-1.0 21:-1.0 23:-1.0 24:-1.0 25:-1.0 33:-1.0 34:-1.0 35:-1.0 37:-1.0 
14.42175 7:-0.7355978786945343 8:-1.0 9:-0.4711957573890686 10:-1.0 11:0.6894897222518921 12:0.23107885485657276 13:-0.9365079365079365 15:-1.0 17:-1.0 20:-1.0 21:-1.0 23:-1.0 24:-1.0 25:-1.0 33:-1.0 34:-1.0 35:-1.0 37:-1.0 
14.42175 7:-1.0 8:-1.0 9:-1.0 10:-1.0 11:-1.0 12:-1.0 13:-1.0 15:-1.0 17:-1.0 20:-0.9999966404199475 21:-0.5 23:-1.0 24:-1.0 25:-0.6 33:-0.9999962522522523 34:-1.0 35:-1.0 37:-1.0 
14.42175 7:-0.5669233202934265 8:0.5324064493179321 9:-0.7468092441558838 10:-1.0 11:-0.8216560482978821 12:0.22222202226031906 13:-0.9846743295019157 15:-1.0 17:-1.0 20:-1.0 21:-1.0 23:-1.0 24:-1.0 25:-1.0 33:-1.0 34:-1.0 35:-1.0 37:-1.0 
14.42175 7:-0.44146937131881714 8:-0.2980055809020996 9:-0.4445343017578125 10:-1.0 11:0.5233312845230103 12:0.7375201276652772 13:-0.9493670886075949 15:-1.0 17:-1.0 20:-1.0 21:-1.0 23:-1.0 24:-1.0 25:-1.0 33:-1.0 34:-1.0 35:-1.0 37:-1.0 
14.42175 7:-0.3414279818534851 8:0.0762643814086914 9:-0.49005424976348877 10:-0.5 11:1.0 12:0.9621578896788583 13:1.0 15:-1.0 17:-1.0 20:-1.0 21:-1.0 23:-1.0 24:-1.0 25:-1.0 33:-1.0 34:-1.0 35:-1.0 37:-1.0 
14.42175 7:-0.38328713178634644 8:0.0762643814086914 9:-0.573772519826889 10:-1.0 11:0.3857746124267578 12:0.6070854180861462 13:-0.9806763285024155 15:-1.0 17:-1.0 20:-1.0 21:-1.0 23:-1.0 24:-1.0 25:-1.0 33:-1.0 34:-1.0 35:-1.0 37:-1.0 
14.42175 7:-0.5238434076309204 8:-0.4749816060066223 9:-0.5202033519744873 10:0.4285714626312256 11:-0.9209545105695724 12:0.6924316379243427 13:-0.8857142857142857 15:-1.0 17:-1.0 20:-1.0 21:-1.0 23:-1.0 24:-1.0 25:-1.0 33:-1.0 34:-1.0 35:-1.0 37:-1.0 
14.42175 7:-0.4404802918434143 8:-0.4749816060066223 9:-0.3534771203994751 10:-1.0 11:0.8579720258712769 12:0.6682769998659854 13:-0.9714285714285714 15:-1.0 17:-1.0 20:-1.0 21:-1.0 23:-1.0 24:-1.0 25:-1.0 33:-1.0 34:-1.0 35:-1.0 37:-1.0 
14.42175 7:-0.3815925717353821 8:-0.5057478845119476 9:-0.2574372887611389 10:-1.0 11:0.8326451778411865 12:0.747987053506566 13:-0.9402985074626866 15:-1.0 17:-1.0 20:-1.0 21:-1.0 23:-1.0 24:-1.0 25:-1.0 33:-1.0 34:-1.0 35:-1.0 37:-1.0 
14.42175 7:-0.5442306399345398 8:-0.10669529438018799 9:-0.4457831382751465 10:0.5 11:-0.3636363744735718 12:0.9178743265832994 13:-0.5 15:-1.0 17:-1.0 20:-1.0 21:-1.0 23:-1.0 24:-1.0 25:-1.0 33:-1.0 34:-1.0 35:-1.0 37:-1.0 
14.42175 7:-1.0 8:-1.0 9:-1.0 10:-1.0 11:-1.0 12:-1.0 13:-1.0 15:0.4620810139937168 17:-0.9999938057742782 20:-1.0 21:-1.0 23:-1.0 24:-1.0 25:-1.0 33:-1.0 34:0.3956228494644165 35:-1.0 37:-0.5 
14.42175 7:-1.0 8:-1.0 9:-1.0 10:-1.0 11:-1.0 12:-1.0 13:-1.0 15:-1.0 17:-1.0 20:-0.9999938057742782 21:0.3956228494644165 23:-1.0 24:-0.5 25:-0.6 33:-0.8704504504504504 34:-1.0 35:-1.0 37:-1.0 
14.42175 7:0.0 8:-1.0 9:1.0 10:-1.0 11:1.0 12:0.5797099936520094 13:1.0 15:-1.0 17:-1.0 20:-1.0 21:-1.0 23:-1.0 24:-1.0 25:-1.0 33:-1.0 34:-1.0 35:-1.0 37:-1.0 
14.42175 7:-0.13413947820663452 8:-0.6081497669219971 9:0.339870810508728 10:-1.0 11:0.9312050342559814 12:0.6586151206472144 13:-0.935483870967742 15:-1.0 17:-1.0 20:-1.0 21:-1.0 23:-1.0 24:-1.0 25:-1.0 33:-1.0 34:-1.0 35:-1.0 37:-1.0 
14.42175 7:-0.9669421501457691 8:-1.0 9:-0.9338843002915382 10:-1.0 11:1.0 12:0.7439613404854106 13:0.33333333333333326 15:-1.0 17:-1.0 20:-1.0 21:-1.0 23:-1.0 24:-1.0 25:-1.0 33:-1.0 34:-1.0 35:-1.0 37:-1.0 
14.42175 7:-1.0 8:-1.0 9:-1.0 10:-1.0 11:-1.0 12:-1.0 13:-1.0 15:-1.0 17:-1.0 20:-0.9511811023622048 21:-0.6666666567325592 23:-1.0 24:-0.75 25:-0.19999999999999996 33:-0.9995369369369369 34:-1.0 35:-1.0 37:-1.0 
14.42175 7:-0.5620197653770447 8:0.024960994720458984 9:-0.7097315490245819 10:0.5555555820465088 11:-0.9367088600993156 12:0.992753620580207 13:-0.9298245614035088 15:-1.0 17:-1.0 20:-1.0 21:-1.0 23:-1.0 24:-1.0 25:-1.0 33:-1.0 34:-1.0 35:-1.0 37:-1.0 
14.42175 7:0.14956951141357422 8:0.024960994720458984 9:0.713447093963623 10:-0.7777777761220932 11:0.8487727642059326 12:0.676328425908296 13:-0.95 15:-1.0 17:-1.0 20:-1.0 21:-1.0 23:-1.0 24:-1.0 25:-1.0 33:-1.0 34:-1.0 35:-1.0 37:-1.0 
14.42175 7:-0.518251895904541 8:0.024960994720458984 9:-0.6221958100795746 10:-1.0 11:-0.9283154085278511 12:0.8872785956819507 13:-0.8823529411764706 15:-1.0 17:-1.0 20:-1.0 21:-1.0 23:-1.0 24:-1.0 25:-1.0 33:-1.0 34:-1.0 35:-1.0 37:-1.0 
14.42175 7:-1.0 8:-1.0 9:-1.0 10:-1.0 11:-1.0 12:-1.0 13:-1.0 15:-1.0 17:-1.0 20:-0.863517060367454 21:-0.7777777761220932 23:-0.7777777761220932 24:-0.5 25:-0.6 33:-0.7225225225225225 34:-1.0 35:-1.0 37:-1.0 
14.42175 7:-0.48707759380340576 8:-0.6589898467063904 9:-0.2583303451538086 10:-1.0 11:0.9015713930130005 12:0.6924316379243427 13:-0.9285714285714286 15:-1.0 17:-1.0 20:-1.0 21:-1.0 23:-1.0 24:-1.0 25:-1.0 33:-1.0 34:-1.0 35:-1.0 37:-1.0 
14.42175 7:-0.6872026920318604 8:0.0679551362991333 9:-0.7748885601758957 10:-1.0 11:-0.6142131984233856 12:0.5370370037100531 13:-0.95 15:-1.0 17:-1.0 20:-1.0 21:-1.0 23:-1.0 24:-1.0 25:-1.0 33:-1.0 34:-1.0 35:-1.0 37:-1.0 
14.42175 7:-0.09452426433563232 8:0.0679551362991333 9:0.41046833992004395 10:-1.0 11:-0.09019607305526733 12:0.35668268481488896 13:-0.33333333333333337 15:-1.0 17:-1.0 20:-1.0 21:-1.0 23:-1.0 24:-1.0 25:-1.0 33:-1.0 34:-1.0 35:-1.0 37:-1.0 
14.42175 7:-1.0 8:-1.0 9:-1.0 10:-1.0 11:-1.0 12:-1.0 13:-1.0 15:-0.4179894791108323 17:-0.8212598425196851 20:-1.0 21:-1.0 23:-1.0 24:-1.0 25:-1.0 33:-1.0 34:-0.444444477558136 35:-1.0 37:-0.4 
14.42175 7:-1.0 8:-1.0 9:-1.0 10:-1.0 11:-1.0 12:-1.0 13:-1.0 15:-1.0 17:-1.0 20:-0.8212598425196851 21:-0.444444477558136 23:-1.0 24:-0.75 25:-0.4666666666666667 33:-0.609009009009009 34:-1.0 35:-1.0 37:-1.0 
14.42175 7:-0.5451099872589111 8:-0.2911553978919983 9:-0.7990645468235016 10:-0.25 11:-0.9251184836030006 12:0.5764895672076555 13:-0.9322033898305084 15:-1.0 17:-1.0 20:-1.0 21:-1.0 23:-1.0 24:-1.0 25:-1.0 33:-1.0 34:-1.0 35:-1.0 37:-1.0 
14.42175 7:-0.19793623685836792 8:0.4451488256454468 9:-0.8410212695598602 10:-1.0 11:-0.9448022097349167 12:0.9589372232802207 13:-0.9967948717948718 15:-1.0 17:-1.0 20:-1.0 21:-1.0 23:-1.0 24:-1.0 25:-1.0 33:-1.0 34:-1.0 35:-1.0 37:-1.0 
14.42175 7:0.2183821201324463 8:0.4451488256454468 9:-0.0083845853805542 10:-1.0 11:-0.8142695426940918 12:0.3196456211162648 13:-0.6923076923076923 15:-1.0 17:-1.0 20:-1.0 21:-1.0 23:-1.0 24:-1.0 25:-1.0 33:-1.0 34:-1.0 35:-1.0 37:-1.0 
14.42175 7:-1.0 8:-1.0 9:-1.0 10:-1.0 11:-1.0 12:-1.0 13:-1.0 15:-1.0 17:-1.0 20:-0.9999953280839895 21:-0.5 23:-0.5 24:-0.75 25:-0.6 33:-0.9502702702702702 34:-1.0 35:-1.0 37:-1.0 
14.42175 7:-1.0 8:-1.0 9:-1.0 10:-1.0 11:-1.0 12:-1.0 13:-1.0 15:-0.30158731249004034 17:-0.6640419947506562 20:-1.0 21:-1.0 23:-1.0 24:-1.0 25:-1.0 33:-1.0 34:-1.0 35:-1.0 37:0.0 
14.42175 7:-0.3333333134651184 8:1.0 9:-0.06666666269302368 10:-0.3333333134651184 11:1.0 12:0.7576489327253371 13:1.0 15:-1.0 17:-1.0 20:-1.0 21:-1.0 23:-1.0 24:-1.0 25:-1.0 33:-1.0 34:-1.0 35:-1.0 37:-1.0 
14.42175 7:-1.0 8:-1.0 9:-1.0 10:-1.0 11:-1.0 12:-1.0 13:-1.0 15:-1.0 17:-1.0 20:-0.8750656167979003 21:-0.16666662693023682 23:-1.0 24:-0.25 25:-0.19999999999999996 33:-0.9907207207207207 34:-1.0 35:-1.0 37:-1.0 
14.42175 7:-0.47232943773269653 8:0.6486692428588867 9:-0.9338604658842087 10:-1.0 11:-0.8745345175266266 12:0.9371979650436999 13:-0.9788359788359788 15:-1.0 17:-1.0 20:-1.0 21:-1.0 23:-1.0 24:-1.0 25:-1.0 33:-1.0 34:-1.0 35:-1.0 37:-1.0 
14.42175 7:-0.3729773163795471 8:0.6486692428588867 9:-0.7351561784744263 10:-1.0 11:-0.16977131366729736 12:0.6409018153861326 13:-0.9259259259259259 15:-1.0 17:-1.0 20:-1.0 21:-1.0 23:-1.0 24:-1.0 25:-1.0 33:-1.0 34:-1.0 35:-1.0 37:-1.0 
14.42175 7:-0.3519169092178345 8:-0.31354254484176636 9:-0.28468239307403564 10:-1.0 11:0.7340294122695923 12:0.8373591063430594 13:-0.963302752293578 15:-1.0 17:-1.0 20:-1.0 21:-1.0 23:-1.0 24:-1.0 25:-1.0 33:-1.0 34:-1.0 35:-1.0 37:-1.0 
14.42175 7:-0.5885918736457825 8:-0.31354254484176636 9:-0.758032351732254 10:0.5555555820465088 11:-0.3972055912017822 12:0.4227051462155431 13:-0.8666666666666667 15:-1.0 17:-1.0 20:-1.0 21:-1.0 23:-1.0 24:-1.0 25:-1.0 33:-1.0 34:-1.0 35:-1.0 37:-1.0 
14.42175 7:-1.0 8:-1.0 9:-1.0 10:-1.0 11:-1.0 12:-1.0 13:-1.0 15:-1.0 17:-1.0 20:-0.9999965354330709 21:0.4945056438446045 23:0.7777777910232544 24:-0.75 25:-0.6 33:-0.9980900900900901 34:-1.0 35:-1.0 37:-1.0 
14.42175 7:-1.0 8:-1.0 9:-1.0 10:-1.0 11:-1.0 12:-1.0 13:-1.0 15:-1.0 17:-1.0 20:0.3359580052493438 21:-1.0 23:-1.0 24:0.0 25:-0.6 33:-0.8416216216216217 34:-1.0 35:-1.0 37:-1.0 
14.42175 7:-1.0 8:-1.0 9:-1.0 10:-1.0 11:-1.0 12:-1.0 13:-1.0 15:-0.7671957760335933 17:-0.9666666666666667 20:-1.0 21:-1.0 23:-1.0 24:-1.0 25:-1.0 33:-1.0 34:-0.7777777761220932 35:-0.75 37:-0.5 
14.42175 7:-1.0 8:-1.0 9:-1.0 10:-1.0 11:-1.0 12:-1.0 13:-1.0 15:-1.0 17:-1.0 20:-0.9666666666666667 21:-0.7777777761220932 23:-0.7777777761220932 24:-0.75 25:-0.6 33:-0.9545945945945946 34:-1.0 35:-1.0 37:-1.0 
14.42175 7:-1.0 8:-1.0 9:-1.0 10:-1.0 11:-1.0 12:-1.0 13:-1.0 15:-0.8503401361606173 17:-0.9994146981627297 20:-1.0 21:-1.0 23:-1.0 24:-1.0 25:-1.0 33:-1.0 34:-0.8571428507566452 35:-1.0 37:-0.16666666666666663 
14.42175 7:-1.0 8:-1.0 9:-1.0 10:-1.0 11:-1.0 12:-1.0 13:-1.0 15:-1.0 17:-1.0 20:-0.9994146981627297 21:-0.8571428507566452 23:-1.0 24:-0.25 25:-0.33333333333333326 33:-0.9972612612612612 34:-1.0 35:-1.0 37:-1.0 
14.42175 7:-1.0 8:-1.0 9:-1.0 10:-1.0 11:-1.0 12:-1.0 13:-1.0 15:-1.0 17:-1.0 20:-0.8364829396325459 21:-0.625 23:-1.0 24:-0.5 25:-0.33333333333333326 33:-0.9225225225225225 34:-1.0 35:-1.0 37:-1.0 
14.42175 7:-1.0 8:-1.0 9:-1.0 10:-1.0 11:-1.0 12:-1.0 13:-1.0 15:-1.0 17:-1.0 20:-0.9999939895013124 21:-0.30000001192092896 23:-1.0 24:-0.25 25:-0.28 33:-0.8953153153153153 34:-1.0 35:-1.0 37:-1.0 
14.42175 7:-0.720758706331253 8:-0.8619459867477417 9:-0.48753541707992554 10:-0.5555555522441864 11:-0.5164920389652252 12:0.8840579292833128 13:-0.9272727272727272 15:-1.0 17:-1.0 20:-1.0 21:-1.0 23:-1.0 24:-1.0 25:-1.0 33:-1.0 34:-1.0 35:-1.0 37:-1.0 
14.42175 7:-0.5205287337303162 8:-0.14415186643600464 9:-0.7067171335220337 10:-1.0 11:1.0 12:0.9202898263822776 13:1.0 15:-1.0 17:-1.0 20:-1.0 21:-1.0 23:-1.0 24:-1.0 25:-1.0 33:-1.0 34:-1.0 35:-1.0 37:-1.0 
11.52616383009525 7:-1.0 8:-1.0 9:-1.0 10:-1.0 11:-1.0 12:-1.0 13:-1.0 15:-1.0 17:-1.0 20:-0.6456692913385826 21:-1.0 23:-1.0 24:0.25 25:-0.6 33:-0.9585585585585585 34:-1.0 35:-1.0 37:-1.0 
14.42175 7:-0.32632875442504883 8:-0.4895622730255127 9:-0.04966467618942261 10:-1.0 11:0.8128435611724854 12:0.5885668262482633 13:-0.9809523809523809 15:-1.0 17:-1.0 20:-1.0 21:-1.0 23:-1.0 24:-1.0 25:-1.0 33:-1.0 34:-1.0 35:-1.0 37:-1.0 
14.42175 7:-1.0 8:-1.0 9:-1.0 10:-1.0 11:-1.0 12:-1.0 13:-1.0 15:-1.0 17:-1.0 20:-0.9427821522309712 21:-0.3333333134651184 23:-1.0 24:-0.5 25:-0.6 33:-0.8731531531531531 34:-1.0 35:-1.0 37:-1.0 
14.42175 7:-0.6903392672538757 8:0.14633619785308838 9:-0.8901612535119057 10:0.5 11:-0.3592677116394043 12:0.8365539397434001 13:-0.9710144927536232 15:-1.0 17:-1.0 20:-1.0 21:-1.0 23:-1.0 24:-1.0 25:-1.0 33:-1.0 34:-1.0 35:-1.0 37:-1.0 
14.42175 7:-0.39930427074432373 8:-0.2986084818840027 9:-0.5 10:-1.0 11:-0.14993804693222046 12:0.28180351079512334 13:-0.9047619047619048 15:-1.0 17:-1.0 20:-1.0 21:-1.0 23:-1.0 24:-1.0 25:-1.0 33:-1.0 34:-1.0 35:-1.0 37:-1.0 
14.42175 7:-1.0 8:-1.0 9:-1.0 10:-1.0 11:-1.0 12:-1.0 13:-1.0 15:-1.0 17:-1.0 20:-0.9838582677165354 21:-1.0 23:-1.0 24:-0.75 25:-0.6 33:-0.9913873873873874 34:-1.0 35:-1.0 37:-1.0 
14.42175 7:-0.744888037443161 8:-1.0 9:-0.489776074886322 10:-1.0 11:-0.4122806787490845 12:0.8631239576235936 13:-0.8888888888888888 15:-1.0 17:-1.0 20:-1.0 21:-1.0 23:-1.0 24:-1.0 25:-1.0 33:-1.0 34:-1.0 35:-1.0 37:-1.0 
14.42175 7:-1.0 8:-1.0 9:-1.0 10:-1.0 11:-1.0 12:-1.0 13:-1.0 15:-1.0 17:-1.0 20:-0.9843307086614174 21:0.11111116409301758 23:0.0 24:-0.5 25:-0.19999999999999996 33:-0.9821261261261262 34:-1.0 35:-1.0 37:-1.0 
14.42175 7:-1.0 8:-1.0 9:-1.0 10:-1.0 11:-1.0 12:-1.0 13:-1.0 15:-1.0 17:-1.0 20:-0.8916010498687664 21:-0.1428571343421936 23:-1.0 24:-0.75 25:-0.6 33:-0.7801801801801802 34:-1.0 35:-1.0 37:-1.0 
14.42175 7:-0.41861772537231445 8:-0.012201666831970215 9:-0.331134557723999 10:-1.0 11:0.7301586866378784 12:0.7874396170041684 13:-0.6923076923076923 15:-1.0 17:-1.0 20:-1.0 21:-1.0 23:-1.0 24:-1.0 25:-1.0 33:-1.0 34:-1.0 35:-1.0 37:-1.0 
14.42175 7:-0.7132379114627838 8:-0.8571157455444336 9:-0.5217320024967194 10:-1.0 11:0.4684814214706421 12:0.7415459606635744 13:-0.948051948051948 15:-1.0 17:-1.0 20:-1.0 21:-1.0 23:-1.0 24:-1.0 25:-1.0 33:-1.0 34:-1.0 35:-1.0 37:-1.0 
14.42175 7:-1.0 8:-1.0 9:-1.0 10:-1.0 11:-1.0 12:-1.0 13:-1.0 15:-0.4179894791108323 17:-0.847769028871391 20:-1.0 21:-1.0 23:-1.0 24:-1.0 25:-1.0 33:-1.0 34:-0.444444477558136 35:-1.0 37:0.25 
14.42175 7:-1.0 8:-1.0 9:-1.0 10:-1.0 11:-1.0 12:-1.0 13:-1.0 15:-1.0 17:-1.0 20:-0.847769028871391 21:-0.444444477558136 23:-1.0 24:-0.75 25:0.0 33:-0.9890990990990991 34:-1.0 35:-1.0 37:-1.0 
14.42175 7:-1.0 8:-1.0 9:-1.0 10:-1.0 11:-1.0 12:-1.0 13:-1.0 15:-1.0 17:-1.0 20:-0.9879527559055118 21:-0.9090909063816071 23:-1.0 24:-0.75 25:-0.6 33:-0.989027027027027 34:-1.0 35:-1.0 37:-1.0 
14.42175 7:-0.42195314168930054 8:1.0 9:-0.8439063131809235 10:-1.0 11:-0.979513444006443 12:0.9146537801618035 13:-0.9979939819458375 15:-1.0 17:-1.0 20:-1.0 21:-1.0 23:-1.0 24:-1.0 25:-1.0 33:-1.0 34:-1.0 35:-1.0 37:-1.0 
14.42175 7:-0.3989787697792053 8:1.0 9:-0.7979574948549271 10:-1.0 11:-0.9603960402309895 12:0.9371979650436999 13:-0.967479674796748 15:-1.0 17:-1.0 20:-1.0 21:-1.0 23:-1.0 24:-1.0 25:-1.0 33:-1.0 34:-1.0 35:-1.0 37:-1.0 
14.42175 7:-0.05427354574203491 8:-0.22240018844604492 9:0.5026530027389526 10:-1.0 11:0.991525411605835 12:0.7793880709847161 13:0.0 15:-1.0 17:-1.0 20:-1.0 21:-1.0 23:-1.0 24:-1.0 25:-1.0 33:-1.0 34:-1.0 35:-1.0 37:-1.0 
14.42175 7:-1.0 8:-1.0 9:-1.0 10:-1.0 11:-1.0 12:-1.0 13:-1.0 15:-1.0 17:-1.0 20:-0.047244094488189003 21:-1.0 23:-1.0 24:-0.75 25:-0.6 33:-0.3315315315315316 34:-1.0 35:-1.0 37:-1.0 
14.42175 7:-0.4848296046257019 8:0.14637064933776855 9:-0.5428445339202881 10:-1.0 11:-0.33463412523269653 12:0.37117544365447497 13:-0.8709677419354839 15:-1.0 17:-1.0 20:-1.0 21:-1.0 23:-1.0 24:-1.0 25:-1.0 33:-1.0 34:-1.0 35:-1.0 37:-1.0 
14.42175 7:-0.25787806510925293 8:-0.24171286821365356 9:0.2314814329147339 10:-1.0 11:0.9393939971923828 12:0.6392914821868139 13:-0.33333333333333337 15:-1.0 17:-1.0 20:-1.0 21:-1.0 23:-1.0 24:-1.0 25:-1.0 33:-1.0 34:-1.0 35:-1.0 37:-1.0 
14.42175 7:-0.25751054286956787 8:0.34941554069519043 9:-0.8644366264343262 10:-1.0 11:-0.3235294222831726 12:0.9420290846187984 13:-0.9245283018867925 15:-1.0 17:-1.0 20:-1.0 21:-1.0 23:-1.0 24:-1.0 25:-1.0 33:-1.0 34:-1.0 35:-1.0 37:-1.0 
14.42175 7:-0.2530030608177185 8:0.34941554069519043 9:-0.8554216921329498 10:-0.7999999970197678 11:0.5483870506286621 12:0.9049919009430323 13:-0.8095238095238095 15:-1.0 17:-1.0 20:-1.0 21:-1.0 23:-1.0 24:-1.0 25:-1.0 33:-1.0 34:-1.0 35:-1.0 37:-1.0 
14.42175 7:-1.0 8:-1.0 9:-1.0 10:-1.0 11:-1.0 12:-1.0 13:-1.0 15:-1.0 17:-1.0 20:-0.8682414698162729 21:-0.8666666597127914 23:-1.0 24:-0.75 25:-0.36 33:-0.9313513513513514 34:-1.0 35:-1.0 37:-1.0 
14.42175 7:0.5116126537322998 8:0.02322518825531006 9:1.0 10:0.46666669845581055 11:1.0 12:0.8470209855618307 13:1.0 15:-1.0 17:-1.0 20:-1.0 21:-1.0 23:-1.0 24:-1.0 25:-1.0 33:-1.0 34:-1.0 35:-1.0 37:-1.0 
14.42175 7:-1.0 8:-1.0 9:-1.0 10:-1.0 11:-1.0 12:-1.0 13:-1.0 15:0.6761905499326366 17:-0.9999998162729659 20:-1.0 21:-1.0 23:-1.0 24:-1.0 25:-1.0 33:-1.0 34:0.6000001430511475 35:0.7249999513849619 37:0.0 
14.42175 7:-0.38212478160858154 8:-0.6671719253063202 9:-0.09707766771316528 10:0.3809523582458496 11:0.932907223701477 12:0.968599102498992 13:-0.9595959595959596 15:-1.0 17:-1.0 20:-1.0 21:-1.0 23:-1.0 24:-1.0 25:-1.0 33:-1.0 34:-1.0 35:-1.0 37:-1.0 
14.42175 7:-0.7067748010158539 8:-0.6671719551086426 9:-0.7463776469230652 10:-1.0 11:0.77715003490448 12:0.6698872130881623 13:-0.9245283018867925 15:-1.0 17:-1.0 20:-1.0 21:-1.0 23:-1.0 24:-1.0 25:-1.0 33:-1.0 34:-1.0 35:-1.0 37:-1.0 
14.42175 7:-0.821765810251236 8:-0.5213743448257446 9:-0.962615393102169 10:-1.0 11:0.8591716289520264 12:0.36392906423468196 13:-0.75 15:-1.0 17:-1.0 20:-1.0 21:-1.0 23:-1.0 24:-1.0 25:-1.0 33:-1.0 34:-1.0 35:-1.0 37:-1.0 
14.42175 7:-0.5433945655822754 8:0.13676655292510986 9:-0.6551724076271057 10:-1.0 11:-0.04721027612686157 12:0.22705302185827558 13:-0.7142857142857143 15:-1.0 17:-1.0 20:-1.0 21:-1.0 23:-1.0 24:-1.0 25:-1.0 33:-1.0 34:-1.0 35:-1.0 37:-1.0 
14.42175 7:-1.0 8:-1.0 9:-1.0 10:-1.0 11:-1.0 12:-1.0 13:-1.0 15:-0.30158731249004034 17:-0.997270341207349 20:-1.0 21:-1.0 23:-1.0 24:-1.0 25:-1.0 33:-1.0 34:-0.3333333134651184 35:-1.0 37:-0.5 
14.42175 7:-1.0 8:-1.0 9:-1.0 10:-1.0 11:-1.0 12:-1.0 13:-1.0 15:-1.0 17:-1.0 20:-0.997270341207349 21:-0.3333333134651184 23:-1.0 24:-0.5 25:-0.6 33:-0.999809009009009 34:-1.0 35:-1.0 37:-1.0 
14.42175 7:-1.0 8:-1.0 9:-1.0 10:-1.0 11:-1.0 12:-1.0 13:-1.0 15:-1.0 17:-1.0 20:-0.997270341207349 21:-1.0 23:-1.0 24:-0.75 25:-0.6 33:-0.999809009009009 34:-1.0 35:-1.0 37:-1.0 
14.42175 7:-0.5705001950263977 8:1.0 9:-0.807667076587677 10:0.0 11:-0.48952382802963257 12:0.24396128049683985 13:-0.9545454545454546 15:-1.0 17:-1.0 20:-1.0 21:-1.0 23:-1.0 24:-1.0 25:-1.0 33:-1.0 34:-1.0 35:-1.0 37:-1.0 
14.42175 7:-0.21651709079742432 8:1.0 9:-0.09970086812973022 10:-1.0 11:0.8286985158920288 12:0.8470209855618307 13:-0.8 15:-1.0 17:-1.0 20:-1.0 21:-1.0 23:-1.0 24:-1.0 25:-1.0 33:-1.0 34:-1.0 35:-1.0 37:-1.0 
14.42175 7:-1.0 8:-1.0 9:-1.0 10:-1.0 11:-1.0 12:-1.0 13:-1.0 15:-1.0 17:-1.0 20:-0.8713910761154855 21:-1.0 23:-1.0 24:-0.5 25:-0.6 33:-0.8621621621621621 34:-1.0 35:-1.0 37:-1.0 
14.42175 7:-0.525742769241333 8:-0.6052809655666351 9:-0.36726075410842896 10:-1.0 11:0.6618244647979736 12:0.6135265109291377 13:-0.963963963963964 15:-1.0 17:-1.0 20:-1.0 21:-1.0 23:-1.0 24:-1.0 25:-1.0 33:-1.0 34:-1.0 35:-1.0 37:-1.0 
14.42175 7:-1.0 8:-1.0 9:-1.0 10:-1.0 11:-1.0 12:-1.0 13:-1.0 15:-1.0 17:-1.0 20:-0.8669291338582678 21:-1.0 23:-1.0 24:-0.5 25:-0.6 33:-0.9645045045045045 34:-1.0 35:-1.0 37:-1.0 
14.42175 7:-0.8341645896434784 8:-1.0 9:-0.6683291792869568 10:-0.7142857015132904 11:0.4240000247955322 12:0.29227043663641195 13:-0.8666666666666667 15:-1.0 17:-1.0 20:-1.0 21:-1.0 23:-1.0 24:-1.0 25:-1.0 33:-1.0 34:-1.0 35:-1.0 37:-1.0 
14.42175 7:-1.0 8:-1.0 9:-1.0 10:-1.0 11:-1.0 12:-1.0 13:-1.0 15:-0.5510203928711123 17:-0.9876902887139107 20:-1.0 21:-1.0 23:-1.0 24:-1.0 25:-1.0 33:-1.0 34:-0.7142857015132904 35:-0.6785714165972813 37:-0.5 
14.42175 7:-0.16621917486190796 8:0.2288036346435547 9:0.42180097103118896 10:-1.0 11:-0.14666664600372314 12:0.3921094153141944 13:-0.6 15:-1.0 17:-1.0 20:-1.0 21:-1.0 23:-1.0 24:-1.0 25:-1.0 33:-1.0 34:-1.0 35:-1.0 37:-1.0 
14.42175 7:-1.0 8:-1.0 9:-1.0 10:-1.0 11:-1.0 12:-1.0 13:-1.0 15:-0.4761904999782699 17:0.14698162729658804 20:-1.0 21:-1.0 23:-1.0 24:-1.0 25:-1.0 33:-1.0 34:-1.0 35:-1.0 37:-0.25 
14.42175 7:-0.7565263360738754 8:-0.410800576210022 9:-0.9713188614696264 10:0.3333333730697632 11:-0.739130437374115 12:0.950080390683967 13:-0.8947368421052632 15:-1.0 17:-1.0 20:-1.0 21:-1.0 23:-1.0 24:-1.0 25:-1.0 33:-1.0 34:-1.0 35:-1.0 37:-1.0 
14.42175 7:-0.2922821044921875 8:-0.410800576210022 9:-0.04283040761947632 10:-1.0 11:0.7723355293273926 12:0.676328425908296 13:-0.9333333333333333 15:-1.0 17:-1.0 20:-1.0 21:-1.0 23:-1.0 24:-1.0 25:-1.0 33:-1.0 34:-1.0 35:-1.0 37:-1.0 
14.42175 7:-1.0 8:-1.0 9:-1.0 10:-1.0 11:-1.0 12:-1.0 13:-1.0 15:-1.0 17:-1.0 20:-0.05249343832021003 21:-1.0 23:-1.0 24:-0.5 25:-0.6 33:-0.08108108108108103 34:-1.0 35:-1.0 37:-1.0 
14.42175 7:-0.5306639075279236 8:-0.13948863744735718 9:-0.49158352613449097 10:-1.0 11:-0.8222498446702957 12:0.3510466385944151 13:-0.9466666666666667 15:-1.0 17:-1.0 20:-1.0 21:-1.0 23:-1.0 24:-1.0 25:-1.0 33:-1.0 34:-1.0 35:-1.0 37:-1.0 
14.42175 7:-0.2881803512573242 8:-0.10563474893569946 9:-0.47072601318359375 10:-1.0 11:1.0 12:0.9291464190242475 13:1.0 15:-1.0 17:-1.0 20:-1.0 21:-1.0 23:-1.0 24:-1.0 25:-1.0 33:-1.0 34:-1.0 35:-1.0 37:-1.0 
14.42175 7:0.25431525707244873 8:-0.10137581825256348 9:0.9095476865768433 10:-1.0 11:0.7414247989654541 12:0.968599102498992 13:-0.33333333333333337 15:-1.0 17:-1.0 20:-1.0 21:-1.0 23:-1.0 24:-1.0 25:-1.0 33:-1.0 34:-1.0 35:-1.0 37:-1.0 
14.42175 7:-1.0 8:-1.0 9:-1.0 10:-1.0 11:-1.0 12:-1.0 13:-1.0 15:-1.0 17:-1.0 20:-0.9964304461942257 21:-0.8888888880610466 23:-1.0 24:0.25 25:-0.28 33:-0.9952792792792793 34:-1.0 35:-1.0 37:-1.0 
14.42175 7:-0.6859430372714996 8:-0.03377717733383179 9:-0.8549974858760834 10:-0.19999998807907104 11:0.8466196060180664 12:0.5619965684137858 13:-0.7894736842105263 15:-1.0 17:-1.0 20:-1.0 21:-1.0 23:-1.0 24:-1.0 25:-1.0 33:-1.0 34:-1.0 35:-1.0 37:-1.0 
14.42175 7:-0.47144168615341187 8:0.0068520307540893555 9:-0.9497353695333004 10:-1.0 11:0.26094698905944824 12:0.9541063436594059 13:-0.9699248120300752 15:-1.0 17:-1.0 20:-1.0 21:-1.0 23:-1.0 24:-1.0 25:-1.0 33:-1.0 34:-1.0 35:-1.0 37:-1.0 
14.42175 7:-0.3384738564491272 8:0.0068520307540893555 9:-0.6837997436523438 10:-0.75 11:0.8716682195663452 12:0.8929146419024248 13:-0.9788359788359788 15:-1.0 17:-1.0 20:-1.0 21:-1.0 23:-1.0 24:-1.0 25:-1.0 33:-1.0 34:-1.0 35:-1.0 37:-1.0 
14.42175 7:-0.4423551559448242 8:0.0068520307540893555 9:-0.8915623649954796 10:-1.0 11:0.45623040199279785 12:0.9090176139641875 13:-0.9555555555555556 15:-1.0 17:-1.0 20:-1.0 21:-1.0 23:-1.0 24:-1.0 25:-1.0 33:-1.0 34:-1.0 35:-1.0 37:-1.0 
14.42175 7:-0.10988128185272217 8:0.0068520307540893555 9:-0.22661453485488892 10:0.3636363744735718 11:0.95460045337677 12:0.921094992981937 13:-0.9871382636655949 15:-1.0 17:-1.0 20:-1.0 21:-1.0 23:-1.0 24:-1.0 25:-1.0 33:-1.0 34:-1.0 35:-1.0 37:-1.0 
14.42175 7:-0.7489515244960785 8:-0.17679530382156372 9:-0.8720870018005371 10:0.5555555820465088 11:0.3935483694076538 12:0.9106279471635064 13:-0.8 15:-1.0 17:-1.0 20:-1.0 21:-1.0 23:-1.0 24:-1.0 25:-1.0 33:-1.0 34:-1.0 35:-1.0 37:-1.0 
14.42175 7:-0.5117031633853912 8:-0.17679518461227417 9:-0.3975903391838074 10:-1.0 11:0.7011333703994751 12:0.7173913226052173 13:-0.962962962962963 15:-1.0 17:-1.0 20:-1.0 21:-1.0 23:-1.0 24:-1.0 25:-1.0 33:-1.0 34:-1.0 35:-1.0 37:-1.0 
14.42175 7:-0.5160747766494751 8:0.10286438465118408 9:-0.7673924565315247 10:-1.0 11:-0.9336492866277695 12:0.9573267701037598 13:-0.7777777777777778 15:-1.0 17:-1.0 20:-1.0 21:-1.0 23:-1.0 24:-1.0 25:-1.0 33:-1.0 34:-1.0 35:-1.0 37:-1.0 
6.378170660663456 7:-1.0 8:-1.0 9:-1.0 10:-1.0 11:-1.0 12:-1.0 13:-1.0 15:-1.0 17:-1.0 20:-0.9935695538057743 21:-1.0 23:-1.0 24:-0.5 25:-0.5 33:-0.9847027027027027 34:-1.0 35:-1.0 37:-1.0 
14.42175 7:-0.3621276617050171 8:-0.6927732825279236 9:-0.03148198127746582 10:-1.0 11:0.9471757411956787 12:0.6561996208482359 13:-0.9069767441860466 15:-1.0 17:-1.0 20:-1.0 21:-1.0 23:-1.0 24:-1.0 25:-1.0 33:-1.0 34:-1.0 35:-1.0 37:-1.0 
14.42175 7:-0.6272807717323303 8:0.7076601982116699 9:-0.9376256503164768 10:0.20000004768371582 11:-0.8327526152133942 12:0.7423510072860919 13:-0.9384615384615385 15:-1.0 17:-1.0 20:-1.0 21:-1.0 23:-1.0 24:-1.0 25:-1.0 33:-1.0 34:-1.0 35:-1.0 37:-1.0 
14.42175 7:-0.8919305428862572 8:-1.0 9:-0.7838610857725143 10:-1.0 11:-0.6124401986598969 12:0.7906601634256643 13:-0.9896640826873385 15:-1.0 17:-1.0 20:-1.0 21:-1.0 23:-1.0 24:-1.0 25:-1.0 33:-1.0 34:-1.0 35:-1.0 37:-1.0 
14.42175 7:-1.0 8:-1.0 9:-1.0 10:-1.0 11:-1.0 12:-1.0 13:-1.0 15:-0.7380952499891349 17:-0.9846719160104986 20:-1.0 21:-1.0 23:-1.0 24:-1.0 25:-1.0 33:-1.0 34:-0.75 35:-1.0 37:-0.5 
14.42175 7:-1.0 8:-1.0 9:-1.0 10:-1.0 11:-1.0 12:-1.0 13:-1.0 15:-1.0 17:-1.0 20:-0.9846719160104986 21:-0.75 23:-1.0 24:-0.25 25:-0.6 33:-0.981081081081081 34:-1.0 35:-1.0 37:-1.0 
14.42175 7:-0.48047733306884766 8:0.13617515563964844 9:-0.8698947578668594 10:-1.0 11:-0.8187499940395355 12:0.6586151206472144 13:-0.9794871794871794 15:-1.0 17:-1.0 20:-1.0 21:-1.0 23:-1.0 24:-1.0 25:-1.0 33:-1.0 34:-1.0 35:-1.0 37:-1.0 
14.42175 7:-0.6050704121589661 8:-1.0 9:-0.21014082431793213 10:-1.0 11:0.795976996421814 12:0.47423508873089504 13:-0.8 15:-1.0 17:-1.0 20:-1.0 21:-1.0 23:-1.0 24:-1.0 25:-1.0 33:-1.0 34:-1.0 35:-1.0 37:-1.0 
14.42175 7:-0.7159533202648163 8:-1.0 9:-0.43190664052963257 10:-1.0 11:1.0 12:0.2826086773947827 13:1.0 15:-1.0 17:-1.0 20:-1.0 21:-1.0 23:-1.0 24:-1.0 25:-1.0 33:-1.0 34:-1.0 35:-1.0 37:-1.0 
14.42175 7:-0.35179370641708374 8:0.26859235763549805 9:-0.97217982634902 10:-0.7142857015132904 11:-0.9660620242357254 12:0.863929124223253 13:-0.9245283018867925 15:-1.0 17:-1.0 20:-1.0 21:-1.0 23:-1.0 24:-1.0 25:-1.0 33:-1.0 34:-1.0 35:-1.0 37:-1.0 
14.42175 7:-1.0 8:-1.0 9:-1.0 10:-1.0 11:-1.0 12:-1.0 13:-1.0 15:-1.0 17:-1.0 20:-0.7506561679790026 21:-1.0 23:-1.0 24:-0.75 25:-0.6 33:-0.5567567567567567 34:-1.0 35:-1.0 37:-1.0 
14.42175 7:-1.0 8:-1.0 9:-1.0 10:-1.0 11:-1.0 12:-1.0 13:-1.0 15:-1.0 17:-1.0 20:-0.7060367454068242 21:-0.5238095223903656 23:-1.0 24:-0.5 25:-0.19999999999999996 33:-0.8832432432432432 34:-1.0 35:-1.0 37:-1.0 
14.42175 7:-0.20634782314300537 8:-0.21616560220718384 9:-0.1965300440788269 10:-1.0 11:0.42505598068237305 12:0.5040256530325842 13:-0.9 15:-1.0 17:-1.0 20:-1.0 21:-1.0 23:-1.0 24:-1.0 25:-1.0 33:-1.0 34:-1.0 35:-1.0 37:-1.0 
14.42175 7:-1.0 8:-1.0 9:-1.0 10:-1.0 11:-1.0 12:-1.0 13:-1.0 15:-1.0 17:-1.0 20:-0.8170603674540682 21:-0.9259259253740311 23:-1.0 24:-0.75 25:-0.4 33:-0.9833333333333333 34:-1.0 35:-1.0 37:-1.0 
14.42175 7:-0.5349621474742889 8:-0.5910636782646179 9:-0.4107045531272888 10:-1.0 11:0.7440532445907593 12:0.5201288650486309 13:-0.9787234042553191 15:-1.0 17:-1.0 20:-1.0 21:-1.0 23:-1.0 24:-1.0 25:-1.0 33:-1.0 34:-1.0 35:-1.0 37:-1.0 
14.42175 7:-0.24543249607086182 8:-0.10095089673995972 9:-0.16515183448791504 10:0.4444444179534912 11:0.852103590965271 12:0.5933977058690778 13:-0.9111111111111111 15:-1.0 17:-1.0 20:-1.0 21:-1.0 23:-1.0 24:-1.0 25:-1.0 33:-1.0 34:-1.0 35:-1.0 37:-1.0 
14.42175 7:-0.6359758973121643 8:-0.10095089673995972 9:-0.94623863697052 10:-1.0 11:-0.1111111044883728 12:0.8438003191631931 13:-0.7777777777777778 15:-1.0 17:-1.0 20:-1.0 21:-1.0 23:-1.0 24:-1.0 25:-1.0 33:-1.0 34:-1.0 35:-1.0 37:-1.0 
14.42175 7:-0.47367167472839355 8:-0.09518766403198242 9:-0.7390540838241577 10:-1.0 11:-0.9485498927533627 12:0.9533011770597466 13:-0.9852941176470589 15:-1.0 17:-1.0 20:-1.0 21:-1.0 23:-1.0 24:-1.0 25:-1.0 33:-1.0 34:-1.0 35:-1.0 37:-1.0 
14.42175 7:-0.3444986939430237 8:-0.09518766403198242 9:-0.48070818185806274 10:0.692307710647583 11:0.9373018741607666 12:0.5636069016131047 13:-0.9148936170212766 15:-1.0 17:-1.0 20:-1.0 21:-1.0 23:-1.0 24:-1.0 25:-1.0 33:-1.0 34:-1.0 35:-1.0 37:-1.0 
14.42175 7:-0.6238715648651123 8:-0.19665366411209106 9:-0.9363256767392159 10:0.3333333730697632 11:-0.8809523805975914 12:0.8816425494614766 13:-0.8974358974358975 15:-1.0 17:-1.0 20:-1.0 21:-1.0 23:-1.0 24:-1.0 25:-1.0 33:-1.0 34:-1.0 35:-1.0 37:-1.0 
14.42175 7:-0.21234726905822754 8:-0.23952865600585938 9:0.46666669845581055 10:-0.8571428507566452 11:1.0 12:0.9444443444634929 13:1.0 15:-1.0 17:-1.0 20:-1.0 21:-1.0 23:-1.0 24:-1.0 25:-1.0 33:-1.0 34:-1.0 35:-1.0 37:-1.0 
14.42175 7:-1.0 8:-1.0 9:-1.0 10:-1.0 11:-1.0 12:-1.0 13:-1.0 15:-1.0 17:-1.0 20:-0.8832020997375328 21:-0.8571428507566452 23:-0.8571428507566452 24:-0.5 25:-0.4666666666666667 33:-0.7675675675675675 34:-1.0 35:-1.0 37:-1.0 
14.42175 7:-1.0 8:-1.0 9:-1.0 10:-1.0 11:-1.0 12:-1.0 13:-1.0 15:-0.16024193149557875 17:-0.8606299212598425 20:-1.0 21:-1.0 23:-1.0 24:-1.0 25:-1.0 33:-1.0 34:-0.1984127163887024 35:-1.0 37:-0.125 
14.42175 7:-1.0 8:-1.0 9:-1.0 10:-1.0 11:-1.0 12:-1.0 13:-1.0 15:-1.0 17:-1.0 20:-0.8606299212598425 21:-0.1984127163887024 23:-1.0 24:0.0 25:-0.30000000000000004 33:-0.8340540540540541 34:-1.0 35:-1.0 37:-1.0 
14.42175 7:-0.4274119734764099 8:-0.2197229266166687 9:-0.557073324918747 10:-1.0 11:-0.2536611557006836 12:0.34460554575142344 13:-0.984375 15:-1.0 17:-1.0 20:-1.0 21:-1.0 23:-1.0 24:-1.0 25:-1.0 33:-1.0 34:-1.0 35:-1.0 37:-1.0 
14.42175 7:-1.0 8:-1.0 9:-1.0 10:-1.0 11:-1.0 12:-1.0 13:-1.0 15:-1.0 17:-1.0 20:-0.9999952230971129 21:-1.0 23:-1.0 24:-0.25 25:-0.6 33:-0.976936936936937 34:-1.0 35:-1.0 37:-1.0 
14.42175 7:-0.02904200553894043 8:0.5424308776855469 9:-0.08637130260467529 10:0.3999999761581421 11:0.90129554271698 12:0.6980676841448168 13:-0.6363636363636364 15:-1.0 17:-1.0 20:-1.0 21:-1.0 23:-1.0 24:-1.0 25:-1.0 33:-1.0 34:-1.0 35:-1.0 37:-1.0 
14.42175 7:-1.0 8:-1.0 9:-1.0 10:-1.0 11:-1.0 12:-1.0 13:-1.0 15:-1.0 17:-1.0 20:-0.9999952755905512 21:0.3999999761581421 23:0.3999999761581421 24:-0.25 25:-0.6 33:-0.9963063063063063 34:-1.0 35:-1.0 37:-1.0 
14.42175 7:-1.0 8:-1.0 9:-1.0 10:-1.0 11:-1.0 12:-1.0 13:-1.0 15:-0.4412698375034406 17:-0.9999997637795276 20:-1.0 21:-1.0 23:-1.0 24:-1.0 25:-1.0 33:-1.0 34:-1.0 35:-1.0 37:-0.25 
14.42175 7:-0.59356689453125 8:-0.03792214393615723 9:-0.5719649493694305 10:-1.0 11:-0.9235668778419495 12:0.8107889684857241 13:-0.8461538461538461 15:-1.0 17:-1.0 20:-1.0 21:-1.0 23:-1.0 24:-1.0 25:-1.0 33:-1.0 34:-1.0 35:-1.0 37:-1.0 
14.42175 7:-0.5288557708263397 8:0.7384581565856934 9:-0.9269406422972679 10:-1.0 11:-0.4285714030265808 12:0.8937198085020841 13:0.33333333333333326 15:-1.0 17:-1.0 20:-1.0 21:-1.0 23:-1.0 24:-1.0 25:-1.0 33:-1.0 34:-1.0 35:-1.0 37:-1.0 
14.42175 7:-1.0 8:-1.0 9:-1.0 10:-1.0 11:-1.0 12:-1.0 13:-1.0 15:-1.0 17:-1.0 20:-0.984015748031496 21:-1.0 23:-1.0 24:-1.0 25:-0.4 33:-0.9972072072072072 34:-1.0 35:-1.0 37:-1.0 
14.42175 7:-0.8192291557788849 8:-1.0 9:-0.6384583115577698 10:-1.0 11:0.4032634496688843 12:0.21014488319685332 13:-0.8181818181818181 15:-1.0 17:-1.0 20:-1.0 21:-1.0 23:-1.0 24:-1.0 25:-1.0 33:-1.0 34:-1.0 35:-1.0 37:-1.0 
14.42175 7:-1.0 8:-1.0 9:-1.0 10:-1.0 11:-1.0 12:-1.0 13:-1.0 15:-1.0 17:-1.0 20:-0.9934645669291339 21:-0.3333333134651184 23:-0.5 24:-0.25 25:0.19999999999999996 33:-0.9923603603603603 34:-1.0 35:-1.0 37:-1.0 
14.42175 7:-0.22383815050125122 8:0.14390265941619873 9:-0.5915789604187012 10:-1.0 11:-0.2164948582649231 12:0.5370370037100531 13:-0.6 15:-1.0 17:-1.0 20:-1.0 21:-1.0 23:-1.0 24:-1.0 25:-1.0 33:-1.0 34:-1.0 35:-1.0 37:-1.0 
14.42175 7:-1.0 8:-1.0 9:-1.0 10:-1.0 11:-1.0 12:-1.0 13:-1.0 15:-0.18518520831220675 17:-0.9903674540682414 20:-1.0 21:-1.0 23:-1.0 24:-1.0 25:-1.0 33:-1.0 34:-0.2222222089767456 35:-1.0 37:-0.4 
14.42175 7:-1.0 8:-1.0 9:-1.0 10:-1.0 11:-1.0 12:-1.0 13:-1.0 15:-1.0 17:-1.0 20:-0.9903674540682414 21:-0.2222222089767456 23:-1.0 24:0.0 25:-0.52 33:-0.9888468468468469 34:-1.0 35:-1.0 37:-1.0 
14.42175 7:-0.3314856290817261 8:-0.11553555727005005 9:-0.5474357604980469 10:-1.0 11:-0.36503511667251587 12:0.6328502693666802 13:-0.9726027397260274 15:-1.0 17:-1.0 20:-1.0 21:-1.0 23:-1.0 24:-1.0 25:-1.0 33:-1.0 34:-1.0 35:-1.0 37:-1.0 
14.42175 7:-0.1647418737411499 8:-0.11553555727005005 9:-0.21394819021224976 10:-0.1428571343421936 11:0.8963499069213867 12:0.5611915217912684 13:-0.9819819819819819 15:-1.0 17:-1.0 20:-1.0 21:-1.0 23:-1.0 24:-1.0 25:-1.0 33:-1.0 34:-1.0 35:-1.0 37:-1.0 
14.42175 7:0.004967212677001953 8:0.2451854944229126 9:0.3873417377471924 10:-0.448888897895813 11:0.9852941036224365 12:0.8671497906218908 13:0.33333333333333326 15:-1.0 17:-1.0 20:-1.0 21:-1.0 23:-1.0 24:-1.0 25:-1.0 33:-1.0 34:-1.0 35:-1.0 37:-1.0 
14.42175 7:-0.6197236776351929 8:0.24518561363220215 9:-0.8620401322841644 10:0.6000000238418579 11:-0.9577464796602726 12:0.9702093157211689 13:-0.8888888888888888 15:-1.0 17:-1.0 20:-1.0 21:-1.0 23:-1.0 24:-1.0 25:-1.0 33:-1.0 34:-1.0 35:-1.0 37:-1.0 
14.42175 7:-1.0 8:-1.0 9:-1.0 10:-1.0 11:-1.0 12:-1.0 13:-1.0 15:-0.42264553830076224 17:1.0 20:-1.0 21:-1.0 23:-1.0 24:-1.0 25:-1.0 33:-1.0 34:-0.448888897895813 35:-1.0 37:-0.5 
14.42175 7:-1.0 8:-1.0 9:-1.0 10:-1.0 11:-1.0 12:-1.0 13:-1.0 15:-1.0 17:-1.0 20:1.0 21:-0.448888897895813 23:-1.0 24:0.0 25:-0.6 33:1.0 34:-1.0 35:-1.0 37:-1.0 
14.42175 7:-0.9802666660398245 8:-1.0 9:-0.960533332079649 10:-1.0 11:0.0 12:0.3961352483124916 13:0.0 15:-1.0 17:-1.0 20:-1.0 21:-1.0 23:-1.0 24:-1.0 25:-1.0 33:-1.0 34:-1.0 35:-1.0 37:-1.0 
14.42175 7:-0.7743731588125229 8:-0.012104332447052002 9:-0.9721301756799221 10:-1.0 11:-0.9702154621481895 12:0.8888888089041276 13:-0.9757575757575757 15:-1.0 17:-1.0 20:-1.0 21:-1.0 23:-1.0 24:-1.0 25:-1.0 33:-1.0 34:-1.0 35:-1.0 37:-1.0 
14.42175 7:-0.6086410582065582 8:-0.17329508066177368 9:-0.7133050560951233 10:0.3333333730697632 11:-0.7816091924905777 12:0.9146537801618035 13:-0.8095238095238095 15:-1.0 17:-1.0 20:-1.0 21:-1.0 23:-1.0 24:-1.0 25:-1.0 33:-1.0 34:-1.0 35:-1.0 37:-1.0 
14.42175 7:-1.0 8:-1.0 9:-1.0 10:-1.0 11:-1.0 12:-1.0 13:-1.0 15:-1.0 17:-1.0 20:-0.910761154855643 21:-1.0 23:-1.0 24:-0.5 25:-0.6 33:-0.5891891891891892 34:-1.0 35:-1.0 37:-1.0 
14.42175 7:-0.8072289228439331 8:-1.0 9:-0.6144578456878662 10:-1.0 11:0.5 12:0.11835745053852342 13:0.33333333333333326 15:-1.0 17:-1.0 20:-1.0 21:-1.0 23:-1.0 24:-1.0 25:-1.0 33:-1.0 34:-1.0 35:-1.0 37:-1.0 
14.42175 7:-1.0 8:-1.0 9:-1.0 10:-1.0 11:-1.0 12:-1.0 13:-1.0 15:-1.0 17:-1.0 20:-0.9947244094488189 21:-0.19999998807907104 23:-1.0 24:-0.75 25:-0.6 33:-0.9911711711711712 34:-1.0 35:-1.0 37:-1.0 
14.42175 7:-0.5863721668720245 8:0.6121671199798584 9:-0.7589869350194931 10:-0.7142857015132904 11:-0.9726962465792894 12:0.9404186314423375 13:-0.6363636363636364 15:-1.0 17:-1.0 20:-1.0 21:-1.0 23:-1.0 24:-1.0 25:-1.0 33:-1.0 34:-1.0 35:-1.0 37:-1.0 
14.42175 7:-0.4951791763305664 8:-0.7323337495326996 9:-0.25802457332611084 10:-1.0 11:0.2598724365234375 12:0.7463768402843891 13:-0.9818181818181818 15:-1.0 17:-1.0 20:-1.0 21:-1.0 23:-1.0 24:-1.0 25:-1.0 33:-1.0 34:-1.0 35:-1.0 37:-1.0 
14.42175 7:-0.4007885456085205 8:0.7460571527481079 9:-0.5 10:-0.6333333253860474 11:1.0 12:0.9130434469624846 13:1.0 15:-1.0 17:-1.0 20:-1.0 21:-1.0 23:-1.0 24:-1.0 25:-1.0 33:-1.0 34:-1.0 35:-1.0 37:-1.0 
14.42175 7:-1.0 8:-1.0 9:-1.0 10:-1.0 11:-1.0 12:-1.0 13:-1.0 15:-0.79047619686916 17:-0.7813648293963255 20:-1.0 21:-1.0 23:-1.0 24:-1.0 25:-1.0 33:-1.0 34:-0.7999999970197678 35:-1.0 37:-0.5 
14.42175 7:-1.0 8:-1.0 9:-1.0 10:-1.0 11:-1.0 12:-1.0 13:-1.0 15:-1.0 17:-1.0 20:-0.7813648293963255 21:-0.7999999970197678 23:-1.0 24:-0.25 25:-0.6 33:-0.6018018018018019 34:-1.0 35:-1.0 37:-1.0 
14.42175 7:-1.0 8:-1.0 9:-1.0 10:-1.0 11:-1.0 12:-1.0 13:-1.0 15:-0.6507936874664993 17:-0.826509186351706 20:-1.0 21:-1.0 23:-1.0 24:-1.0 25:-1.0 33:-1.0 34:-0.6666666865348816 35:-1.0 37:0.25 
14.42175 7:-1.0 8:-1.0 9:-1.0 10:-1.0 11:-1.0 12:-1.0 13:-1.0 15:-1.0 17:-1.0 20:-0.826509186351706 21:-0.6666666865348816 23:-0.6666666865348816 24:-0.75 25:1.0 33:-0.772972972972973 34:-1.0 35:-1.0 37:-1.0 
14.42175 7:-0.6407025456428528 8:-0.9338005781173706 9:-0.31450480222702026 10:-1.0 11:0.932015061378479 12:0.5861514464264268 13:-0.9649122807017544 15:-1.0 17:-1.0 20:-1.0 21:-1.0 23:-1.0 24:-1.0 25:-1.0 33:-1.0 34:-1.0 35:-1.0 37:-1.0 
14.42175 7:-1.0 8:-1.0 9:-1.0 10:-1.0 11:-1.0 12:-1.0 13:-1.0 15:-1.0 17:-1.0 20:-0.9741469816272966 21:-0.2222222089767456 23:-1.0 24:-0.5 25:-0.6 33:-0.9063063063063063 34:-1.0 35:-1.0 37:-1.0 
14.42175 7:-0.260056734085083 8:-0.018499433994293213 9:-0.1744471788406372 10:-1.0 11:0.09309303760528564 12:0.3389691395995236 13:-0.8 15:-1.0 17:-1.0 20:-1.0 21:-1.0 23:-1.0 24:-1.0 25:-1.0 33:-1.0 34:-1.0 35:-1.0 37:-1.0 
14.42175 7:-0.9962003454566002 8:-1.0 9:-0.9924006909132004 10:-1.0 11:1.0 12:0.9452495110631522 13:1.0 15:-1.0 17:-1.0 20:-1.0 21:-1.0 23:-1.0 24:-1.0 25:-1.0 33:-1.0 34:-1.0 35:-1.0 37:-1.0 
14.42175 7:-0.37578314542770386 8:0.1052095890045166 9:-0.8567758500576019 10:-0.8333333283662796 11:0.7706421613693237 12:0.8832527626836535 13:-0.4285714285714286 15:-1.0 17:-1.0 20:-1.0 21:-1.0 23:-1.0 24:-1.0 25:-1.0 33:-1.0 34:-1.0 35:-1.0 37:-1.0 
14.42175 7:-0.44170355796813965 8:0.1052095890045166 9:-0.9886166881769896 10:-1.0 11:-0.9850699845701456 12:0.81400951490722 13:-0.9776536312849162 15:-1.0 17:-1.0 20:-1.0 21:-1.0 23:-1.0 24:-1.0 25:-1.0 33:-1.0 34:-1.0 35:-1.0 37:-1.0 
14.42175 7:-0.7430749237537384 8:-1.0 9:-0.4861498475074768 10:-1.0 11:0.9171512126922607 12:0.8091786352864052 13:-0.6363636363636364 15:-1.0 17:-1.0 20:-1.0 21:-1.0 23:-1.0 24:-1.0 25:-1.0 33:-1.0 34:-1.0 35:-1.0 37:-1.0 
14.42175 7:-1.0 8:-1.0 9:-1.0 10:-1.0 11:-1.0 12:-1.0 13:-1.0 15:0.0476190000434602 17:-0.9995984251968504 20:-1.0 21:-1.0 23:-1.0 24:-1.0 25:-1.0 33:-1.0 34:0.0 35:0.12499999161809683 37:-0.5 
14.42175 7:-1.0 8:-1.0 9:-1.0 10:-1.0 11:-1.0 12:-1.0 13:-1.0 15:-1.0 17:-1.0 20:-0.9995984251968504 21:0.0 23:0.0 24:-0.75 25:-0.6 33:-0.997945945945946 34:-1.0 35:-1.0 37:-1.0 
14.42175 7:-0.1926579475402832 8:0.7454609870910645 9:0.03286385536193848 10:-0.48148149251937866 11:1.0 12:0.7028984437884893 13:1.0 15:-1.0 17:-1.0 20:-1.0 21:-1.0 23:-1.0 24:-1.0 25:-1.0 33:-1.0 34:-1.0 35:-1.0 37:-1.0 
14.42175 7:-1.0 8:-1.0 9:-1.0 10:-1.0 11:-1.0 12:-1.0 13:-1.0 15:-1.0 17:-1.0 20:-0.9461942257217848 21:-0.3253967761993408 23:-0.48148149251937866 24:-0.75 25:-0.19999999999999996 33:-0.9966666666666667 34:-1.0 35:-1.0 37:-1.0 
14.42175 7:0.23021411895751953 8:-0.4737963080406189 9:1.0 10:-1.0 11:1.0 12:0.9082125673416701 13:1.0 15:-1.0 17:-1.0 20:-1.0 21:-1.0 23:-1.0 24:-1.0 25:-1.0 33:-1.0 34:-1.0 35:-1.0 37:-1.0 
14.42175 7:-0.34891951084136963 8:0.705459475517273 9:-0.9769335556775331 10:0.3333333730697632 11:-0.7940074950456619 12:0.8647342908229123 13:-0.972972972972973 15:-1.0 17:-1.0 20:-1.0 21:-1.0 23:-1.0 24:-1.0 25:-1.0 33:-1.0 34:-1.0 35:-1.0 37:-1.0 
14.42175 7:0.6395473480224609 8:0.705459475517273 9:1.0 10:-0.3333333134651184 11:0.9197584390640259 12:0.3196456211162648 13:-0.7647058823529411 15:-1.0 17:-1.0 20:-1.0 21:-1.0 23:-1.0 24:-1.0 25:-1.0 33:-1.0 34:-1.0 35:-1.0 37:-1.0 
14.42175 7:-0.32987451553344727 8:0.705459475517273 9:-0.9388436377048492 10:-1.0 11:-0.8155339807271957 12:0.909822780563847 13:-0.875 15:-1.0 17:-1.0 20:-1.0 21:-1.0 23:-1.0 24:-1.0 25:-1.0 33:-1.0 34:-1.0 35:-1.0 37:-1.0 
14.42175 7:-0.07665038108825684 8:0.10502958297729492 9:-0.2583303451538086 10:0.5 11:0.9015713930130005 12:0.9735683157644806 13:-0.9285714285714286 15:-1.0 17:-1.0 20:-1.0 21:-1.0 23:-1.0 24:-1.0 25:-1.0 33:-1.0 34:-1.0 35:-1.0 37:-1.0 
14.42175 7:-0.4655712842941284 8:-0.05537700653076172 9:-0.8757655322551727 10:0.3999999761581421 11:-0.30434781312942505 12:0.9066022341423512 13:-0.7894736842105263 15:-1.0 17:-1.0 20:-1.0 21:-1.0 23:-1.0 24:-1.0 25:-1.0 33:-1.0 34:-1.0 35:-1.0 37:-1.0 
14.42175 7:-0.580477237701416 8:-0.29210197925567627 9:-0.8688524663448334 10:-1.0 11:-0.25 12:0.8679549572215501 13:-0.6363636363636364 15:-1.0 17:-1.0 20:-1.0 21:-1.0 23:-1.0 24:-1.0 25:-1.0 33:-1.0 34:-1.0 35:-1.0 37:-1.0 
14.42175 7:-0.6191381812095642 8:-0.29210197925567627 9:-0.9461743757128716 10:0.13333332538604736 11:-0.5333333313465118 12:0.6755232593086364 13:-0.75 15:-1.0 17:-1.0 20:-1.0 21:-1.0 23:-1.0 24:-1.0 25:-1.0 33:-1.0 34:-1.0 35:-1.0 37:-1.0 
2.178624343731902 7:-1.0 8:-1.0 9:-1.0 10:-1.0 11:-1.0 12:-1.0 13:-1.0 15:-1.0 17:-1.0 20:-0.026246719160105014 21:-1.0 23:-1.0 24:-0.25 25:-0.5333333333333333 33:-0.3315315315315316 34:-1.0 35:-1.0 37:-1.0 
14.42175 7:-0.47876960039138794 8:1.0 9:-0.957539226859808 10:-1.0 11:-0.8301210254430771 12:0.6980676841448168 13:-0.9529411764705882 15:-1.0 17:-1.0 20:-1.0 21:-1.0 23:-1.0 24:-1.0 25:-1.0 33:-1.0 34:-1.0 35:-1.0 37:-1.0 
14.42175 7:-0.4639965295791626 8:1.0 9:-0.9279930889606476 10:-1.0 11:-0.931878499686718 12:0.862318911001076 13:-0.9672131147540983 15:-1.0 17:-1.0 20:-1.0 21:-1.0 23:-1.0 24:-1.0 25:-1.0 33:-1.0 34:-1.0 35:-1.0 37:-1.0 
14.42175 7:-0.7282603979110718 8:0.048754215240478516 9:-0.631313145160675 10:-1.0 11:-0.06758302450180054 12:0.25281799311595154 13:-0.8333333333333334 15:-1.0 17:-1.0 20:-1.0 21:-1.0 23:-1.0 24:-1.0 25:-1.0 33:-1.0 34:-1.0 35:-1.0 37:-1.0 
14.42175 7:-0.11260378360748291 8:0.048754215240478516 9:0.6000000238418579 10:0.5 11:1.0 12:0.8816425494614766 13:1.0 15:-1.0 17:-1.0 20:-1.0 21:-1.0 23:-1.0 24:-1.0 25:-1.0 33:-1.0 34:-1.0 35:-1.0 37:-1.0 
14.42175 7:-1.0 8:-1.0 9:-1.0 10:-1.0 11:-1.0 12:-1.0 13:-1.0 15:0.5714285000651904 17:-0.9825459317585302 20:-1.0 21:-1.0 23:-1.0 24:-1.0 25:-1.0 33:-1.0 34:0.5 35:-1.0 37:-0.41666666666666663 
14.42175 7:-1.0 8:-1.0 9:-1.0 10:-1.0 11:-1.0 12:-1.0 13:-1.0 15:-1.0 17:-1.0 20:-0.9825459317585302 21:0.5 23:-1.0 24:-0.25 25:-0.5333333333333333 33:-0.9993045045045045 34:-1.0 35:-1.0 37:-1.0 
14.42175 7:-0.7981297373771667 8:-0.740767240524292 9:-0.682670384645462 10:-1.0 11:0.8841699361801147 12:0.9114331137631659 13:-0.9886039886039886 15:-1.0 17:-1.0 20:-1.0 21:-1.0 23:-1.0 24:-1.0 25:-1.0 33:-1.0 34:-1.0 35:-1.0 37:-1.0 
14.42175 7:-1.0 8:-1.0 9:-1.0 10:-1.0 11:-1.0 12:-1.0 13:-1.0 15:-1.0 17:-1.0 20:-0.9146981627296588 21:0.5555555820465088 23:-1.0 24:-0.5 25:-0.5 33:-0.9771171171171171 34:-1.0 35:-1.0 37:-1.0 
14.42175 7:-0.54380664229393 8:-1.0 9:-0.08761328458786011 10:-1.0 11:-0.20805370807647705 12:0.5942028724687372 13:-0.6666666666666667 15:-1.0 17:-1.0 20:-1.0 21:-1.0 23:-1.0 24:-1.0 25:-1.0 33:-1.0 34:-1.0 35:-1.0 37:-1.0 
14.42175 7:-0.7169592380523682 8:-0.47553110122680664 9:-0.9583873450756073 10:-1.0 11:0.7323943376541138 12:0.9186794931829587 13:-0.75 15:-1.0 17:-1.0 20:-1.0 21:-1.0 23:-1.0 24:-1.0 25:-1.0 33:-1.0 34:-1.0 35:-1.0 37:-1.0 
14.42175 7:-0.5574858784675598 8:-0.47553110122680664 9:-0.6394406259059906 10:0.3809523582458496 11:0.6046404838562012 12:0.8156198481065386 13:-0.9746835443037974 15:-1.0 17:-1.0 20:-1.0 21:-1.0 23:-1.0 24:-1.0 25:-1.0 33:-1.0 34:-1.0 35:-1.0 37:-1.0 
14.42175 7:-0.10838562250137329 8:-0.47553110122680664 9:0.25875985622406006 10:0.4206348657608032 11:-0.9985074120340869 12:0.9082125673416701 13:-0.9384615384615385 15:-1.0 17:-1.0 20:-1.0 21:-1.0 23:-1.0 24:-1.0 25:-1.0 33:-1.0 34:-1.0 35:-1.0 37:-1.0 
14.42175 7:-0.4679224491119385 8:-0.3270421028137207 9:-0.104084312915802 10:-1.0 11:0.6029629707336426 12:0.4082123873759571 13:-0.7894736842105263 15:-1.0 17:-1.0 20:-1.0 21:-1.0 23:-1.0 24:-1.0 25:-1.0 33:-1.0 34:-1.0 35:-1.0 37:-1.0 
14.42175 7:-1.0 8:-1.0 9:-1.0 10:-1.0 11:-1.0 12:-1.0 13:-1.0 15:-1.0 17:-1.0 20:-0.9984251968503937 21:0.2857142686843872 23:0.5714285373687744 24:-0.75 25:-0.6 33:-0.998300900900901 34:-1.0 35:-1.0 37:-1.0 
14.42175 7:-0.5492842197418213 8:0.12380146980285645 9:-0.7407407462596893 10:-1.0 11:1.0 12:0.8872785956819507 13:1.0 15:-1.0 17:-1.0 20:-1.0 21:-1.0 23:-1.0 24:-1.0 25:-1.0 33:-1.0 34:-1.0 35:-1.0 37:-1.0 
14.42175 7:-0.7713969498872757 8:-1.0 9:-0.5427938997745514 10:-1.0 11:0.6410458087921143 12:0.46698870931110203 13:-0.9512195121951219 15:-1.0 17:-1.0 20:-1.0 21:-1.0 23:-1.0 24:-1.0 25:-1.0 33:-1.0 34:-1.0 35:-1.0 37:-1.0 
14.42175 7:-0.10000002384185791 8:-1.0 9:0.7999999523162842 10:-0.6759259402751923 11:1.0 12:0.8590982446024384 13:1.0 15:-1.0 17:-1.0 20:-1.0 21:-1.0 23:-1.0 24:-1.0 25:-1.0 33:-1.0 34:-1.0 35:-1.0 37:-1.0 
14.42175 7:-0.35501807928085327 8:0.13778913021087646 9:-0.16515183448791504 10:0.5555555820465088 11:0.852103590965271 12:0.644927528407288 13:-0.9111111111111111 15:-1.0 17:-1.0 20:-1.0 21:-1.0 23:-1.0 24:-1.0 25:-1.0 33:-1.0 34:-1.0 35:-1.0 37:-1.0 
14.42175 7:-0.7455614805221558 8:0.13778913021087646 9:-0.94623863697052 10:-1.0 11:-0.1111111044883728 12:0.7882446636266858 13:-0.7777777777777778 15:-1.0 17:-1.0 20:-1.0 21:-1.0 23:-1.0 24:-1.0 25:-1.0 33:-1.0 34:-1.0 35:-1.0 37:-1.0 
14.42175 7:-0.3585742115974426 8:-0.6536634266376495 9:0.07504963874816895 10:-1.0 11:0.8472601175308228 12:0.8655394574225719 13:-0.9375 15:-1.0 17:-1.0 20:-1.0 21:-1.0 23:-1.0 24:-1.0 25:-1.0 33:-1.0 34:-1.0 35:-1.0 37:-1.0 
14.42175 7:-0.46056509017944336 8:-0.12123632431030273 9:-0.17220544815063477 10:-1.0 11:0.09489047527313232 12:0.2069243367753575 13:-0.7333333333333334 15:-1.0 17:-1.0 20:-1.0 21:-1.0 23:-1.0 24:-1.0 25:-1.0 33:-1.0 34:-1.0 35:-1.0 37:-1.0 
14.42175 7:0.28876984119415283 8:-0.037433922290802 9:1.0 10:-0.2888888716697693 11:-0.6725075542926788 12:0.4911433473694591 13:-0.8260869565217391 15:-1.0 17:-1.0 20:-1.0 21:-1.0 23:-1.0 24:-1.0 25:-1.0 33:-1.0 34:-1.0 35:-1.0 37:-1.0 
14.42175 7:-1.0 8:-1.0 9:-1.0 10:-1.0 11:-1.0 12:-1.0 13:-1.0 15:-0.25502647081890695 17:-0.4251968503937008 20:-1.0 21:-1.0 23:-1.0 24:-1.0 25:-1.0 33:-1.0 34:-0.2888888716697693 35:-0.24999998323619377 37:0.0 
14.42175 7:-0.22275596857070923 8:0.14272332191467285 9:-0.5882352888584137 10:-1.0 11:0.06172835826873779 12:0.8599034112020978 13:-0.8461538461538461 15:-1.0 17:-1.0 20:-1.0 21:-1.0 23:-1.0 24:-1.0 25:-1.0 33:-1.0 34:-1.0 35:-1.0 37:-1.0 
14.42175 7:-0.6842105388641357 8:-1.0 9:-0.3684210777282715 10:-1.0 11:0.3333333730697632 12:0.8534621983819644 13:0.33333333333333326 15:-1.0 17:-1.0 20:-1.0 21:-1.0 23:-1.0 24:-1.0 25:-1.0 33:-1.0 34:-1.0 35:-1.0 37:-1.0 
14.42175 7:-1.0 8:-1.0 9:-1.0 10:-1.0 11:-1.0 12:-1.0 13:-1.0 15:-1.0 17:-1.0 20:-0.9511811023622048 21:-0.619047611951828 23:-1.0 24:-0.75 25:-0.19999999999999996 33:-0.9936936936936936 34:-1.0 35:-1.0 37:-1.0 
14.42175 7:-0.6604273915290833 8:-0.2639881372451782 9:-0.7414330244064331 10:-1.0 11:0.49677419662475586 12:0.3204507877159244 13:-0.7142857142857143 15:-1.0 17:-1.0 20:-1.0 21:-1.0 23:-1.0 24:-1.0 25:-1.0 33:-1.0 34:-1.0 35:-1.0 37:-1.0 
14.42175 7:-0.5030176043510437 8:0.026226401329040527 9:-0.7390540838241577 10:-1.0 11:-0.9485498927533627 12:0.6972623975680154 13:-0.9852941176470589 15:-1.0 17:-1.0 20:-1.0 21:-1.0 23:-1.0 24:-1.0 25:-1.0 33:-1.0 34:-1.0 35:-1.0 37:-1.0 
14.42175 7:-0.37384462356567383 8:0.026226401329040527 9:-0.48070818185806274 10:0.5384615659713745 11:0.9373018741607666 12:0.7785829043850565 13:-0.9148936170212766 15:-1.0 17:-1.0 20:-1.0 21:-1.0 23:-1.0 24:-1.0 25:-1.0 33:-1.0 34:-1.0 35:-1.0 37:-1.0 
14.42175 7:-1.0 8:-1.0 9:-1.0 10:-1.0 11:-1.0 12:-1.0 13:-1.0 15:-1.0 17:-1.0 20:-0.999994908136483 21:-1.0 23:-1.0 24:-0.75 25:-0.6 33:-0.999436036036036 34:-1.0 35:-1.0 37:-1.0 
14.42175 7:-1.0 8:-1.0 9:-1.0 10:-1.0 11:-1.0 12:-1.0 13:-1.0 15:-1.0 17:-1.0 20:-0.14960629921259838 21:-0.8666666597127914 23:-1.0 24:-0.75 25:-0.19999999999999996 33:-0.9999961081081081 34:-1.0 35:-1.0 37:-1.0 
14.42175 7:-0.2053154706954956 8:-0.7290232479572296 9:0.3676607608795166 10:-1.0 11:0.808650016784668 12:0.7520128865048632 13:-0.9699248120300752 15:-1.0 17:-1.0 20:-1.0 21:-1.0 23:-1.0 24:-1.0 25:-1.0 33:-1.0 34:-1.0 35:-1.0 37:-1.0 
14.42175 7:0.0 8:-1.0 9:1.0 10:-1.0 11:1.0 12:0.6658615000670072 13:1.0 15:-1.0 17:-1.0 20:-1.0 21:-1.0 23:-1.0 24:-1.0 25:-1.0 33:-1.0 34:-1.0 35:-1.0 37:-1.0 
14.42175 7:-0.5516720414161682 8:-0.19351118803024292 9:-0.9098329022526741 10:-0.5999999940395355 11:-0.23407775163650513 12:0.4186794331943877 13:-0.9787234042553191 15:-1.0 17:-1.0 20:-1.0 21:-1.0 23:-1.0 24:-1.0 25:-1.0 33:-1.0 34:-1.0 35:-1.0 37:-1.0 
14.42175 7:-1.0 8:-1.0 9:-1.0 10:-1.0 11:-1.0 12:-1.0 13:-1.0 15:-1.0 17:-1.0 20:-0.9359580052493438 21:0.30000007152557373 23:-1.0 24:0.0 25:-0.5 33:-0.8794594594594595 34:-1.0 35:-1.0 37:-1.0 
14.42175 7:-1.0 8:-1.0 9:-1.0 10:-1.0 11:-1.0 12:-1.0 13:-1.0 15:-1.0 17:-1.0 20:-0.996482939632546 21:-1.0 23:-1.0 24:-0.75 25:-0.6 33:-0.9962702702702703 34:-1.0 35:-1.0 37:-1.0 
14.42175 7:-0.2102612853050232 8:-0.08695292472839355 9:0.4653465747833252 10:-1.0 11:0.9189189672470093 12:0.6972623975680154 13:0.33333333333333326 15:-1.0 17:-1.0 20:-1.0 21:-1.0 23:-1.0 24:-1.0 25:-1.0 33:-1.0 34:-1.0 35:-1.0 37:-1.0 
14.42175 7:0.07594966888427734 8:0.6550440788269043 9:-0.5031446516513824 10:-1.0 11:-0.9466666653752327 12:0.5088566526305409 13:-0.5555555555555556 15:-1.0 17:-1.0 20:-1.0 21:-1.0 23:-1.0 24:-1.0 25:-1.0 33:-1.0 34:-1.0 35:-1.0 37:-1.0 
14.42175 7:0.6132363080978394 8:0.6550440788269043 9:0.5714285373687744 10:0.3500000238418579 11:1.0 12:0.9694041491215093 13:1.0 15:-1.0 17:-1.0 20:-1.0 21:-1.0 23:-1.0 24:-1.0 25:-1.0 33:-1.0 34:-1.0 35:-1.0 37:-1.0 
14.42175 7:0.13127636909484863 8:0.6550440788269043 9:-0.3924914598464966 10:0.6875 11:-0.8863636329770088 12:0.8945249751017437 13:-0.19999999999999996 15:-1.0 17:-1.0 20:-1.0 21:-1.0 23:-1.0 24:-1.0 25:-1.0 33:-1.0 34:-1.0 35:-1.0 37:-1.0 
14.42175 7:-1.0 8:-1.0 9:-1.0 10:-1.0 11:-1.0 12:-1.0 13:-1.0 15:0.4142856750358548 17:-0.9608923884514435 20:-1.0 21:-1.0 23:-1.0 24:-1.0 25:-1.0 33:-1.0 34:0.3500000238418579 35:-1.0 37:0.16666666666666674 
14.42175 7:-1.0 8:-1.0 9:-1.0 10:-1.0 11:-1.0 12:-1.0 13:-1.0 15:-1.0 17:-1.0 20:-0.9608923884514435 21:0.3500000238418579 23:-1.0 24:-0.5 25:0.19999999999999996 33:-0.9999959279279279 34:-1.0 35:-1.0 37:-1.0 
14.42175 7:-0.6566866636276245 8:-0.3681674003601074 9:-0.43973982334136963 10:-1.0 11:0.3654736280441284 12:0.6988728507444761 13:-0.983402489626556 15:-1.0 17:-1.0 20:-1.0 21:-1.0 23:-1.0 24:-1.0 25:-1.0 33:-1.0 34:-1.0 35:-1.0 37:-1.0 
14.42175 7:-0.23906171321868896 8:-0.3544846773147583 9:0.11842942237854004 10:-0.5555555522441864 11:0.9495683908462524 12:0.9251207060030924 13:-0.8 15:-1.0 17:-1.0 20:-1.0 21:-1.0 23:-1.0 24:-1.0 25:-1.0 33:-1.0 34:-1.0 35:-1.0 37:-1.0 
14.42175 7:-0.7621634602546692 8:-0.3544846773147583 9:-0.927774004638195 10:-1.0 11:-0.7771739065647125 12:0.2858292238162785 13:-0.8571428571428572 15:-1.0 17:-1.0 20:-1.0 21:-1.0 23:-1.0 24:-1.0 25:-1.0 33:-1.0 34:-1.0 35:-1.0 37:-1.0 
14.42175 7:-1.0 8:-1.0 9:-1.0 10:-1.0 11:-1.0 12:-1.0 13:-1.0 15:-1.0 17:-1.0 20:-0.7532808398950132 21:-0.5555555522441864 23:-1.0 24:0.0 25:-0.36 33:-0.5027027027027027 34:-1.0 35:-1.0 37:-1.0 
14.42175 7:-1.0 8:-1.0 9:-1.0 10:-1.0 11:-1.0 12:-1.0 13:-1.0 15:-1.0 17:-1.0 20:-0.9982992125984252 21:-0.25 23:-1.0 24:-0.75 25:-0.6 33:-0.9964504504504504 34:-1.0 35:-1.0 37:-1.0 
14.42175 7:0.13417458534240723 8:-0.06498420238494873 9:0.3333333730697632 10:-0.7142857015132904 11:1.0 12:0.9299515856239069 13:1.0 15:-1.0 17:-1.0 20:-1.0 21:-1.0 23:-1.0 24:-1.0 25:-1.0 33:-1.0 34:-1.0 35:-1.0 37:-1.0 
14.42175 7:-0.32904326915740967 8:0.16246140003204346 9:-0.8205479383468628 10:0.0 11:-0.16853934526443481 12:0.7874394970270264 13:-0.8518518518518519 15:-1.0 17:-1.0 20:-1.0 21:-1.0 23:-1.0 24:-1.0 25:-1.0 33:-1.0 34:-1.0 35:-1.0 37:-1.0 
14.42175 7:-0.26416218280792236 8:-0.20762014389038086 9:-0.18864095211029053 10:0.5 11:0.7317104339599609 12:0.43639285843261133 13:-0.9393939393939394 15:-1.0 17:-1.0 20:-1.0 21:-1.0 23:-1.0 24:-1.0 25:-1.0 33:-1.0 34:-1.0 35:-1.0 37:-1.0 
14.42175 7:-0.6270432770252228 8:-0.20762014389038086 9:-0.9144031032919884 10:-1.0 11:-0.7346938848495483 12:0.9202898263822776 13:-0.9298245614035088 15:-1.0 17:-1.0 20:-1.0 21:-1.0 23:-1.0 24:-1.0 25:-1.0 33:-1.0 34:-1.0 35:-1.0 37:-1.0 
14.42175 7:-0.578468382358551 8:-0.5731371641159058 9:-0.5837996304035187 10:-0.8181818127632141 11:-0.8126934915781021 12:0.12399349675899751 13:-0.9803921568627451 15:-1.0 17:-1.0 20:-1.0 21:-1.0 23:-1.0 24:-1.0 25:-1.0 33:-1.0 34:-1.0 35:-1.0 37:-1.0 
14.42175 7:-1.0 8:-1.0 9:-1.0 10:-1.0 11:-1.0 12:-1.0 13:-1.0 15:0.038095200034768295 17:-0.9204724409448819 20:-1.0 21:-1.0 23:-1.0 24:-1.0 25:-1.0 33:-1.0 34:-0.8181818127632141 35:-0.7954545408825984 37:-0.5 
14.42175 7:-0.3245044946670532 8:-0.12880563735961914 9:-0.5202033519744873 10:0.4285714626312256 11:-0.9209545105695724 12:0.862318911001076 13:-0.8857142857142857 15:-1.0 17:-1.0 20:-1.0 21:-1.0 23:-1.0 24:-1.0 25:-1.0 33:-1.0 34:-1.0 35:-1.0 37:-1.0 
14.42175 7:-0.5762922763824463 8:-0.17905765771865845 9:-0.8709090948104858 10:-0.6666666567325592 11:0.6615384817123413 12:0.9235103728037735 13:-0.33333333333333337 15:-1.0 17:-1.0 20:-1.0 21:-1.0 23:-1.0 24:-1.0 25:-1.0 33:-1.0 34:-1.0 35:-1.0 37:-1.0 
14.42175 7:-0.5959892570972443 8:-0.17905765771865845 9:-0.91030303388834 10:-1.0 11:1.0 12:0.7673108119441083 13:0.0 15:-1.0 17:-1.0 20:-1.0 21:-1.0 23:-1.0 24:-1.0 25:-1.0 33:-1.0 34:-1.0 35:-1.0 37:-1.0 
14.42175 7:-0.5005652904510498 8:0.7376799583435059 9:-0.6962025463581085 10:-1.0 11:0.5 12:0.7681158585666259 13:0.33333333333333326 15:-1.0 17:-1.0 20:-1.0 21:-1.0 23:-1.0 24:-1.0 25:-1.0 33:-1.0 34:-1.0 35:-1.0 37:-1.0 
14.42175 7:-0.4427843689918518 8:0.026361584663391113 9:-0.9119302704930305 10:0.6666666269302368 11:-0.22065728902816772 12:0.597423538867375 13:-0.95 15:-1.0 17:-1.0 20:-1.0 21:-1.0 23:-1.0 24:-1.0 25:-1.0 33:-1.0 34:-1.0 35:-1.0 37:-1.0 
14.42175 7:0.10657787322998047 8:0.12631285190582275 9:0.3684210777282715 10:0.0 11:0.423076868057251 12:0.3816424894729056 13:-0.33333333333333337 15:-1.0 17:-1.0 20:-1.0 21:-1.0 23:-1.0 24:-1.0 25:-1.0 33:-1.0 34:-1.0 35:-1.0 37:-1.0 
14.42175 7:0.1592094898223877 8:0.12631285190582275 9:0.4736841917037964 10:-1.0 11:0.14285719394683838 12:0.6739130460864595 13:0.33333333333333326 15:-1.0 17:-1.0 20:-1.0 21:-1.0 23:-1.0 24:-1.0 25:-1.0 33:-1.0 34:-1.0 35:-1.0 37:-1.0 
14.42175 7:-1.0 8:-1.0 9:-1.0 10:-1.0 11:-1.0 12:-1.0 13:-1.0 15:0.16402116666425215 17:-0.9843307086614174 20:-1.0 21:-1.0 23:-1.0 24:-1.0 25:-1.0 33:-1.0 34:0.0 35:0.12499999161809683 37:-0.5 
14.42175 7:-1.0 8:-1.0 9:-1.0 10:-1.0 11:-1.0 12:-1.0 13:-1.0 15:-1.0 17:-1.0 20:-0.9843307086614174 21:0.11111116409301758 23:0.0 24:-0.75 25:-0.6 33:-0.992990990990991 34:-1.0 35:-1.0 37:-1.0 
14.42175 7:0.0898125171661377 8:-0.18018406629562378 9:0.6330809593200684 10:-1.0 11:0.6681034564971924 12:0.6006442052660128 13:-0.7142857142857143 15:-1.0 17:-1.0 20:-1.0 21:-1.0 23:-1.0 24:-1.0 25:-1.0 33:-1.0 34:-1.0 35:-1.0 37:-1.0 
14.42175 7:-0.7222671508789062 8:-1.0 9:-0.4445343017578125 10:-1.0 11:0.5233312845230103 12:0.409822720575276 13:-0.9493670886075949 15:-1.0 17:-1.0 20:-1.0 21:-1.0 23:-1.0 24:-1.0 25:-1.0 33:-1.0 34:-1.0 35:-1.0 37:-1.0 
14.42175 7:-0.5218081474304199 8:0.5580224990844727 9:-0.7113402187824249 10:-1.0 11:1.0 12:0.9235103728037735 13:1.0 15:-1.0 17:-1.0 20:-1.0 21:-1.0 23:-1.0 24:-1.0 25:-1.0 33:-1.0 34:-1.0 35:-1.0 37:-1.0 
14.42175 7:-0.2650712728500366 8:0.5580224990844727 9:-0.1978664994239807 10:0.0 11:0.7889610528945923 12:0.442833951275603 13:-0.9183673469387755 15:-1.0 17:-1.0 20:-1.0 21:-1.0 23:-1.0 24:-1.0 25:-1.0 33:-1.0 34:-1.0 35:-1.0 37:-1.0 
14.42175 7:-1.0 8:-1.0 9:-1.0 10:-1.0 11:-1.0 12:-1.0 13:-1.0 15:-1.0 17:-1.0 20:-0.9999949343832021 21:0.0 23:-1.0 24:-0.5 25:-0.4 33:-0.9479279279279279 34:-1.0 35:-1.0 37:-1.0 
14.42175 7:-0.2563234567642212 8:0.20906412601470947 9:-0.2820512652397156 10:-1.0 11:-0.9649122804403305 12:0.590177159447582 13:-0.7142857142857143 15:-1.0 17:-1.0 20:-1.0 21:-1.0 23:-1.0 24:-1.0 25:-1.0 33:-1.0 34:-1.0 35:-1.0 37:-1.0 
14.42175 7:-0.5239796936511993 8:0.24636518955230713 9:-0.9827332850545645 10:-1.0 11:-0.7674418538808823 12:0.9259258726027517 13:-0.6 15:-1.0 17:-1.0 20:-1.0 21:-1.0 23:-1.0 24:-1.0 25:-1.0 33:-1.0 34:-1.0 35:-1.0 37:-1.0 
14.42175 7:-1.0 8:-1.0 9:-1.0 10:-1.0 11:-1.0 12:-1.0 13:-1.0 15:-1.0 17:-1.0 20:-0.9999947244094488 21:-0.46666663885116577 23:-1.0 24:0.0 25:-0.4 33:-0.9983657657657657 34:-1.0 35:-1.0 37:-1.0 
14.42175 7:-0.3890882730484009 8:0.08327865600585938 9:-0.4281437397003174 10:-1.0 11:-0.365517258644104 12:0.5080514860308813 13:-0.8857142857142857 15:-1.0 17:-1.0 20:-1.0 21:-1.0 23:-1.0 24:-1.0 25:-1.0 33:-1.0 34:-1.0 35:-1.0 37:-1.0 
14.42175 7:-0.5911949574947357 8:-1.0 9:-0.18238991498947144 10:-1.0 11:0.384615421295166 12:0.3164249547176272 13:0.33333333333333326 15:-1.0 17:-1.0 20:-1.0 21:-1.0 23:-1.0 24:-1.0 25:-1.0 33:-1.0 34:-1.0 35:-1.0 37:-1.0 
14.42175 7:0.42331528663635254 8:1.0 9:0.8466305732727051 10:-0.10000002384185791 11:0.9763911962509155 12:0.9130434469624846 13:-0.19999999999999996 15:-1.0 17:-1.0 20:-1.0 21:-1.0 23:-1.0 24:-1.0 25:-1.0 33:-1.0 34:-1.0 35:-1.0 37:-1.0 
14.42175 7:-0.306043803691864 8:1.0 9:-0.6120875775814056 10:-1.0 11:-0.5492487549781799 12:0.39130424871453484 13:-0.9069767441860466 15:-1.0 17:-1.0 20:-1.0 21:-1.0 23:-1.0 24:-1.0 25:-1.0 33:-1.0 34:-1.0 35:-1.0 37:-1.0 
14.42175 7:-1.0 8:-1.0 9:-1.0 10:-1.0 11:-1.0 12:-1.0 13:-1.0 15:-1.0 17:-1.0 20:-0.9999937007874016 21:-0.10000002384185791 23:-1.0 24:-0.5 25:-0.6 33:-0.9999965225225225 34:-1.0 35:-1.0 37:-1.0 
