svm_type c_svc
kernel_type rbf
gamma 0.03
nr_class 2
total_sv 5234
rho -3.479501494131217
label 1 -1
nr_sv 3104 2130
SV
19.0 1:1.0 2:-1.0 3:-1.0 6:-0.7999999970197678 7:-0.2345549464225769 9:-0.8024432212114334 10:-1.0 11:-0.9827586207538843 12:0.9051827544530466 13:-0.9916492693110647 14:-0.9977907431590266 15:-1.0 16:-1.0 17:-1.0 18:-1.0 19:-1.0 20:-1.0 21:-1.0 22:-1.0 23:-1.0 24:-1.0 25:-1.0 33:-1.0 34:-1.0 35:-1.0 36:-1.0 37:-1.0 
19.0 1:1.0 2:-1.0 3:-1.0 6:-0.5200000107288361 7:-0.2995671033859253 9:-0.9324675351381302 10:-1.0 11:1.0 12:0.7645640443416417 13:0.0 14:-0.9977907431590266 15:-1.0 16:-1.0 17:-1.0 18:-1.0 19:-1.0 20:-1.0 21:-1.0 22:-1.0 23:-1.0 24:-1.0 25:-1.0 33:-1.0 34:-1.0 35:-1.0 36:-1.0 37:-1.0 
19.0 1:1.0 2:-1.0 3:-1.0 6:-0.24000000953674316 7:-0.6388466954231262 9:-0.8168067187070847 10:-0.5 11:-0.14018690586090088 12:0.4993973680561725 13:-0.6 14:-0.9997795487395902 15:-1.0 16:-1.0 17:-1.0 18:-1.0 19:-1.0 20:-1.0 21:-1.0 22:-1.0 23:-1.0 24:-1.0 25:-1.0 33:-1.0 34:-1.0 35:-1.0 36:-1.0 37:-1.0 
19.0 1:-1.0 2:1.0 3:-1.0 6:-1.0 7:-1.0 9:-1.0 10:-1.0 11:-1.0 12:-1.0 13:-1.0 14:-1.0 15:-0.27777785062789917 16:-0.5102040816326531 17:-0.21387283236994215 18:-0.9894760549043948 19:-1.0 20:-1.0 21:-1.0 22:-1.0 23:-1.0 24:-1.0 25:-1.0 33:-1.0 34:-0.5 35:-0.5 36:-0.4285714285714286 37:-0.6000000000000001 
19.0 1:-1.0 2:-1.0 3:1.0 6:-1.0 7:-1.0 9:-1.0 10:-1.0 11:-1.0 12:-1.0 13:-1.0 14:-1.0 15:-1.0 16:-1.0 17:-1.0 18:-1.0 19:-1.0 20:-0.6 21:-0.27777785062789917 22:-0.5 23:-1.0 24:-0.6 25:-0.4285714285714286 33:-0.9894760549043948 34:-1.0 35:-1.0 36:-1.0 37:-1.0 
19.0 1:1.0 2:-1.0 3:-1.0 6:-0.4399999976158142 7:-0.1837638020515442 9:-0.7924388498067856 10:-1.0 11:-0.9571428559720516 12:0.688228190243469 13:-0.8095238095238095 14:-0.99954022938788 15:-1.0 16:-1.0 17:-1.0 18:-1.0 19:-1.0 20:-1.0 21:-1.0 22:-1.0 23:-1.0 24:-1.0 25:-1.0 33:-1.0 34:-1.0 35:-1.0 36:-1.0 37:-1.0 
19.0 1:-1.0 2:-1.0 3:1.0 6:-1.0 7:-1.0 9:-1.0 10:-1.0 11:-1.0 12:-1.0 13:-1.0 14:-1.0 15:-1.0 16:-1.0 17:-1.0 18:-1.0 19:-0.7777777777777778 20:-0.9989082352941177 21:-0.4166666865348816 22:-0.4166666865348816 23:-0.875 24:-0.4 25:-0.5238095238095237 33:-0.9998300336300932 34:-1.0 35:-1.0 36:-1.0 37:-1.0 
19.0 1:1.0 2:-1.0 3:-1.0 6:0.12000000476837158 7:0.12051284313201904 9:0.9076923131942749 10:-0.5999999940395355 11:0.9112902879714966 12:0.35315393348753754 13:0.0 14:-0.9975226469323186 15:-1.0 16:-1.0 17:-1.0 18:-1.0 19:-1.0 20:-1.0 21:-1.0 22:-1.0 23:-1.0 24:-1.0 25:-1.0 33:-1.0 34:-1.0 35:-1.0 36:-1.0 37:-1.0 
19.0 1:1.0 2:-1.0 3:-1.0 6:-0.2799999713897705 7:-0.3198198080062866 9:0.027027010917663574 10:-1.0 11:0.5789474248886108 12:0.7083166800332099 13:0.33333333333333326 14:-0.9975226469323186 15:-1.0 16:-1.0 17:-1.0 18:-1.0 19:-1.0 20:-1.0 21:-1.0 22:-1.0 23:-1.0 24:-1.0 25:-1.0 33:-1.0 34:-1.0 35:-1.0 36:-1.0 37:-1.0 
19.0 1:1.0 2:-1.0 3:-1.0 6:-0.2799999713897705 7:0.23333334922790527 9:0.7999999523162842 10:-0.19999998807907104 11:1.0 12:0.6649257432440685 13:1.0 14:-0.9998749161381042 15:-1.0 16:-1.0 17:-1.0 18:-1.0 19:-1.0 20:-1.0 21:-1.0 22:-1.0 23:-1.0 24:-1.0 25:-1.0 33:-1.0 34:-1.0 35:-1.0 36:-1.0 37:-1.0 
19.0 1:1.0 2:-1.0 3:-1.0 6:-0.8400000035762787 7:0.3333333730697632 9:1.0 10:-0.8571428507566452 11:1.0 12:0.9525913173584581 13:1.0 14:-0.9998749161381042 15:-1.0 16:-1.0 17:-1.0 18:-1.0 19:-1.0 20:-1.0 21:-1.0 22:-1.0 23:-1.0 24:-1.0 25:-1.0 33:-1.0 34:-1.0 35:-1.0 36:-1.0 37:-1.0 
19.0 1:1.0 2:-1.0 3:-1.0 6:-0.7199999988079071 7:-0.506903350353241 9:-0.6804733872413635 10:-1.0 11:-0.7999999970197678 12:0.8810767582831658 13:-0.5 14:-0.9998749161381042 15:-1.0 16:-1.0 17:-1.0 18:-1.0 19:-1.0 20:-1.0 21:-1.0 22:-1.0 23:-1.0 24:-1.0 25:-1.0 33:-1.0 34:-1.0 35:-1.0 36:-1.0 37:-1.0 
19.0 1:1.0 2:-1.0 3:-1.0 6:-0.3999999761581421 7:-0.7624059319496155 9:-0.8077673465013504 10:-1.0 11:-0.1703510880470276 12:0.8352752937187145 13:-0.9974193548387097 14:-0.9967881294475207 15:-1.0 16:-1.0 17:-1.0 18:-1.0 19:-1.0 20:-1.0 21:-1.0 22:-1.0 23:-1.0 24:-1.0 25:-1.0 33:-1.0 34:-1.0 35:-1.0 36:-1.0 37:-1.0 
19.0 1:-1.0 2:-1.0 3:1.0 6:-1.0 7:-1.0 9:-1.0 10:-1.0 11:-1.0 12:-1.0 13:-1.0 14:-1.0 15:-1.0 16:-1.0 17:-1.0 18:-1.0 19:-0.5555555555555556 20:-0.7623529411764706 21:-1.0 22:-1.0 23:-1.0 24:-0.19999999999999996 25:-0.7142857142857143 33:-0.9999992270022628 34:-1.0 35:-1.0 36:-1.0 37:-1.0 
19.0 1:1.0 2:-1.0 3:-1.0 6:0.6399999856948853 7:-0.6983515024185181 9:-0.7958105355501175 10:-1.0 11:-0.6330275237560272 12:0.12494980062736949 13:-0.9802955665024631 14:-0.9997013476952364 15:-1.0 16:-1.0 17:-1.0 18:-1.0 19:-1.0 20:-1.0 21:-1.0 22:-1.0 23:-1.0 24:-1.0 25:-1.0 33:-1.0 34:-1.0 35:-1.0 36:-1.0 37:-1.0 
19.0 1:-1.0 2:-1.0 3:1.0 6:-1.0 7:-1.0 9:-1.0 10:-1.0 11:-1.0 12:-1.0 13:-1.0 14:-1.0 15:-1.0 16:-1.0 17:-1.0 18:-1.0 19:-0.11111111111111116 20:-0.9898117647058824 21:0.03333330154418945 22:0.03333330154418945 23:-1.0 24:-0.6 25:-0.5714285714285714 33:-0.9999658204615036 34:-1.0 35:-1.0 36:-1.0 37:-1.0 
19.0 1:-1.0 2:1.0 3:-1.0 6:-1.0 7:-1.0 9:-1.0 10:-1.0 11:-1.0 12:-1.0 13:-1.0 14:-1.0 15:-0.875 16:-0.9591836734693877 17:-0.9999077456647398 18:-0.9999916646629553 19:-1.0 20:-1.0 21:-1.0 22:-1.0 23:-1.0 24:-1.0 25:-1.0 33:-1.0 34:-0.875 35:-0.875 36:-0.7142857142857143 37:-0.33333333333333337 
19.0 1:1.0 2:-1.0 3:-1.0 6:-0.880000002682209 7:-0.5999999940395355 9:-0.19999998807907104 10:-1.0 11:1.0 12:0.9855363544036195 13:1.0 14:-0.9999121273764819 15:-1.0 16:-1.0 17:-1.0 18:-1.0 19:-1.0 20:-1.0 21:-1.0 22:-1.0 23:-1.0 24:-1.0 25:-1.0 33:-1.0 34:-1.0 35:-1.0 36:-1.0 37:-1.0 
19.0 1:-1.0 2:-1.0 3:1.0 6:-1.0 7:-1.0 9:-1.0 10:-1.0 11:-1.0 12:-1.0 13:-1.0 14:-1.0 15:-1.0 16:-1.0 17:-1.0 18:-1.0 19:-1.0 20:-0.9107058823529411 21:-1.0 22:-1.0 23:-1.0 24:-0.8 25:0.1428571428571428 33:-0.9758321791831013 34:-1.0 35:-1.0 36:-1.0 37:-1.0 
19.0 1:1.0 2:-1.0 3:-1.0 6:-0.07999998331069946 7:-0.4485456943511963 9:-0.6985446512699127 10:-1.0 11:0.5317848920822144 12:0.5154681119935132 13:-0.9929078014184397 14:-0.9717983783355657 15:-1.0 16:-1.0 17:-1.0 18:-1.0 19:-1.0 20:-1.0 21:-1.0 22:-1.0 23:-1.0 24:-1.0 25:-1.0 33:-1.0 34:-1.0 35:-1.0 36:-1.0 37:-1.0 
19.0 1:1.0 2:-1.0 3:-1.0 6:-0.24000000953674316 7:-0.7272727191448212 9:-0.45454543828964233 10:-0.625 11:1.0 12:0.5797509680067454 13:1.0 14:-0.9999741444271752 15:-1.0 16:-1.0 17:-1.0 18:-1.0 19:-1.0 20:-1.0 21:-1.0 22:-1.0 23:-1.0 24:-1.0 25:-1.0 33:-1.0 34:-1.0 35:-1.0 36:-1.0 37:-1.0 
19.0 1:-1.0 2:1.0 3:-1.0 6:-1.0 7:-1.0 9:-1.0 10:-1.0 11:-1.0 12:-1.0 13:-1.0 14:-1.0 15:-0.625 16:-0.7551020408163265 17:-0.9685549132947977 18:-0.9986216425892481 19:-1.0 20:-1.0 21:-1.0 22:-1.0 23:-1.0 24:-1.0 25:-1.0 33:-1.0 34:-0.625 35:-0.625 36:-0.7142857142857143 37:-0.5 
19.0 1:-1.0 2:-1.0 3:1.0 6:-1.0 7:-1.0 9:-1.0 10:-1.0 11:-1.0 12:-1.0 13:-1.0 14:-1.0 15:-1.0 16:-1.0 17:-1.0 18:-1.0 19:-1.0 20:-0.984 21:-0.625 22:-0.625 23:-0.625 24:-0.8 25:-0.5714285714285714 33:-0.9986216425892481 34:-1.0 35:-1.0 36:-1.0 37:-1.0 
19.0 1:1.0 2:-1.0 3:-1.0 6:0.31578946113586426 7:-0.4420243501663208 9:0.1159512996673584 10:-1.0 11:0.8456220626831055 12:0.4022919650590815 13:0.0 14:-0.9905589322841571 15:-1.0 16:-1.0 17:-1.0 18:-1.0 19:-1.0 20:-1.0 21:-1.0 22:-1.0 23:-1.0 24:-1.0 25:-1.0 33:-1.0 34:-1.0 35:-1.0 36:-1.0 37:-1.0 
19.0 1:1.0 2:-1.0 3:-1.0 6:-0.880000002682209 7:-0.4242566227912903 9:-0.22661453485488892 10:0.3333333730697632 11:0.95460045337677 12:0.9300924195295377 13:-0.9871382636655949 14:1.0 15:-1.0 16:-1.0 17:-1.0 18:-1.0 19:-1.0 20:-1.0 21:-1.0 22:-1.0 23:-1.0 24:-1.0 25:-1.0 33:-1.0 34:-1.0 35:-1.0 36:-1.0 37:-1.0 
19.0 1:1.0 2:-1.0 3:-1.0 6:-0.1600000262260437 7:-0.7468381226062775 9:-0.8400190323591232 10:-1.0 11:0.5529263019561768 12:0.6110887869748163 13:-0.95 14:-0.9517217682746614 15:-1.0 16:-1.0 17:-1.0 18:-1.0 19:-1.0 20:-1.0 21:-1.0 22:-1.0 23:-1.0 24:-1.0 25:-1.0 33:-1.0 34:-1.0 35:-1.0 36:-1.0 37:-1.0 
19.0 1:1.0 2:-1.0 3:-1.0 6:-0.7999999970197678 7:-0.5834996402263641 9:-0.5451005101203918 10:-1.0 11:0.914043664932251 12:0.9421454176144779 13:-0.9603960396039604 14:1.0 15:-1.0 16:-1.0 17:-1.0 18:-1.0 19:-1.0 20:-1.0 21:-1.0 22:-1.0 23:-1.0 24:-1.0 25:-1.0 33:-1.0 34:-1.0 35:-1.0 36:-1.0 37:-1.0 
19.0 1:1.0 2:-1.0 3:-1.0 6:0.3999999761581421 7:-0.597484290599823 9:-0.194968581199646 10:-0.7142857015132904 11:1.0 12:0.29770987887732536 13:1.0 14:-0.9996705326724782 15:-1.0 16:-1.0 17:-1.0 18:-1.0 19:-1.0 20:-1.0 21:-1.0 22:-1.0 23:-1.0 24:-1.0 25:-1.0 33:-1.0 34:-1.0 35:-1.0 36:-1.0 37:-1.0 
19.0 1:1.0 2:-1.0 3:-1.0 6:-0.3199999928474426 7:-0.4677157998085022 9:-0.3054393529891968 10:-1.0 11:0.8976744413375854 12:0.6729609954766085 13:-0.75 14:-0.9898158671385335 15:-1.0 16:-1.0 17:-1.0 18:-1.0 19:-1.0 20:-1.0 21:-1.0 22:-1.0 23:-1.0 24:-1.0 25:-1.0 33:-1.0 34:-1.0 35:-1.0 36:-1.0 37:-1.0 
19.0 1:1.0 2:-1.0 3:-1.0 6:-0.7199999988079071 7:-0.23758864402770996 9:-0.8085106313228607 10:-1.0 11:0.3333333730697632 12:0.8754520338259357 13:-0.19999999999999996 14:-0.9996438549712404 15:-1.0 16:-1.0 17:-1.0 18:-1.0 19:-1.0 20:-1.0 21:-1.0 22:-1.0 23:-1.0 24:-1.0 25:-1.0 33:-1.0 34:-1.0 35:-1.0 36:-1.0 37:-1.0 
19.0 1:1.0 2:-1.0 3:-1.0 6:-0.3199999928474426 7:-0.4071507453918457 9:-0.2515382170677185 10:-1.0 11:0.7931315898895264 12:0.6086782591995066 13:-0.9444444444444444 14:-0.9365927256048134 15:-1.0 16:-1.0 17:-1.0 18:-1.0 19:-1.0 20:-1.0 21:-1.0 22:-1.0 23:-1.0 24:-1.0 25:-1.0 33:-1.0 34:-1.0 35:-1.0 36:-1.0 37:-1.0 
19.0 1:1.0 2:-1.0 3:-1.0 6:-0.880000002682209 7:-0.7151319682598114 9:-0.8675007075071335 10:0.5 11:0.517241358757019 12:0.9236641459018273 13:-0.8 14:-0.9365927256048134 15:-1.0 16:-1.0 17:-1.0 18:-1.0 19:-1.0 20:-1.0 21:-1.0 22:-1.0 23:-1.0 24:-1.0 25:-1.0 33:-1.0 34:-1.0 35:-1.0 36:-1.0 37:-1.0 
19.0 1:-1.0 2:1.0 3:-1.0 6:-1.0 7:-1.0 9:-1.0 10:-1.0 11:-1.0 12:-1.0 13:-1.0 14:-1.0 15:-0.5666666626930237 16:-1.0 17:-0.9979838150289018 18:-0.999913852661828 19:-1.0 20:-1.0 21:-1.0 22:-1.0 23:-1.0 24:-1.0 25:-1.0 33:-1.0 34:-0.5666666626930237 35:-1.0 36:-0.1428571428571429 37:-0.5555555555555556 
19.0 1:-1.0 2:-1.0 3:1.0 6:-1.0 7:-1.0 9:-1.0 10:-1.0 11:-1.0 12:-1.0 13:-1.0 14:-1.0 15:-1.0 16:-1.0 17:-1.0 18:-1.0 19:-1.0 20:-0.9989741176470588 21:-0.5666666626930237 22:-0.5666666626930237 23:-1.0 24:-0.4 25:-0.6190476190476191 33:-0.999913852661828 34:-1.0 35:-1.0 36:-1.0 37:-1.0 
19.0 1:1.0 2:-1.0 3:-1.0 6:0.20000004768371582 7:-0.4900782108306885 9:-0.20739680528640747 10:-1.0 11:0.8551774024963379 12:0.3716352052001881 13:-0.9636363636363636 14:-0.9011856299788501 15:-1.0 16:-1.0 17:-1.0 18:-1.0 19:-1.0 20:-1.0 21:-1.0 22:-1.0 23:-1.0 24:-1.0 25:-1.0 33:-1.0 34:-1.0 35:-1.0 36:-1.0 37:-1.0 
19.0 1:1.0 2:-1.0 3:-1.0 6:-0.760000005364418 7:-0.5618749260902405 9:-0.37843549251556396 10:-1.0 11:0.010909080505371094 12:0.8248291545024737 13:-0.8 14:-0.9985993435389467 15:-1.0 16:-1.0 17:-1.0 18:-1.0 19:-1.0 20:-1.0 21:-1.0 22:-1.0 23:-1.0 24:-1.0 25:-1.0 33:-1.0 34:-1.0 35:-1.0 36:-1.0 37:-1.0 
19.0 1:1.0 2:-1.0 3:-1.0 6:-0.880000002682209 7:0.2116391658782959 9:0.3333333730697632 10:-0.4285714030265808 11:1.0 12:0.9606268090632588 13:1.0 14:-0.9979265809297276 15:-1.0 16:-1.0 17:-1.0 18:-1.0 19:-1.0 20:-1.0 21:-1.0 22:-1.0 23:-1.0 24:-1.0 25:-1.0 33:-1.0 34:-1.0 35:-1.0 36:-1.0 37:-1.0 
19.0 1:1.0 2:-1.0 3:-1.0 6:0.2799999713897705 7:0.43521642684936523 9:0.7804877758026123 10:-1.0 11:0.7472527027130127 12:0.31619115058997593 13:-0.6923076923076923 14:-0.9979265809297276 15:-1.0 16:-1.0 17:-1.0 18:-1.0 19:-1.0 20:-1.0 21:-1.0 22:-1.0 23:-1.0 24:-1.0 25:-1.0 33:-1.0 34:-1.0 35:-1.0 36:-1.0 37:-1.0 
19.0 1:1.0 2:-1.0 3:-1.0 6:-0.19999998807907104 7:-0.8748674392700195 9:-0.7497348785400391 10:-1.0 11:0.1504424810409546 12:0.541181206504354 13:-0.9428571428571428 14:-0.9994464581783935 15:-1.0 16:-1.0 17:-1.0 18:-1.0 19:-1.0 20:-1.0 21:-1.0 22:-1.0 23:-1.0 24:-1.0 25:-1.0 33:-1.0 34:-1.0 35:-1.0 36:-1.0 37:-1.0 
19.0 1:1.0 2:-1.0 3:-1.0 6:-0.7999999970197678 7:-0.0960531234741211 9:-0.2820512652397156 10:-1.0 11:-0.7134502828121185 12:0.9292888703590576 13:-0.7142857142857143 14:-0.9979265809297276 15:-1.0 16:-1.0 17:-1.0 18:-1.0 19:-1.0 20:-1.0 21:-1.0 22:-1.0 23:-1.0 24:-1.0 25:-1.0 33:-1.0 34:-1.0 35:-1.0 36:-1.0 37:-1.0 
19.0 1:1.0 2:-1.0 3:-1.0 6:-0.880000002682209 7:-0.26827502250671387 9:0.27710843086242676 10:-1.0 11:-0.9230769202113152 12:0.946163043730748 13:-0.6363636363636364 14:-0.9997696754858548 15:-1.0 16:-1.0 17:-1.0 18:-1.0 19:-1.0 20:-1.0 21:-1.0 22:-1.0 23:-1.0 24:-1.0 25:-1.0 33:-1.0 34:-1.0 35:-1.0 36:-1.0 37:-1.0 
19.0 1:-1.0 2:-1.0 3:1.0 6:-1.0 7:-1.0 9:-1.0 10:-1.0 11:-1.0 12:-1.0 13:-1.0 14:-1.0 15:-1.0 16:-1.0 17:-1.0 18:-1.0 19:-1.0 20:-0.9952588235294118 21:-0.055555522441864014 22:-0.055555522441864014 23:-1.0 24:-0.6 25:-0.7142857142857143 33:-0.9989848583934328 34:-1.0 35:-1.0 36:-1.0 37:-1.0 
19.0 1:1.0 2:-1.0 3:-1.0 6:-0.8400000035762787 7:-0.6843332052230835 9:-0.9254329577088356 10:0.4285714626312256 11:-0.4301369786262512 12:0.9300924195295377 13:-0.9069767441860466 14:-0.9294435708733131 15:-1.0 16:-1.0 17:-1.0 18:-1.0 19:-1.0 20:-1.0 21:-1.0 22:-1.0 23:-1.0 24:-1.0 25:-1.0 33:-1.0 34:-1.0 35:-1.0 36:-1.0 37:-1.0 
19.0 1:1.0 2:-1.0 3:-1.0 6:-0.48000001907348633 7:-0.35062897205352783 9:-0.25802457332611084 10:-1.0 11:0.2598724365234375 12:0.6729609954766085 13:-0.9818181818181818 14:-0.9294435708733131 15:-1.0 16:-1.0 17:-1.0 18:-1.0 19:-1.0 20:-1.0 21:-1.0 22:-1.0 23:-1.0 24:-1.0 25:-1.0 33:-1.0 34:-1.0 35:-1.0 36:-1.0 37:-1.0 
19.0 1:1.0 2:-1.0 3:-1.0 6:-0.6399999856948853 7:-0.7952516078948975 9:-0.6537280082702637 10:-1.0 11:0.9231712818145752 12:0.832060977300664 13:-0.8787878787878788 14:-0.9797867490157961 15:-1.0 16:-1.0 17:-1.0 18:-1.0 19:-1.0 20:-1.0 21:-1.0 22:-1.0 23:-1.0 24:-1.0 25:-1.0 33:-1.0 34:-1.0 35:-1.0 36:-1.0 37:-1.0 
19.0 1:1.0 2:-1.0 3:-1.0 6:-0.4399999976158142 7:-0.9953205734491348 9:-0.9906411468982697 10:-1.0 11:-0.8656716346740723 12:0.7115307569789999 13:-0.8461538461538461 14:-0.9989631628201854 15:-1.0 16:-1.0 17:-1.0 18:-1.0 19:-1.0 20:-1.0 21:-1.0 22:-1.0 23:-1.0 24:-1.0 25:-1.0 33:-1.0 34:-1.0 35:-1.0 36:-1.0 37:-1.0 
19.0 1:1.0 2:-1.0 3:-1.0 6:-0.4399999976158142 7:-0.32028400897979736 9:-0.2583303451538086 10:-1.0 11:0.9015713930130005 12:0.6842104443910688 13:-0.9285714285714286 14:-0.8940575253608248 15:-1.0 16:-1.0 17:-1.0 18:-1.0 19:-1.0 20:-1.0 21:-1.0 22:-1.0 23:-1.0 24:-1.0 25:-1.0 33:-1.0 34:-1.0 35:-1.0 36:-1.0 37:-1.0 
19.0 1:1.0 2:-1.0 3:-1.0 6:0.15999996662139893 7:-0.6670177280902863 9:-0.9517977871000767 10:0.3333333730697632 11:0.7297297716140747 12:0.4993973680561725 13:-0.6 14:-0.8940575253608248 15:-1.0 16:-1.0 17:-1.0 18:-1.0 19:-1.0 20:-1.0 21:-1.0 22:-1.0 23:-1.0 24:-1.0 25:-1.0 33:-1.0 34:-1.0 35:-1.0 36:-1.0 37:-1.0 
19.0 1:1.0 2:-1.0 3:-1.0 6:0.20000004768371582 7:-0.797476053237915 9:-0.9568889141082764 10:-1.0 11:-0.6561514139175415 12:0.37886702799837835 13:-0.9487179487179487 14:-0.9175710682524125 15:-1.0 16:-1.0 17:-1.0 18:-1.0 19:-1.0 20:-1.0 21:-1.0 22:-1.0 23:-1.0 24:-1.0 25:-1.0 33:-1.0 34:-1.0 35:-1.0 36:-1.0 37:-1.0 
19.0 1:1.0 2:-1.0 3:-1.0 6:-0.7199999988079071 7:-0.5346783101558685 9:-0.43129342794418335 10:0.5 11:0.7529935836791992 12:0.8714344077096658 13:-0.9708029197080292 14:-0.9175710682524125 15:-1.0 16:-1.0 17:-1.0 18:-1.0 19:-1.0 20:-1.0 21:-1.0 22:-1.0 23:-1.0 24:-1.0 25:-1.0 33:-1.0 34:-1.0 35:-1.0 36:-1.0 37:-1.0 
19.0 1:-1.0 2:-1.0 3:1.0 6:-1.0 7:-1.0 9:-1.0 10:-1.0 11:-1.0 12:-1.0 13:-1.0 14:-1.0 15:-1.0 16:-1.0 17:-1.0 18:-1.0 19:0.7777777777777777 20:-0.808235294117647 21:0.5 22:0.5 23:-1.0 24:-0.19999999999999996 25:-0.7142857142857143 33:-0.99077990650916 34:-1.0 35:-1.0 36:-1.0 37:-1.0 
19.0 1:1.0 2:-1.0 3:-1.0 6:0.0 7:-0.9596203342080116 9:-0.9192406684160233 10:-1.0 11:-0.044176697731018066 12:0.513861013652553 13:-0.7647058823529411 14:-0.9995938615365926 15:-1.0 16:-1.0 17:-1.0 18:-1.0 19:-1.0 20:-1.0 21:-1.0 22:-1.0 23:-1.0 24:-1.0 25:-1.0 33:-1.0 34:-1.0 35:-1.0 36:-1.0 37:-1.0 
19.0 1:1.0 2:-1.0 3:-1.0 6:-0.24000000953674316 7:-0.2790399193763733 9:-0.2407059669494629 10:-1.0 11:0.5751608610153198 12:0.7155482633591397 13:-0.9540229885057472 14:-0.9551246063783182 15:-1.0 16:-1.0 17:-1.0 18:-1.0 19:-1.0 20:-1.0 21:-1.0 22:-1.0 23:-1.0 24:-1.0 25:-1.0 33:-1.0 34:-1.0 35:-1.0 36:-1.0 37:-1.0 
19.0 1:1.0 2:-1.0 3:-1.0 6:-0.5999999940395355 7:-0.6054967641830444 9:-0.893619678914547 10:0.5 11:-0.8232044130563736 12:0.7677782410235618 13:-0.9 14:-0.9551246063783182 15:-1.0 16:-1.0 17:-1.0 18:-1.0 19:-1.0 20:-1.0 21:-1.0 22:-1.0 23:-1.0 24:-1.0 25:-1.0 33:-1.0 34:-1.0 35:-1.0 36:-1.0 37:-1.0 
19.0 1:1.0 2:-1.0 3:-1.0 6:0.2799999713897705 7:0.6810805797576904 9:0.9185585975646973 10:-0.8571428507566452 11:0.6899924278259277 12:0.34833263846465723 13:-0.8823529411764706 14:-0.9929234310801599 15:-1.0 16:-1.0 17:-1.0 18:-1.0 19:-1.0 20:-1.0 21:-1.0 22:-1.0 23:-1.0 24:-1.0 25:-1.0 33:-1.0 34:-1.0 35:-1.0 36:-1.0 37:-1.0 
19.0 1:1.0 2:-1.0 3:-1.0 6:-0.04000002145767212 7:-0.020537495613098145 9:-0.4846777319908142 10:-1.0 11:-0.9873923091217875 12:0.513861013652553 13:-0.9365079365079365 14:-0.9929234310801599 15:-1.0 16:-1.0 17:-1.0 18:-1.0 19:-1.0 20:-1.0 21:-1.0 22:-1.0 23:-1.0 24:-1.0 25:-1.0 33:-1.0 34:-1.0 35:-1.0 36:-1.0 37:-1.0 
19.0 1:1.0 2:-1.0 3:-1.0 6:-0.880000002682209 7:0.7218012809753418 9:1.0 10:0.07692313194274902 11:1.0 12:0.9300924195295377 13:1.0 14:-0.9929234310801599 15:-1.0 16:-1.0 17:-1.0 18:-1.0 19:-1.0 20:-1.0 21:-1.0 22:-1.0 23:-1.0 24:-1.0 25:-1.0 33:-1.0 34:-1.0 35:-1.0 36:-1.0 37:-1.0 
19.0 1:-1.0 2:1.0 3:-1.0 6:-1.0 7:-1.0 9:-1.0 10:-1.0 11:-1.0 12:-1.0 13:-1.0 14:-1.0 15:-0.8571428507566452 16:-0.6326530612244898 17:-0.9999956531791907 18:-0.998877756297327 19:-1.0 20:-1.0 21:-1.0 22:-1.0 23:-1.0 24:-1.0 25:-1.0 33:-1.0 34:-0.8571428507566452 35:-0.8571428507566452 36:-0.4285714285714286 37:-0.33333333333333337 
19.0 1:1.0 2:-1.0 3:-1.0 6:0.20000004768371582 7:-0.6530815958976746 9:-0.6394406259059906 10:-1.0 11:0.6046404838562012 12:0.42788268924475004 13:-0.9746835443037974 14:-0.7355080519514742 15:-1.0 16:-1.0 17:-1.0 18:-1.0 19:-1.0 20:-1.0 21:-1.0 22:-1.0 23:-1.0 24:-1.0 25:-1.0 33:-1.0 34:-1.0 35:-1.0 36:-1.0 37:-1.0 
19.0 1:1.0 2:-1.0 3:-1.0 6:-0.880000002682209 7:-0.5827786028385162 9:-0.9742173105478287 10:-1.0 11:1.0 12:0.9437526356915684 13:1.0 14:-0.9987415411728523 15:-1.0 16:-1.0 17:-1.0 18:-1.0 19:-1.0 20:-1.0 21:-1.0 22:-1.0 23:-1.0 24:-1.0 25:-1.0 33:-1.0 34:-1.0 35:-1.0 36:-1.0 37:-1.0 
19.0 1:1.0 2:-1.0 3:-1.0 6:-0.5600000023841858 7:-0.5883242189884186 9:-0.9853085214272141 10:-0.6875 11:-0.8666666597127914 12:0.7565287921091017 13:-0.6363636363636364 14:-0.9987415411728523 15:-1.0 16:-1.0 17:-1.0 18:-1.0 19:-1.0 20:-1.0 21:-1.0 22:-1.0 23:-1.0 24:-1.0 25:-1.0 33:-1.0 34:-1.0 35:-1.0 36:-1.0 37:-1.0 
19.0 1:-1.0 2:1.0 3:-1.0 6:-1.0 7:-1.0 9:-1.0 10:-1.0 11:-1.0 12:-1.0 13:-1.0 14:-1.0 15:-0.8999999985098839 16:-0.9183673469387755 17:-0.12138728323699421 18:-0.9898951500630694 19:-1.0 20:-1.0 21:-1.0 22:-1.0 23:-1.0 24:-1.0 25:-1.0 33:-1.0 34:-0.8999999985098839 35:-1.0 36:-0.4285714285714286 37:-0.1333333333333333 
19.0 1:-1.0 2:-1.0 3:1.0 6:-1.0 7:-1.0 9:-1.0 10:-1.0 11:-1.0 12:-1.0 13:-1.0 14:-1.0 15:-1.0 16:-1.0 17:-1.0 18:-1.0 19:-1.0 20:-0.5529411764705883 21:-0.8999999985098839 22:-0.8999999985098839 23:-1.0 24:-0.6 25:-0.2571428571428571 33:-0.9898951500630694 34:-1.0 35:-1.0 36:-1.0 37:-1.0 
19.0 1:1.0 2:-1.0 3:-1.0 6:-0.07999998331069946 7:-0.4514971971511841 9:-0.8342541456222534 10:-1.0 11:-0.24444442987442017 12:0.5476094801320641 13:-0.5555555555555556 14:-0.9991075632386301 15:-1.0 16:-1.0 17:-1.0 18:-1.0 19:-1.0 20:-1.0 21:-1.0 22:-1.0 23:-1.0 24:-1.0 25:-1.0 33:-1.0 34:-1.0 35:-1.0 36:-1.0 37:-1.0 
19.0 1:-1.0 2:1.0 3:-1.0 6:-1.0 7:-1.0 9:-1.0 10:-1.0 11:-1.0 12:-1.0 13:-1.0 14:-1.0 15:-0.30000001192092896 16:-1.0 17:-0.9701734104046242 18:-0.9984633177515266 19:-1.0 20:-1.0 21:-1.0 22:-1.0 23:-1.0 24:-1.0 25:-1.0 33:-1.0 34:-0.30000001192092896 35:-1.0 36:-0.4285714285714286 37:-0.4444444444444444 
19.0 1:-1.0 2:-1.0 3:1.0 6:-1.0 7:-1.0 9:-1.0 10:-1.0 11:-1.0 12:-1.0 13:-1.0 14:-1.0 15:-1.0 16:-1.0 17:-1.0 18:-1.0 19:-1.0 20:-0.9848235294117647 21:-0.30000001192092896 22:-0.30000001192092896 23:-1.0 24:-0.6 25:-0.5238095238095237 33:-0.9984633177515266 34:-1.0 35:-1.0 36:-1.0 37:-1.0 
19.0 1:1.0 2:-1.0 3:-1.0 6:-0.7999999970197678 7:-0.7833091765642166 9:-0.8087400048971176 10:-1.0 11:-0.8637469559907913 12:0.883487405794606 13:-0.9841269841269842 14:-0.9954770019111763 15:-1.0 16:-1.0 17:-1.0 18:-1.0 19:-1.0 20:-1.0 21:-1.0 22:-1.0 23:-1.0 24:-1.0 25:-1.0 33:-1.0 34:-1.0 35:-1.0 36:-1.0 37:-1.0 
19.0 1:1.0 2:-1.0 3:-1.0 6:-0.8400000035762787 7:-0.678939163684845 9:-0.5999999940395355 10:-1.0 11:1.0 12:0.9204499492199072 13:1.0 14:-0.9954770019111763 15:-1.0 16:-1.0 17:-1.0 18:-1.0 19:-1.0 20:-1.0 21:-1.0 22:-1.0 23:-1.0 24:-1.0 25:-1.0 33:-1.0 34:-1.0 35:-1.0 36:-1.0 37:-1.0 
19.0 1:1.0 2:-1.0 3:-1.0 6:-0.1600000262260437 7:-0.3231242895126343 9:0.07565724849700928 10:0.5 11:0.46448814868927 12:0.5853756924639757 13:-0.9 14:-0.990574941529438 15:-1.0 16:-1.0 17:-1.0 18:-1.0 19:-1.0 20:-1.0 21:-1.0 22:-1.0 23:-1.0 24:-1.0 25:-1.0 33:-1.0 34:-1.0 35:-1.0 36:-1.0 37:-1.0 
19.0 1:1.0 2:-1.0 3:-1.0 6:-0.880000002682209 7:-0.5 9:0.0 10:-1.0 11:0.0 12:0.931699637606628 13:0.33333333333333326 14:-0.9999764416955521 15:-1.0 16:-1.0 17:-1.0 18:-1.0 19:-1.0 20:-1.0 21:-1.0 22:-1.0 23:-1.0 24:-1.0 25:-1.0 33:-1.0 34:-1.0 35:-1.0 36:-1.0 37:-1.0 
19.0 1:-1.0 2:-1.0 3:1.0 6:-1.0 7:-1.0 9:-1.0 10:-1.0 11:-1.0 12:-1.0 13:-1.0 14:-1.0 15:-1.0 16:-1.0 17:-1.0 18:-1.0 19:-0.7777777777777778 20:-0.9921294117647059 21:-0.444444477558136 22:-0.444444477558136 23:-1.0 24:-0.6 25:-0.6190476190476191 33:-0.999455176293723 34:-1.0 35:-1.0 36:-1.0 37:-1.0 
19.0 1:-1.0 2:-1.0 3:1.0 6:-1.0 7:-1.0 9:-1.0 10:-1.0 11:-1.0 12:-1.0 13:-1.0 14:-1.0 15:-1.0 16:-1.0 17:-1.0 18:-1.0 19:-0.33333333333333337 20:-0.9921294117647059 21:0.5 22:0.5 23:0.5 24:-0.4 25:-0.6190476190476191 33:-0.999455176293723 34:-1.0 35:-1.0 36:-1.0 37:-1.0 
19.0 1:-1.0 2:-1.0 3:1.0 6:-1.0 7:-1.0 9:-1.0 10:-1.0 11:-1.0 12:-1.0 13:-1.0 14:-1.0 15:-1.0 16:-1.0 17:-1.0 18:-1.0 19:-1.0 20:-0.9999970588235294 21:-0.2222222089767456 22:-0.2222222089767456 23:-1.0 24:-0.6 25:-0.7142857142857143 33:-0.9957764521231355 34:-1.0 35:-1.0 36:-1.0 37:-1.0 
19.0 1:1.0 2:-1.0 3:-1.0 6:-0.880000002682209 7:-0.3628363013267517 9:-0.6346336901187897 10:-0.7142857015132904 11:-0.8404255360364914 12:0.9164323231036371 13:-0.6363636363636364 14:-0.9981239663910023 15:-1.0 16:-1.0 17:-1.0 18:-1.0 19:-1.0 20:-1.0 21:-1.0 22:-1.0 23:-1.0 24:-1.0 25:-1.0 33:-1.0 34:-1.0 35:-1.0 36:-1.0 37:-1.0 
19.0 1:1.0 2:-1.0 3:-1.0 6:-0.7199999988079071 7:-0.21218609809875488 9:-0.3333333134651184 10:-0.8571428507566452 11:1.0 12:0.8698273093687057 13:1.0 14:-0.9981239663910023 15:-1.0 16:-1.0 17:-1.0 18:-1.0 19:-1.0 20:-1.0 21:-1.0 22:-1.0 23:-1.0 24:-1.0 25:-1.0 33:-1.0 34:-1.0 35:-1.0 36:-1.0 37:-1.0 
19.0 1:1.0 2:-1.0 3:-1.0 6:-0.760000005364418 7:0.44547152519226074 9:0.9819819927215576 10:-0.4285714030265808 11:1.0 12:0.8706308585391858 13:1.0 14:-0.9981239663910023 15:-1.0 16:-1.0 17:-1.0 18:-1.0 19:-1.0 20:-1.0 21:-1.0 22:-1.0 23:-1.0 24:-1.0 25:-1.0 33:-1.0 34:-1.0 35:-1.0 36:-1.0 37:-1.0 
19.0 1:-1.0 2:-1.0 3:1.0 6:-1.0 7:-1.0 9:-1.0 10:-1.0 11:-1.0 12:-1.0 13:-1.0 14:-1.0 15:-1.0 16:-1.0 17:-1.0 18:-1.0 19:-0.7777777777777778 20:-0.5047058823529411 21:-0.2857142686843872 22:-0.2857142686843872 23:-1.0 24:-0.19999999999999996 25:-0.5714285714285714 33:-0.9870080500810892 34:-1.0 35:-1.0 36:-1.0 37:-1.0 
19.0 1:1.0 2:-1.0 3:-1.0 6:0.36000001430511475 7:-0.17882651090621948 9:0.5345590114593506 10:-1.0 11:0.8547744750976562 12:0.3579751087742875 13:-0.8095238095238095 14:-0.9549587226879106 15:-1.0 16:-1.0 17:-1.0 18:-1.0 19:-1.0 20:-1.0 21:-1.0 22:-1.0 23:-1.0 24:-1.0 25:-1.0 33:-1.0 34:-1.0 35:-1.0 36:-1.0 37:-1.0 
19.0 1:1.0 2:-1.0 3:-1.0 6:-0.5999999940395355 7:-0.5720266699790955 9:-0.9627424106001854 10:-0.7999999970197678 11:-0.9585034027695656 12:0.7734029654807921 13:-0.9879154078549849 14:-0.94908839861105 15:-1.0 16:-1.0 17:-1.0 18:-1.0 19:-1.0 20:-1.0 21:-1.0 22:-1.0 23:-1.0 24:-1.0 25:-1.0 33:-1.0 34:-1.0 35:-1.0 36:-1.0 37:-1.0 
19.0 1:1.0 2:-1.0 3:-1.0 6:-0.760000005364418 7:-0.4164837598800659 9:-0.6516564786434174 10:0.04444444179534912 11:0.9925925731658936 12:0.8786661107717257 13:0.0 14:-0.94908839861105 15:-1.0 16:-1.0 17:-1.0 18:-1.0 19:-1.0 20:-1.0 21:-1.0 22:-1.0 23:-1.0 24:-1.0 25:-1.0 33:-1.0 34:-1.0 35:-1.0 36:-1.0 37:-1.0 
19.0 1:-1.0 2:-1.0 3:1.0 6:-1.0 7:-1.0 9:-1.0 10:-1.0 11:-1.0 12:-1.0 13:-1.0 14:-1.0 15:-1.0 16:-1.0 17:-1.0 18:-1.0 19:-0.5555555555555556 20:-0.7141176470588235 21:0.24920642375946045 22:0.24920642375946045 23:-0.8181818127632141 24:-0.4 25:-0.48571428571428565 33:-0.9860301613775152 34:-1.0 35:-1.0 36:-1.0 37:-1.0 
19.0 1:1.0 2:-1.0 3:-1.0 6:-0.5600000023841858 7:-0.7594405114650726 9:-0.7989183515310287 10:-0.6666666567325592 11:-0.9792883694171906 12:0.8159904728355838 13:-0.9090909090909091 14:-0.9462664060813277 15:-1.0 16:-1.0 17:-1.0 18:-1.0 19:-1.0 20:-1.0 21:-1.0 22:-1.0 23:-1.0 24:-1.0 25:-1.0 33:-1.0 34:-1.0 35:-1.0 36:-1.0 37:-1.0 
19.0 1:-1.0 2:-1.0 3:1.0 6:-1.0 7:-1.0 9:-1.0 10:-1.0 11:-1.0 12:-1.0 13:-1.0 14:-1.0 15:-1.0 16:-1.0 17:-1.0 18:-1.0 19:-0.5555555555555556 20:-0.9902352941176471 21:-1.0 22:-1.0 23:-1.0 24:0.0 25:-0.6000000000000001 33:-0.9988218769428371 34:-1.0 35:-1.0 36:-1.0 37:-1.0 
19.0 1:1.0 2:-1.0 3:-1.0 6:0.20000004768371582 7:-0.5564338564872742 9:-0.6931567192077637 10:-1.0 11:-0.6842105388641357 12:0.4961831713742524 13:-0.9272727272727272 14:-0.9980731418769133 15:-1.0 16:-1.0 17:-1.0 18:-1.0 19:-1.0 20:-1.0 21:-1.0 22:-1.0 23:-1.0 24:-1.0 25:-1.0 33:-1.0 34:-1.0 35:-1.0 36:-1.0 37:-1.0 
19.0 1:-1.0 2:1.0 3:-1.0 6:-1.0 7:-1.0 9:-1.0 10:-1.0 11:-1.0 12:-1.0 13:-1.0 14:-1.0 15:-0.5 16:-0.7551020408163265 17:-0.990242774566474 18:-0.9997024424373411 19:-1.0 20:-1.0 21:-1.0 22:-1.0 23:-1.0 24:-1.0 25:-1.0 33:-1.0 34:-0.5 35:-0.5 36:-0.7142857142857143 37:0.33333333333333326 
19.0 1:-1.0 2:-1.0 3:1.0 6:-1.0 7:-1.0 9:-1.0 10:-1.0 11:-1.0 12:-1.0 13:-1.0 14:-1.0 15:-1.0 16:-1.0 17:-1.0 18:-1.0 19:-1.0 20:-0.995035294117647 21:-0.5 22:-0.5 23:-1.0 24:-0.6 25:-0.23809523809523814 33:-0.9997024424373411 34:-1.0 35:-1.0 36:-1.0 37:-1.0 
19.0 1:1.0 2:-1.0 3:-1.0 6:-0.880000002682209 7:-0.3325757384300232 9:-0.5202033519744873 10:0.4285714626312256 11:-0.9209545105695724 12:0.9541985354355484 13:-0.8857142857142857 14:-0.8745042485389284 15:-1.0 16:-1.0 17:-1.0 18:-1.0 19:-1.0 20:-1.0 21:-1.0 22:-1.0 23:-1.0 24:-1.0 25:-1.0 33:-1.0 34:-1.0 35:-1.0 36:-1.0 37:-1.0 
19.0 1:1.0 2:-1.0 3:-1.0 6:0.0 7:-0.2492126226425171 9:-0.3534771203994751 10:-1.0 11:0.8579720258712769 12:0.5797509680067454 13:-0.9714285714285714 14:-0.8745042485389284 15:-1.0 16:-1.0 17:-1.0 18:-1.0 19:-1.0 20:-1.0 21:-1.0 22:-1.0 23:-1.0 24:-1.0 25:-1.0 33:-1.0 34:-1.0 35:-1.0 36:-1.0 37:-1.0 
19.0 1:-1.0 2:1.0 3:-1.0 6:-1.0 7:-1.0 9:-1.0 10:-1.0 11:-1.0 12:-1.0 13:-1.0 14:-1.0 15:0.6750000715255737 16:-0.061224489795918324 17:-0.9974797687861272 18:-0.9994458630679748 19:-1.0 20:-1.0 21:-1.0 22:-1.0 23:-1.0 24:-1.0 25:-1.0 33:-1.0 34:0.6750000715255737 35:0.6500000953674316 36:-0.4285714285714286 37:-0.33333333333333337 
19.0 1:-1.0 2:-1.0 3:1.0 6:-1.0 7:-1.0 9:-1.0 10:-1.0 11:-1.0 12:-1.0 13:-1.0 14:-1.0 15:-1.0 16:-1.0 17:-1.0 18:-1.0 19:-0.7777777777777778 20:-0.9987176470588235 21:0.6750000715255737 22:0.6750000715255737 23:0.6500000953674316 24:-0.6 25:-0.4285714285714286 33:-0.9994458630679748 34:-1.0 35:-1.0 36:-1.0 37:-1.0 
19.0 1:1.0 2:-1.0 3:-1.0 6:-0.5999999940395355 7:-0.15163403749465942 9:0.03141355514526367 10:-0.5555555522441864 11:0.8979592323303223 12:0.7709924377054822 13:-0.19999999999999996 14:-0.9990093775775745 15:-1.0 16:-1.0 17:-1.0 18:-1.0 19:-1.0 20:-1.0 21:-1.0 22:-1.0 23:-1.0 24:-1.0 25:-1.0 33:-1.0 34:-1.0 35:-1.0 36:-1.0 37:-1.0 
19.0 1:-1.0 2:-1.0 3:1.0 6:-1.0 7:-1.0 9:-1.0 10:-1.0 11:-1.0 12:-1.0 13:-1.0 14:-1.0 15:-1.0 16:-1.0 17:-1.0 18:-1.0 19:-1.0 20:-0.9999984823529412 21:-0.5555555522441864 22:-0.5555555522441864 23:1.0 24:-1.0 25:-1.0 33:-0.998644925653619 34:-1.0 35:-1.0 36:-1.0 37:-1.0 
19.0 1:-1.0 2:-1.0 3:1.0 6:-1.0 7:-1.0 9:-1.0 10:-1.0 11:-1.0 12:-1.0 13:-1.0 14:-1.0 15:-1.0 16:-1.0 17:-1.0 18:-1.0 19:-0.33333333333333337 20:-0.9957529411764706 21:0.0 22:0.0 23:-1.0 24:-0.8 25:-0.7142857142857143 33:-0.999808613210872 34:-1.0 35:-1.0 36:-1.0 37:-1.0 
19.0 1:-1.0 2:-1.0 3:1.0 6:-1.0 7:-1.0 9:-1.0 10:-1.0 11:-1.0 12:-1.0 13:-1.0 14:-1.0 15:-1.0 16:-1.0 17:-1.0 18:-1.0 19:-0.5555555555555556 20:-0.9981411764705882 21:0.0 22:0.0 23:-1.0 24:-0.4 25:-0.7142857142857143 33:-0.9998188577591951 34:-1.0 35:-1.0 36:-1.0 37:-1.0 
19.0 1:1.0 2:-1.0 3:-1.0 6:-0.48000001907348633 7:-0.07850909233093262 9:0.28576016426086426 10:-1.0 11:0.9230151176452637 12:0.7613499673958517 13:-0.9811320754716981 14:-0.38553753988994166 15:-1.0 16:-1.0 17:-1.0 18:-1.0 19:-1.0 20:-1.0 21:-1.0 22:-1.0 23:-1.0 24:-1.0 25:-1.0 33:-1.0 34:-1.0 35:-1.0 36:-1.0 37:-1.0 
19.0 1:1.0 2:-1.0 3:-1.0 6:-0.7999999970197678 7:-0.678552508354187 9:-0.9143267571926117 10:-0.6666666567325592 11:-0.8635161370038986 12:0.9284853211885775 13:-0.9701492537313433 14:-0.38553753988994166 15:-1.0 16:-1.0 17:-1.0 18:-1.0 19:-1.0 20:-1.0 21:-1.0 22:-1.0 23:-1.0 24:-1.0 25:-1.0 33:-1.0 34:-1.0 35:-1.0 36:-1.0 37:-1.0 
19.0 1:1.0 2:-1.0 3:-1.0 6:0.12000000476837158 7:-0.30698227882385254 9:-0.2583303451538086 10:-1.0 11:0.9015713930130005 12:0.5114503661411129 13:-0.9285714285714286 14:-0.8940575253608248 15:-1.0 16:-1.0 17:-1.0 18:-1.0 19:-1.0 20:-1.0 21:-1.0 22:-1.0 23:-1.0 24:-1.0 25:-1.0 33:-1.0 34:-1.0 35:-1.0 36:-1.0 37:-1.0 
19.0 1:1.0 2:-1.0 3:-1.0 6:-0.7999999970197678 7:-0.6537160277366638 9:-0.9517977871000767 10:0.3333333730697632 11:0.7297297716140747 12:0.9341100456458076 13:-0.6 14:-0.8940575253608248 15:-1.0 16:-1.0 17:-1.0 18:-1.0 19:-1.0 20:-1.0 21:-1.0 22:-1.0 23:-1.0 24:-1.0 25:-1.0 33:-1.0 34:-1.0 35:-1.0 36:-1.0 37:-1.0 
19.0 1:-1.0 2:-1.0 3:1.0 6:-1.0 7:-1.0 9:-1.0 10:-1.0 11:-1.0 12:-1.0 13:-1.0 14:-1.0 15:-1.0 16:-1.0 17:-1.0 18:-1.0 19:-0.5555555555555556 20:-0.4294117647058824 21:-1.0 22:-1.0 23:-1.0 24:-0.4 25:-0.5238095238095237 33:-0.9833293259105015 34:-1.0 35:-1.0 36:-1.0 37:-1.0 
19.0 1:1.0 2:-1.0 3:-1.0 6:0.20000004768371582 7:0.0 9:1.0 10:-0.9285714253783226 11:1.0 12:0.39654475054054883 13:1.0 14:-0.9999428327891245 15:-1.0 16:-1.0 17:-1.0 18:-1.0 19:-1.0 20:-1.0 21:-1.0 22:-1.0 23:-1.0 24:-1.0 25:-1.0 33:-1.0 34:-1.0 35:-1.0 36:-1.0 37:-1.0 
19.0 1:-1.0 2:1.0 3:-1.0 6:-1.0 7:-1.0 9:-1.0 10:-1.0 11:-1.0 12:-1.0 13:-1.0 14:-1.0 15:-0.9285714253783226 16:-0.9183673469387755 17:-0.7969942196531792 18:-0.9997406266629092 19:-1.0 20:-1.0 21:-1.0 22:-1.0 23:-1.0 24:-1.0 25:-1.0 33:-1.0 34:-0.9285714253783226 35:-1.0 36:-0.7142857142857143 37:-0.33333333333333337 
19.0 1:-1.0 2:-1.0 3:1.0 6:-1.0 7:-1.0 9:-1.0 10:-1.0 11:-1.0 12:-1.0 13:-1.0 14:-1.0 15:-1.0 16:-1.0 17:-1.0 18:-1.0 19:-1.0 20:-0.8967058823529411 21:-0.9285714253783226 22:-0.9285714253783226 23:-1.0 24:-0.8 25:-0.4285714285714286 33:-0.9997406266629092 34:-1.0 35:-1.0 36:-1.0 37:-1.0 
19.0 1:1.0 2:-1.0 3:-1.0 6:-0.760000005364418 7:-0.22730779647827148 9:0.1403508186340332 10:0.0 11:0.9384615421295166 12:0.8947368547090664 13:0.33333333333333326 14:-0.9954770019111763 15:-1.0 16:-1.0 17:-1.0 18:-1.0 19:-1.0 20:-1.0 21:-1.0 22:-1.0 23:-1.0 24:-1.0 25:-1.0 33:-1.0 34:-1.0 35:-1.0 36:-1.0 37:-1.0 
19.0 1:1.0 2:-1.0 3:-1.0 6:-0.8400000035762787 7:-0.7018531858921051 9:-0.8087400048971176 10:-0.38461536169052124 11:-0.8637469559907913 12:0.9043793250186969 13:-0.9841269841269842 14:-0.9954770019111763 15:-1.0 16:-1.0 17:-1.0 18:-1.0 19:-1.0 20:-1.0 21:-1.0 22:-1.0 23:-1.0 24:-1.0 25:-1.0 33:-1.0 34:-1.0 35:-1.0 36:-1.0 37:-1.0 
19.0 1:-1.0 2:-1.0 3:1.0 6:-1.0 7:-1.0 9:-1.0 10:-1.0 11:-1.0 12:-1.0 13:-1.0 14:-1.0 15:-1.0 16:-1.0 17:-1.0 18:-1.0 19:-1.0 20:-0.9955529411764706 21:0.25128209590911865 22:0.25128209590911865 23:-1.0 24:-0.6 25:-0.23809523809523814 33:-0.9991711229083993 34:-1.0 35:-1.0 36:-1.0 37:-1.0 
19.0 1:1.0 2:-1.0 3:-1.0 6:0.3999999761581421 7:-0.6584687530994415 9:-0.520552396774292 10:-1.0 11:0.15639519691467285 12:0.31779812919480555 13:-0.9859649122807017 14:-0.980518328187355 15:-1.0 16:-1.0 17:-1.0 18:-1.0 19:-1.0 20:-1.0 21:-1.0 22:-1.0 23:-1.0 24:-1.0 25:-1.0 33:-1.0 34:-1.0 35:-1.0 36:-1.0 37:-1.0 
19.0 1:-1.0 2:-1.0 3:1.0 6:-1.0 7:-1.0 9:-1.0 10:-1.0 11:-1.0 12:-1.0 13:-1.0 14:-1.0 15:-1.0 16:-1.0 17:-1.0 18:-1.0 19:-1.0 20:-0.9942117647058824 21:-0.1428571343421936 22:-0.1428571343421936 23:-1.0 24:-0.8 25:-0.7142857142857143 33:-0.9983422458167984 34:-1.0 35:-1.0 36:-1.0 37:-1.0 
19.0 1:1.0 2:-1.0 3:-1.0 6:-0.1600000262260437 7:-0.19122934341430664 9:-0.8714427649974823 10:-1.0 11:-0.7707279026508331 12:0.5580553798760444 13:-0.9753086419753086 14:-0.9921375527689241 15:-1.0 16:-1.0 17:-1.0 18:-1.0 19:-1.0 20:-1.0 21:-1.0 22:-1.0 23:-1.0 24:-1.0 25:-1.0 33:-1.0 34:-1.0 35:-1.0 36:-1.0 37:-1.0 
19.0 1:1.0 2:-1.0 3:-1.0 6:-0.3199999928474426 7:-0.09115761518478394 9:-0.5361729562282562 10:-1.0 11:0.13601303100585938 12:0.744475674288031 13:-0.9550561797752809 14:-0.9775882426932946 15:-1.0 16:-1.0 17:-1.0 18:-1.0 19:-1.0 20:-1.0 21:-1.0 22:-1.0 23:-1.0 24:-1.0 25:-1.0 33:-1.0 34:-1.0 35:-1.0 36:-1.0 37:-1.0 
19.0 1:1.0 2:-1.0 3:-1.0 6:-0.880000002682209 7:-0.1078033447265625 9:-0.7045908272266388 10:-1.0 11:0.9459459781646729 12:0.9453594945602679 13:0.33333333333333326 14:-0.9921375527689241 15:-1.0 16:-1.0 17:-1.0 18:-1.0 19:-1.0 20:-1.0 21:-1.0 22:-1.0 23:-1.0 24:-1.0 25:-1.0 33:-1.0 34:-1.0 35:-1.0 36:-1.0 37:-1.0 
19.0 1:-1.0 2:-1.0 3:1.0 6:-1.0 7:-1.0 9:-1.0 10:-1.0 11:-1.0 12:-1.0 13:-1.0 14:-1.0 15:-1.0 16:-1.0 17:-1.0 18:-1.0 19:-0.5555555555555556 20:-0.9644705882352941 21:-0.03333330154418945 22:-0.03333330154418945 23:-1.0 24:-0.19999999999999996 25:-0.5714285714285714 33:-0.999958369880905 34:-1.0 35:-1.0 36:-1.0 37:-1.0 
19.0 1:1.0 2:-1.0 3:-1.0 6:-0.880000002682209 7:0.0 9:1.0 10:-0.6071428656578064 11:1.0 12:0.9525913173584581 13:1.0 14:-0.9999633736900714 15:-1.0 16:-1.0 17:-1.0 18:-1.0 19:-1.0 20:-1.0 21:-1.0 22:-1.0 23:-1.0 24:-1.0 25:-1.0 33:-1.0 34:-1.0 35:-1.0 36:-1.0 37:-1.0 
19.0 1:1.0 2:-1.0 3:-1.0 6:-0.8400000035762787 7:0.3333333730697632 9:1.0 10:-0.8888888880610466 11:1.0 12:0.9509844584897587 13:1.0 14:-0.9999243086658723 15:-1.0 16:-1.0 17:-1.0 18:-1.0 19:-1.0 20:-1.0 21:-1.0 22:-1.0 23:-1.0 24:-1.0 25:-1.0 33:-1.0 34:-1.0 35:-1.0 36:-1.0 37:-1.0 
19.0 1:1.0 2:-1.0 3:-1.0 6:-0.3199999928474426 7:-0.5049019455909729 9:-0.6764705777168274 10:-1.0 11:-0.45454543828964233 12:0.6303737275940773 13:-0.19999999999999996 14:-0.9999243086658723 15:-1.0 16:-1.0 17:-1.0 18:-1.0 19:-1.0 20:-1.0 21:-1.0 22:-1.0 23:-1.0 24:-1.0 25:-1.0 33:-1.0 34:-1.0 35:-1.0 36:-1.0 37:-1.0 
19.0 1:-1.0 2:1.0 3:-1.0 6:-1.0 7:-1.0 9:-1.0 10:-1.0 11:-1.0 12:-1.0 13:-1.0 14:-1.0 15:-0.8888888880610466 16:-0.7959183673469388 17:-0.9994936416184971 18:-0.999969732016318 19:-1.0 20:-1.0 21:-1.0 22:-1.0 23:-1.0 24:-1.0 25:-1.0 33:-1.0 34:-0.8888888880610466 35:-1.0 36:-0.4285714285714286 37:-0.5 
19.0 1:-1.0 2:-1.0 3:1.0 6:-1.0 7:-1.0 9:-1.0 10:-1.0 11:-1.0 12:-1.0 13:-1.0 14:-1.0 15:-1.0 16:-1.0 17:-1.0 18:-1.0 19:-1.0 20:-0.9997423529411764 21:-0.8888888880610466 22:-0.8888888880610466 23:-1.0 24:-0.6 25:-0.5714285714285714 33:-0.999969732016318 34:-1.0 35:-1.0 36:-1.0 37:-1.0 
19.0 1:1.0 2:-1.0 3:-1.0 6:-0.04000002145767212 7:-0.40990149974823 9:-0.703920841217041 10:0.3999999761581421 11:0.9402985572814941 12:0.5315387361947235 13:-0.4285714285714286 14:-0.9863696035257213 15:-1.0 16:-1.0 17:-1.0 18:-1.0 19:-1.0 20:-1.0 21:-1.0 22:-1.0 23:-1.0 24:-1.0 25:-1.0 33:-1.0 34:-1.0 35:-1.0 36:-1.0 37:-1.0 
19.0 1:1.0 2:-1.0 3:-1.0 6:-0.6800000071525574 7:-0.5002285838127136 9:-0.8845750242471695 10:-1.0 11:-0.7755102068185806 12:0.8344717445482344 13:-0.9130434782608696 14:-0.9863696035257213 15:-1.0 16:-1.0 17:-1.0 18:-1.0 19:-1.0 20:-1.0 21:-1.0 22:-1.0 23:-1.0 24:-1.0 25:-1.0 33:-1.0 34:-1.0 35:-1.0 36:-1.0 37:-1.0 
19.0 1:1.0 2:-1.0 3:-1.0 6:-0.760000005364418 7:-0.19790971279144287 9:-0.42944782972335815 10:0.5 11:0.23913037776947021 12:0.8473282918036549 13:0.0 14:-0.9980850504089627 15:-1.0 16:-1.0 17:-1.0 18:-1.0 19:-1.0 20:-1.0 21:-1.0 22:-1.0 23:-1.0 24:-1.0 25:-1.0 33:-1.0 34:-1.0 35:-1.0 36:-1.0 37:-1.0 
19.0 1:1.0 2:-1.0 3:-1.0 6:0.20000004768371582 7:0.0 9:1.0 10:-0.45454543828964233 11:1.0 12:0.489754897746542 13:1.0 14:-0.9998439622030638 15:-1.0 16:-1.0 17:-1.0 18:-1.0 19:-1.0 20:-1.0 21:-1.0 22:-1.0 23:-1.0 24:-1.0 25:-1.0 33:-1.0 34:-1.0 35:-1.0 36:-1.0 37:-1.0 
19.0 1:1.0 2:-1.0 3:-1.0 6:0.12000000476837158 7:0.18764519691467285 9:1.0 10:-0.25 11:0.04210531711578369 12:0.3370831895501969 13:-0.33333333333333337 14:-0.9997431510898237 15:-1.0 16:-1.0 17:-1.0 18:-1.0 19:-1.0 20:-1.0 21:-1.0 22:-1.0 23:-1.0 24:-1.0 25:-1.0 33:-1.0 34:-1.0 35:-1.0 36:-1.0 37:-1.0 
19.0 1:-1.0 2:1.0 3:-1.0 6:-1.0 7:-1.0 9:-1.0 10:-1.0 11:-1.0 12:-1.0 13:-1.0 14:-1.0 15:-0.09821426868438721 16:-1.0 17:-0.6416184971098267 18:-0.9829102307518269 19:-1.0 20:-1.0 21:-1.0 22:-1.0 23:-1.0 24:-1.0 25:-1.0 33:-1.0 34:-0.25 35:-1.0 36:-0.7142857142857143 37:-0.33333333333333337 
19.0 1:-1.0 2:1.0 3:-1.0 6:-1.0 7:-1.0 9:-1.0 10:-1.0 11:-1.0 12:-1.0 13:-1.0 14:-1.0 15:-0.1836734414100647 16:-0.8775510204081632 17:-0.6416184971098267 18:-0.9829102307518269 19:-1.0 20:-1.0 21:-1.0 22:-1.0 23:-1.0 24:-1.0 25:-1.0 33:-1.0 34:-0.25 35:-1.0 36:-0.7142857142857143 37:-0.41666666666666663 
19.0 1:-1.0 2:-1.0 3:1.0 6:-1.0 7:-1.0 9:-1.0 10:-1.0 11:-1.0 12:-1.0 13:-1.0 14:-1.0 15:-1.0 16:-1.0 17:-1.0 18:-1.0 19:-0.33333333333333337 20:-0.8176470588235294 21:-0.25 22:-0.25 23:-1.0 24:-0.6 25:-0.4285714285714286 33:-0.9829102307518269 34:-1.0 35:-1.0 36:-1.0 37:-1.0 
19.0 1:1.0 2:-1.0 3:-1.0 6:0.3999999761581421 7:-0.7856369763612747 9:-0.7540983557701111 10:-1.0 11:-0.518382340669632 12:0.3226194242176861 13:-0.6923076923076923 14:-0.6347609642877783 15:-1.0 16:-1.0 17:-1.0 18:-1.0 19:-1.0 20:-1.0 21:-1.0 22:-1.0 23:-1.0 24:-1.0 25:-1.0 33:-1.0 34:-1.0 35:-1.0 36:-1.0 37:-1.0 
19.0 1:1.0 2:-1.0 3:-1.0 6:-0.3999999761581421 7:-0.29967164993286133 9:-0.21014082431793213 10:-1.0 11:0.795976996421814 12:0.6014464364013163 13:-0.8 14:-0.9966149722036504 15:-1.0 16:-1.0 17:-1.0 18:-1.0 19:-1.0 20:-1.0 21:-1.0 22:-1.0 23:-1.0 24:-1.0 25:-1.0 33:-1.0 34:-1.0 35:-1.0 36:-1.0 37:-1.0 
19.0 1:-1.0 2:-1.0 3:1.0 6:-1.0 7:-1.0 9:-1.0 10:-1.0 11:-1.0 12:-1.0 13:-1.0 14:-1.0 15:-1.0 16:-1.0 17:-1.0 18:-1.0 19:0.11111111111111116 20:-0.5341176470588236 21:-1.0 22:-1.0 23:-1.0 24:-0.19999999999999996 25:-0.6571428571428571 33:-0.9852385371889077 34:-1.0 35:-1.0 36:-1.0 37:-1.0 
19.0 1:1.0 2:-1.0 3:-1.0 6:-0.8400000035762787 7:-0.15634429454803467 9:-0.022536277770996094 10:-0.1111111044883728 11:0.8839670419692993 12:0.8875050319108762 13:-0.6923076923076923 14:-0.9896315745413761 15:-1.0 16:-1.0 17:-1.0 18:-1.0 19:-1.0 20:-1.0 21:-1.0 22:-1.0 23:-1.0 24:-1.0 25:-1.0 33:-1.0 34:-1.0 35:-1.0 36:-1.0 37:-1.0 
19.0 1:1.0 2:-1.0 3:-1.0 6:-0.880000002682209 7:0.36722874641418457 9:1.0 10:-0.2222222089767456 11:1.0 12:0.9365206931572478 13:1.0 14:-0.9999452327475903 15:-1.0 16:-1.0 17:-1.0 18:-1.0 19:-1.0 20:-1.0 21:-1.0 22:-1.0 23:-1.0 24:-1.0 25:-1.0 33:-1.0 34:-1.0 35:-1.0 36:-1.0 37:-1.0 
19.0 1:1.0 2:-1.0 3:-1.0 6:0.3200000524520874 7:-0.38035887479782104 9:-0.49517524242401123 10:-1.0 11:-0.971370143815875 12:0.41582957142367927 13:-0.8823529411764706 14:-0.9999452327475903 15:-1.0 16:-1.0 17:-1.0 18:-1.0 19:-1.0 20:-1.0 21:-1.0 22:-1.0 23:-1.0 24:-1.0 25:-1.0 33:-1.0 34:-1.0 35:-1.0 36:-1.0 37:-1.0 
19.0 1:1.0 2:-1.0 3:-1.0 6:-0.07999998331069946 7:-0.6746987998485565 9:-0.34939759969711304 10:-1.0 11:0.8181818723678589 12:0.45520300183268114 13:-0.19999999999999996 14:-0.9998735497149809 15:-1.0 16:-1.0 17:-1.0 18:-1.0 19:-1.0 20:-1.0 21:-1.0 22:-1.0 23:-1.0 24:-1.0 25:-1.0 33:-1.0 34:-1.0 35:-1.0 36:-1.0 37:-1.0 
19.0 1:1.0 2:-1.0 3:-1.0 6:-0.36000001430511475 7:-0.35791295766830444 9:-0.35696786642074585 10:0.20000004768371582 11:0.8530764579772949 12:0.7211732272886304 13:-0.9727891156462585 14:-0.8513965952548 15:-1.0 16:-1.0 17:-1.0 18:-1.0 19:-1.0 20:-1.0 21:-1.0 22:-1.0 23:-1.0 24:-1.0 25:-1.0 33:-1.0 34:-1.0 35:-1.0 36:-1.0 37:-1.0 
19.0 1:1.0 2:-1.0 3:-1.0 6:0.8400000333786011 7:-0.5433195531368256 9:-0.4774680733680725 10:-1.0 11:0.04838705062866211 12:0.058256297102696974 13:-0.8823529411764706 14:-0.995789388355663 15:-1.0 16:-1.0 17:-1.0 18:-1.0 19:-1.0 20:-1.0 21:-1.0 22:-1.0 23:-1.0 24:-1.0 25:-1.0 33:-1.0 34:-1.0 35:-1.0 36:-1.0 37:-1.0 
19.0 1:1.0 2:-1.0 3:-1.0 6:0.08000004291534424 7:-0.6295285224914551 9:-0.9001989886164665 10:-1.0 11:0.6585365533828735 12:0.4768983504911217 13:-0.6923076923076923 14:-0.8513965952548 15:-1.0 16:-1.0 17:-1.0 18:-1.0 19:-1.0 20:-1.0 21:-1.0 22:-1.0 23:-1.0 24:-1.0 25:-1.0 33:-1.0 34:-1.0 35:-1.0 36:-1.0 37:-1.0 
19.0 1:-1.0 2:-1.0 3:1.0 6:-1.0 7:-1.0 9:-1.0 10:-1.0 11:-1.0 12:-1.0 13:-1.0 14:-1.0 15:-1.0 16:-1.0 17:-1.0 18:-1.0 19:-0.5555555555555556 20:-0.9816470588235294 21:-0.5999999940395355 22:-0.5999999940395355 23:-1.0 24:-0.4 25:-0.6190476190476191 33:-0.9979976564641105 34:-1.0 35:-1.0 36:-1.0 37:-1.0 
19.0 1:-1.0 2:1.0 3:-1.0 6:-1.0 7:-1.0 9:-1.0 10:-1.0 11:-1.0 12:-1.0 13:-1.0 14:-1.0 15:0.0 16:-0.30612244897959184 17:-0.9995745664739885 18:-0.99997927807271 19:-1.0 20:-1.0 21:-1.0 22:-1.0 23:-1.0 24:-1.0 25:-1.0 33:-1.0 34:-1.0 35:-1.0 36:-0.4285714285714286 37:-0.6666666666666667 
19.0 1:-1.0 2:-1.0 3:1.0 6:-1.0 7:-1.0 9:-1.0 10:-1.0 11:-1.0 12:-1.0 13:-1.0 14:-1.0 15:-1.0 16:-1.0 17:-1.0 18:-1.0 19:-0.5555555555555556 20:-0.9997835294117647 21:0.0 22:-1.0 23:-1.0 24:-0.6 25:-0.7142857142857143 33:-0.99997927807271 34:-1.0 35:-1.0 36:-1.0 37:-1.0 
19.0 1:1.0 2:-1.0 3:-1.0 6:0.15999996662139893 7:-0.5471698641777039 9:-0.23251491785049438 10:-1.0 11:0.8070118427276611 12:0.4310967661905398 13:-0.9452054794520548 14:-0.9162994991617011 15:-1.0 16:-1.0 17:-1.0 18:-1.0 19:-1.0 20:-1.0 21:-1.0 22:-1.0 23:-1.0 24:-1.0 25:-1.0 33:-1.0 34:-1.0 35:-1.0 36:-1.0 37:-1.0 
19.0 1:-1.0 2:-1.0 3:1.0 6:-1.0 7:-1.0 9:-1.0 10:-1.0 11:-1.0 12:-1.0 13:-1.0 14:-1.0 15:-1.0 16:-1.0 17:-1.0 18:-1.0 19:-0.11111111111111116 20:-0.7141176470588235 21:-1.0 22:-1.0 23:-1.0 24:-0.6 25:-0.33333333333333326 33:-0.9872408807247972 34:-1.0 35:-1.0 36:-1.0 37:-1.0 
19.0 1:1.0 2:-1.0 3:-1.0 6:-0.5600000023841858 7:-0.39598822593688965 9:-0.7307692170143127 10:-1.0 11:1.0 12:0.7243873042344204 13:1.0 14:-0.9998700951755188 15:-1.0 16:-1.0 17:-1.0 18:-1.0 19:-1.0 20:-1.0 21:-1.0 22:-1.0 23:-1.0 24:-1.0 25:-1.0 33:-1.0 34:-1.0 35:-1.0 36:-1.0 37:-1.0 
19.0 1:-1.0 2:1.0 3:-1.0 6:-1.0 7:-1.0 9:-1.0 10:-1.0 11:-1.0 12:-1.0 13:-1.0 14:-1.0 15:-0.8181818127632141 16:-0.9591836734693877 17:-0.9924161849710983 18:-0.9998635612427871 19:-1.0 20:-1.0 21:-1.0 22:-1.0 23:-1.0 24:-1.0 25:-1.0 33:-1.0 34:-0.8181818127632141 35:-0.8181818127632141 36:-0.7142857142857143 37:-0.5 
19.0 1:-1.0 2:-1.0 3:1.0 6:-1.0 7:-1.0 9:-1.0 10:-1.0 11:-1.0 12:-1.0 13:-1.0 14:-1.0 15:-1.0 16:-1.0 17:-1.0 18:-1.0 19:-1.0 20:-0.9961411764705882 21:-0.8181818127632141 22:-0.8181818127632141 23:-0.8181818127632141 24:-0.8 25:-0.5714285714285714 33:-0.9998635612427871 34:-1.0 35:-1.0 36:-1.0 37:-1.0 
19.0 1:-1.0 2:-1.0 3:1.0 6:-1.0 7:-1.0 9:-1.0 10:-1.0 11:-1.0 12:-1.0 13:-1.0 14:-1.0 15:-1.0 16:-1.0 17:-1.0 18:-1.0 19:0.11111111111111116 20:-0.9010588235294118 21:-0.5 22:-0.5 23:-1.0 24:-0.4 25:-0.5714285714285714 33:-0.9928753823025328 34:-1.0 35:-1.0 36:-1.0 37:-1.0 
19.0 1:1.0 2:-1.0 3:-1.0 6:-0.7199999988079071 7:-0.2995256185531616 9:-0.5202033519744873 10:-1.0 11:-0.9209545105695724 12:0.8722378371440156 13:-0.8857142857142857 14:-0.8745042485389284 15:-1.0 16:-1.0 17:-1.0 18:-1.0 19:-1.0 20:-1.0 21:-1.0 22:-1.0 23:-1.0 24:-1.0 25:-1.0 33:-1.0 34:-1.0 35:-1.0 36:-1.0 37:-1.0 
19.0 1:1.0 2:-1.0 3:-1.0 6:0.039999961853027344 7:-0.21616250276565552 9:-0.3534771203994751 10:0.4285714626312256 11:0.8579720258712769 12:0.4487744887327103 13:-0.9714285714285714 14:-0.8745042485389284 15:-1.0 16:-1.0 17:-1.0 18:-1.0 19:-1.0 20:-1.0 21:-1.0 22:-1.0 23:-1.0 24:-1.0 25:-1.0 33:-1.0 34:-1.0 35:-1.0 36:-1.0 37:-1.0 
19.0 1:1.0 2:-1.0 3:-1.0 6:0.039999961853027344 7:-0.4316849112510681 9:-0.20739680528640747 10:-1.0 11:0.8551774024963379 12:0.45520300183268114 13:-0.9636363636363636 14:-0.9011856299788501 15:-1.0 16:-1.0 17:-1.0 18:-1.0 19:-1.0 20:-1.0 21:-1.0 22:-1.0 23:-1.0 24:-1.0 25:-1.0 33:-1.0 34:-1.0 35:-1.0 36:-1.0 37:-1.0 
19.0 1:-1.0 2:-1.0 3:1.0 6:-1.0 7:-1.0 9:-1.0 10:-1.0 11:-1.0 12:-1.0 13:-1.0 14:-1.0 15:-1.0 16:-1.0 17:-1.0 18:-1.0 19:-1.0 20:-0.9932941176470588 21:-1.0 22:-1.0 23:-1.0 24:-0.8 25:-0.7142857142857143 33:-0.9984260648485334 34:-1.0 35:-1.0 36:-1.0 37:-1.0 
19.0 1:-1.0 2:1.0 3:-1.0 6:-1.0 7:-1.0 9:-1.0 10:-1.0 11:-1.0 12:-1.0 13:-1.0 14:-1.0 15:-0.1666666865348816 16:-0.6734693877551021 17:-0.999264739884393 18:-0.9999667052179497 19:-1.0 20:-1.0 21:-1.0 22:-1.0 23:-1.0 24:-1.0 25:-1.0 33:-1.0 34:-0.1666666865348816 35:-1.0 36:-0.4285714285714286 37:-0.4444444444444444 
19.0 1:-1.0 2:-1.0 3:1.0 6:-1.0 7:-1.0 9:-1.0 10:-1.0 11:-1.0 12:-1.0 13:-1.0 14:-1.0 15:-1.0 16:-1.0 17:-1.0 18:-1.0 19:-0.7777777777777778 20:-0.9996258823529411 21:-0.1666666865348816 22:-0.1666666865348816 23:-1.0 24:-0.6 25:-0.6190476190476191 33:-0.9999667052179497 34:-1.0 35:-1.0 36:-1.0 37:-1.0 
19.0 1:1.0 2:-1.0 3:-1.0 6:0.15999996662139893 7:-0.49186640977859497 9:-0.21014082431793213 10:-1.0 11:0.795976996421814 12:0.35636801043332755 13:-0.8 14:-0.9966149722036504 15:-1.0 16:-1.0 17:-1.0 18:-1.0 19:-1.0 20:-1.0 21:-1.0 22:-1.0 23:-1.0 24:-1.0 25:-1.0 33:-1.0 34:-1.0 35:-1.0 36:-1.0 37:-1.0 
19.0 1:1.0 2:-1.0 3:-1.0 6:0.0 7:0.09714174270629883 9:1.0 10:-1.0 11:-0.8579881638288498 12:0.5419846359387037 13:-0.8181818181818181 14:-0.9999299177895691 15:-1.0 16:-1.0 17:-1.0 18:-1.0 19:-1.0 20:-1.0 21:-1.0 22:-1.0 23:-1.0 24:-1.0 25:-1.0 33:-1.0 34:-1.0 35:-1.0 36:-1.0 37:-1.0 
19.0 1:-1.0 2:1.0 3:-1.0 6:-1.0 7:-1.0 9:-1.0 10:-1.0 11:-1.0 12:-1.0 13:-1.0 14:-1.0 15:-0.6800000071525574 16:-0.6734693877551021 17:-0.7687861271676301 18:-0.9996977858244669 19:-1.0 20:-1.0 21:-1.0 22:-1.0 23:-1.0 24:-1.0 25:-1.0 33:-1.0 34:-1.0 35:-0.9285714253783226 36:-0.7142857142857143 37:0.0 
19.0 1:1.0 2:-1.0 3:-1.0 6:-0.4399999976158142 7:-0.5507997274398804 9:-0.7133050560951233 10:-1.0 11:-0.7816091924905777 12:0.7018884064054998 13:-0.8095238095238095 14:-0.9383800575669838 15:-1.0 16:-1.0 17:-1.0 18:-1.0 19:-1.0 20:-1.0 21:-1.0 22:-1.0 23:-1.0 24:-1.0 25:-1.0 33:-1.0 34:-1.0 35:-1.0 36:-1.0 37:-1.0 
19.0 1:1.0 2:-1.0 3:-1.0 6:0.0 7:-0.37931233644485474 9:-0.370330274105072 10:0.14285719394683838 11:0.8275164365768433 12:0.5910004169212058 13:-0.9518072289156626 14:-0.9383800575669838 15:-1.0 16:-1.0 17:-1.0 18:-1.0 19:-1.0 20:-1.0 21:-1.0 22:-1.0 23:-1.0 24:-1.0 25:-1.0 33:-1.0 34:-1.0 35:-1.0 36:-1.0 37:-1.0 
19.0 1:1.0 2:-1.0 3:-1.0 6:0.20000004768371582 7:-0.4841187596321106 9:-0.822182223200798 10:-1.0 11:-0.9862700225785375 12:0.34752920903030726 13:-0.8 14:-0.999613911108791 15:-1.0 16:-1.0 17:-1.0 18:-1.0 19:-1.0 20:-1.0 21:-1.0 22:-1.0 23:-1.0 24:-1.0 25:-1.0 33:-1.0 34:-1.0 35:-1.0 36:-1.0 37:-1.0 
19.0 1:-1.0 2:1.0 3:-1.0 6:-1.0 7:-1.0 9:-1.0 10:-1.0 11:-1.0 12:-1.0 13:-1.0 14:-1.0 15:-0.6615384519100189 16:-0.7551020408163265 17:-0.8936416184971099 18:-0.999880325049134 19:-1.0 20:-1.0 21:-1.0 22:-1.0 23:-1.0 24:-1.0 25:-1.0 33:-1.0 34:-0.6615384519100189 35:-1.0 36:-0.4285714285714286 37:0.0 
19.0 1:-1.0 2:-1.0 3:1.0 6:-1.0 7:-1.0 9:-1.0 10:-1.0 11:-1.0 12:-1.0 13:-1.0 14:-1.0 15:-1.0 16:-1.0 17:-1.0 18:-1.0 19:-1.0 20:-0.9458823529411765 21:-0.6615384519100189 22:-0.6615384519100189 23:-1.0 24:0.0 25:-0.5428571428571428 33:-0.999880325049134 34:-1.0 35:-1.0 36:-1.0 37:-1.0 
19.0 1:1.0 2:-1.0 3:-1.0 6:-0.7999999970197678 7:-0.3045957684516907 9:-0.09707766771316528 10:0.547619104385376 11:0.932907223701477 12:0.9196464000494271 13:-0.9595959595959596 14:-0.25507021857457146 15:-1.0 16:-1.0 17:-1.0 18:-1.0 19:-1.0 20:-1.0 21:-1.0 22:-1.0 23:-1.0 24:-1.0 25:-1.0 33:-1.0 34:-1.0 35:-1.0 36:-1.0 37:-1.0 
19.0 1:1.0 2:-1.0 3:-1.0 6:-0.6800000071525574 7:-0.6292457580566406 9:-0.7463776469230652 10:-1.0 11:0.77715003490448 12:0.7894737094181328 13:-0.9245283018867925 14:-0.25507021857457146 15:-1.0 16:-1.0 17:-1.0 18:-1.0 19:-1.0 20:-1.0 21:-1.0 22:-1.0 23:-1.0 24:-1.0 25:-1.0 33:-1.0 34:-1.0 35:-1.0 36:-1.0 37:-1.0 
19.0 1:1.0 2:-1.0 3:-1.0 6:0.0 7:-0.4158264398574829 9:-0.8587559014558792 10:-1.0 11:-0.5967741906642914 12:0.5556448521007344 13:-0.9420289855072463 14:-0.9997367306758145 15:-1.0 16:-1.0 17:-1.0 18:-1.0 19:-1.0 20:-1.0 21:-1.0 22:-1.0 23:-1.0 24:-1.0 25:-1.0 33:-1.0 34:-1.0 35:-1.0 36:-1.0 37:-1.0 
19.0 1:1.0 2:-1.0 3:-1.0 6:0.039999961853027344 7:-0.37597954273223877 9:-0.261083722114563 10:-1.0 11:0.6875 12:0.4150261419893295 13:-0.7142857142857143 14:-0.9984833541502065 15:-1.0 16:-1.0 17:-1.0 18:-1.0 19:-1.0 20:-1.0 21:-1.0 22:-1.0 23:-1.0 24:-1.0 25:-1.0 33:-1.0 34:-1.0 35:-1.0 36:-1.0 37:-1.0 
19.0 1:1.0 2:-1.0 3:-1.0 6:-0.880000002682209 7:0.1508502960205078 9:0.39382243156433105 10:0.24561405181884766 11:1.0 12:0.9204499492199072 13:1.0 14:-0.9967916219111964 15:-1.0 16:-1.0 17:-1.0 18:-1.0 19:-1.0 20:-1.0 21:-1.0 22:-1.0 23:-1.0 24:-1.0 25:-1.0 33:-1.0 34:-1.0 35:-1.0 36:-1.0 37:-1.0 
19.0 1:1.0 2:-1.0 3:-1.0 6:-0.7999999970197678 7:-0.04509568214416504 9:0.0019304752349853516 10:0.24561405181884766 11:1.0 12:0.8521494670904048 13:1.0 14:-0.9967916219111964 15:-1.0 16:-1.0 17:-1.0 18:-1.0 19:-1.0 20:-1.0 21:-1.0 22:-1.0 23:-1.0 24:-1.0 25:-1.0 33:-1.0 34:-1.0 35:-1.0 36:-1.0 37:-1.0 
19.0 1:1.0 2:-1.0 3:-1.0 6:-0.2799999713897705 7:-0.4506756067276001 9:-0.38377392292022705 10:-0.2631579041481018 11:0.8392857313156128 12:0.5869827908049357 13:-0.33333333333333337 14:-0.9977243416077545 15:-1.0 16:-1.0 17:-1.0 18:-1.0 19:-1.0 20:-1.0 21:-1.0 22:-1.0 23:-1.0 24:-1.0 25:-1.0 33:-1.0 34:-1.0 35:-1.0 36:-1.0 37:-1.0 
19.0 1:-1.0 2:-1.0 3:1.0 6:-1.0 7:-1.0 9:-1.0 10:-1.0 11:-1.0 12:-1.0 13:-1.0 14:-1.0 15:-1.0 16:-1.0 17:-1.0 18:-1.0 19:-1.0 20:-0.9999977411764706 21:0.1600877046585083 22:0.1600877046585083 23:-1.0 24:-0.8 25:-0.7142857142857143 33:-0.9999578576534889 34:-1.0 35:-1.0 36:-1.0 37:-1.0 
19.0 1:1.0 2:-1.0 3:-1.0 6:-0.8400000035762787 7:0.28235924243927 9:0.6428571939468384 10:-0.2857142686843872 11:1.0 12:0.885897933569916 13:1.0 14:-0.999567944732155 15:-1.0 16:-1.0 17:-1.0 18:-1.0 19:-1.0 20:-1.0 21:-1.0 22:-1.0 23:-1.0 24:-1.0 25:-1.0 33:-1.0 34:-1.0 35:-1.0 36:-1.0 37:-1.0 
19.0 1:1.0 2:-1.0 3:-1.0 6:0.7999999523162842 7:0.08220887184143066 9:0.3802816867828369 10:-1.0 11:-0.8673469424247742 12:0.14503817068098002 13:-0.75 14:-0.9996915264936265 15:-1.0 16:-1.0 17:-1.0 18:-1.0 19:-1.0 20:-1.0 21:-1.0 22:-1.0 23:-1.0 24:-1.0 25:-1.0 33:-1.0 34:-1.0 35:-1.0 36:-1.0 37:-1.0 
19.0 1:1.0 2:-1.0 3:-1.0 6:0.24000000953674316 7:-0.5264906287193298 9:-0.9748426359146833 10:-1.0 11:-0.8964401260018349 12:0.451988805150761 13:-0.9886039886039886 14:-0.999567944732155 15:-1.0 16:-1.0 17:-1.0 18:-1.0 19:-1.0 20:-1.0 21:-1.0 22:-1.0 23:-1.0 24:-1.0 25:-1.0 33:-1.0 34:-1.0 35:-1.0 36:-1.0 37:-1.0 
19.0 1:-1.0 2:1.0 3:-1.0 6:-1.0 7:-1.0 9:-1.0 10:-1.0 11:-1.0 12:-1.0 13:-1.0 14:-1.0 15:-0.1875 16:0.4693877551020409 17:-0.9694797687861272 18:-0.9984912574287717 19:-1.0 20:-1.0 21:-1.0 22:-1.0 23:-1.0 24:-1.0 25:-1.0 33:-1.0 34:-0.1875 35:-1.0 36:-0.1428571428571429 37:-0.5555555555555556 
19.0 1:-1.0 2:-1.0 3:1.0 6:-1.0 7:-1.0 9:-1.0 10:-1.0 11:-1.0 12:-1.0 13:-1.0 14:-1.0 15:-1.0 16:-1.0 17:-1.0 18:-1.0 19:-1.0 20:-0.9844705882352941 21:-0.1875 22:-0.1875 23:-1.0 24:-0.4 25:-0.6190476190476191 33:-0.9984912574287717 34:-1.0 35:-1.0 36:-1.0 37:-1.0 
19.0 1:1.0 2:-1.0 3:-1.0 6:0.7999999523162842 7:-0.8378378450870514 9:-0.6756756901741028 10:-0.5999999940395355 11:1.0 12:0.11128970420146889 13:1.0 14:-0.9997348585538642 15:-1.0 16:-1.0 17:-1.0 18:-1.0 19:-1.0 20:-1.0 21:-1.0 22:-1.0 23:-1.0 24:-1.0 25:-1.0 33:-1.0 34:-1.0 35:-1.0 36:-1.0 37:-1.0 
19.0 1:-1.0 2:1.0 3:-1.0 6:-1.0 7:-1.0 9:-1.0 10:-1.0 11:-1.0 12:-1.0 13:-1.0 14:-1.0 15:-0.5999999940395355 16:-0.8775510204081632 17:-0.8298265895953757 18:-0.9925959855300831 19:-1.0 20:-1.0 21:-1.0 22:-1.0 23:-1.0 24:-1.0 25:-1.0 33:-1.0 34:-0.5999999940395355 35:-0.5999999940395355 36:-0.4285714285714286 37:-0.33333333333333337 
19.0 1:1.0 2:-1.0 3:-1.0 6:0.3200000524520874 7:-0.5837000012397766 9:-0.6480859518051147 10:-1.0 11:0.19626164436340332 12:0.286460429962865 13:-0.9024390243902439 14:-0.998645213304791 15:-1.0 16:-1.0 17:-1.0 18:-1.0 19:-1.0 20:-1.0 21:-1.0 22:-1.0 23:-1.0 24:-1.0 25:-1.0 33:-1.0 34:-1.0 35:-1.0 36:-1.0 37:-1.0 
19.0 1:1.0 2:-1.0 3:-1.0 6:-0.6800000071525574 7:0.03803086280822754 9:0.5953757762908936 10:-0.19999998807907104 11:1.0 12:0.8095620794717433 13:1.0 14:-0.998645213304791 15:-1.0 16:-1.0 17:-1.0 18:-1.0 19:-1.0 20:-1.0 21:-1.0 22:-1.0 23:-1.0 24:-1.0 25:-1.0 33:-1.0 34:-1.0 35:-1.0 36:-1.0 37:-1.0 
19.0 1:1.0 2:-1.0 3:-1.0 6:-0.6399999856948853 7:-0.09578543901443481 9:0.5862069129943848 10:-1.0 11:1.0 12:0.8280434709205242 13:1.0 14:-0.9998547506183342 15:-1.0 16:-1.0 17:-1.0 18:-1.0 19:-1.0 20:-1.0 21:-1.0 22:-1.0 23:-1.0 24:-1.0 25:-1.0 33:-1.0 34:-1.0 35:-1.0 36:-1.0 37:-1.0 
19.0 1:-1.0 2:-1.0 3:1.0 6:-1.0 7:-1.0 9:-1.0 10:-1.0 11:-1.0 12:-1.0 13:-1.0 14:-1.0 15:-1.0 16:-1.0 17:-1.0 18:-1.0 19:-1.0 20:-0.8938823529411765 21:-1.0 22:-1.0 23:-1.0 24:-0.4 25:-0.6000000000000001 33:-0.9938532710061067 34:-1.0 35:-1.0 36:-1.0 37:-1.0 
19.0 1:1.0 2:-1.0 3:-1.0 6:0.08000004291534424 7:0.0 9:1.0 10:-1.0 11:1.0 12:0.5243069133965332 13:1.0 14:-0.9998896811036447 15:-1.0 16:-1.0 17:-1.0 18:-1.0 19:-1.0 20:-1.0 21:-1.0 22:-1.0 23:-1.0 24:-1.0 25:-1.0 33:-1.0 34:-1.0 35:-1.0 36:-1.0 37:-1.0 
19.0 1:-1.0 2:1.0 3:-1.0 6:-1.0 7:-1.0 9:-1.0 10:-1.0 11:-1.0 12:-1.0 13:-1.0 14:-1.0 15:-0.6363636255264282 16:0.510204081632653 17:-0.1398843930635838 18:-0.985331669446391 19:-1.0 20:-1.0 21:-1.0 22:-1.0 23:-1.0 24:-1.0 25:-1.0 33:-1.0 34:-0.6363636255264282 35:-1.0 36:-0.4285714285714286 37:-0.2222222222222222 
19.0 1:-1.0 2:-1.0 3:1.0 6:-1.0 7:-1.0 9:-1.0 10:-1.0 11:-1.0 12:-1.0 13:-1.0 14:-1.0 15:-1.0 16:-1.0 17:-1.0 18:-1.0 19:-1.0 20:-0.5623529411764706 21:-0.6363636255264282 22:-0.6363636255264282 23:-1.0 24:-0.8 25:-0.4285714285714286 33:-0.985331669446391 34:-1.0 35:-1.0 36:-1.0 37:-1.0 
19.0 1:1.0 2:-1.0 3:-1.0 6:-0.3999999761581421 7:-0.6250614523887634 9:-0.4711957573890686 10:-1.0 11:0.6894897222518921 12:0.6625150957326282 13:-0.9365079365079365 14:-0.9646253732032121 15:-1.0 16:-1.0 17:-1.0 18:-1.0 19:-1.0 20:-1.0 21:-1.0 22:-1.0 23:-1.0 24:-1.0 25:-1.0 33:-1.0 34:-1.0 35:-1.0 36:-1.0 37:-1.0 
19.0 1:-1.0 2:-1.0 3:1.0 6:-1.0 7:-1.0 9:-1.0 10:-1.0 11:-1.0 12:-1.0 13:-1.0 14:-1.0 15:-1.0 16:-1.0 17:-1.0 18:-1.0 19:0.11111111111111116 20:-0.9575294117647059 21:-0.2222222089767456 22:-0.2222222089767456 23:-1.0 24:-0.6 25:-0.7142857142857143 33:-0.9945983290659726 34:-1.0 35:-1.0 36:-1.0 37:-1.0 
19.0 1:1.0 2:-1.0 3:-1.0 6:-0.3199999928474426 7:-0.448583722114563 9:-0.5410658419132233 10:-1.0 11:-0.26809096336364746 12:0.6930493655302192 13:-0.8974358974358975 14:-0.9914211657997333 15:-1.0 16:-1.0 17:-1.0 18:-1.0 19:-1.0 20:-1.0 21:-1.0 22:-1.0 23:-1.0 24:-1.0 25:-1.0 33:-1.0 34:-1.0 35:-1.0 36:-1.0 37:-1.0 
19.0 1:1.0 2:-1.0 3:-1.0 6:-0.19999998807907104 7:-0.6530508100986481 9:-0.9499999992549419 10:-1.0 11:1.0 12:0.5178786397688231 13:1.0 14:-0.9914211657997333 15:-1.0 16:-1.0 17:-1.0 18:-1.0 19:-1.0 20:-1.0 21:-1.0 22:-1.0 23:-1.0 24:-1.0 25:-1.0 33:-1.0 34:-1.0 35:-1.0 36:-1.0 37:-1.0 
19.0 1:-1.0 2:-1.0 3:1.0 6:-1.0 7:-1.0 9:-1.0 10:-1.0 11:-1.0 12:-1.0 13:-1.0 14:-1.0 15:-1.0 16:-1.0 17:-1.0 18:-1.0 19:-0.11111111111111116 20:-0.7258823529411764 21:-1.0 22:-1.0 23:-1.0 24:-0.6 25:-0.7142857142857143 33:-0.9852851033176494 34:-1.0 35:-1.0 36:-1.0 37:-1.0 
19.0 1:1.0 2:-1.0 3:-1.0 6:0.12000000476837158 7:-0.6353718042373657 9:-0.558009147644043 10:-0.30000001192092896 11:0.8232508897781372 12:0.3973482997110289 13:-0.8461538461538461 14:-0.9810253884113225 15:-1.0 16:-1.0 17:-1.0 18:-1.0 19:-1.0 20:-1.0 21:-1.0 22:-1.0 23:-1.0 24:-1.0 25:-1.0 33:-1.0 34:-1.0 35:-1.0 36:-1.0 37:-1.0 
19.0 1:-1.0 2:-1.0 3:1.0 6:-1.0 7:-1.0 9:-1.0 10:-1.0 11:-1.0 12:-1.0 13:-1.0 14:-1.0 15:-1.0 16:-1.0 17:-1.0 18:-1.0 19:-1.0 20:-0.7294117647058824 21:-0.30000001192092896 22:-0.30000001192092896 23:-1.0 24:-0.6 25:-0.6190476190476191 33:-0.9891966581319451 34:-1.0 35:-1.0 36:-1.0 37:-1.0 
19.0 1:1.0 2:-1.0 3:-1.0 6:-0.7999999970197678 7:0.3333333730697632 9:1.0 10:-0.3333333134651184 11:1.0 12:0.8883085810813562 13:1.0 14:-0.9999400570291173 15:-1.0 16:-1.0 17:-1.0 18:-1.0 19:-1.0 20:-1.0 21:-1.0 22:-1.0 23:-1.0 24:-1.0 25:-1.0 33:-1.0 34:-1.0 35:-1.0 36:-1.0 37:-1.0 
19.0 1:1.0 2:-1.0 3:-1.0 6:-0.760000005364418 7:-0.4358974099159241 9:-0.5384615361690521 10:-1.0 11:-0.3333333134651184 12:0.8135797055880134 13:-0.4285714285714286 14:-0.9999400570291173 15:-1.0 16:-1.0 17:-1.0 18:-1.0 19:-1.0 20:-1.0 21:-1.0 22:-1.0 23:-1.0 24:-1.0 25:-1.0 33:-1.0 34:-1.0 35:-1.0 36:-1.0 37:-1.0 
19.0 1:-1.0 2:-1.0 3:1.0 6:-1.0 7:-1.0 9:-1.0 10:-1.0 11:-1.0 12:-1.0 13:-1.0 14:-1.0 15:-1.0 16:-1.0 17:-1.0 18:-1.0 19:-1.0 20:-0.9999984117647058 21:-1.0 22:-1.0 23:-1.0 24:-0.8 25:0.1428571428571428 33:-0.9984400346871559 34:-1.0 35:-1.0 36:-1.0 37:-1.0 
19.0 1:1.0 2:-1.0 3:-1.0 6:0.440000057220459 7:-0.6628180146217346 9:-0.32563602924346924 10:-1.0 11:0.34016990661621094 12:0.2904780560791351 13:-0.9310344827586207 14:-0.9824995864838789 15:-1.0 16:-1.0 17:-1.0 18:-1.0 19:-1.0 20:-1.0 21:-1.0 22:-1.0 23:-1.0 24:-1.0 25:-1.0 33:-1.0 34:-1.0 35:-1.0 36:-1.0 37:-1.0 
19.0 1:-1.0 2:-1.0 3:1.0 6:-1.0 7:-1.0 9:-1.0 10:-1.0 11:-1.0 12:-1.0 13:-1.0 14:-1.0 15:-1.0 16:-1.0 17:-1.0 18:-1.0 19:-1.0 20:-0.703529411764706 21:-1.0 22:-1.0 23:-1.0 24:-0.4 25:-0.6428571428571428 33:-0.9892897903894283 34:-1.0 35:-1.0 36:-1.0 37:-1.0 
19.0 1:-1.0 2:1.0 3:-1.0 6:-1.0 7:-1.0 9:-1.0 10:-1.0 11:-1.0 12:-1.0 13:-1.0 14:-1.0 15:0.0 16:-0.7142857142857143 17:-0.9921849710982659 18:-0.9997438862919211 19:-1.0 20:-1.0 21:-1.0 22:-1.0 23:-1.0 24:-1.0 25:-1.0 33:-1.0 34:0.0 35:-0.7999999970197678 36:-0.7142857142857143 37:-0.6666666666666667 
19.0 1:-1.0 2:-1.0 3:1.0 6:-1.0 7:-1.0 9:-1.0 10:-1.0 11:-1.0 12:-1.0 13:-1.0 14:-1.0 15:-1.0 16:-1.0 17:-1.0 18:-1.0 19:-0.5555555555555556 20:-0.9960235294117648 21:0.0 22:0.0 23:-0.7999999970197678 24:-0.8 25:-0.7142857142857143 33:-0.9997438862919211 34:-1.0 35:-1.0 36:-1.0 37:-1.0 
19.0 1:1.0 2:-1.0 3:-1.0 6:-0.760000005364418 7:-0.48871636390686035 9:-0.539170503616333 10:-1.0 11:1.0 12:0.8939333055385863 13:1.0 14:-0.9951149334675113 15:-1.0 16:-1.0 17:-1.0 18:-1.0 19:-1.0 20:-1.0 21:-1.0 22:-1.0 23:-1.0 24:-1.0 25:-1.0 33:-1.0 34:-1.0 35:-1.0 36:-1.0 37:-1.0 
19.0 1:-1.0 2:-1.0 3:1.0 6:-1.0 7:-1.0 9:-1.0 10:-1.0 11:-1.0 12:-1.0 13:-1.0 14:-1.0 15:-1.0 16:-1.0 17:-1.0 18:-1.0 19:-0.5555555555555556 20:-0.9294117647058824 21:-0.22222214937210083 22:-0.22222214937210083 23:-1.0 24:-0.4 25:-0.5238095238095237 33:-0.9907333403804184 34:-1.0 35:-1.0 36:-1.0 37:-1.0 
19.0 1:-1.0 2:1.0 3:-1.0 6:-1.0 7:-1.0 9:-1.0 10:-1.0 11:-1.0 12:-1.0 13:-1.0 14:-1.0 15:0.09290707111358643 16:-0.8775510204081632 17:-0.9988924855491329 18:-0.9999739695340334 19:-1.0 20:-1.0 21:-1.0 22:-1.0 23:-1.0 24:-1.0 25:-1.0 33:-1.0 34:0.09290707111358643 35:-1.0 36:-0.4285714285714286 37:-0.5 
19.0 1:-1.0 2:-1.0 3:1.0 6:-1.0 7:-1.0 9:-1.0 10:-1.0 11:-1.0 12:-1.0 13:-1.0 14:-1.0 15:-1.0 16:-1.0 17:-1.0 18:-1.0 19:-1.0 20:-0.9994364705882353 21:0.09290707111358643 22:0.09290707111358643 23:-1.0 24:-0.6 25:-0.5714285714285714 33:-0.9999739695340334 34:-1.0 35:-1.0 36:-1.0 37:-1.0 
19.0 1:1.0 2:-1.0 3:-1.0 6:0.2799999713897705 7:0.12491309642791748 9:0.2857142686843872 10:0.0 11:1.0 12:0.32824414867491614 13:1.0 14:-0.9999557089414917 15:-1.0 16:-1.0 17:-1.0 18:-1.0 19:-1.0 20:-1.0 21:-1.0 22:-1.0 23:-1.0 24:-1.0 25:-1.0 33:-1.0 34:-1.0 35:-1.0 36:-1.0 37:-1.0 
19.0 1:1.0 2:-1.0 3:-1.0 6:-0.7999999970197678 7:0.48205602169036865 9:1.0 10:0.3333333730697632 11:1.0 12:0.910004049475927 13:1.0 14:-0.9999557089414917 15:-1.0 16:-1.0 17:-1.0 18:-1.0 19:-1.0 20:-1.0 21:-1.0 22:-1.0 23:-1.0 24:-1.0 25:-1.0 33:-1.0 34:-1.0 35:-1.0 36:-1.0 37:-1.0 
19.0 1:1.0 2:-1.0 3:-1.0 6:-0.880000002682209 7:0.48205602169036865 9:1.0 10:0.3333333730697632 11:1.0 12:0.963841005745179 13:1.0 14:-0.9999557089414917 15:-1.0 16:-1.0 17:-1.0 18:-1.0 19:-1.0 20:-1.0 21:-1.0 22:-1.0 23:-1.0 24:-1.0 25:-1.0 33:-1.0 34:-1.0 35:-1.0 36:-1.0 37:-1.0 
19.0 1:-1.0 2:-1.0 3:1.0 6:-1.0 7:-1.0 9:-1.0 10:-1.0 11:-1.0 12:-1.0 13:-1.0 14:-1.0 15:-1.0 16:-1.0 17:-1.0 18:-1.0 19:-1.0 20:-0.9982235294117647 21:0.0 22:0.0 23:-0.3333333134651184 24:-0.8 25:-0.5714285714285714 33:-0.9997266568242867 34:-1.0 35:-1.0 36:-1.0 37:-1.0 
19.0 1:1.0 2:-1.0 3:-1.0 6:-0.3999999761581421 7:-0.3540745973587036 9:-0.48070818185806274 10:0.692307710647583 11:0.9373018741607666 12:0.7235838748000707 13:-0.9148936170212766 14:-0.8829147023013318 15:-1.0 16:-1.0 17:-1.0 18:-1.0 19:-1.0 20:-1.0 21:-1.0 22:-1.0 23:-1.0 24:-1.0 25:-1.0 33:-1.0 34:-1.0 35:-1.0 36:-1.0 37:-1.0 
19.0 1:1.0 2:-1.0 3:-1.0 6:-0.04000002145767212 7:-0.4832475781440735 9:-0.7390540838241577 10:-1.0 11:-0.9485498927533627 12:0.5460023817911039 13:-0.9852941176470589 14:-0.8829147023013318 15:-1.0 16:-1.0 17:-1.0 18:-1.0 19:-1.0 20:-1.0 21:-1.0 22:-1.0 23:-1.0 24:-1.0 25:-1.0 33:-1.0 34:-1.0 35:-1.0 36:-1.0 37:-1.0 
19.0 1:1.0 2:-1.0 3:-1.0 6:0.36000001430511475 7:-0.32238686084747314 9:0.010989069938659668 10:-1.0 11:0.6000000238418579 12:0.3129770736441859 13:-0.19999999999999996 14:-0.9997582161592616 15:-1.0 16:-1.0 17:-1.0 18:-1.0 19:-1.0 20:-1.0 21:-1.0 22:-1.0 23:-1.0 24:-1.0 25:-1.0 33:-1.0 34:-1.0 35:-1.0 36:-1.0 37:-1.0 
19.0 1:1.0 2:-1.0 3:-1.0 6:-0.8400000035762787 7:-0.3458375930786133 9:-0.6842105388641357 10:-0.9333333298563957 11:1.0 12:0.9517880076602387 13:1.0 14:-0.9991513982196321 15:-1.0 16:-1.0 17:-1.0 18:-1.0 19:-1.0 20:-1.0 21:-1.0 22:-1.0 23:-1.0 24:-1.0 25:-1.0 33:-1.0 34:-1.0 35:-1.0 36:-1.0 37:-1.0 
19.0 1:1.0 2:-1.0 3:-1.0 6:0.7999999523162842 7:0.22675848007202148 9:0.46098148822784424 10:-1.0 11:0.25663721561431885 12:0.09361186192316828 13:-0.8260869565217391 14:-0.9991513982196321 15:-1.0 16:-1.0 17:-1.0 18:-1.0 19:-1.0 20:-1.0 21:-1.0 22:-1.0 23:-1.0 24:-1.0 25:-1.0 33:-1.0 34:-1.0 35:-1.0 36:-1.0 37:-1.0 
19.0 1:-1.0 2:-1.0 3:1.0 6:-1.0 7:-1.0 9:-1.0 10:-1.0 11:-1.0 12:-1.0 13:-1.0 14:-1.0 15:-1.0 16:-1.0 17:-1.0 18:-1.0 19:-1.0 20:-0.6835294117647059 21:-0.9333333298563957 22:-1.0 23:-0.8888888880610466 24:-0.6 25:-0.2857142857142857 33:-0.9878462403984383 34:-1.0 35:-1.0 36:-1.0 37:-1.0 
19.0 1:1.0 2:-1.0 3:-1.0 6:-0.880000002682209 7:-0.037841796875 9:-0.04000002145767212 10:0.5547618865966797 11:-0.9859649119898677 12:0.9485738109783184 13:-0.7777777777777778 14:-0.9977335296851798 15:-1.0 16:-1.0 17:-1.0 18:-1.0 19:-1.0 20:-1.0 21:-1.0 22:-1.0 23:-1.0 24:-1.0 25:-1.0 33:-1.0 34:-1.0 35:-1.0 36:-1.0 37:-1.0 
19.0 1:-1.0 2:-1.0 3:1.0 6:-1.0 7:-1.0 9:-1.0 10:-1.0 11:-1.0 12:-1.0 13:-1.0 14:-1.0 15:-1.0 16:-1.0 17:-1.0 18:-1.0 19:-0.5555555555555556 20:-0.9999974 21:-0.03703707456588745 22:-1.0 23:-1.0 24:-0.6 25:-0.4285714285714286 33:-0.9999999143183231 34:-1.0 35:-1.0 36:-1.0 37:-1.0 
19.0 1:1.0 2:-1.0 3:-1.0 6:-0.760000005364418 7:-0.48371028900146484 9:-0.8272787183523178 10:-1.0 11:-0.9762470312416553 12:0.9284853211885775 13:-0.993127147766323 14:-0.9989996951511712 15:-1.0 16:-1.0 17:-1.0 18:-1.0 19:-1.0 20:-1.0 21:-1.0 22:-1.0 23:-1.0 24:-1.0 25:-1.0 33:-1.0 34:-1.0 35:-1.0 36:-1.0 37:-1.0 
19.0 1:1.0 2:-1.0 3:-1.0 6:0.559999942779541 7:0.4299290180206299 9:1.0 10:-1.0 11:0.5720338821411133 12:0.2245881017249427 13:-0.4285714285714286 14:-0.9989996951511712 15:-1.0 16:-1.0 17:-1.0 18:-1.0 19:-1.0 20:-1.0 21:-1.0 22:-1.0 23:-1.0 24:-1.0 25:-1.0 33:-1.0 34:-1.0 35:-1.0 36:-1.0 37:-1.0 
19.0 1:-1.0 2:-1.0 3:1.0 6:-1.0 7:-1.0 9:-1.0 10:-1.0 11:-1.0 12:-1.0 13:-1.0 14:-1.0 15:-1.0 16:-1.0 17:-1.0 18:-1.0 19:0.11111111111111116 20:-0.9618823529411765 21:-1.0 22:-1.0 23:-1.0 24:-0.6 25:-0.4285714285714286 33:-0.9998807907104215 34:-1.0 35:-1.0 36:-1.0 37:-1.0 
19.0 1:1.0 2:-1.0 3:-1.0 6:0.3200000524520874 7:-0.4077218770980835 9:-0.19266057014465332 10:-1.0 11:0.7272727489471436 12:0.2752109810484047 13:-0.19999999999999996 14:-0.9994069017797541 15:-1.0 16:-1.0 17:-1.0 18:-1.0 19:-1.0 20:-1.0 21:-1.0 22:-1.0 23:-1.0 24:-1.0 25:-1.0 33:-1.0 34:-1.0 35:-1.0 36:-1.0 37:-1.0 
19.0 1:1.0 2:-1.0 3:-1.0 6:-0.8400000035762787 7:0.18860840797424316 9:1.0 10:-1.0 11:1.0 12:0.8923262071976261 13:1.0 14:-0.9994069017797541 15:-1.0 16:-1.0 17:-1.0 18:-1.0 19:-1.0 20:-1.0 21:-1.0 22:-1.0 23:-1.0 24:-1.0 25:-1.0 33:-1.0 34:-1.0 35:-1.0 36:-1.0 37:-1.0 
19.0 1:1.0 2:-1.0 3:-1.0 6:0.0 7:-0.6404792070388794 9:-0.4890559911727905 10:-1.0 11:0.5442029237747192 12:0.512253915311593 13:-0.9856115107913669 14:-0.9657579104819852 15:-1.0 16:-1.0 17:-1.0 18:-1.0 19:-1.0 20:-1.0 21:-1.0 22:-1.0 23:-1.0 24:-1.0 25:-1.0 33:-1.0 34:-1.0 35:-1.0 36:-1.0 37:-1.0 
19.0 1:-1.0 2:-1.0 3:1.0 6:-1.0 7:-1.0 9:-1.0 10:-1.0 11:-1.0 12:-1.0 13:-1.0 14:-1.0 15:-1.0 16:-1.0 17:-1.0 18:-1.0 19:-0.5555555555555556 20:-0.9999970705882353 21:-1.0 22:-1.0 23:-1.0 24:-0.8 25:-0.7142857142857143 33:-0.9991292133925318 34:-1.0 35:-1.0 36:-1.0 37:-1.0 
19.0 1:1.0 2:-1.0 3:-1.0 6:-0.880000002682209 7:-0.849056601524353 9:-0.698113203048706 10:-1.0 11:0.25 12:0.9365206931572478 13:0.33333333333333326 14:-0.9999723783833627 15:-1.0 16:-1.0 17:-1.0 18:-1.0 19:-1.0 20:-1.0 21:-1.0 22:-1.0 23:-1.0 24:-1.0 25:-1.0 33:-1.0 34:-1.0 35:-1.0 36:-1.0 37:-1.0 
19.0 1:-1.0 2:1.0 3:-1.0 6:-1.0 7:-1.0 9:-1.0 10:-1.0 11:-1.0 12:-1.0 13:-1.0 14:-1.0 15:-0.4750000238418579 16:1.0 17:-0.9999968786127168 18:-0.9883119016858544 19:-1.0 20:-1.0 21:-1.0 22:-1.0 23:-1.0 24:-1.0 25:-1.0 33:-1.0 34:-0.4750000238418579 35:-1.0 36:-0.1428571428571429 37:-0.25 
19.0 1:-1.0 2:-1.0 3:1.0 6:-1.0 7:-1.0 9:-1.0 10:-1.0 11:-1.0 12:-1.0 13:-1.0 14:-1.0 15:-1.0 16:-1.0 17:-1.0 18:-1.0 19:-1.0 20:-0.9999984117647058 21:-0.4750000238418579 22:-0.4750000238418579 23:-1.0 24:-0.4 25:-0.3571428571428571 33:-0.9883119016858544 34:-1.0 35:-1.0 36:-1.0 37:-1.0 
19.0 1:1.0 2:-1.0 3:-1.0 6:-0.3199999928474426 7:-0.46950721740722656 9:-0.3929592967033386 10:-0.7999999970197678 11:-0.9045170769095421 12:0.6898354083205596 13:-0.9402985074626866 14:-0.9978854648681046 15:-1.0 16:-1.0 17:-1.0 18:-1.0 19:-1.0 20:-1.0 21:-1.0 22:-1.0 23:-1.0 24:-1.0 25:-1.0 33:-1.0 34:-1.0 35:-1.0 36:-1.0 37:-1.0 
19.0 1:1.0 2:-1.0 3:-1.0 6:0.3999999761581421 7:-0.5505018830299377 9:-0.8279498964548111 10:-1.0 11:-0.9354838728904724 12:0.325029951992996 13:-0.9946164199192463 14:-0.9999572067286079 15:-1.0 16:-1.0 17:-1.0 18:-1.0 19:-1.0 20:-1.0 21:-1.0 22:-1.0 23:-1.0 24:-1.0 25:-1.0 33:-1.0 34:-1.0 35:-1.0 36:-1.0 37:-1.0 
19.0 1:1.0 2:-1.0 3:-1.0 6:-0.2799999713897705 7:-0.26675111055374146 9:0.1525486707687378 10:-0.5 11:0.8485963344573975 12:0.6906389574910397 13:-0.9365079365079365 14:-0.893589828240806 15:-1.0 16:-1.0 17:-1.0 18:-1.0 19:-1.0 20:-1.0 21:-1.0 22:-1.0 23:-1.0 24:-1.0 25:-1.0 33:-1.0 34:-1.0 35:-1.0 36:-1.0 37:-1.0 
19.0 1:-1.0 2:-1.0 3:1.0 6:-1.0 7:-1.0 9:-1.0 10:-1.0 11:-1.0 12:-1.0 13:-1.0 14:-1.0 15:-1.0 16:-1.0 17:-1.0 18:-1.0 19:-1.0 20:-0.9307058823529412 21:-0.5 22:-0.5 23:-1.0 24:-0.6 25:-0.7142857142857143 33:-0.9932944774612074 34:-1.0 35:-1.0 36:-1.0 37:-1.0 
19.0 1:1.0 2:-1.0 3:-1.0 6:-0.3199999928474426 7:-0.5962794125080109 9:-0.3979215621948242 10:-1.0 11:0.9406495094299316 12:0.7123344258856104 13:-0.6666666666666667 14:-0.9868403758151293 15:-1.0 16:-1.0 17:-1.0 18:-1.0 19:-1.0 20:-1.0 21:-1.0 22:-1.0 23:-1.0 24:-1.0 25:-1.0 33:-1.0 34:-1.0 35:-1.0 36:-1.0 37:-1.0 
19.0 1:1.0 2:-1.0 3:-1.0 6:-0.2799999713897705 7:-0.3762931823730469 9:-0.48000001907348633 10:-1.0 11:1.0 12:0.6809963674452788 13:1.0 14:-0.9993744088252958 15:-1.0 16:-1.0 17:-1.0 18:-1.0 19:-1.0 20:-1.0 21:-1.0 22:-1.0 23:-1.0 24:-1.0 25:-1.0 33:-1.0 34:-1.0 35:-1.0 36:-1.0 37:-1.0 
19.0 1:1.0 2:-1.0 3:-1.0 6:0.039999961853027344 7:-0.39977359771728516 9:-0.5269607901573181 10:-1.0 11:-0.7324503362178802 12:0.5042185433429227 13:-0.9393939393939394 14:-0.9993744088252958 15:-1.0 16:-1.0 17:-1.0 18:-1.0 19:-1.0 20:-1.0 21:-1.0 22:-1.0 23:-1.0 24:-1.0 25:-1.0 33:-1.0 34:-1.0 35:-1.0 36:-1.0 37:-1.0 
19.0 1:-1.0 2:-1.0 3:1.0 6:-1.0 7:-1.0 9:-1.0 10:-1.0 11:-1.0 12:-1.0 13:-1.0 14:-1.0 15:-1.0 16:-1.0 17:-1.0 18:-1.0 19:-1.0 20:-0.8623529411764705 21:-0.19999998807907104 22:-0.19999998807907104 23:-1.0 24:-0.19999999999999996 25:-0.6000000000000001 33:-0.9830964952667934 34:-1.0 35:-1.0 36:-1.0 37:-1.0 
19.0 1:1.0 2:-1.0 3:-1.0 6:-0.6800000071525574 7:-0.4776073098182678 9:-0.9200000017881393 10:-1.0 11:0.384615421295166 12:0.8489353901446148 13:0.0 14:-1.0 15:-1.0 16:-1.0 17:-1.0 18:-1.0 19:-1.0 20:-1.0 21:-1.0 22:-1.0 23:-1.0 24:-1.0 25:-1.0 33:-1.0 34:-1.0 35:-1.0 36:-1.0 37:-1.0 
19.0 1:1.0 2:-1.0 3:-1.0 6:-0.8400000035762787 7:-0.43340063095092773 9:-0.8315866887569427 10:-1.0 11:-0.9833679832518101 12:0.9116111478168871 13:-0.9923224568138196 14:-1.0 15:-1.0 16:-1.0 17:-1.0 18:-1.0 19:-1.0 20:-1.0 21:-1.0 22:-1.0 23:-1.0 24:-1.0 25:-1.0 33:-1.0 34:-1.0 35:-1.0 36:-1.0 37:-1.0 
19.0 1:1.0 2:-1.0 3:-1.0 6:0.36000001430511475 7:-0.4907974600791931 9:-0.4480000138282776 10:-1.0 11:0.7478005886077881 12:0.3033346033345554 13:-0.6363636363636364 14:-0.9939531560534792 15:-1.0 16:-1.0 17:-1.0 18:-1.0 19:-1.0 20:-1.0 21:-1.0 22:-1.0 23:-1.0 24:-1.0 25:-1.0 33:-1.0 34:-1.0 35:-1.0 36:-1.0 37:-1.0 
19.0 1:-1.0 2:-1.0 3:1.0 6:-1.0 7:-1.0 9:-1.0 10:-1.0 11:-1.0 12:-1.0 13:-1.0 14:-1.0 15:-1.0 16:-1.0 17:-1.0 18:-1.0 19:-1.0 20:-0.9596470588235294 21:-0.2222222089767456 22:-0.2222222089767456 23:-1.0 24:-0.4 25:-0.7142857142857143 33:-0.9995897524057864 34:-1.0 35:-1.0 36:-1.0 37:-1.0 
19.0 1:1.0 2:-1.0 3:-1.0 6:-0.8400000035762787 7:-0.8882391601800919 9:-0.9680851064622402 10:-1.0 11:1.0 12:0.9421454176144779 13:1.0 14:-0.9994882265730438 15:-1.0 16:-1.0 17:-1.0 18:-1.0 19:-1.0 20:-1.0 21:-1.0 22:-1.0 23:-1.0 24:-1.0 25:-1.0 33:-1.0 34:-1.0 35:-1.0 36:-1.0 37:-1.0 
19.0 1:-1.0 2:-1.0 3:1.0 6:-1.0 7:-1.0 9:-1.0 10:-1.0 11:-1.0 12:-1.0 13:-1.0 14:-1.0 15:-1.0 16:-1.0 17:-1.0 18:-1.0 19:-0.33333333333333337 20:-0.8811764705882353 21:-0.46666663885116577 22:-0.46666663885116577 23:-1.0 24:-0.8 25:-0.4285714285714286 33:-0.9993154779074982 34:-1.0 35:-1.0 36:-1.0 37:-1.0 
19.0 1:-1.0 2:1.0 3:-1.0 6:-1.0 7:-1.0 9:-1.0 10:-1.0 11:-1.0 12:-1.0 13:-1.0 14:-1.0 15:-0.1785714030265808 16:-0.020408163265306145 17:-0.9999949826589596 18:-0.9979790300126139 19:-1.0 20:-1.0 21:-1.0 22:-1.0 23:-1.0 24:-1.0 25:-1.0 33:-1.0 34:-0.1785714030265808 35:-1.0 36:-0.4285714285714286 37:-0.5555555555555556 
19.0 1:-1.0 2:-1.0 3:1.0 6:-1.0 7:-1.0 9:-1.0 10:-1.0 11:-1.0 12:-1.0 13:-1.0 14:-1.0 15:-1.0 16:-1.0 17:-1.0 18:-1.0 19:-0.7777777777777778 20:-0.9999974470588235 21:-0.1785714030265808 22:-0.1785714030265808 23:-1.0 24:-0.4 25:-0.6571428571428571 33:-0.9979790300126139 34:-1.0 35:-1.0 36:-1.0 37:-1.0 
19.0 1:1.0 2:-1.0 3:-1.0 6:-0.2799999713897705 7:-0.4403006434440613 9:-0.28436052799224854 10:-1.0 11:0.8202638626098633 12:0.6625150957326282 13:-0.9466666666666667 14:-0.9299964510042069 15:-1.0 16:-1.0 17:-1.0 18:-1.0 19:-1.0 20:-1.0 21:-1.0 22:-1.0 23:-1.0 24:-1.0 25:-1.0 33:-1.0 34:-1.0 35:-1.0 36:-1.0 37:-1.0 
19.0 1:1.0 2:-1.0 3:-1.0 6:-0.36000001430511475 7:-0.7714243978261948 9:-0.9466080404818058 10:0.5555555820465088 11:0.14529919624328613 12:0.6665327218488983 13:-0.75 14:-0.9299964510042069 15:-1.0 16:-1.0 17:-1.0 18:-1.0 19:-1.0 20:-1.0 21:-1.0 22:-1.0 23:-1.0 24:-1.0 25:-1.0 33:-1.0 34:-1.0 35:-1.0 36:-1.0 37:-1.0 
19.0 1:1.0 2:-1.0 3:-1.0 6:0.48000001907348633 7:-0.7355978786945343 9:-0.4711957573890686 10:-1.0 11:0.6894897222518921 12:0.22860584757734292 13:-0.9365079365079365 14:-0.9646253732032121 15:-1.0 16:-1.0 17:-1.0 18:-1.0 19:-1.0 20:-1.0 21:-1.0 22:-1.0 23:-1.0 24:-1.0 25:-1.0 33:-1.0 34:-1.0 35:-1.0 36:-1.0 37:-1.0 
19.0 1:-1.0 2:-1.0 3:1.0 6:-1.0 7:-1.0 9:-1.0 10:-1.0 11:-1.0 12:-1.0 13:-1.0 14:-1.0 15:-1.0 16:-1.0 17:-1.0 18:-1.0 19:-0.7777777777777778 20:-0.9999984941176471 21:-0.5 22:-0.5 23:-1.0 24:-1.0 25:-0.7142857142857143 33:-0.9999999031424522 34:-1.0 35:-1.0 36:-1.0 37:-1.0 
19.0 1:1.0 2:-1.0 3:-1.0 6:-0.880000002682209 7:-0.026852011680603027 9:0.3333333730697632 10:-1.0 11:1.0 12:0.9405383192735177 13:1.0 14:-0.999772674916477 15:-1.0 16:-1.0 17:-1.0 18:-1.0 19:-1.0 20:-1.0 21:-1.0 22:-1.0 23:-1.0 24:-1.0 25:-1.0 33:-1.0 34:-1.0 35:-1.0 36:-1.0 37:-1.0 
19.0 1:1.0 2:-1.0 3:-1.0 6:-0.48000001907348633 7:-0.44146937131881714 9:-0.4445343017578125 10:-1.0 11:0.5233312845230103 12:0.7340297745440507 13:-0.9493670886075949 14:-0.9641102840851073 15:-1.0 16:-1.0 17:-1.0 18:-1.0 19:-1.0 20:-1.0 21:-1.0 22:-1.0 23:-1.0 24:-1.0 25:-1.0 33:-1.0 34:-1.0 35:-1.0 36:-1.0 37:-1.0 
19.0 1:1.0 2:-1.0 3:-1.0 6:0.559999942779541 7:-0.5669233202934265 9:-0.7468092441558838 10:-1.0 11:-0.8216560482978821 12:0.21976680670206217 13:-0.9846743295019157 14:-0.999772674916477 15:-1.0 16:-1.0 17:-1.0 18:-1.0 19:-1.0 20:-1.0 21:-1.0 22:-1.0 23:-1.0 24:-1.0 25:-1.0 33:-1.0 34:-1.0 35:-1.0 36:-1.0 37:-1.0 
19.0 1:1.0 2:-1.0 3:-1.0 6:-0.880000002682209 7:-0.3414279818534851 9:-0.49005424976348877 10:-0.5 11:1.0 12:0.9582162812879489 13:1.0 14:-0.9789000404738613 15:-1.0 16:-1.0 17:-1.0 18:-1.0 19:-1.0 20:-1.0 21:-1.0 22:-1.0 23:-1.0 24:-1.0 25:-1.0 33:-1.0 34:-1.0 35:-1.0 36:-1.0 37:-1.0 
19.0 1:1.0 2:-1.0 3:-1.0 6:-0.3199999928474426 7:-0.38328713178634644 9:-0.573772519826889 10:-1.0 11:0.3857746124267578 12:0.6038570839127564 13:-0.9806763285024155 14:-0.9789000404738613 15:-1.0 16:-1.0 17:-1.0 18:-1.0 19:-1.0 20:-1.0 21:-1.0 22:-1.0 23:-1.0 24:-1.0 25:-1.0 33:-1.0 34:-1.0 35:-1.0 36:-1.0 37:-1.0 
19.0 1:1.0 2:-1.0 3:-1.0 6:-0.36000001430511475 7:-0.5238434076309204 9:-0.5202033519744873 10:0.4285714626312256 11:-0.9209545105695724 12:0.6890318591500795 13:-0.8857142857142857 14:-0.8745042485389284 15:-1.0 16:-1.0 17:-1.0 18:-1.0 19:-1.0 20:-1.0 21:-1.0 22:-1.0 23:-1.0 24:-1.0 25:-1.0 33:-1.0 34:-1.0 35:-1.0 36:-1.0 37:-1.0 
19.0 1:1.0 2:-1.0 3:-1.0 6:-0.12000000476837158 7:-0.4404802918434143 9:-0.3534771203994751 10:-1.0 11:0.8579720258712769 12:0.6649257432440685 13:-0.9714285714285714 14:-0.8745042485389284 15:-1.0 16:-1.0 17:-1.0 18:-1.0 19:-1.0 20:-1.0 21:-1.0 22:-1.0 23:-1.0 24:-1.0 25:-1.0 33:-1.0 34:-1.0 35:-1.0 36:-1.0 37:-1.0 
19.0 1:-1.0 2:-1.0 3:1.0 6:-1.0 7:-1.0 9:-1.0 10:-1.0 11:-1.0 12:-1.0 13:-1.0 14:-1.0 15:-1.0 16:-1.0 17:-1.0 18:-1.0 19:-0.7777777777777778 20:-0.9928117647058824 21:-1.0 22:-1.0 23:-1.0 24:0.0 25:-0.6571428571428571 33:-0.9990081414578036 34:-1.0 35:-1.0 36:-1.0 37:-1.0 
19.0 1:1.0 2:-1.0 3:-1.0 6:-0.4399999976158142 7:-0.3815925717353821 9:-0.2574372887611389 10:-1.0 11:0.8326451778411865 12:0.744475674288031 13:-0.9402985074626866 14:-0.9512050509192841 15:-1.0 16:-1.0 17:-1.0 18:-1.0 19:-1.0 20:-1.0 21:-1.0 22:-1.0 23:-1.0 24:-1.0 25:-1.0 33:-1.0 34:-1.0 35:-1.0 36:-1.0 37:-1.0 
19.0 1:1.0 2:-1.0 3:-1.0 6:-0.8400000035762787 7:-0.5442306399345398 9:-0.4457831382751465 10:0.5 11:-0.3636363744735718 12:0.914021675592197 13:-0.5 14:-0.9988832101706353 15:-1.0 16:-1.0 17:-1.0 18:-1.0 19:-1.0 20:-1.0 21:-1.0 22:-1.0 23:-1.0 24:-1.0 25:-1.0 33:-1.0 34:-1.0 35:-1.0 36:-1.0 37:-1.0 
19.0 1:-1.0 2:1.0 3:-1.0 6:-1.0 7:-1.0 9:-1.0 10:-1.0 11:-1.0 12:-1.0 13:-1.0 14:-1.0 15:0.3956228494644165 16:-1.0 17:-0.9999945433526012 18:-0.9966518953434779 19:-1.0 20:-1.0 21:-1.0 22:-1.0 23:-1.0 24:-1.0 25:-1.0 33:-1.0 34:0.3956228494644165 35:-1.0 36:-0.4285714285714286 37:-0.6666666666666667 
19.0 1:-1.0 2:-1.0 3:1.0 6:-1.0 7:-1.0 9:-1.0 10:-1.0 11:-1.0 12:-1.0 13:-1.0 14:-1.0 15:-1.0 16:-1.0 17:-1.0 18:-1.0 19:-0.7777777777777778 20:-0.9999972235294118 21:0.3956228494644165 22:0.3956228494644165 23:-1.0 24:-0.6 25:-0.7142857142857143 33:-0.9966518953434779 34:-1.0 35:-1.0 36:-1.0 37:-1.0 
19.0 1:1.0 2:-1.0 3:-1.0 6:-0.3999999761581421 7:0.0 9:1.0 10:-1.0 11:1.0 12:0.5765366515886949 13:1.0 14:-0.9999736154986252 15:-1.0 16:-1.0 17:-1.0 18:-1.0 19:-1.0 20:-1.0 21:-1.0 22:-1.0 23:-1.0 24:-1.0 25:-1.0 33:-1.0 34:-1.0 35:-1.0 36:-1.0 37:-1.0 
19.0 1:1.0 2:-1.0 3:-1.0 6:-0.24000000953674316 7:-0.13413947820663452 9:0.339870810508728 10:-1.0 11:0.9312050342559814 12:0.655283272934438 13:-0.935483870967742 14:-0.8871153205224374 15:-1.0 16:-1.0 17:-1.0 18:-1.0 19:-1.0 20:-1.0 21:-1.0 22:-1.0 23:-1.0 24:-1.0 25:-1.0 33:-1.0 34:-1.0 35:-1.0 36:-1.0 37:-1.0 
19.0 1:1.0 2:-1.0 3:-1.0 6:-0.5200000107288361 7:-0.9669421501457691 9:-0.9338843002915382 10:-1.0 11:1.0 12:0.7404580481717611 13:0.33333333333333326 14:-0.9996709936847016 15:-1.0 16:-1.0 17:-1.0 18:-1.0 19:-1.0 20:-1.0 21:-1.0 22:-1.0 23:-1.0 24:-1.0 25:-1.0 33:-1.0 34:-1.0 35:-1.0 36:-1.0 37:-1.0 
19.0 1:-1.0 2:-1.0 3:1.0 6:-1.0 7:-1.0 9:-1.0 10:-1.0 11:-1.0 12:-1.0 13:-1.0 14:-1.0 15:-1.0 16:-1.0 17:-1.0 18:-1.0 19:-1.0 20:-0.9781176470588235 21:-0.6666666567325592 22:-0.6666666567325592 23:-1.0 24:-0.8 25:-0.4285714285714286 33:-0.9999880325049134 34:-1.0 35:-1.0 36:-1.0 37:-1.0 
19.0 1:1.0 2:-1.0 3:-1.0 6:-0.880000002682209 7:-0.5620197653770447 9:-0.7097315490245819 10:0.5555555820465088 11:-0.9367088600993156 12:0.9887505510855397 13:-0.9298245614035088 14:-0.8882426876799857 15:-1.0 16:-1.0 17:-1.0 18:-1.0 19:-1.0 20:-1.0 21:-1.0 22:-1.0 23:-1.0 24:-1.0 25:-1.0 33:-1.0 34:-1.0 35:-1.0 36:-1.0 37:-1.0 
19.0 1:1.0 2:-1.0 3:-1.0 6:-0.12000000476837158 7:0.14956951141357422 9:0.713447093963623 10:-0.7777777761220932 11:0.8487727642059326 12:0.6729609954766085 13:-0.95 14:-0.8882426876799857 15:-1.0 16:-1.0 17:-1.0 18:-1.0 19:-1.0 20:-1.0 21:-1.0 22:-1.0 23:-1.0 24:-1.0 25:-1.0 33:-1.0 34:-1.0 35:-1.0 36:-1.0 37:-1.0 
19.0 1:1.0 2:-1.0 3:-1.0 6:-0.6399999856948853 7:-0.518251895904541 9:-0.6221958100795746 10:-1.0 11:-0.9283154085278511 12:0.883487405794606 13:-0.8823529411764706 14:-0.8882426876799857 15:-1.0 16:-1.0 17:-1.0 18:-1.0 19:-1.0 20:-1.0 21:-1.0 22:-1.0 23:-1.0 24:-1.0 25:-1.0 33:-1.0 34:-1.0 35:-1.0 36:-1.0 37:-1.0 
19.0 1:-1.0 2:-1.0 3:1.0 6:-1.0 7:-1.0 9:-1.0 10:-1.0 11:-1.0 12:-1.0 13:-1.0 14:-1.0 15:-1.0 16:-1.0 17:-1.0 18:-1.0 19:-0.7777777777777778 20:-0.9388235294117647 21:-0.7777777761220932 22:-0.7777777761220932 23:-0.7777777761220932 24:-0.6 25:-0.7142857142857143 33:-0.9928288161737912 34:-1.0 35:-1.0 36:-1.0 37:-1.0 
19.0 1:1.0 2:-1.0 3:-1.0 6:-0.4399999976158142 7:-0.48707759380340576 9:-0.2583303451538086 10:-1.0 11:0.9015713930130005 12:0.6890318591500795 13:-0.9285714285714286 14:-0.8940575253608248 15:-1.0 16:-1.0 17:-1.0 18:-1.0 19:-1.0 20:-1.0 21:-1.0 22:-1.0 23:-1.0 24:-1.0 25:-1.0 33:-1.0 34:-1.0 35:-1.0 36:-1.0 37:-1.0 
19.0 1:1.0 2:-1.0 3:-1.0 6:-0.1600000262260437 7:-0.6872026920318604 9:-0.7748885601758957 10:-1.0 11:-0.6142131984233856 12:0.5339493837061637 13:-0.95 14:-0.9990395577215821 15:-1.0 16:-1.0 17:-1.0 18:-1.0 19:-1.0 20:-1.0 21:-1.0 22:-1.0 23:-1.0 24:-1.0 25:-1.0 33:-1.0 34:-1.0 35:-1.0 36:-1.0 37:-1.0 
19.0 1:1.0 2:-1.0 3:-1.0 6:0.36000001430511475 7:-0.09452426433563232 9:0.41046833992004395 10:-1.0 11:-0.09019607305526733 12:0.3539573629218873 13:-0.33333333333333337 14:-0.9990395577215821 15:-1.0 16:-1.0 17:-1.0 18:-1.0 19:-1.0 20:-1.0 21:-1.0 22:-1.0 23:-1.0 24:-1.0 25:-1.0 33:-1.0 34:-1.0 35:-1.0 36:-1.0 37:-1.0 
19.0 1:-1.0 2:1.0 3:-1.0 6:-1.0 7:-1.0 9:-1.0 10:-1.0 11:-1.0 12:-1.0 13:-1.0 14:-1.0 15:-0.444444477558136 16:0.4285714285714286 17:-0.8425433526011561 18:-0.9898951500630694 19:-1.0 20:-1.0 21:-1.0 22:-1.0 23:-1.0 24:-1.0 25:-1.0 33:-1.0 34:-0.444444477558136 35:-1.0 36:-0.7142857142857143 37:-0.6000000000000001 
19.0 1:-1.0 2:-1.0 3:1.0 6:-1.0 7:-1.0 9:-1.0 10:-1.0 11:-1.0 12:-1.0 13:-1.0 14:-1.0 15:-1.0 16:-1.0 17:-1.0 18:-1.0 19:-0.11111111111111116 20:-0.9198823529411765 21:-0.444444477558136 22:-0.444444477558136 23:-1.0 24:-0.8 25:-0.6190476190476191 33:-0.9898951500630694 34:-1.0 35:-1.0 36:-1.0 37:-1.0 
19.0 1:1.0 2:-1.0 3:-1.0 6:-0.3199999928474426 7:-0.5451099872589111 9:-0.7990645468235016 10:-0.25 11:-0.9251184836030006 12:0.5733226943790353 13:-0.9322033898305084 14:-0.8251077967935928 15:-1.0 16:-1.0 17:-1.0 18:-1.0 19:-1.0 20:-1.0 21:-1.0 22:-1.0 23:-1.0 24:-1.0 25:-1.0 33:-1.0 34:-1.0 35:-1.0 36:-1.0 37:-1.0 
19.0 1:1.0 2:-1.0 3:-1.0 6:-0.880000002682209 7:-0.19793623685836792 9:-0.8410212695598602 10:-1.0 11:-0.9448022097349167 12:0.9550020846060285 13:-0.9967948717948718 14:-0.9989586892616732 15:-1.0 16:-1.0 17:-1.0 18:-1.0 19:-1.0 20:-1.0 21:-1.0 22:-1.0 23:-1.0 24:-1.0 25:-1.0 33:-1.0 34:-1.0 35:-1.0 36:-1.0 37:-1.0 
19.0 1:1.0 2:-1.0 3:-1.0 6:0.2799999713897705 7:0.2183821201324463 9:-0.0083845853805542 10:-1.0 11:-0.8142695426940918 12:0.3169946997604558 13:-0.6923076923076923 14:-0.9989586892616732 15:-1.0 16:-1.0 17:-1.0 18:-1.0 19:-1.0 20:-1.0 21:-1.0 22:-1.0 23:-1.0 24:-1.0 25:-1.0 33:-1.0 34:-1.0 35:-1.0 36:-1.0 37:-1.0 
19.0 1:-1.0 2:-1.0 3:1.0 6:-1.0 7:-1.0 9:-1.0 10:-1.0 11:-1.0 12:-1.0 13:-1.0 14:-1.0 15:-1.0 16:-1.0 17:-1.0 18:-1.0 19:-1.0 20:-0.9367058823529412 21:-1.0 22:-1.0 23:-1.0 24:-0.6 25:-0.6428571428571428 33:-0.9947380274521974 34:-1.0 35:-1.0 36:-1.0 37:-1.0 
19.0 1:-1.0 2:-1.0 3:1.0 6:-1.0 7:-1.0 9:-1.0 10:-1.0 11:-1.0 12:-1.0 13:-1.0 14:-1.0 15:-1.0 16:-1.0 17:-1.0 18:-1.0 19:-1.0 20:-0.9999979058823529 21:-0.5 22:-0.5 23:-0.5 24:-0.8 25:-0.7142857142857143 33:-0.9987147748467314 34:-1.0 35:-1.0 36:-1.0 37:-1.0 
19.0 1:-1.0 2:1.0 3:-1.0 6:-1.0 7:-1.0 9:-1.0 10:-1.0 11:-1.0 12:-1.0 13:-1.0 14:-1.0 15:-0.3333333134651184 16:-1.0 17:-0.7040462427745664 18:-0.9936204403623986 19:-1.0 20:-1.0 21:-1.0 22:-1.0 23:-1.0 24:-1.0 25:-1.0 33:-1.0 34:-1.0 35:-1.0 36:-0.4285714285714286 37:-0.33333333333333337 
19.0 1:-1.0 2:-1.0 3:1.0 6:-1.0 7:-1.0 9:-1.0 10:-1.0 11:-1.0 12:-1.0 13:-1.0 14:-1.0 15:-1.0 16:-1.0 17:-1.0 18:-1.0 19:-0.7777777777777778 20:-0.5764705882352941 21:-1.0 22:-1.0 23:-1.0 24:-0.19999999999999996 25:-0.37142857142857133 33:-0.9832361936530183 34:-1.0 35:-1.0 36:-1.0 37:-1.0 
19.0 1:1.0 2:-1.0 3:-1.0 6:-0.5999999940395355 7:-0.3333333134651184 9:-0.06666666269302368 10:-0.3333333134651184 11:1.0 12:0.7541181445976615 13:1.0 14:-0.9998959979982583 15:-1.0 16:-1.0 17:-1.0 18:-1.0 19:-1.0 20:-1.0 21:-1.0 22:-1.0 23:-1.0 24:-1.0 25:-1.0 33:-1.0 34:-1.0 35:-1.0 36:-1.0 37:-1.0 
19.0 1:1.0 2:-1.0 3:-1.0 6:-0.2799999713897705 7:-0.26153844594955444 9:0.07692313194274902 10:-1.0 11:1.0 12:0.6834068952205887 13:1.0 14:-0.9998959979982583 15:-1.0 16:-1.0 17:-1.0 18:-1.0 19:-1.0 20:-1.0 21:-1.0 22:-1.0 23:-1.0 24:-1.0 25:-1.0 33:-1.0 34:-1.0 35:-1.0 36:-1.0 37:-1.0 
19.0 1:-1.0 2:-1.0 3:1.0 6:-1.0 7:-1.0 9:-1.0 10:-1.0 11:-1.0 12:-1.0 13:-1.0 14:-1.0 15:-1.0 16:-1.0 17:-1.0 18:-1.0 19:0.5555555555555556 20:-0.944 21:-0.16666662693023682 22:-0.16666662693023682 23:-1.0 24:-0.4 25:-0.4285714285714286 33:-0.9997601844369807 34:-1.0 35:-1.0 36:-1.0 37:-1.0 
19.0 1:1.0 2:-1.0 3:-1.0 6:-0.7199999988079071 7:-0.47232943773269653 9:-0.9338604658842087 10:-1.0 11:-0.8745345175266266 12:0.9333064964753275 13:-0.9788359788359788 14:-0.89261611427875 15:-1.0 16:-1.0 17:-1.0 18:-1.0 19:-1.0 20:-1.0 21:-1.0 22:-1.0 23:-1.0 24:-1.0 25:-1.0 33:-1.0 34:-1.0 35:-1.0 36:-1.0 37:-1.0 
19.0 1:1.0 2:-1.0 3:-1.0 6:-0.2799999713897705 7:-0.3729773163795471 9:-0.7351561784744263 10:-1.0 11:-0.16977131366729736 12:0.6376055503922675 13:-0.9259259259259259 14:-0.89261611427875 15:-1.0 16:-1.0 17:-1.0 18:-1.0 19:-1.0 20:-1.0 21:-1.0 22:-1.0 23:-1.0 24:-1.0 25:-1.0 33:-1.0 34:-1.0 35:-1.0 36:-1.0 37:-1.0 
19.0 1:1.0 2:-1.0 3:-1.0 6:-0.6800000071525574 7:-0.3361324071884155 9:-0.6614663600921631 10:-1.0 11:0.9409887790679932 12:0.8762555829964158 13:-0.8787878787878788 14:-0.89261611427875 15:-1.0 16:-1.0 17:-1.0 18:-1.0 19:-1.0 20:-1.0 21:-1.0 22:-1.0 23:-1.0 24:-1.0 25:-1.0 33:-1.0 34:-1.0 35:-1.0 36:-1.0 37:-1.0 
19.0 1:1.0 2:-1.0 3:-1.0 6:-0.6399999856948853 7:-0.3519169092178345 9:-0.28468239307403564 10:-1.0 11:0.7340294122695923 12:0.8336681953777543 13:-0.963302752293578 14:-0.9274676955853585 15:-1.0 16:-1.0 17:-1.0 18:-1.0 19:-1.0 20:-1.0 21:-1.0 22:-1.0 23:-1.0 24:-1.0 25:-1.0 33:-1.0 34:-1.0 35:-1.0 36:-1.0 37:-1.0 
19.0 1:1.0 2:-1.0 3:-1.0 6:0.24000000953674316 7:-0.5885918736457825 9:-0.758032351732254 10:0.5555555820465088 11:-0.3972055912017822 12:0.41984719753994937 13:-0.8666666666666667 14:-0.9274676955853585 15:-1.0 16:-1.0 17:-1.0 18:-1.0 19:-1.0 20:-1.0 21:-1.0 22:-1.0 23:-1.0 24:-1.0 25:-1.0 33:-1.0 34:-1.0 35:-1.0 36:-1.0 37:-1.0 
19.0 1:-1.0 2:-1.0 3:1.0 6:-1.0 7:-1.0 9:-1.0 10:-1.0 11:-1.0 12:-1.0 13:-1.0 14:-1.0 15:-1.0 16:-1.0 17:-1.0 18:-1.0 19:-0.7777777777777778 20:-0.9999984470588236 21:0.4945056438446045 22:0.4945056438446045 23:0.7777777910232544 24:-0.8 25:-0.7142857142857143 33:-0.9999506399035338 34:-1.0 35:-1.0 36:-1.0 37:-1.0 
19.0 1:1.0 2:-1.0 3:-1.0 6:-0.04000002145767212 7:-0.3530275225639343 9:-0.04966467618942261 10:-1.0 11:0.8128435611724854 12:0.46886309825858175 13:-0.9809523809523809 14:-0.49703088126040385 15:-1.0 16:-1.0 17:-1.0 18:-1.0 19:-1.0 20:-1.0 21:-1.0 22:-1.0 23:-1.0 24:-1.0 25:-1.0 33:-1.0 34:-1.0 35:-1.0 36:-1.0 37:-1.0 
19.0 1:-1.0 2:-1.0 3:1.0 6:-1.0 7:-1.0 9:-1.0 10:-1.0 11:-1.0 12:-1.0 13:-1.0 14:-1.0 15:-1.0 16:-1.0 17:-1.0 18:-1.0 19:-0.11111111111111116 20:-0.40117647058823525 21:-1.0 22:-1.0 23:-1.0 24:-0.19999999999999996 25:-0.7142857142857143 33:-0.995906837283612 34:-1.0 35:-1.0 36:-1.0 37:-1.0 
19.0 1:1.0 2:-1.0 3:-1.0 6:0.36000001430511475 7:0.2602083683013916 9:0.5466958284378052 10:-0.7777777761220932 11:0.8212765455245972 12:0.30735234918695586 13:-0.8095238095238095 14:-0.9898491840079551 15:-1.0 16:-1.0 17:-1.0 18:-1.0 19:-1.0 20:-1.0 21:-1.0 22:-1.0 23:-1.0 24:-1.0 25:-1.0 33:-1.0 34:-1.0 35:-1.0 36:-1.0 37:-1.0 
19.0 1:-1.0 2:1.0 3:-1.0 6:-1.0 7:-1.0 9:-1.0 10:-1.0 11:-1.0 12:-1.0 13:-1.0 14:-1.0 15:-0.7777777761220932 16:-1.0 17:-0.970635838150289 18:-0.9988265335557113 19:-1.0 20:-1.0 21:-1.0 22:-1.0 23:-1.0 24:-1.0 25:-1.0 33:-1.0 34:-0.7777777761220932 35:-0.7777777761220932 36:-0.7142857142857143 37:-0.6666666666666667 
19.0 1:-1.0 2:-1.0 3:1.0 6:-1.0 7:-1.0 9:-1.0 10:-1.0 11:-1.0 12:-1.0 13:-1.0 14:-1.0 15:-1.0 16:-1.0 17:-1.0 18:-1.0 19:-0.7777777777777778 20:-0.9850588235294118 21:-0.7777777761220932 22:-0.7777777761220932 23:-0.7777777761220932 24:-0.8 25:-0.7142857142857143 33:-0.9988265335557113 34:-1.0 35:-1.0 36:-1.0 37:-1.0 
19.0 1:1.0 2:-1.0 3:-1.0 6:-0.5200000107288361 7:0.17367041110992432 9:1.0 10:-0.8571428507566452 11:1.0 12:0.6359984520513073 13:1.0 14:-0.9999136426909816 15:-1.0 16:-1.0 17:-1.0 18:-1.0 19:-1.0 20:-1.0 21:-1.0 22:-1.0 23:-1.0 24:-1.0 25:-1.0 33:-1.0 34:-1.0 35:-1.0 36:-1.0 37:-1.0 
19.0 1:-1.0 2:1.0 3:-1.0 6:-1.0 7:-1.0 9:-1.0 10:-1.0 11:-1.0 12:-1.0 13:-1.0 14:-1.0 15:-0.8571428507566452 16:-0.5918367346938775 17:-0.9994843930635838 18:-0.9999292194843128 19:-1.0 20:-1.0 21:-1.0 22:-1.0 23:-1.0 24:-1.0 25:-1.0 33:-1.0 34:-0.8571428507566452 35:-1.0 36:-0.1428571428571429 37:-0.4444444444444444 
19.0 1:-1.0 2:-1.0 3:1.0 6:-1.0 7:-1.0 9:-1.0 10:-1.0 11:-1.0 12:-1.0 13:-1.0 14:-1.0 15:-1.0 16:-1.0 17:-1.0 18:-1.0 19:-1.0 20:-0.9997376470588235 21:-0.8571428507566452 22:-0.8571428507566452 23:-1.0 24:-0.4 25:-0.5238095238095237 33:-0.9999292194843128 34:-1.0 35:-1.0 36:-1.0 37:-1.0 
19.0 1:-1.0 2:-1.0 3:1.0 6:-1.0 7:-1.0 9:-1.0 10:-1.0 11:-1.0 12:-1.0 13:-1.0 14:-1.0 15:-1.0 16:-1.0 17:-1.0 18:-1.0 19:0.11111111111111116 20:-0.9267058823529412 21:-0.625 22:-0.625 23:-1.0 24:-0.6 25:-0.5238095238095237 33:-0.9979976564641105 34:-1.0 35:-1.0 36:-1.0 37:-1.0 
19.0 1:-1.0 2:-1.0 3:1.0 6:-1.0 7:-1.0 9:-1.0 10:-1.0 11:-1.0 12:-1.0 13:-1.0 14:-1.0 15:-1.0 16:-1.0 17:-1.0 18:-1.0 19:0.11111111111111116 20:-0.9999973058823529 21:-0.30000001192092896 22:-1.0 23:-1.0 24:-0.4 25:-0.48571428571428565 33:-0.9972945079201121 34:-1.0 35:-1.0 36:-1.0 37:-1.0 
19.0 1:1.0 2:-1.0 3:-1.0 6:-0.8400000035762787 7:-0.720758706331253 9:-0.48753541707992554 10:-0.5555555522441864 11:-0.5164920389652252 12:0.8802732091126859 13:-0.9272727272727272 14:-0.9855921670164944 15:-1.0 16:-1.0 17:-1.0 18:-1.0 19:-1.0 20:-1.0 21:-1.0 22:-1.0 23:-1.0 24:-1.0 25:-1.0 33:-1.0 34:-1.0 35:-1.0 36:-1.0 37:-1.0 
19.0 1:1.0 2:-1.0 3:-1.0 6:-0.8400000035762787 7:-0.5205287337303162 9:-0.7067171335220337 10:-1.0 11:1.0 12:0.9164323231036371 13:1.0 14:-0.9361823209141126 15:-1.0 16:-1.0 17:-1.0 18:-1.0 19:-1.0 20:-1.0 21:-1.0 22:-1.0 23:-1.0 24:-1.0 25:-1.0 33:-1.0 34:-1.0 35:-1.0 36:-1.0 37:-1.0 
19.0 1:1.0 2:-1.0 3:-1.0 6:-0.1600000262260437 7:-0.32632875442504883 9:-0.04966467618942261 10:-1.0 11:0.8128435611724854 12:0.5853756924639757 13:-0.9809523809523809 14:-0.49703088126040385 15:-1.0 16:-1.0 17:-1.0 18:-1.0 19:-1.0 20:-1.0 21:-1.0 22:-1.0 23:-1.0 24:-1.0 25:-1.0 33:-1.0 34:-1.0 35:-1.0 36:-1.0 37:-1.0 
19.0 1:-1.0 2:-1.0 3:1.0 6:-1.0 7:-1.0 9:-1.0 10:-1.0 11:-1.0 12:-1.0 13:-1.0 14:-1.0 15:-1.0 16:-1.0 17:-1.0 18:-1.0 19:-0.5555555555555556 20:-0.8411764705882353 21:-1.0 22:-1.0 23:-1.0 24:0.0 25:-0.7142857142857143 33:-0.9989289790389428 34:-1.0 35:-1.0 36:-1.0 37:-1.0 
19.0 1:1.0 2:-1.0 3:-1.0 6:-0.8400000035762787 7:0.3361680507659912 9:1.0 10:-1.0 11:1.0 12:0.8738449354849755 13:1.0 14:-0.9931429255355066 15:-1.0 16:-1.0 17:-1.0 18:-1.0 19:-1.0 20:-1.0 21:-1.0 22:-1.0 23:-1.0 24:-1.0 25:-1.0 33:-1.0 34:-1.0 35:-1.0 36:-1.0 37:-1.0 
19.0 1:-1.0 2:-1.0 3:1.0 6:-1.0 7:-1.0 9:-1.0 10:-1.0 11:-1.0 12:-1.0 13:-1.0 14:-1.0 15:-1.0 16:-1.0 17:-1.0 18:-1.0 19:-0.33333333333333337 20:-0.9743529411764706 21:-0.3333333134651184 22:-0.3333333134651184 23:-1.0 24:-0.6 25:-0.7142857142857143 33:-0.9967217445365902 34:-1.0 35:-1.0 36:-1.0 37:-1.0 
19.0 1:1.0 2:-1.0 3:-1.0 6:-0.760000005364418 7:-0.6903392672538757 9:-0.8901612535119057 10:0.5 11:-0.3592677116394043 12:0.8328646462072742 13:-0.9710144927536232 14:-0.9421233376258908 15:-1.0 16:-1.0 17:-1.0 18:-1.0 19:-1.0 20:-1.0 21:-1.0 22:-1.0 23:-1.0 24:-1.0 25:-1.0 33:-1.0 34:-1.0 35:-1.0 36:-1.0 37:-1.0 
19.0 1:1.0 2:-1.0 3:-1.0 6:-0.36000001430511475 7:-0.4385397434234619 9:-0.38656216859817505 10:-1.0 11:0.8026875257492065 12:0.6448373731904578 13:-0.948051948051948 14:-0.9421233376258908 15:-1.0 16:-1.0 17:-1.0 18:-1.0 19:-1.0 20:-1.0 21:-1.0 22:-1.0 23:-1.0 24:-1.0 25:-1.0 33:-1.0 34:-1.0 35:-1.0 36:-1.0 37:-1.0 
19.0 1:1.0 2:-1.0 3:-1.0 6:0.36000001430511475 7:-0.39930427074432373 9:-0.5 10:-1.0 11:-0.14993804693222046 12:0.2792286071646748 13:-0.9047619047619048 14:-0.9941793494419151 15:-1.0 16:-1.0 17:-1.0 18:-1.0 19:-1.0 20:-1.0 21:-1.0 22:-1.0 23:-1.0 24:-1.0 25:-1.0 33:-1.0 34:-1.0 35:-1.0 36:-1.0 37:-1.0 
19.0 1:1.0 2:-1.0 3:-1.0 6:-0.7199999988079071 7:-0.744888037443161 9:-0.489776074886322 10:-1.0 11:-0.4122806787490845 12:0.8593812898885951 13:-0.8888888888888888 14:-0.9993858131389334 15:-1.0 16:-1.0 17:-1.0 18:-1.0 19:-1.0 20:-1.0 21:-1.0 22:-1.0 23:-1.0 24:-1.0 25:-1.0 33:-1.0 34:-1.0 35:-1.0 36:-1.0 37:-1.0 
19.0 1:-1.0 2:-1.0 3:1.0 6:-1.0 7:-1.0 9:-1.0 10:-1.0 11:-1.0 12:-1.0 13:-1.0 14:-1.0 15:-1.0 16:-1.0 17:-1.0 18:-1.0 19:-1.0 20:-0.9929764705882353 21:0.11111116409301758 22:0.11111116409301758 23:0.0 24:-0.6 25:-0.4285714285714286 33:-0.9995380640028831 34:-1.0 35:-1.0 36:-1.0 37:-1.0 
19.0 1:-1.0 2:-1.0 3:1.0 6:-1.0 7:-1.0 9:-1.0 10:-1.0 11:-1.0 12:-1.0 13:-1.0 14:-1.0 15:-1.0 16:-1.0 17:-1.0 18:-1.0 19:0.33333333333333326 20:-0.9514117647058824 21:-0.1428571343421936 22:-0.1428571343421936 23:-1.0 24:-0.8 25:-0.7142857142857143 33:-0.9943189322935229 34:-1.0 35:-1.0 36:-1.0 37:-1.0 
19.0 1:1.0 2:-1.0 3:-1.0 6:-0.5600000023841858 7:-0.41861772537231445 9:-0.331134557723999 10:-1.0 11:0.7301586866378784 12:0.7838489849609025 13:-0.6923076923076923 14:-0.9912424755318984 15:-1.0 16:-1.0 17:-1.0 18:-1.0 19:-1.0 20:-1.0 21:-1.0 22:-1.0 23:-1.0 24:-1.0 25:-1.0 33:-1.0 34:-1.0 35:-1.0 36:-1.0 37:-1.0 
19.0 1:1.0 2:-1.0 3:-1.0 6:-0.5600000023841858 7:-0.7132379114627838 9:-0.5217320024967194 10:-1.0 11:0.4684814214706421 12:0.7380475203964512 13:-0.948051948051948 14:-0.7191706934658801 15:-1.0 16:-1.0 17:-1.0 18:-1.0 19:-1.0 20:-1.0 21:-1.0 22:-1.0 23:-1.0 24:-1.0 25:-1.0 33:-1.0 34:-1.0 35:-1.0 36:-1.0 37:-1.0 
19.0 1:-1.0 2:1.0 3:-1.0 6:-1.0 7:-1.0 9:-1.0 10:-1.0 11:-1.0 12:-1.0 13:-1.0 14:-1.0 15:-0.444444477558136 16:-1.0 17:-0.8658959537572255 18:-0.9997182749211132 19:-1.0 20:-1.0 21:-1.0 22:-1.0 23:-1.0 24:-1.0 25:-1.0 33:-1.0 34:-0.444444477558136 35:-1.0 36:-0.7142857142857143 37:-0.16666666666666663 
19.0 1:-1.0 2:-1.0 3:1.0 6:-1.0 7:-1.0 9:-1.0 10:-1.0 11:-1.0 12:-1.0 13:-1.0 14:-1.0 15:-1.0 16:-1.0 17:-1.0 18:-1.0 19:-1.0 20:-0.9317647058823529 21:-0.444444477558136 22:-0.444444477558136 23:-1.0 24:-0.8 25:-0.2857142857142857 33:-0.9997182749211132 34:-1.0 35:-1.0 36:-1.0 37:-1.0 
19.0 1:-1.0 2:-1.0 3:1.0 6:-1.0 7:-1.0 9:-1.0 10:-1.0 11:-1.0 12:-1.0 13:-1.0 14:-1.0 15:-1.0 16:-1.0 17:-1.0 18:-1.0 19:-1.0 20:-0.8576470588235294 21:-1.0 22:-1.0 23:-1.0 24:-0.4 25:-0.5238095238095237 33:-0.991990625856442 34:-1.0 35:-1.0 36:-1.0 37:-1.0 
19.0 1:-1.0 2:-1.0 3:1.0 6:-1.0 7:-1.0 9:-1.0 10:-1.0 11:-1.0 12:-1.0 13:-1.0 14:-1.0 15:-1.0 16:-1.0 17:-1.0 18:-1.0 19:-1.0 20:-0.9946 21:-0.9090909063816071 22:-0.9090909063816071 23:-1.0 24:-0.8 25:-0.7142857142857143 33:-0.9997164122759635 34:-1.0 35:-1.0 36:-1.0 37:-1.0 
19.0 1:1.0 2:-1.0 3:-1.0 6:0.20000004768371582 7:-0.2568473815917969 9:0.21811628341674805 10:-1.0 11:0.908820629119873 12:0.3145842917212762 13:-0.9555555555555556 14:-0.88466822026704 15:-1.0 16:-1.0 17:-1.0 18:-1.0 19:-1.0 20:-1.0 21:-1.0 22:-1.0 23:-1.0 24:-1.0 25:-1.0 33:-1.0 34:-1.0 35:-1.0 36:-1.0 37:-1.0 
19.0 1:1.0 2:-1.0 3:-1.0 6:-0.760000005364418 7:-0.42195314168930054 9:-0.8439063131809235 10:-1.0 11:-0.979513444006443 12:0.910807598646407 13:-0.9979939819458375 14:-0.9949489061951172 15:-1.0 16:-1.0 17:-1.0 18:-1.0 19:-1.0 20:-1.0 21:-1.0 22:-1.0 23:-1.0 24:-1.0 25:-1.0 33:-1.0 34:-1.0 35:-1.0 36:-1.0 37:-1.0 
19.0 1:1.0 2:-1.0 3:-1.0 6:-0.7999999970197678 7:-0.3989787697792053 9:-0.7979574948549271 10:-1.0 11:-0.9603960402309895 12:0.9333064964753275 13:-0.967479674796748 14:-0.9949489061951172 15:-1.0 16:-1.0 17:-1.0 18:-1.0 19:-1.0 20:-1.0 21:-1.0 22:-1.0 23:-1.0 24:-1.0 25:-1.0 33:-1.0 34:-1.0 35:-1.0 36:-1.0 37:-1.0 
19.0 1:1.0 2:-1.0 3:-1.0 6:-0.6399999856948853 7:-0.05427354574203491 9:0.5026530027389526 10:-1.0 11:0.991525411605835 12:0.7758136129922322 13:0.0 14:-0.9847635708710673 15:-1.0 16:-1.0 17:-1.0 18:-1.0 19:-1.0 20:-1.0 21:-1.0 22:-1.0 23:-1.0 24:-1.0 25:-1.0 33:-1.0 34:-1.0 35:-1.0 36:-1.0 37:-1.0 
19.0 1:-1.0 2:-1.0 3:1.0 6:-1.0 7:-1.0 9:-1.0 10:-1.0 11:-1.0 12:-1.0 13:-1.0 14:-1.0 15:-1.0 16:-1.0 17:-1.0 18:-1.0 19:-0.5555555555555556 20:-0.5729411764705883 21:-1.0 22:-1.0 23:-1.0 24:-0.8 25:-0.7142857142857143 33:-0.9827239662368605 34:-1.0 35:-1.0 36:-1.0 37:-1.0 
19.0 1:1.0 2:-1.0 3:-1.0 6:0.3999999761581421 7:-0.4848296046257019 9:-0.5428445339202881 10:-1.0 11:-0.33463412523269653 12:0.36842100851826776 13:-0.8709677419354839 14:-0.9941262814227335 15:-1.0 16:-1.0 17:-1.0 18:-1.0 19:-1.0 20:-1.0 21:-1.0 22:-1.0 23:-1.0 24:-1.0 25:-1.0 33:-1.0 34:-1.0 35:-1.0 36:-1.0 37:-1.0 
19.0 1:1.0 2:-1.0 3:-1.0 6:-0.2799999713897705 7:-0.25787806510925293 9:0.2314814329147339 10:-1.0 11:0.9393939971923828 12:0.6359984520513073 13:-0.33333333333333337 14:-0.9989863742665773 15:-1.0 16:-1.0 17:-1.0 18:-1.0 19:-1.0 20:-1.0 21:-1.0 22:-1.0 23:-1.0 24:-1.0 25:-1.0 33:-1.0 34:-1.0 35:-1.0 36:-1.0 37:-1.0 
19.0 1:-1.0 2:1.0 3:-1.0 6:-1.0 7:-1.0 9:-1.0 10:-1.0 11:-1.0 12:-1.0 13:-1.0 14:-1.0 15:-1.0 16:0.1428571428571428 17:-0.05895953757225436 18:-0.9975273385638201 19:-1.0 20:-1.0 21:-1.0 22:-1.0 23:-1.0 24:-1.0 25:-1.0 33:-1.0 34:-1.0 35:-1.0 36:-0.1428571428571429 37:-0.4 
19.0 1:1.0 2:-1.0 3:-1.0 6:-0.8400000035762787 7:-0.25751054286956787 9:-0.8644366264343262 10:-1.0 11:-0.3235294222831726 12:0.9381279112343381 13:-0.9245283018867925 14:-0.9911133675454057 15:-1.0 16:-1.0 17:-1.0 18:-1.0 19:-1.0 20:-1.0 21:-1.0 22:-1.0 23:-1.0 24:-1.0 25:-1.0 33:-1.0 34:-1.0 35:-1.0 36:-1.0 37:-1.0 
19.0 1:1.0 2:-1.0 3:-1.0 6:-0.7199999988079071 7:-0.2530030608177185 9:-0.8554216921329498 10:-0.7999999970197678 11:0.5483870506286621 12:0.9011651283367765 13:-0.8095238095238095 14:-0.9911133675454057 15:-1.0 16:-1.0 17:-1.0 18:-1.0 19:-1.0 20:-1.0 21:-1.0 22:-1.0 23:-1.0 24:-1.0 25:-1.0 33:-1.0 34:-1.0 35:-1.0 36:-1.0 37:-1.0 
19.0 1:-1.0 2:-1.0 3:1.0 6:-1.0 7:-1.0 9:-1.0 10:-1.0 11:-1.0 12:-1.0 13:-1.0 14:-1.0 15:-1.0 16:-1.0 17:-1.0 18:-1.0 19:-0.7777777777777778 20:-0.9409411764705883 21:-0.8666666597127914 22:-0.8666666597127914 23:-1.0 24:-0.8 25:-0.5428571428571428 33:-0.9982258304949444 34:-1.0 35:-1.0 36:-1.0 37:-1.0 
19.0 1:1.0 2:-1.0 3:-1.0 6:-0.7199999988079071 7:0.5116126537322998 9:1.0 10:0.46666669845581055 11:1.0 12:0.8433106656873848 13:1.0 14:-0.9991289616334614 15:-1.0 16:-1.0 17:-1.0 18:-1.0 19:-1.0 20:-1.0 21:-1.0 22:-1.0 23:-1.0 24:-1.0 25:-1.0 33:-1.0 34:-1.0 35:-1.0 36:-1.0 37:-1.0 
19.0 1:-1.0 2:1.0 3:-1.0 6:-1.0 7:-1.0 9:-1.0 10:-1.0 11:-1.0 12:-1.0 13:-1.0 14:-1.0 15:0.6000001430511475 16:-0.7959183673469388 17:-0.999999838150289 18:-0.9999998924322426 19:-1.0 20:-1.0 21:-1.0 22:-1.0 23:-1.0 24:-1.0 25:-1.0 33:-1.0 34:0.6000001430511475 35:0.5333333015441895 36:-0.7142857142857143 37:-0.33333333333333337 
19.0 1:1.0 2:-1.0 3:-1.0 6:-0.880000002682209 7:-0.38212478160858154 9:-0.09707766771316528 10:0.3809523582458496 11:0.932907223701477 12:0.964644554915659 13:-0.9595959595959596 14:-0.25507021857457146 15:-1.0 16:-1.0 17:-1.0 18:-1.0 19:-1.0 20:-1.0 21:-1.0 22:-1.0 23:-1.0 24:-1.0 25:-1.0 33:-1.0 34:-1.0 35:-1.0 36:-1.0 37:-1.0 
19.0 1:1.0 2:-1.0 3:-1.0 6:-0.2799999713897705 7:-0.7067748010158539 9:-0.7463776469230652 10:-1.0 11:0.77715003490448 12:0.6665327218488983 13:-0.9245283018867925 14:-0.25507021857457146 15:-1.0 16:-1.0 17:-1.0 18:-1.0 19:-1.0 20:-1.0 21:-1.0 22:-1.0 23:-1.0 24:-1.0 25:-1.0 33:-1.0 34:-1.0 35:-1.0 36:-1.0 37:-1.0 
19.0 1:1.0 2:-1.0 3:-1.0 6:0.24000000953674316 7:-0.821765810251236 9:-0.962615393102169 10:-1.0 11:0.8591716289520264 12:0.3611891857200775 13:-0.75 14:-0.9850717568844867 15:-1.0 16:-1.0 17:-1.0 18:-1.0 19:-1.0 20:-1.0 21:-1.0 22:-1.0 23:-1.0 24:-1.0 25:-1.0 33:-1.0 34:-1.0 35:-1.0 36:-1.0 37:-1.0 
19.0 1:1.0 2:-1.0 3:-1.0 6:0.5199999809265137 7:-0.5433945655822754 9:-0.6551724076271057 10:-1.0 11:-0.04721027612686157 12:0.2245881017249427 13:-0.7142857142857143 14:-0.9966390185310433 15:-1.0 16:-1.0 17:-1.0 18:-1.0 19:-1.0 20:-1.0 21:-1.0 22:-1.0 23:-1.0 24:-1.0 25:-1.0 33:-1.0 34:-1.0 35:-1.0 36:-1.0 37:-1.0 
19.0 1:-1.0 2:1.0 3:-1.0 6:-1.0 7:-1.0 9:-1.0 10:-1.0 11:-1.0 12:-1.0 13:-1.0 14:-1.0 15:-0.3333333134651184 16:-0.8775510204081632 17:-0.9975953757225433 18:-0.9999950639903534 19:-1.0 20:-1.0 21:-1.0 22:-1.0 23:-1.0 24:-1.0 25:-1.0 33:-1.0 34:-0.3333333134651184 35:-1.0 36:-0.4285714285714286 37:-0.6666666666666667 
19.0 1:-1.0 2:-1.0 3:1.0 6:-1.0 7:-1.0 9:-1.0 10:-1.0 11:-1.0 12:-1.0 13:-1.0 14:-1.0 15:-1.0 16:-1.0 17:-1.0 18:-1.0 19:-1.0 20:-0.9987764705882353 21:-0.3333333134651184 22:-0.3333333134651184 23:-1.0 24:-0.6 25:-0.7142857142857143 33:-0.9999950639903534 34:-1.0 35:-1.0 36:-1.0 37:-1.0 
19.0 1:-1.0 2:-1.0 3:1.0 6:-1.0 7:-1.0 9:-1.0 10:-1.0 11:-1.0 12:-1.0 13:-1.0 14:-1.0 15:-1.0 16:-1.0 17:-1.0 18:-1.0 19:-0.7777777777777778 20:-0.9987764705882353 21:-1.0 22:-1.0 23:-1.0 24:-0.8 25:-0.7142857142857143 33:-0.9999950639903534 34:-1.0 35:-1.0 36:-1.0 37:-1.0 
